-4.250983595848083496e-01
-7.797782123088836670e-02
-2.340216487646102905e-01
-1.125823482871055603e-01
-2.176727056503295898e-01
-1.056365519762039185e-01
-3.366052508354187012e-01
-1.658507436513900757e-01
-4.225449562072753906e-01
-2.821320593357086182e-01
-3.193652331829071045e-01
-4.586930200457572937e-02
1.390322893857955933e-01
-1.273014545440673828e-01
-2.053609341382980347e-01
-1.593406051397323608e-01
-1.842600256204605103e-01
-2.695780992507934570e-01
-3.116929531097412109e-01
-1.351093798875808716e-01
-2.273335456848144531e-01
-3.570953011512756348e-01
-2.505402266979217529e-01
-3.471462130546569824e-01
-3.272000849246978760e-01
-1.499761939048767090e-01
-8.795395493507385254e-02
-1.220082417130470276e-01
-1.158290803432464600e-01
-1.223495751619338989e-01
-1.566781252622604370e-01
-1.173112392425537109e-01
-1.904501914978027344e-01
-2.563509345054626465e-01
-2.710751891136169434e-01
-2.882925271987915039e-01
-1.629111915826797485e-01
-1.041319221258163452e-01
3.742021694779396057e-02
-1.506034433841705322e-01
-1.168008670210838318e-01
-4.014813154935836792e-02
-3.745630681514739990e-01
-7.700920850038528442e-02
-3.228262960910797119e-01
-1.101785600185394287e-01
-9.767577797174453735e-02
-2.454691976308822632e-01
-2.481015920639038086e-01
-4.526144266128540039e-01
-3.425331413745880127e-01
-2.224826812744140625e-01
-2.889918088912963867e-01
-3.581154942512512207e-01
-2.739994525909423828e-01
-2.339739799499511719e-01
-1.664711683988571167e-01
-1.679206639528274536e-01
-2.572174668312072754e-01
-2.175703197717666626e-01
-4.155887663364410400e-01
-3.351249098777770996e-01
-4.380469620227813721e-01
-1.992400735616683960e-01
-3.664720952510833740e-01
-4.105113148689270020e-01
-1.969666033983230591e-01
-1.386311650276184082e-01
-1.882585585117340088e-01
-1.363362222909927368e-01
-1.995077729225158691e-01
-2.231330573558807373e-01
-4.385977685451507568e-01
-1.855378895998001099e-01
-1.468738168478012085e-01
-1.176331043243408203e-01
-1.755509376525878906e-01
-1.826289743185043335e-01
-2.213425785303115845e-01
-1.034075617790222168e-01
-2.638889253139495850e-01
-1.233689486980438232e-01
-1.008651033043861389e-01
-4.171605780720710754e-02
-2.150445878505706787e-01
-1.194091513752937317e-01
-1.428618580102920532e-01
-4.147458672523498535e-01
-1.648362576961517334e-01
-3.421374559402465820e-01
-2.251449078321456909e-01
-3.383015096187591553e-01
-3.011980056762695312e-01
-2.276717424392700195e-01
-3.605026006698608398e-01
-2.690077722072601318e-01
-4.176891222596168518e-02
-1.920544952154159546e-01
-1.466718614101409912e-01
-1.233792528510093689e-01
-1.958569437265396118e-01
-2.160461246967315674e-01
-2.183636873960494995e-01
-2.545746266841888428e-01
-3.367597162723541260e-01
-1.069294437766075134e-01
-1.099604368209838867e-01
-2.390110939741134644e-01
-1.205889582633972168e-01
-6.977168377488851547e-03
-2.780387699604034424e-01
-1.834646314382553101e-01
-2.800970077514648438e-01
-2.382050305604934692e-01
-2.137946784496307373e-01
-1.325868815183639526e-01
-2.386289834976196289e-01
-1.333115249872207642e-01
-1.210894435644149780e-01
6.799951195716857910e-03
-2.041315883398056030e-01
-1.832444518804550171e-01
-4.101307392120361328e-01
-4.261925350874662399e-03
-2.113209962844848633e-01
-1.962433755397796631e-01
-2.640940546989440918e-01
-1.705247610807418823e-01
2.851542830467224121e-01
3.871620595455169678e-01
3.073047697544097900e-01
2.125976681709289551e-01
5.828853696584701538e-02
4.111941903829574585e-02
1.260261535644531250e-01
1.817229390144348145e-01
3.577965199947357178e-01
2.664625346660614014e-01
8.294943720102310181e-02
1.597450822591781616e-01
1.544238477945327759e-01
2.712573707103729248e-01
1.811180561780929565e-01
1.362058073282241821e-01
1.447575837373733521e-01
2.579011917114257812e-01
2.698398530483245850e-01
1.146604865789413452e-01
9.634043090045452118e-03
2.844889461994171143e-01
1.899461299180984497e-01
1.356198489665985107e-01
2.052862048149108887e-01
3.463765680789947510e-01
2.037650644779205322e-01
3.215828239917755127e-01
8.784266561269760132e-02
1.183769926428794861e-01
2.399510443210601807e-01
3.992512822151184082e-02
3.062095493078231812e-02
2.016641795635223389e-01
2.700359523296356201e-01
9.291262179613113403e-02
2.338254004716873169e-01
2.461129426956176758e-01
1.128909587860107422e-01
5.160315334796905518e-02
1.702794730663299561e-01
7.646038383245468140e-02
9.053554385900497437e-02
2.380446791648864746e-01
2.796585559844970703e-01
5.115948617458343506e-02
3.177981972694396973e-01
1.213149800896644592e-01
6.709413230419158936e-02
2.825994193553924561e-01
2.058310657739639282e-01
9.162459522485733032e-02
1.442523300647735596e-01
4.011020958423614502e-01
3.987758755683898926e-01
4.654208719730377197e-01
1.201363205909729004e-01
4.175934791564941406e-01
2.014863193035125732e-01
9.346528351306915283e-02
5.934700742363929749e-02
3.408136963844299316e-01
2.699286639690399170e-01
1.320612281560897827e-01
3.575534820556640625e-01
2.637656033039093018e-01
1.325298845767974854e-01
3.352184295654296875e-01
2.603087425231933594e-01
2.031249552965164185e-01
2.517508566379547119e-01
-2.246770076453685760e-02
2.970431149005889893e-01
1.914044320583343506e-01
3.159972131252288818e-01
9.140032529830932617e-02
1.572861373424530029e-01
1.718310452997684479e-02
3.578835427761077881e-01
1.660174727439880371e-01
3.201629519462585449e-01
2.336887419223785400e-01
-1.742222579196095467e-03
3.056895360350608826e-02
2.373967766761779785e-01
2.716929316520690918e-01
8.387632668018341064e-03
2.750211656093597412e-01
1.540221273899078369e-01
1.263664662837982178e-01
1.821419745683670044e-01
2.224466800689697266e-01
2.038498073816299438e-01
2.014601975679397583e-01
2.069981396198272705e-01
1.179815605282783508e-01
7.739527523517608643e-02
2.816417999565601349e-02
9.933533519506454468e-02
1.131214797496795654e-01
9.152635186910629272e-02
5.550342798233032227e-02
3.435336351394653320e-01
3.654249608516693115e-01
3.168694376945495605e-01
2.047379910945892334e-01
7.739302515983581543e-02
6.634626537561416626e-02
1.229874789714813232e-01
1.001871824264526367e-01
7.544918358325958252e-02
3.501974642276763916e-01
-7.873918861150741577e-02
3.066779077053070068e-01
2.987827360630035400e-01
1.118856295943260193e-01
2.469774633646011353e-01
2.365822643041610718e-01
2.436474561691284180e-01
1.537034362554550171e-01
3.898567557334899902e-01
2.360986918210983276e-01
3.161766529083251953e-01
9.567122161388397217e-02
1.819980144500732422e-01
2.742281854152679443e-01
5.692384839057922363e-01
4.435594752430915833e-02
-4.133561998605728149e-02
1.075747460126876831e-01
-1.083478853106498718e-01
-1.048543155193328857e-01
9.819370508193969727e-02
-1.789958029985427856e-01
1.123945638537406921e-01
-1.958946883678436279e-02
-2.868658117949962616e-02
3.931692615151405334e-02
7.255829125642776489e-02
1.499863713979721069e-01
2.200649082660675049e-01
1.544973552227020264e-01
4.708850756287574768e-02
-1.057302132248878479e-01
1.073493137955665588e-01
2.428819052875041962e-02
1.681518927216529846e-02
-7.929953187704086304e-02
2.804277278482913971e-02
1.858181692659854889e-02
6.881303340196609497e-02
-6.397254019975662231e-02
2.515526674687862396e-02
-2.809010632336139679e-02
6.925155222415924072e-02
1.899950206279754639e-02
-3.238746896386146545e-02
1.621979027986526489e-01
-1.064063142985105515e-02
1.214772313833236694e-01
-4.348109290003776550e-02
5.489679798483848572e-02
-3.257434815168380737e-02
-3.518847050145268440e-03
-8.517819643020629883e-02
-7.710694521665573120e-02
-4.974302649497985840e-02
3.405489772558212280e-02
-1.206253468990325928e-01
5.640744045376777649e-02
-7.376976311206817627e-02
-2.695083152502775192e-03
6.195838749408721924e-02
-3.616161271929740906e-02
-6.786732468754053116e-03
1.689223498106002808e-01
-2.164891362190246582e-02
5.467027053236961365e-02
-9.685266762971878052e-02
3.754305467009544373e-02
-1.213781535625457764e-03
-3.712685778737068176e-02
-8.666743338108062744e-02
-1.167793013155460358e-02
1.461345404386520386e-01
1.263629347085952759e-01
1.924511790275573730e-02
1.103554037399590015e-03
2.016775868833065033e-02
5.797579884529113770e-02
3.446137160062789917e-02
4.483625665307044983e-02
-7.163095474243164062e-02
-7.117503881454467773e-02
-1.014792248606681824e-01
1.089503895491361618e-02
-3.421046957373619080e-02
8.405955880880355835e-02
4.753431677818298340e-02
-4.295709356665611267e-02
-3.833772614598274231e-02
1.472067087888717651e-01
-3.825593739748001099e-02
1.484501117374747992e-04
6.136173382401466370e-02
1.303701475262641907e-02
-2.188064344227313995e-02
2.708190353587269783e-03
-3.849698603153228760e-02
9.484879672527313232e-02
-4.115419089794158936e-02
-6.160415709018707275e-02
2.925193868577480316e-02
7.255268841981887817e-02
-4.401667974889278412e-03
7.452033460140228271e-02
9.839840233325958252e-03
5.560471862554550171e-02
-4.580277949571609497e-02
1.050609871745109558e-01
1.379305720329284668e-01
-2.790028601884841919e-02
7.303789258003234863e-02
7.382871955633163452e-02
-7.983630895614624023e-02
-2.646397799253463745e-02
-3.738849610090255737e-02
5.512099713087081909e-02
-1.506628245115280151e-01
5.639066547155380249e-02
7.172245532274246216e-02
5.323426052927970886e-02
2.450740709900856018e-02
-2.005288377404212952e-02
4.291113000363111496e-03
8.224097639322280884e-02
6.434885784983634949e-03
-5.366756394505500793e-02
-1.972733810544013977e-02
6.153376400470733643e-02
-5.185734480619430542e-02
-2.911835536360740662e-02
-4.164025187492370605e-02
-1.750078946352005005e-01
-2.592187933623790741e-02
8.438272774219512939e-02
-6.247942149639129639e-02
-2.375454455614089966e-01
-1.486389432102441788e-03
5.939816590398550034e-03
8.168450742959976196e-02
3.869700059294700623e-02
-2.143764123320579529e-02
-1.219560019671916962e-02
-5.005118250846862793e-02
-5.381883680820465088e-02
-6.626737117767333984e-02
1.752774715423583984e-01
-6.043224036693572998e-02
-1.681618974544107914e-03
-5.580071732401847839e-02
9.510484337806701660e-02
4.357962310314178467e-02
5.927830189466476440e-02
5.230354145169258118e-02
-8.814997039735317230e-03
1.146194990724325180e-02
-2.667991444468498230e-02
-3.095625154674053192e-02
1.145112365484237671e-01
3.576444461941719055e-03
-9.439375996589660645e-02
-1.005368530750274658e-01
-3.948937356472015381e-02
-3.043096326291561127e-02
-6.404117494821548462e-02
-1.422186195850372314e-01
4.960703477263450623e-02
-7.012709230184555054e-02
-1.443587895482778549e-02
1.605310104787349701e-02
-8.782918006181716919e-02
-4.801044985651969910e-02
-4.428274929523468018e-03
1.360744535923004150e-01
-5.810309946537017822e-02
-2.319893836975097656e-01
2.137606032192707062e-03
-1.207141503691673279e-01
1.409265100955963135e-01
1.571594178676605225e-02
-2.635059319436550140e-02
1.590418219566345215e-01
-8.006887137889862061e-02
-1.259031593799591064e-01
2.915814891457557678e-02
-7.468180358409881592e-02
1.373831834644079208e-02
1.222999393939971924e-01
-8.746591955423355103e-02
-1.238027438521385193e-01
-1.194881498813629150e-01
7.254662364721298218e-02
-6.148945167660713196e-02
-3.485692292451858521e-02
-6.977836787700653076e-02
-1.183079630136489868e-01
-3.106492571532726288e-02
-1.544004678726196289e-01
1.819750061258673668e-03
1.137655302882194519e-01
8.113125711679458618e-02
-3.723407164216041565e-02
2.132016867399215698e-01
-9.105885773897171021e-02
6.801541894674301147e-02
3.395247086882591248e-02
6.531159579753875732e-02
1.421106904745101929e-01
-7.824184000492095947e-02
6.868923455476760864e-02
1.445534527301788330e-01
1.146919094026088715e-02
5.146891623735427856e-02
1.692146621644496918e-02
-1.101117059588432312e-01
6.970760971307754517e-02
-9.686100482940673828e-02
1.636060774326324463e-01
5.120385065674781799e-02
7.188904285430908203e-02
-3.319505974650382996e-02
-1.069668009877204895e-01
1.265202648937702179e-02
1.563046500086784363e-02
-2.870419621467590332e-02
-2.096514916047453880e-03
-1.059459820389747620e-01
1.125109046697616577e-01
7.609548047184944153e-04
-8.186022192239761353e-02
9.737125039100646973e-02
-1.649563610553741455e-01
2.094347774982452393e-01
2.157405912876129150e-01
-2.082373388111591339e-02
1.009134482592344284e-02
1.358657181262969971e-01
8.045093715190887451e-02
9.788585454225540161e-02
-8.915865793824195862e-03
3.659576177597045898e-02
1.019078120589256287e-02
9.896309673786163330e-02
-1.561144590377807617e-01
1.256694346666336060e-01
1.869751699268817902e-02
-9.843901544809341431e-02
-8.426414430141448975e-02
-9.203076362609863281e-03
2.076286673545837402e-01
6.692983210086822510e-02
-4.281677771359682083e-03
-1.930781267583370209e-02
8.226332813501358032e-02
8.231297880411148071e-02
1.005200017243623734e-02
8.464592695236206055e-02
-1.252309828996658325e-01
-2.381827309727668762e-02
1.564391106367111206e-01
2.680318988859653473e-02
6.342399120330810547e-02
-2.597805112600326538e-02
-1.335294544696807861e-02
1.211742609739303589e-01
1.298266649246215820e-02
8.054056018590927124e-02
1.960399150848388672e-01
3.468776121735572815e-02
-2.431393973529338837e-02
3.377563878893852234e-02
1.142696850001811981e-02
-4.142586514353752136e-02
