2.533850967884063721e-01
1.235100105404853821e-01
-3.385367095470428467e-01
-1.003286838531494141e-01
-1.104081273078918457e-01
-3.047769367694854736e-01
-1.897794567048549652e-02
-4.675331339240074158e-02
7.603498548269271851e-02
-2.984591573476791382e-02
-5.115783214569091797e-02
-1.282139867544174194e-01
-6.630363315343856812e-02
-9.650669246912002563e-02
6.022190302610397339e-02
1.624975055456161499e-01
-1.226977854967117310e-01
-1.037547364830970764e-01
-4.903069883584976196e-02
-5.497634410858154297e-02
-4.371209815144538879e-02
-1.346527189016342163e-01
-1.187926530838012695e-01
4.711950570344924927e-02
-2.441081404685974121e-02
1.389485448598861694e-01
-1.068238690495491028e-01
5.447120070457458496e-01
-5.982438847422599792e-02
6.036040559411048889e-02
-2.020421177148818970e-01
-1.524260342121124268e-01
1.292807459831237793e-01
-1.768264472484588623e-01
-2.063409090042114258e-01
-8.161498606204986572e-02
5.179895833134651184e-02
-1.108744442462921143e-01
5.130408704280853271e-02
-2.373748421669006348e-01
6.873603910207748413e-02
-1.759921312332153320e-01
1.981254294514656067e-02
-1.692279130220413208e-01
8.991042524576187134e-02
2.089104987680912018e-02
7.145401835441589355e-02
-1.184157133102416992e-01
-1.651780605316162109e-01
-9.262724965810775757e-02
4.907960072159767151e-02
-4.491958394646644592e-02
6.865092366933822632e-02
-3.603064641356468201e-02
-7.529061287641525269e-02
-7.425357401371002197e-02
-4.743243008852005005e-02
-4.161099344491958618e-02
1.324946880340576172e-01
-1.380431354045867920e-01
2.177015393972396851e-01
-1.092271730303764343e-01
-4.500627517700195312e-03
1.773211956024169922e-01
-4.707694053649902344e-01
-1.394349895417690277e-02
-1.181744225323200226e-02
-2.405005693435668945e-02
-1.125547066330909729e-01
4.574677720665931702e-02
9.889737516641616821e-02
9.563833475112915039e-02
-4.397800192236900330e-03
7.188361883163452148e-02
-5.742769315838813782e-02
1.517201662063598633e-01
2.626110613346099854e-02
1.070840582251548767e-01
1.305263340473175049e-01
1.554511114954948425e-02
-1.370308268815279007e-02
1.197874769568443298e-01
-9.634660556912422180e-03
1.603686213493347168e-01
1.456148028373718262e-01
-1.496469788253307343e-02
1.182198375463485718e-01
2.337859012186527252e-02
7.857842743396759033e-02
5.731903761625289917e-02
6.235564872622489929e-02
1.447931975126266479e-01
1.734514832496643066e-01
-1.239915564656257629e-01
2.339117079973220825e-01
3.212742134928703308e-02
9.963729977607727051e-02
7.889503985643386841e-02
-5.625333264470100403e-02
3.581904172897338867e-01
-1.376047916710376740e-02
3.270812332630157471e-02
-1.246869787573814392e-01
2.043080478906631470e-01
2.547101080417633057e-01
1.223314180970191956e-01
3.449376225471496582e-01
-1.866806149482727051e-01
-1.567157208919525146e-01
1.701961010694503784e-01
-7.740031927824020386e-02
-6.434938311576843262e-02
-1.533805876970291138e-01
-3.310598060488700867e-02
1.363836079835891724e-01
-2.757777869701385498e-01
-3.113313019275665283e-02
-1.292422711849212646e-01
-1.037587076425552368e-01
-1.772296875715255737e-01
-4.492029175162315369e-02
4.360502585768699646e-02
2.104346454143524170e-02
1.132404282689094543e-01
2.066614180803298950e-01
1.017386540770530701e-01
-8.566779643297195435e-02
1.078673601150512695e-01
8.491398394107818604e-02
5.101292207837104797e-02
1.077600494027137756e-01
2.193450480699539185e-01
6.158754974603652954e-02
5.497869104146957397e-02
-5.176931247115135193e-02
-4.591017961502075195e-02
2.294854968786239624e-01
8.296425640583038330e-02
-7.793865352869033813e-02
-1.240990161895751953e-01
4.892618209123611450e-02
2.345533221960067749e-01
6.244689971208572388e-02
1.907521188259124756e-01
-4.097511246800422668e-02
2.416140288114547729e-01
7.653393596410751343e-02
2.697915397584438324e-02
7.535233348608016968e-02
1.718971282243728638e-01
2.150702178478240967e-01
-1.114035770297050476e-01
2.029839307069778442e-01
6.462601572275161743e-02
3.338270485401153564e-01
2.793604433536529541e-01
2.514241933822631836e-01
-6.461514532566070557e-02
9.066955000162124634e-02
-1.812402717769145966e-02
-1.472816523164510727e-02
1.258229464292526245e-01
-6.223999336361885071e-02
2.443273216485977173e-01
1.151990145444869995e-01
1.205264031887054443e-01
1.714601069688796997e-01
1.564971804618835449e-01
1.417942494153976440e-01
3.850369155406951904e-02
2.301152199506759644e-01
3.290408477187156677e-02
-8.071765303611755371e-03
5.133321136236190796e-02
-2.329988777637481689e-02
3.827481269836425781e-01
6.435558944940567017e-02
1.563126742839813232e-01
1.747767776250839233e-01
3.598011732101440430e-01
2.440143674612045288e-01
3.395968973636627197e-01
6.479392200708389282e-02
2.086180299520492554e-01
4.698828235268592834e-02
1.377472132444381714e-01
5.387923121452331543e-02
2.764843702316284180e-01
1.773239523172378540e-01
2.005418241024017334e-01
1.931321918964385986e-01
6.222319230437278748e-02
1.344688236713409424e-01
4.590314328670501709e-01
1.728388108313083649e-02
3.297318145632743835e-02
-7.551769725978374481e-03
5.379838868975639343e-02
-5.828101560473442078e-02
1.504879444837570190e-01
2.192820608615875244e-01
-2.234035357832908630e-02
3.049969375133514404e-01
-8.982849866151809692e-02
2.476538717746734619e-01
1.771204918622970581e-01
1.091615706682205200e-01
-8.057752251625061035e-02
9.839266538619995117e-02
2.088370621204376221e-01
1.804145872592926025e-01
1.498714387416839600e-01
1.546897888183593750e-01
2.185876518487930298e-01
6.249783560633659363e-02
2.276756316423416138e-01
4.528075084090232849e-02
1.100202575325965881e-01
4.015016257762908936e-01
5.496700853109359741e-02
1.201487556099891663e-01
2.270223051309585571e-01
9.863394498825073242e-02
-1.733276993036270142e-01
6.252005696296691895e-02
2.516829371452331543e-01
-5.165709927678108215e-02
1.697176396846771240e-01
2.015963196754455566e-01
1.019285917282104492e-01
1.548649668693542480e-01
1.762424223124980927e-02
7.259920984506607056e-02
3.610393702983856201e-01
3.146044015884399414e-01
8.992802351713180542e-02
1.368673797696828842e-02
4.010125100612640381e-01
2.303960025310516357e-01
1.363882422447204590e-01
5.820994079113006592e-02
-7.499833405017852783e-02
8.507911860942840576e-02
1.156972870230674744e-01
1.377482116222381592e-01
-2.436609007418155670e-02
-6.893220543861389160e-02
1.215671002864837646e-01
7.166525814682245255e-03
2.133475542068481445e-01
3.434856981039047241e-02
-2.119969949126243591e-02
1.601601392030715942e-02
3.473213315010070801e-01
2.758398652076721191e-01
4.577003046870231628e-02
-1.770608574151992798e-01
-1.049421634525060654e-02
1.560959815979003906e-01
9.481187909841537476e-02
3.215810060501098633e-01
6.280326098203659058e-02
-2.792292274534702301e-02
4.464876651763916016e-02
-4.426768515259027481e-03
1.963910162448883057e-01
-6.509245187044143677e-02
-1.456360518932342529e-01
1.143070636317133904e-03
-1.344338357448577881e-01
4.180723428726196289e-02
3.842949867248535156e-01
2.060515880584716797e-01
1.206184178590774536e-01
-2.196985036134719849e-01
-9.006653726100921631e-02
1.097196117043495178e-01
-7.241441309452056885e-02
-5.505544319748878479e-02
-1.960769295692443848e-02
3.591724336147308350e-01
-1.137391403317451477e-01
1.693128347396850586e-01
3.937672674655914307e-01
-2.747007906436920166e-01
-3.120866604149341583e-02
4.034008979797363281e-01
9.196240454912185669e-02
-1.558666583150625229e-02
7.025302201509475708e-02
1.027424782514572144e-01
-8.109800517559051514e-02
-1.352637410163879395e-01
-1.047511585056781769e-02
-3.376073762774467468e-02
4.229317605495452881e-02
-5.736540537327528000e-03
5.797016434371471405e-03
1.287375390529632568e-01
3.160136938095092773e-01
3.233566880226135254e-03
1.130272820591926575e-01
2.485748082399368286e-01
-2.189185321331024170e-01
2.243692278861999512e-01
-7.550795376300811768e-02
-4.435817152261734009e-02
-1.633421182632446289e-01
-7.086313515901565552e-02
4.641566872596740723e-01
1.442825645208358765e-01
8.837576210498809814e-02
2.892367914319038391e-02
1.544961482286453247e-01
8.885947614908218384e-02
1.386656910181045532e-01
2.037261724472045898e-01
2.190966345369815826e-02
-3.139236941933631897e-02
-6.484680343419313431e-03
-1.185561269521713257e-01
4.052364230155944824e-01
5.900162830948829651e-02
-1.862399280071258545e-01
-9.108817577362060547e-02
-2.150774151086807251e-01
8.078444004058837891e-02
-2.453574389219284058e-01
2.323456108570098877e-02
1.977916993200778961e-02
2.372264117002487183e-01
1.883686780929565430e-01
3.144818246364593506e-01
-1.471282988786697388e-01
5.931392684578895569e-02
3.446733355522155762e-01
-2.325837463140487671e-01
2.447638362646102905e-01
-8.860323578119277954e-02
1.661450564861297607e-01
1.382244098931550980e-02
1.700522005558013916e-01
-7.193187624216079712e-02
-1.783749908208847046e-01
-1.068168506026268005e-01
-1.670517325401306152e-01
-4.450258985161781311e-02
9.257546067237854004e-02
-2.439936250448226929e-01
-1.471385657787322998e-01
2.239342331886291504e-01
-1.499478965997695923e-01
-3.543322980403900146e-01
2.213037163019180298e-01
-2.880994230508804321e-02
-1.989867538213729858e-01
-7.801807671785354614e-02
1.841595210134983063e-02
1.207821890711784363e-01
2.051263488829135895e-02
-1.916478276252746582e-01
1.442276407033205032e-03
-5.303340777754783630e-02
7.761177606880664825e-03
-1.812021732330322266e-01
5.144875645637512207e-01
-1.052654758095741272e-01
6.886344403028488159e-02
-1.885210871696472168e-01
1.328431963920593262e-01
8.335418254137039185e-02
7.698161154985427856e-02
-8.221764117479324341e-02
-2.446414977312088013e-01
-3.202346339821815491e-02
1.046179607510566711e-01
-2.343244701623916626e-01
-1.725693792104721069e-01
-6.533171236515045166e-02
-1.898802667856216431e-01
2.165360003709793091e-02
-6.381670385599136353e-02
1.072615906596183777e-01
-2.305704951286315918e-01
3.070051372051239014e-01
2.611055038869380951e-02
1.876604370772838593e-02
9.637986868619918823e-02
2.424119412899017334e-01
-1.380375586450099945e-02
8.432719111442565918e-02
6.397166848182678223e-02
-1.449189707636833191e-02
2.333434075117111206e-01
-4.116620495915412903e-02
1.622964143753051758e-01
6.101546064019203186e-02
1.735623627901077271e-01
-2.810543775558471680e-02
3.371682167053222656e-01
5.226900801062583923e-02
2.653849720954895020e-01
4.096949696540832520e-01
1.499065011739730835e-01
7.691334933042526245e-02
6.513661891222000122e-02
1.954174786806106567e-01
1.529563218355178833e-01
1.431663036346435547e-01
1.572794765233993530e-01
2.662886679172515869e-01
3.970377445220947266e-01
4.865900874137878418e-01
1.549309678375720978e-02
1.225770264863967896e-01
1.494190990924835205e-01
2.349200993776321411e-01
-8.925350382924079895e-03
-6.709908694028854370e-02
2.181673943996429443e-01
3.713801205158233643e-01
3.011758625507354736e-01
2.089541703462600708e-01
1.741419732570648193e-01
1.943037509918212891e-01
7.323773950338363647e-02
2.024789340794086456e-02
1.717795245349407196e-02
1.870155632495880127e-01
1.373193114995956421e-01
3.395947515964508057e-01
3.828569054603576660e-01
1.969376951456069946e-01
8.209176361560821533e-02
1.585149168968200684e-01
2.027754038572311401e-01
1.232413202524185181e-01
3.324467241764068604e-01
1.361297070980072021e-01
1.698514521121978760e-01
2.709663212299346924e-01
3.690365236252546310e-03
3.904591202735900879e-01
2.440566122531890869e-01
1.797538250684738159e-01
2.024692893028259277e-01
1.744957566261291504e-01
1.968015134334564209e-01
1.169853657484054565e-02
2.271410971879959106e-01
1.414515357464551926e-02
3.546247482299804688e-01
3.234821856021881104e-01
3.014666140079498291e-01
8.145654201507568359e-02
1.214821264147758484e-02
1.997941434383392334e-01
7.543021440505981445e-02
2.744133174419403076e-01
1.101824119687080383e-01
1.961725354194641113e-01
2.527287900447845459e-01
-4.144227132201194763e-02
3.527515828609466553e-01
2.127994410693645477e-02
3.412735164165496826e-01
1.299531906843185425e-01
1.575074046850204468e-01
2.469826638698577881e-01
2.821153104305267334e-01
8.561284840106964111e-02
4.479113519191741943e-01
2.686888575553894043e-01
1.430782377719879150e-01
4.339461624622344971e-01
2.117927521467208862e-01
2.017175853252410889e-01
2.025198340415954590e-01
3.050624132156372070e-01
1.546854525804519653e-01
3.192000091075897217e-01
-4.023151844739913940e-02
7.249435037374496460e-02
3.094277381896972656e-01
1.598986089229583740e-01
-7.775259017944335938e-02
3.801494240760803223e-01
-1.675155013799667358e-01
1.303520649671554565e-01
1.856324374675750732e-01
1.042381376028060913e-01
-3.172672167420387268e-02
-8.550741523504257202e-02
2.301522940397262573e-01
1.282994598150253296e-01
2.044193893671035767e-01
9.763930737972259521e-02
1.652293652296066284e-01
2.338163256645202637e-01
1.751291453838348389e-01
-1.148175448179244995e-01
4.923129454255104065e-02
5.253531411290168762e-02
1.295469254255294800e-01
2.302573621273040771e-01
8.175443112850189209e-02
1.520074754953384399e-01
5.171897262334823608e-02
1.715767532587051392e-01
9.163916856050491333e-02
2.259597778320312500e-01
1.834200322628021240e-02
