-1.135259494185447693e-02
3.038283288478851318e-01
2.023585736751556396e-01
3.149107471108436584e-02
1.517935656011104584e-03
-1.480259001255035400e-01
-1.060283184051513672e-01
-1.445174664258956909e-01
-1.613526642322540283e-01
-6.550228595733642578e-02
-1.225800067186355591e-01
-1.265780627727508545e-01
1.566498428583145142e-01
3.848053887486457825e-02
-8.643663674592971802e-02
-1.443665623664855957e-01
-5.651713348925113678e-03
3.054842166602611542e-02
3.096073120832443237e-02
3.360187262296676636e-02
-6.529451906681060791e-02
-1.051128953695297241e-01
-1.014203652739524841e-01
-3.383355448022484779e-03
6.353860348463058472e-02
-1.172900758683681488e-02
-1.649699956178665161e-01
-4.248836636543273926e-02
-3.884060788550414145e-05
-4.887531977146863937e-03
-8.861378580331802368e-02
-1.016306728124618530e-01
-1.322852224111557007e-01
-6.878709793090820312e-02
-6.216434389352798462e-02
-6.595427542924880981e-02
1.348737627267837524e-01
1.296409517526626587e-01
7.759531587362289429e-02
1.101103276014328003e-01
7.337108254432678223e-02
1.566804200410842896e-01
5.967493727803230286e-02
-2.963717281818389893e-02
-1.178956702351570129e-01
2.141258306801319122e-02
3.230354934930801392e-02
-7.221238315105438232e-02
-9.302769601345062256e-02
-8.071023225784301758e-02
-8.366321213543415070e-03
1.140219345688819885e-01
1.088441684842109680e-01
2.392309345304965973e-02
1.528820991516113281e-01
1.204917356371879578e-01
-8.825867623090744019e-02
1.651710597798228264e-03
-6.404559314250946045e-02
-1.491912603378295898e-01
7.635334134101867676e-02
1.107582077383995056e-01
1.138202175498008728e-01
-1.335302889347076416e-01
2.124612778425216675e-02
-5.930895358324050903e-02
-1.170588359236717224e-01
-2.228789776563644409e-01
-1.447515487670898438e-01
-6.445961445569992065e-02
6.272729486227035522e-02
-7.350488752126693726e-02
3.137444704771041870e-02
1.090234741568565369e-01
5.633815750479698181e-02
-1.512359268963336945e-02
3.956818953156471252e-02
1.233866959810256958e-01
1.283355951309204102e-01
5.721274018287658691e-02
5.686025321483612061e-02
1.465812921524047852e-01
1.781770884990692139e-01
1.859307140111923218e-01
7.715767621994018555e-02
4.311557859182357788e-02
1.094536930322647095e-01
1.231881156563758850e-01
3.346808953210711479e-03
-7.978032343089580536e-03
3.761969879269599915e-02
1.662729084491729736e-01
7.784321904182434082e-02
3.932192455977201462e-03
-7.114810496568679810e-02
-7.514304667711257935e-02
1.144735515117645264e-01
7.509645074605941772e-02
-1.518077254295349121e-01
-2.204525619745254517e-01
-2.752345986664295197e-03
6.101411581039428711e-02
6.998270004987716675e-02
1.546046584844589233e-01
7.592896372079849243e-02
4.584390670061111450e-02
-1.104097962379455566e-01
5.579963326454162598e-02
-2.380701154470443726e-02
-4.440666735172271729e-02
5.208317935466766357e-02
4.041196405887603760e-02
-2.273785509169101715e-02
-5.552005767822265625e-02
4.357714578509330750e-02
2.340767532587051392e-02
8.894675225019454956e-02
2.101551741361618042e-02
-9.042532742023468018e-02
-6.130245700478553772e-02
-1.022011414170265198e-01
9.436367452144622803e-02
9.616049379110336304e-02
4.412483051419258118e-02
7.797296345233917236e-02
-7.208544015884399414e-02
-2.551033534109592438e-02
-5.478822812438011169e-02
-1.252855211496353149e-01
-9.496871381998062134e-02
-1.952147483825683594e-01
-1.205343976616859436e-01
-2.010779678821563721e-01
-1.141448691487312317e-01
-1.957168728113174438e-01
-2.025809586048126221e-01
-1.491509228944778442e-01
2.183597721159458160e-02
-1.322759091854095459e-01
2.996747789438813925e-04
-9.653347730636596680e-02
-6.268173456192016602e-02
1.715445816516876221e-01
8.903390727937221527e-03
-1.127285324037075043e-02
2.004721164703369141e-01
1.468326747417449951e-01
-1.827677711844444275e-02
-1.845897585153579712e-01
-2.670108079910278320e-01
-1.713066846132278442e-01
-7.968978607095777988e-04
-1.774699091911315918e-01
-5.620399117469787598e-02
5.760114267468452454e-02
1.007433459162712097e-01
-6.092768907546997070e-02
8.315442502498626709e-02
-7.252475619316101074e-02
-7.900576293468475342e-02
-9.536615572869777679e-03
-2.699483744800090790e-02
-1.270641684532165527e-01
8.399867266416549683e-02
1.631669253110885620e-01
1.202118769288063049e-01
1.004905700683593750e-01
1.748687177896499634e-01
1.291393339633941650e-01
2.067938596010208130e-01
-2.574094012379646301e-02
-1.556587815284729004e-01
-1.006673648953437805e-01
-3.508856520056724548e-02
-9.206051006913185120e-03
-1.340249031782150269e-01
-1.771820336580276489e-01
-2.366255968809127808e-01
-1.854346692562103271e-01
-4.413039982318878174e-02
-2.139843627810478210e-02
1.519090682268142700e-01
3.022266179323196411e-02
1.265368014574050903e-01
1.556584890931844711e-02
-5.480781570076942444e-02
-2.731250226497650146e-01
-9.496705979108810425e-02
-3.517134115099906921e-02
2.282527741044759750e-03
-5.278711393475532532e-02
-9.319541975855827332e-03
2.244816161692142487e-02
-6.763361394405364990e-02
-1.255439943633973598e-03
-8.894611895084381104e-02
-8.339717239141464233e-02
1.474003642797470093e-01
2.971564233303070068e-02
-5.079068616032600403e-02
-8.057966828346252441e-02
7.080639153718948364e-02
6.833299063146114349e-03
-4.828034341335296631e-02
3.023383952677249908e-02
-5.440790951251983643e-02
-1.097975373268127441e-01
9.357289969921112061e-02
2.213174998760223389e-01
2.372013032436370850e-02
4.194047674536705017e-02
2.356657013297080994e-02
1.290207449346780777e-02
2.464221557602286339e-03
-5.622224137187004089e-02
-8.574771881103515625e-02
-7.890714332461357117e-03
1.476310789585113525e-01
-4.953775554895401001e-02
-8.343100547790527344e-02
-1.262575089931488037e-01
8.679088205099105835e-02
-4.783998709172010422e-03
-7.772456854581832886e-02
-1.005233973264694214e-01
-1.065064370632171631e-01
-1.794125586748123169e-01
-1.156886667013168335e-01
-2.773861773312091827e-02
-1.691624871455132961e-03
-3.053958900272846222e-02
6.555876880884170532e-02
-2.209863066673278809e-02
-1.802981346845626831e-01
-2.637090720236301422e-02
-1.776300370693206787e-01
-1.633623242378234863e-01
-1.366403549909591675e-01
-2.144118994474411011e-01
-9.902991354465484619e-02
-1.276914626359939575e-01
7.803668826818466187e-02
2.643887698650360107e-02
-4.205522686243057251e-02
-9.844992309808731079e-03
-2.239047549664974213e-02
-4.973894450813531876e-03
-2.156507223844528198e-02
5.009197629988193512e-03
7.523322105407714844e-02
7.152608130127191544e-03
-7.120330817997455597e-03
4.306071437895298004e-03
2.477869205176830292e-02
1.498269587755203247e-01
1.016009971499443054e-01
3.400582645554095507e-04
3.063855133950710297e-02
6.798455864191055298e-02
1.185426712036132812e-01
1.400034278631210327e-01
2.284863265231251717e-03
1.818560063838958740e-02
5.530250817537307739e-02
-1.806925833225250244e-01
-1.656025499105453491e-01
5.950521305203437805e-02
2.095321416854858398e-01
1.043535768985748291e-01
-9.226664900779724121e-02
4.657097160816192627e-02
1.406422164291143417e-02
-5.730922147631645203e-02
-6.624240428209304810e-02
-7.052836567163467407e-02
1.199338138103485107e-01
2.121532857418060303e-01
2.060473524034023285e-02
1.303413300774991512e-03
-6.838008761405944824e-02
-9.613431245088577271e-02
-1.999658904969692230e-02
3.096601553261280060e-02
-3.557290881872177124e-02
1.193584427237510681e-01
-5.065630748867988586e-02
-3.725467622280120850e-02
-2.854917943477630615e-02
5.074714869260787964e-02
-2.941817604005336761e-02
4.398806020617485046e-02
-7.447872310876846313e-02
9.459532052278518677e-02
3.305847942829132080e-01
6.461293250322341919e-02
3.542299568653106689e-02
1.303126066923141479e-01
9.604602307081222534e-02
9.199080616235733032e-02
2.804679051041603088e-02
2.038537152111530304e-02
1.078721955418586731e-01
1.068124398589134216e-01
-6.877319421619176865e-03
8.888187259435653687e-02
1.191641166806221008e-01
1.227518171072006226e-01
1.586280204355716705e-02
-6.706997752189636230e-02
1.323788166046142578e-01
1.050070449709892273e-01
-1.029946058988571167e-01
-8.177443593740463257e-02
-7.728543877601623535e-02
8.389170467853546143e-02
5.461700633168220520e-02
-4.275785014033317566e-02
-4.048352688550949097e-02
-6.577540934085845947e-02
-9.041329473257064819e-02
-1.030701920390129089e-01
6.177532952278852463e-03
4.170290753245353699e-02
1.424256265163421631e-01
-1.205614730715751648e-01
4.010880365967750549e-02
1.244078278541564941e-01
6.030307617038488388e-03
1.135867089033126831e-01
4.170608147978782654e-02
-1.806643605232238770e-01
-1.120498031377792358e-01
-2.277419716119766235e-02
-2.060796320438385010e-01
5.340891075320541859e-04
-2.208957672119140625e-01
-2.803587019443511963e-01
-1.121210455894470215e-01
1.693855784833431244e-02
-7.104928046464920044e-02
-8.928157389163970947e-02
-6.798721849918365479e-02
-5.739836022257804871e-02
-1.188609749078750610e-01
-7.599746435880661011e-02
1.846325024962425232e-02
1.773003339767456055e-01
6.346905976533889771e-02
5.464523658156394958e-02
-9.506063908338546753e-02
-1.333284080028533936e-01
-1.413274854421615601e-01
8.416453376412391663e-03
-7.367353886365890503e-02
-9.591417759656906128e-02
-3.762808395549654961e-03
1.244162768125534058e-01
-2.231964096426963806e-02
-6.935281306505203247e-02
1.072640419006347656e-01
6.639253348112106323e-02
7.470589131116867065e-02
-6.968691945075988770e-02
8.494581282138824463e-02
1.172441244125366211e-01
1.015500575304031372e-01
1.448939889669418335e-01
7.336427271366119385e-02
1.225583404302597046e-01
-2.294250391423702240e-02
-1.780965477228164673e-01
-3.298710286617279053e-02
-6.184927187860012054e-03
1.190630998462438583e-02
-4.254883155226707458e-02
-5.441582202911376953e-02
3.062422387301921844e-02
-1.249422207474708557e-01
-2.053914219141006470e-01
-8.061096817255020142e-02
-2.953311800956726074e-02
2.949050441384315491e-02
6.675497442483901978e-02
1.550313085317611694e-01
-2.369871176779270172e-02
4.032640159130096436e-02
1.208169087767601013e-01
1.075676921755075455e-02
-5.923466011881828308e-02
-9.942188858985900879e-02
-2.827756293118000031e-02
-1.226793751120567322e-01
-2.398739606142044067e-01
-1.338160783052444458e-01
-1.571910530328750610e-01
-3.274242579936981201e-02
-3.143968805670738220e-02
-6.716699153184890747e-02
3.834667429327964783e-02
5.120916292071342468e-02
-1.520252786576747894e-02
7.038484513759613037e-02
-4.275536164641380310e-02
-1.276905983686447144e-01
-2.618427388370037079e-02
1.115708425641059875e-01
6.491438485682010651e-03
8.862522244453430176e-02
7.973407953977584839e-02
6.184968724846839905e-02
4.360694438219070435e-02
1.275748759508132935e-01
1.773388981819152832e-01
-1.242893747985363007e-02
1.074805259704589844e-01
9.772656112909317017e-02
-1.210426986217498779e-01
-8.044463396072387695e-02
-1.606421619653701782e-01
-1.389530748128890991e-01
-6.910391617566347122e-03
-1.388170756399631500e-03
8.457756042480468750e-02
8.169949799776077271e-02
-1.135507971048355103e-02
-6.516475975513458252e-02
-3.408221900463104248e-02
3.553867340087890625e-02
2.375693246722221375e-02
-9.726767241954803467e-02
-4.950453061610460281e-03
1.019191741943359375e-01
1.905005984008312225e-02
-4.212980717420578003e-02
-1.220972184091806412e-02
7.551132142543792725e-02
6.718602776527404785e-02
5.476054921746253967e-02
2.694349363446235657e-02
-7.470023352652788162e-03
-2.451383322477340698e-02
-4.159615561366081238e-02
-6.085246428847312927e-02
-2.325055748224258423e-02
7.049935311079025269e-02
-1.553287077695131302e-02
-8.370719850063323975e-02
1.121019292622804642e-02
6.743294000625610352e-02
-4.265699535608291626e-02
-1.180502697825431824e-01
-6.236800551414489746e-02
3.179977415129542351e-03
3.736779838800430298e-02
2.857044339179992676e-02
-3.090057335793972015e-02
-4.252533614635467529e-02
-8.003903180360794067e-02
-2.031264826655387878e-02
-3.882350772619247437e-02
3.279585391283035278e-02
-6.742353737354278564e-02
3.883410617709159851e-02
-1.891083642840385437e-02
2.023875154554843903e-02
-2.263103052973747253e-02
-3.345713764429092407e-02
1.389960478991270065e-02
1.185447499155998230e-01
2.195161767303943634e-02
-2.340019680559635162e-02
-2.311374805867671967e-02
1.119063049554824829e-02
-4.282417893409729004e-02
5.610996484756469727e-02
6.637003272771835327e-02
1.522968988865613937e-02
5.492345243692398071e-02
5.233018845319747925e-02
5.451137945055961609e-02
4.516106843948364258e-02
-3.005502931773662567e-02
-6.753306370228528976e-03
-2.745227888226509094e-02
4.530839994549751282e-02
3.359242901206016541e-02
2.385953254997730255e-02
2.111752703785896301e-02
3.981980681419372559e-02
-2.632473409175872803e-02
-1.777754910290241241e-02
8.578691631555557251e-02
8.690447360277175903e-02
4.268606379628181458e-02
8.162262290716171265e-02
-3.174351528286933899e-02
1.665129326283931732e-03
3.451855853199958801e-02
2.438272722065448761e-02
6.494414806365966797e-02
3.844214230775833130e-02
-1.647558435797691345e-02
8.449936867691576481e-04
5.473115481436252594e-03
-7.101726531982421875e-02
-1.560514606535434723e-02
-9.815414249897003174e-02
-1.019228808581829071e-02
2.887094393372535706e-02
-5.633702501654624939e-02
1.773720234632492065e-02
-1.235085772350430489e-03
-8.175117969512939453e-01
-9.585551917552947998e-02
4.269738122820854187e-02
1.129622310400009155e-01
1.124647632241249084e-01
3.989203274250030518e-02
6.591145694255828857e-02
1.040305644273757935e-01
6.724710110574960709e-03
-6.044410541653633118e-02
-1.931514889001846313e-01
-1.877074986696243286e-01
-3.565310686826705933e-02
-1.334759593009948730e-01
-7.344586402177810669e-02
-5.134679749608039856e-02
-4.940921068191528320e-02
-1.314505562186241150e-02
-6.777650862932205200e-02
5.137544497847557068e-02
2.276504598557949066e-02
6.933988630771636963e-02
1.673752069473266602e-01
4.434337094426155090e-02
1.166540384292602539e-02
6.565471738576889038e-02
-1.100543979555368423e-02
-1.588423401117324829e-01
-5.542556196451187134e-02
1.316413730382919312e-01
7.143568363972008228e-04
-3.754789009690284729e-02
2.860676497220993042e-02
1.351896673440933228e-01
3.743115067481994629e-02
-2.501511014997959137e-02
-1.258717570453882217e-02
8.658987283706665039e-02
1.194977164268493652e-01
1.420948803424835205e-01
7.266466319561004639e-02
8.813153952360153198e-02
1.444889158010482788e-01
9.457775205373764038e-02
1.624040901660919189e-01
-1.689182128757238388e-03
-5.580232013016939163e-03
-1.581554301083087921e-02
5.711891874670982361e-02
1.471660733222961426e-01
2.880078554153442383e-01
1.460231393575668335e-01
1.286550015211105347e-01
1.448708027601242065e-01
-9.048290550708770752e-02
-7.972238957881927490e-02
-5.606954544782638550e-02
-8.027768693864345551e-03
8.396971225738525391e-02
-1.054197549819946289e-02
1.465073879808187485e-02
-1.205302178859710693e-01
-1.553078554570674896e-02
-9.269374422729015350e-03
-1.509203296154737473e-02
3.648103401064872742e-02
3.756780177354812622e-02
-2.481629140675067902e-02
-1.243453770875930786e-01
-1.349389702081680298e-01
-7.007648050785064697e-02
-1.305069029331207275e-01
-1.058417111635208130e-01
-1.238112673163414001e-01
-1.106807515025138855e-01
-3.182901127729564905e-04
2.949689887464046478e-02
-4.630244523286819458e-02
-1.007962897419929504e-01
-1.068366505205631256e-02
1.308226026594638824e-02
-1.811988465487957001e-02
-1.038337349891662598e-01
-7.441081106662750244e-02
-1.347538381814956665e-01
-1.754447072744369507e-01
-1.124343052506446838e-01
1.944538392126560211e-02
1.495541930198669434e-01
1.012498438358306885e-01
1.863091439008712769e-01
-5.411165580153465271e-02
-1.895501911640167236e-01
-6.302440911531448364e-02
1.863624900579452515e-03
-1.377546489238739014e-01
-1.292072236537933350e-01
-2.611801726743578911e-03
6.363082677125930786e-02
1.581546068191528320e-01
1.719730198383331299e-01
-3.085883893072605133e-02
-1.384375840425491333e-01
-9.474368393421173096e-02
-2.622298151254653931e-02
3.667506575584411621e-02
-1.070731356739997864e-01
-1.287078559398651123e-01
-8.124032616615295410e-02
-6.792500615119934082e-02
-1.594284772872924805e-01
-8.419497311115264893e-02
-2.591715939342975616e-02
-6.495518237352371216e-02
2.590302750468254089e-02
-1.615220913663506508e-03
5.374790355563163757e-02
8.449443615972995758e-03
-2.512438409030437469e-02
-4.608401656150817871e-02
-9.710701555013656616e-02
-8.779111504554748535e-02
-1.847603917121887207e-01
-1.125197410583496094e-01
-1.375833153724670410e-01
-2.333270609378814697e-01
-5.856310576200485229e-02
-2.816226147115230560e-02
-9.824179112911224365e-02
2.629004605114459991e-02
-2.941653132438659668e-02
1.823754794895648956e-02
-3.380794823169708252e-02
1.995700644329190254e-03
-9.184808284044265747e-02
-8.619876950979232788e-02
-4.634747281670570374e-02
-1.660280115902423859e-02
-8.693863451480865479e-02
-1.956571638584136963e-02
-7.645057886838912964e-02
4.275657609105110168e-02
1.413186937570571899e-01
1.036103442311286926e-01
1.647511124610900879e-01
1.508899778127670288e-01
1.862656325101852417e-01
-2.674484625458717346e-02
8.715186268091201782e-02
9.092071093618869781e-03
-7.857311517000198364e-02
4.762044176459312439e-02
9.577870368957519531e-02
7.386928889900445938e-03
2.418501768261194229e-03
8.526485413312911987e-02
-4.840160533785820007e-02
-3.832908347249031067e-02
-1.596556231379508972e-02
3.876772150397300720e-02
2.011530660092830658e-02
1.798119693994522095e-01
6.932825595140457153e-02
1.637639552354812622e-01
1.400975435972213745e-01
7.797180861234664917e-02
-1.644468158483505249e-01
-5.218453705310821533e-02
-2.649528682231903076e-01
-1.451814621686935425e-01
-1.711185835301876068e-02
1.618319377303123474e-02
-5.925580859184265137e-02
-1.781497448682785034e-01
4.043331742286682129e-02
2.184226736426353455e-02
2.834513038396835327e-02
1.407965831458568573e-02
-1.203298121690750122e-01
-1.258171945810317993e-01
-1.275992989540100098e-01
-1.507737785577774048e-01
8.452206850051879883e-03
1.117521524429321289e-01
1.682237386703491211e-01
1.383132040500640869e-01
9.142311289906501770e-03
1.541795283555984497e-01
7.298842817544937134e-02
6.838969886302947998e-02
5.030999332666397095e-02
-1.114904507994651794e-01
1.424233913421630859e-01
-9.290082752704620361e-02
6.547624617815017700e-02
1.573764681816101074e-01
8.325282484292984009e-02
5.526770651340484619e-02
7.642076234333217144e-04
2.771429717540740967e-03
-8.666116744279861450e-02
5.103407427668571472e-02
8.842379320412874222e-04
6.013062968850135803e-02
6.463120132684707642e-02
1.474797427654266357e-01
-5.330796912312507629e-02
-7.521801441907882690e-02
-2.638219110667705536e-02
-4.775437712669372559e-02
-2.305278368294239044e-02
5.038176104426383972e-02
-4.544624313712120056e-02
7.409445941448211670e-02
-1.152862887829542160e-02
1.702402532100677490e-02
1.479422301054000854e-01
2.927584946155548096e-01
1.454748809337615967e-01
1.472872495651245117e-01
2.012435346841812134e-01
1.305418163537979126e-01
2.767933532595634460e-02
5.387884378433227539e-02
1.260136812925338745e-01
6.860414892435073853e-02
2.064212970435619354e-02
-1.116856262087821960e-01
-2.994067268446087837e-03
-7.091615349054336548e-03
-1.258236169815063477e-01
-1.007768660783767700e-01
-9.787693619728088379e-02
-1.227060407400131226e-01
-1.680177450180053711e-01
-9.082768112421035767e-02
-1.533186286687850952e-01
-5.311815068125724792e-02
5.924830585718154907e-02
2.478489875793457031e-01
1.047892346978187561e-01
1.732322871685028076e-01
2.337521612644195557e-01
3.575459718704223633e-01
1.720598042011260986e-01
5.841588601469993591e-02
6.602382659912109375e-02
-2.045055106282234192e-02
-1.109291240572929382e-01
-1.586734317243099213e-03
-1.004583984613418579e-01
8.518644608557224274e-03
-8.935620635747909546e-02
-1.256976574659347534e-01
-1.080449000000953674e-01
1.171753630042076111e-01
9.187813103199005127e-02
6.495089828968048096e-02
4.915271326899528503e-02
-1.125438660383224487e-01
-9.137421846389770508e-02
-7.349247485399246216e-02
-6.093751639127731323e-02
-6.596504151821136475e-02
-7.407452166080474854e-02
4.781014472246170044e-02
-5.719068925827741623e-03
7.052118889987468719e-03
9.837755933403968811e-03
-5.284355953335762024e-02
-1.005303189158439636e-01
-1.567865610122680664e-01
2.581716515123844147e-02
-1.676796562969684601e-02
-3.921039775013923645e-02
-7.432472705841064453e-02
-8.294913917779922485e-02
-4.498724639415740967e-02
-7.306581735610961914e-02
-1.130022015422582626e-02
-1.789055913686752319e-01
-1.509791761636734009e-01
-3.511989116668701172e-02
-6.828524917364120483e-02
5.532958731055259705e-02
-3.070909529924392700e-02
-1.456150263547897339e-01
-3.624485339969396591e-03
5.676909908652305603e-02
-2.181831300258636475e-01
-6.879549473524093628e-02
-3.267222270369529724e-02
5.682597309350967407e-02
-2.271960023790597916e-03
-8.326999098062515259e-02
-9.680165350437164307e-02
-2.038576006889343262e-01
-8.126971125602722168e-02
-2.736782431602478027e-01
-2.431291639804840088e-01
-1.596253812313079834e-01
-6.236405298113822937e-02
1.083604693412780762e-01
6.667053699493408203e-02
-3.601522743701934814e-02
-1.254140287637710571e-01
-2.983798831701278687e-02
-8.445091661997139454e-04
-1.243615671992301941e-01
4.115591943264007568e-02
-9.952211380004882812e-02
-6.449148058891296387e-02
-8.131463080644607544e-02
9.798637591302394867e-03
8.874288946390151978e-02
-1.064282804727554321e-01
-8.722340315580368042e-02
-7.803182303905487061e-02
5.427115131169557571e-03
-1.578401587903499603e-02
9.376807510852813721e-02
-5.584702012129127979e-05
-2.245254442095756531e-02
-5.643330141901969910e-02
-6.791258603334426880e-02
1.222780197858810425e-01
4.096491262316703796e-02
1.033874601125717163e-02
1.001920327544212341e-01
6.831950973719358444e-03
-1.552323345094919205e-02
-8.766911923885345459e-03
4.886871948838233948e-02
1.503395587205886841e-01
3.472751379013061523e-02
9.669797867536544800e-02
1.298844069242477417e-01
2.012901753187179565e-01
1.769272834062576294e-01
1.485158056020736694e-01
-4.948864225298166275e-03
2.185464799404144287e-01
2.251029163599014282e-01
1.551767289638519287e-01
7.982154935598373413e-02
7.459596544504165649e-02
2.492339462041854858e-01
9.731085598468780518e-02
1.458446979522705078e-01
5.341751873493194580e-02
2.866158261895179749e-02
8.398806303739547729e-02
-1.906180754303932190e-02
-1.003227904438972473e-01
-8.220075815916061401e-02
1.271196361631155014e-02
-3.309113532304763794e-02
-3.640358150005340576e-02
-3.317284956574440002e-02
-7.786369416862726212e-03
-1.283823698759078979e-01
-9.426642954349517822e-02
-2.649791724979877472e-02
2.027951553463935852e-02
1.058892458677291870e-01
4.191269725561141968e-02
1.843622475862503052e-01
3.473754739388823509e-03
2.513104490935802460e-02
4.361240938305854797e-02
-7.907439023256301880e-02
-1.142966002225875854e-01
-3.038362227380275726e-02
3.915625810623168945e-02
-1.453579366207122803e-01
-1.788107901811599731e-01
-1.195307746529579163e-01
-1.589321643114089966e-01
-1.095082983374595642e-01
4.660174250602722168e-02
6.349183619022369385e-02
1.456354409456253052e-01
4.649385809898376465e-02
1.252050101757049561e-01
7.983267307281494141e-02
1.888396888971328735e-01
1.286729276180267334e-01
1.648374050855636597e-01
1.854079961776733398e-01
4.298550263047218323e-02
1.003222167491912842e-01
1.836179494857788086e-01
7.766504585742950439e-02
9.065084904432296753e-02
1.594944298267364502e-01
8.945877850055694580e-02
2.331365495920181274e-01
1.881708651781082153e-01
4.881166294217109680e-02
1.479487568140029907e-01
5.470595508813858032e-02
2.120981458574533463e-03
-1.372894179075956345e-02
-1.057997159659862518e-02
8.385329507291316986e-03
2.784772077575325966e-03
3.336254134774208069e-02
6.810381263494491577e-02
1.554501503705978394e-01
1.848635822534561157e-02
1.611929386854171753e-02
8.748452365398406982e-02
1.566042155027389526e-01
3.988312184810638428e-02
8.663377910852432251e-02
1.447878777980804443e-01
1.610079109668731689e-01
3.884378820657730103e-02
1.125137433409690857e-01
-3.088223002851009369e-02
1.668236590921878815e-02
1.730278730392456055e-01
1.765854656696319580e-01
2.091910243034362793e-01
1.226848140358924866e-01
1.752690374851226807e-01
7.978150248527526855e-02
1.011797338724136353e-01
9.910742938518524170e-02
3.263436257839202881e-02
1.318860650062561035e-01
-9.975905530154705048e-03
1.187143474817276001e-01
7.603159174323081970e-03
3.966112062335014343e-02
4.254116490483283997e-02
8.723814040422439575e-02
6.639496237039566040e-02
5.879653990268707275e-02
6.842177361249923706e-02
-6.479726871475577354e-04
-6.224908307194709778e-02
-1.078654974699020386e-01
-4.581711441278457642e-02
6.358315795660018921e-02
1.038673706352710724e-02
2.142868377268314362e-02
1.851042509078979492e-01
1.785166412591934204e-01
6.445883214473724365e-02
5.878772214055061340e-02
3.448683768510818481e-02
1.671937853097915649e-02
-2.024967037141323090e-02
-1.070999130606651306e-01
4.295018687844276428e-02
1.240053176879882812e-01
9.161734580993652344e-02
1.865131035447120667e-02
-4.033633507788181305e-03
5.672312527894973755e-02
2.688924223184585571e-02
7.738507352769374847e-03
4.589835554361343384e-02
1.477571297436952591e-02
3.147750347852706909e-02
1.454129349440336227e-02
2.668577060103416443e-02
8.504255115985870361e-02
8.063015341758728027e-02
2.475641854107379913e-02
-9.189619868993759155e-02
3.499833168461918831e-03
-2.189407125115394592e-02
-4.474160075187683105e-02
-1.752447336912155151e-02
-6.201796699315309525e-03
-7.502187509089708328e-03
-4.026704281568527222e-02
-4.168690368533134460e-02
-2.620167471468448639e-02
-6.012149155139923096e-02
-1.949894241988658905e-02
2.902728877961635590e-02
-2.263691648840904236e-02
-7.356698811054229736e-02
-9.361773729324340820e-02
-4.947725310921669006e-02
-1.290976908057928085e-02
-1.240602880716323853e-01
-4.939871653914451599e-02
5.695347674190998077e-03
-5.557296052575111389e-02
5.558359250426292419e-02
-4.490723833441734314e-02
-5.701696872711181641e-02
-7.119525223970413208e-02
-8.721436560153961182e-02
-4.488076269626617432e-02
-6.947185099124908447e-02
-3.170999512076377869e-02
-6.631417572498321533e-02
-3.550231829285621643e-02
-1.061753481626510620e-01
-4.918506741523742676e-02
-9.848124347627162933e-03
-7.398425787687301636e-02
-5.441632494330406189e-02
-3.658677265048027039e-02
-3.433565422892570496e-02
-5.784198641777038574e-02
-1.030048951506614685e-01
1.745471507310867310e-01
-1.142628639936447144e-01
-1.156526058912277222e-01
2.950205467641353607e-02
8.947999216616153717e-03
2.993383631110191345e-02
1.538052260875701904e-01
1.215681284666061401e-01
1.888405382633209229e-01
7.759062945842742920e-02
1.918221451342105865e-02
1.189436316490173340e-01
-6.703113671392202377e-03
-6.917262822389602661e-02
4.172595217823982239e-02
8.868733048439025879e-02
5.206764861941337585e-02
-1.127588525414466858e-01
-1.145443990826606750e-01
2.957799099385738373e-02
5.087812617421150208e-02
-6.745487451553344727e-02
-1.925050280988216400e-02
2.381223486736416817e-03
-1.147049441933631897e-01
-5.783197004348039627e-03
4.087377712130546570e-02
3.707433119416236877e-02
1.128750853240489960e-02
1.341157108545303345e-01
7.141908258199691772e-02
-4.645047336816787720e-02
-9.928999096155166626e-02
-6.268531084060668945e-03
1.852733455598354340e-02
-6.907338649034500122e-02
-8.391267061233520508e-02
-1.484996825456619263e-01
-1.391424089670181274e-01
-2.367688864469528198e-01
-2.932622432708740234e-01
-2.682937681674957275e-01
-4.677207767963409424e-02
4.219781979918479919e-02
1.122191548347473145e-01
5.023387819528579712e-02
4.275693371891975403e-02
9.976155310869216919e-02
-6.492514908313751221e-02
1.754145510494709015e-02
1.930532976984977722e-02
-5.906196683645248413e-02
-1.093613915145397186e-02
1.209648996591567993e-01
2.306191064417362213e-02
-7.757952064275741577e-02
7.121634483337402344e-02
-6.985863298177719116e-02
-2.518232725560665131e-02
9.038466960191726685e-02
-5.171879753470420837e-02
-1.134115159511566162e-01
-9.029761701822280884e-02
6.849495321512222290e-02
6.645932793617248535e-02
8.986799418926239014e-02
2.189256250858306885e-01
1.111852452158927917e-01
-7.642760127782821655e-02
-5.336153134703636169e-02
-2.210638672113418579e-02
7.126455008983612061e-02
1.388237159699201584e-02
1.062821820378303528e-01
1.607959121465682983e-01
1.545388065278530121e-02
-5.414092168211936951e-02
-3.096809424459934235e-02
6.307829916477203369e-02
5.314143374562263489e-02
-5.743641778826713562e-02
-1.656155139207839966e-01
-2.762446105480194092e-01
-1.225560978055000305e-01
7.806305587291717529e-02
-3.582338616251945496e-02
-1.171416863799095154e-01
-1.317577213048934937e-01
-7.400950789451599121e-02
-1.014985218644142151e-01
-1.761863082647323608e-01
-1.413412243127822876e-01
-9.575933963060379028e-02
-1.099114641547203064e-01
4.856067150831222534e-02
-2.941147424280643463e-02
-2.720199525356292725e-02
-1.299401223659515381e-01
-8.950158208608627319e-02
5.023195967078208923e-02
-3.388234972953796387e-02
-9.180818684399127960e-03
-3.491133823990821838e-02
-1.075968667864799500e-01
-4.751839116215705872e-02
-1.464942097663879395e-01
-8.714037388563156128e-02
-2.076144963502883911e-01
-3.574142605066299438e-02
-9.385042637586593628e-02
-7.260690629482269287e-02
-4.877845942974090576e-02
5.060753598809242249e-02
-6.242813915014266968e-02
-2.743359096348285675e-02
-8.186526596546173096e-02
-6.544050294905900955e-03
1.304980963468551636e-01
3.975880518555641174e-02
2.276350557804107666e-02
6.427291780710220337e-02
4.317922890186309814e-02
9.092387557029724121e-02
-3.927512094378471375e-02
2.049900963902473450e-02
1.483856737613677979e-01
1.433412283658981323e-01
1.024084538221359253e-01
1.437726020812988281e-01
4.693366214632987976e-02
5.565006658434867859e-02
2.483582496643066406e-02
-9.044356644153594971e-02
1.190129369497299194e-01
6.659186631441116333e-02
-1.462783478200435638e-02
-1.796261072158813477e-01
-1.306108832359313965e-01
3.662439063191413879e-02
-8.234852552413940430e-02
4.329836741089820862e-02
1.591866314411163330e-01
5.413173511624336243e-02
6.197695061564445496e-02
-2.920901775360107422e-02
8.443621546030044556e-02
5.496675148606300354e-02
2.522239089012145996e-01
1.648809462785720825e-01
1.737931221723556519e-01
1.708714812994003296e-01
4.297323152422904968e-02
8.464575558900833130e-02
1.305192559957504272e-01
2.256212681531906128e-01
3.406681120395660400e-01
2.768905162811279297e-01
2.448136955499649048e-01
2.940024733543395996e-01
2.510660290718078613e-01
1.074681207537651062e-01
5.032793432474136353e-02
1.278942674398422241e-01
1.758858561515808105e-02
-2.162786759436130524e-02
-9.106018394231796265e-02
-8.909586817026138306e-02
-1.418271362781524658e-01
-1.364599727094173431e-02
2.386275492608547211e-02
1.649324744939804077e-01
1.227092072367668152e-01
1.043483465909957886e-01
2.087255008518695831e-02
6.151730194687843323e-03
1.205150317400693893e-02
-6.948673725128173828e-02
-1.508681941777467728e-02
3.200630843639373779e-02
9.039070457220077515e-03
1.641861945390701294e-01
4.546449333429336548e-02
-1.177890077233314514e-01
-1.324082463979721069e-01
-1.397738605737686157e-01
-8.087401092052459717e-02
-1.144697517156600952e-01
-2.261120676994323730e-01
-1.695454120635986328e-01
-1.692925989627838135e-01
2.951056696474552155e-02
-4.441916197538375854e-02
-2.284528315067291260e-01
-1.491106748580932617e-01
-1.760302931070327759e-01
-1.415420770645141602e-01
-1.601516604423522949e-01
-2.669808566570281982e-01
-8.223469555377960205e-02
5.056512076407670975e-03
-3.139194846153259277e-02
-1.890177577733993530e-01
-1.372833549976348877e-01
-1.560112088918685913e-01
-1.846560537815093994e-01
-1.141371577978134155e-01
-4.863792657852172852e-02
-1.886643171310424805e-01
-1.887462735176086426e-01
-9.694287925958633423e-02
-9.770919382572174072e-02
-1.784799247980117798e-01
-5.067833140492439270e-02
-1.872407644987106323e-02
1.277601113542914391e-03
-1.129471585154533386e-01
-1.171887516975402832e-01
-2.703436017036437988e-01
-1.309787333011627197e-01
-6.774289906024932861e-02
-4.392283409833908081e-02
-1.398726701736450195e-01
1.229879446327686310e-02
3.171354159712791443e-02
-9.883419424295425415e-02
-4.537030681967735291e-02
6.120967213064432144e-03
-3.180386498570442200e-02
-6.434788554906845093e-02
-9.200297296047210693e-02
3.460725024342536926e-02
-1.272614002227783203e-01
-2.981443703174591064e-02
2.050128728151321411e-01
1.110989153385162354e-01
1.322280149906873703e-02
8.294018357992172241e-02
7.457821816205978394e-02
3.806394338607788086e-02
-4.291291162371635437e-02
-8.134144544601440430e-02
-2.268136143684387207e-01
-7.448104768991470337e-02
-2.079246342182159424e-01
-4.870537295937538147e-02
-1.044304072856903076e-01
-5.603288859128952026e-02
-6.751474738121032715e-02
-7.977398484945297241e-02
-5.298152565956115723e-02
1.383712291717529297e-01
2.074515912681818008e-03
5.821698531508445740e-02
1.321350783109664917e-01
2.599135600030422211e-02
-1.905733346939086914e-02
8.204624801874160767e-02
6.914528459310531616e-02
-2.809261903166770935e-02
-1.797321438789367676e-01
-1.834313720464706421e-01
6.441996991634368896e-02
4.334725067019462585e-02
-7.073564082384109497e-02
6.653553992509841919e-02
8.042427152395248413e-02
1.946746488101780415e-03
2.834613621234893799e-02
6.233175471425056458e-02
1.188372671604156494e-01
-1.071752682328224182e-01
-3.636546060442924500e-02
1.926437616348266602e-01
4.166522622108459473e-02
1.800388097763061523e-01
-1.577774994075298309e-02
-7.096394896507263184e-02
4.599026590585708618e-02
1.586436331272125244e-01
4.661851748824119568e-02
8.129351586103439331e-02
1.884865760803222656e-01
8.249633759260177612e-02
1.043706089258193970e-01
-5.168006755411624908e-03
-8.410438150167465210e-02
1.002113372087478638e-01
8.585088700056076050e-02
4.868641495704650879e-02
1.393486410379409790e-01
1.703832596540451050e-01
5.828488990664482117e-02
-2.442085184156894684e-02
-3.711394593119621277e-02
1.028674766421318054e-01
1.367229372262954712e-01
1.550130993127822876e-01
-1.482768058776855469e-01
1.466344296932220459e-01
2.476066499948501587e-01
4.331644624471664429e-02
-2.522908896207809448e-02
-1.063355728983879089e-01
1.293684244155883789e-01
8.353785425424575806e-02
2.475527971982955933e-01
1.472896784543991089e-01
1.171827465295791626e-01
1.074534058570861816e-01
-2.204594016075134277e-02
-3.252530703321099281e-03
2.015874236822128296e-01
1.564901769161224365e-01
-1.673864200711250305e-02
-2.120548859238624573e-03
1.852190867066383362e-02
-7.771091163158416748e-02
1.484471261501312256e-01
1.456664204597473145e-01
1.243329886347055435e-02
-5.879893526434898376e-02
-9.265876561403274536e-02
-7.962650060653686523e-02
-5.647516995668411255e-02
1.780099608004093170e-02
-7.673258334398269653e-02
-8.686100691556930542e-02
2.219898998737335205e-02
-1.074329838156700134e-01
-1.214222051203250885e-03
-4.149570688605308533e-02
5.666709505021572113e-03
7.756235450506210327e-02
1.653131330385804176e-03
-4.461059346795082092e-02
8.631610125303268433e-02
-6.324998289346694946e-02
-1.055406313389539719e-02
1.795197313185781240e-04
3.433048259466886520e-03
1.018376797437667847e-01
-9.940098971128463745e-02
3.479385748505592346e-02
1.249514594674110413e-01
8.557142317295074463e-02
9.001976810395717621e-03
-5.134078115224838257e-02
2.484139427542686462e-02
-6.581103801727294922e-02
6.395078450441360474e-02
-7.605991326272487640e-03
4.565755650401115417e-02
2.537782303988933563e-02
5.933939665555953979e-02
3.216088935732841492e-02
-8.751545846462249756e-02
6.737568229436874390e-02
2.019775956869125366e-01
-5.266894772648811340e-02
-2.968223392963409424e-02
3.584581613540649414e-02
3.286061808466911316e-02
8.083909004926681519e-02
-2.936707995831966400e-02
-9.181603789329528809e-02
-4.805881157517433167e-02
-4.966976866126060486e-02
-3.441542387008666992e-02
-1.084224134683609009e-01
-4.942244384437799454e-03
-3.431589528918266296e-02
-1.627941429615020752e-02
-3.148213028907775879e-02
7.522078603506088257e-02
2.386716753244400024e-01
1.765824854373931885e-01
2.169982492923736572e-01
2.298597544431686401e-01
-3.833588585257530212e-02
-2.863320335745811462e-02
2.512209676206111908e-02
-4.209918901324272156e-02
9.072724729776382446e-03
7.913670688867568970e-02
-1.473214570432901382e-02
-4.548614099621772766e-02
-1.219020411372184753e-02
7.903545349836349487e-02
-1.179326102137565613e-01
1.342459022998809814e-01
2.618354745209217072e-03
-2.174704894423484802e-02
-6.566289812326431274e-02
-9.167779982089996338e-02
-4.123119264841079712e-02
-2.574012987315654755e-02
-1.037318557500839233e-01
-1.250490248203277588e-01
-1.172206103801727295e-01
-1.847780346870422363e-01
-1.449564564973115921e-02
1.506261229515075684e-01
8.209780603647232056e-02
-3.346215933561325073e-02
2.874218486249446869e-02
-1.258735265582799911e-02
1.214569783769547939e-03
-5.960686877369880676e-02
-2.346020936965942383e-01
5.638943985104560852e-02
-5.319737643003463745e-02
-2.398886531591415405e-01
-1.863663196563720703e-01
-4.445175826549530029e-02
-1.128696352243423462e-01
-7.286075502634048462e-02
-4.438778851181268692e-03
1.083031371235847473e-01
3.844775632023811340e-02
2.295341528952121735e-02
-2.717322856187820435e-02
2.616449492052197456e-03
-3.754326328635215759e-02
-6.534174084663391113e-02
2.329559624195098877e-02
-7.714626938104629517e-02
3.587325289845466614e-02
-1.044355556368827820e-01
-5.786093696951866150e-02
-4.303101450204849243e-02
-1.696284115314483643e-01
-3.934713825583457947e-02
-9.167756140232086182e-02
-8.050507307052612305e-02
-2.898838647524826229e-05
6.645029783248901367e-02
-1.504167616367340088e-01
-8.162718266248703003e-02
-6.776168476790189743e-03
-1.218078099191188812e-02
-2.974978275597095490e-02
1.324801798909902573e-02
2.804758260026574135e-03
-4.782049357891082764e-02
-1.463076919317245483e-01
-7.554515451192855835e-02
3.063703142106533051e-02
-7.233673334121704102e-02
-9.681019932031631470e-02
-1.403568238019943237e-01
-1.538073867559432983e-01
-1.972627341747283936e-01
-1.277797818183898926e-01
-1.182468459010124207e-01
-7.170564681291580200e-02
-1.191770508885383606e-01
-1.452400833368301392e-01
-1.248301938176155090e-01
-1.117058321833610535e-01
-3.461733460426330566e-02
-4.416119307279586792e-02
9.883054532110691071e-03
-1.146110221743583679e-01
-4.857105016708374023e-02
-4.447165876626968384e-02
-3.029047138988971710e-02
-6.761725246906280518e-02
-2.190217375755310059e-02
-4.670041427016258240e-02
1.472018752247095108e-02
-2.393455803394317627e-02
3.332163766026496887e-02
3.916499670594930649e-03
-9.193175472319126129e-03
8.829473704099655151e-02
6.986570358276367188e-02
5.609794054180383682e-03
1.493922062218189240e-02
2.182974852621555328e-02
-1.085867732763290405e-02
-2.630588039755821228e-02
9.632068686187267303e-03
7.182554155588150024e-02
5.784629285335540771e-02
4.675857257097959518e-03
-8.363000815734267235e-04
7.545470446348190308e-02
1.441253628581762314e-02
-3.036034293472766876e-03
-2.751726657152175903e-02
-5.219265818595886230e-03
1.622457057237625122e-02
5.544851347804069519e-02
3.299883380532264709e-02
8.091256022453308105e-02
1.029442623257637024e-01
3.606921434402465820e-02
1.014431342482566833e-01
2.381675317883491516e-02
-4.023386538028717041e-02
4.732543230056762695e-02
1.255844831466674805e-01
1.240303888916969299e-01
5.169810727238655090e-02
1.183873713016510010e-01
9.047216176986694336e-02
1.312218904495239258e-01
1.174703016877174377e-01
3.802793845534324646e-02
4.723706468939781189e-02
2.631230838596820831e-02
1.045943275094032288e-01
-4.106837511062622070e-01
-2.345194295048713684e-02
2.465807646512985229e-02
1.311190128326416016e-01
2.551384866237640381e-01
9.136789292097091675e-02
-1.381891071796417236e-01
-2.432155311107635498e-01
-1.488252878189086914e-01
-1.131911575794219971e-01
-5.052872002124786377e-02
-5.765959620475769043e-02
-1.307264436036348343e-03
1.126220915466547012e-02
8.646436035633087158e-02
9.873330593109130859e-03
1.565524041652679443e-01
2.278328388929367065e-01
1.540485918521881104e-01
4.649807140231132507e-02
-8.823185414075851440e-02
-1.397009845823049545e-02
8.804081380367279053e-02
1.717913299798965454e-01
1.024140715599060059e-01
1.429003924131393433e-01
-1.179935857653617859e-01
-9.587339311838150024e-02
9.062267839908599854e-02
1.637819558382034302e-01
2.887357585132122040e-02
-1.241016760468482971e-01
-3.146440163254737854e-02
5.005267262458801270e-02
6.604323536157608032e-02
-3.735869750380516052e-02
2.232111245393753052e-02
3.059533238410949707e-02
7.272735238075256348e-02
-7.398087996989488602e-03
-4.501743614673614502e-02
8.179262280464172363e-03
-3.336234018206596375e-02
-1.272529363632202148e-02
1.084485873579978943e-01
-1.346659660339355469e-01
2.404981665313243866e-02
-4.351034760475158691e-02
-1.447011828422546387e-01
-3.460410237312316895e-02
-5.047942325472831726e-02
2.247811993584036827e-03
4.132519662380218506e-02
-5.280729383230209351e-02
-1.261803554370999336e-03
5.335953831672668457e-02
-7.340417057275772095e-02
1.841502822935581207e-02
1.018415167927742004e-01
-9.645724296569824219e-02
-4.330036416649818420e-02
2.938714064657688141e-02
1.721610873937606812e-02
-9.271603077650070190e-02
9.316098690032958984e-02
6.468266248703002930e-02
-5.930155143141746521e-02
-1.986033618450164795e-01
1.666724309325218201e-02
6.027518585324287415e-02
-2.879446931183338165e-02
-2.232776135206222534e-01
-9.785199165344238281e-02
6.036380305886268616e-02
-1.138911000452935696e-03
-2.550432085990905762e-01
-2.180364914238452911e-02
9.638519585132598877e-02
1.590228378772735596e-01
-6.525261700153350830e-02
-1.845394968986511230e-01
-1.132669672369956970e-02
1.824336200952529907e-01
2.302573323249816895e-01
1.871261186897754669e-02
-1.331426901742815971e-03
1.262052059173583984e-01
2.127589285373687744e-01
1.322454363107681274e-01
-6.628564000129699707e-02
-5.492803826928138733e-02
7.415229827165603638e-02
1.558708995580673218e-01
1.711724549531936646e-01
6.584294140338897705e-02
-1.245441380888223648e-02
-1.129110306501388550e-01
-2.360452339053153992e-02
1.495219171047210693e-01
-6.537465006113052368e-02
-1.195770651102066040e-01
-2.250271150842308998e-03
-7.300298660993576050e-02
3.627391904592514038e-02
1.539101172238588333e-02
-7.873576250858604908e-04
-8.312446624040603638e-02
-8.732645958662033081e-02
-1.477213948965072632e-02
6.570983678102493286e-02
-7.978851348161697388e-02
-6.454471498727798462e-02
-4.074501991271972656e-02
-7.164578139781951904e-02
-6.738764792680740356e-02
-4.395143687725067139e-02
1.176791079342365265e-02
3.934854641556739807e-02
3.606823459267616272e-02
6.988226622343063354e-02
-1.165022253990173340e-01
-9.229257702827453613e-02
-3.366879746317863464e-02
-1.515847072005271912e-02
5.030746106058359146e-03
-4.349778592586517334e-02
1.402751058340072632e-01
1.020242720842361450e-01
-1.730452850461006165e-02
1.436095219105482101e-02
7.099609822034835815e-02
-8.133717812597751617e-03
2.010187599807977676e-03
2.287785708904266357e-01
-4.263506457209587097e-02
-4.485455900430679321e-02
9.309944580309092999e-04
9.562120586633682251e-02
1.568908691406250000e-01
-1.174868345260620117e-01
-1.870577335357666016e-01
-1.867460757493972778e-01
-6.384076923131942749e-02
4.655955731868743896e-02
1.652922332286834717e-01
2.438476532697677612e-01
2.403670996427536011e-01
1.759806871414184570e-01
7.574381679296493530e-02
-1.080484464764595032e-01
-1.181643083691596985e-01
-1.482424139976501465e-01
-1.088018268346786499e-01
-2.493125759065151215e-02
-4.439809918403625488e-02
7.927298545837402344e-03
1.725400537252426147e-01
1.137730628252029419e-01
1.361742317676544189e-01
8.775434643030166626e-02
-1.921520940959453583e-02
2.318260073661804199e-01
-3.939561173319816589e-02
-6.970430910587310791e-02
-5.596973374485969543e-02
-2.417226694524288177e-02
2.725739777088165283e-02
7.810879964381456375e-03
-7.876775413751602173e-02
-1.186887249350547791e-01
-3.370745852589607239e-02
-5.618379265069961548e-02
-8.743631839752197266e-02
-6.068785116076469421e-02
9.758200496435165405e-02
6.600717455148696899e-02
4.811022430658340454e-02
2.049522995948791504e-01
2.975935041904449463e-01
-9.030099317897111177e-05
-2.074180729687213898e-02
5.133862607181072235e-03
-1.585066020488739014e-01
-9.073908627033233643e-02
-3.402094170451164246e-02
-6.463008373975753784e-02
4.300781339406967163e-02
4.239378497004508972e-02
1.164214983582496643e-01
7.356229424476623535e-02
-8.833099901676177979e-02
-7.914787530899047852e-02
-7.633624970912933350e-02
-1.294664442539215088e-01
-2.229435369372367859e-02
-2.303466051816940308e-01
-2.004130482673645020e-01
4.156570136547088623e-02
-8.689833432435989380e-02
-1.317263692617416382e-01
-1.273559182882308960e-01
-1.113504022359848022e-01
4.888176545500755310e-02
3.391972556710243225e-02
3.210196271538734436e-02
1.123963203281164169e-02
8.217319846153259277e-02
7.354597002267837524e-02
3.529099002480506897e-02
1.258263140916824341e-01
5.829164013266563416e-02
-1.302594691514968872e-01
-2.452064901590347290e-01
5.600973218679428101e-02
7.627431303262710571e-02
5.291366018354892731e-03
2.011941522359848022e-01
1.990186423063278198e-01
1.203529089689254761e-01
1.647765636444091797e-01
1.020162850618362427e-01
-4.979618266224861145e-02
-9.696713089942932129e-02
2.976683899760246277e-03
7.411994785070419312e-02
4.288963600993156433e-02
7.683350145816802979e-02
-1.540324687957763672e-01
-1.541325300931930542e-01
-1.758400001563131809e-03
1.119932606816291809e-01
3.494434058666229248e-02
-1.365908235311508179e-01
-4.337590560317039490e-02
2.257594913244247437e-01
3.628051280975341797e-02
-1.915901303291320801e-01
-1.883255541324615479e-01
-1.481802463531494141e-01
-1.521012932062149048e-01
-4.191360902041196823e-03
-1.043570786714553833e-01
-2.045061588287353516e-01
-1.421115845441818237e-01
-1.036003157496452332e-01
-7.963253557682037354e-02
-1.245350614190101624e-01
-8.383155614137649536e-02
-1.967183127999305725e-02
-1.636308729648590088e-01
-1.478588767349720001e-02
-8.395554497838020325e-03
-1.104641258716583252e-01
-9.506931900978088379e-02
-2.970563769340515137e-01
-1.244774386286735535e-01
1.381508111953735352e-01
-1.906708776950836182e-01
-9.310201555490493774e-02
-1.761261969804763794e-01
-5.862155556678771973e-02
-3.118272125720977783e-02
3.835207968950271606e-02
2.118169888854026794e-02
-2.552851289510726929e-02
-1.710898727178573608e-01
7.689085789024829865e-03
-5.586313083767890930e-02
-1.395569890737533569e-01
-1.103449091315269470e-01
1.314876675605773926e-01
4.098475351929664612e-02
3.808313608169555664e-02
-8.350430428981781006e-02
-1.489824731834232807e-03
1.329724341630935669e-01
6.555496156215667725e-02
1.802517026662826538e-01
-1.535253040492534637e-02
8.629368990659713745e-02
1.355896592140197754e-01
-6.241501122713088989e-02
1.237931698560714722e-01
9.537445008754730225e-02
1.282784622162580490e-02
3.921764343976974487e-02
-8.389078825712203979e-02
-2.046205662190914154e-02
-1.293102651834487915e-01
1.201210469007492065e-01
1.967924088239669800e-01
1.534510701894760132e-01
2.377712354063987732e-02
1.885202974081039429e-01
1.035405620932579041e-01
-4.267735406756401062e-02
-1.798914372920989990e-02
4.259608220309019089e-03
6.861056387424468994e-02
-2.074942439794540405e-01
-1.033295840024948120e-01
-3.703445196151733398e-02
-7.467697560787200928e-02
-9.423988312482833862e-02
-7.180532813072204590e-02
-6.859108060598373413e-02
-6.962541490793228149e-02
-4.957607015967369080e-02
-2.127836830914020538e-02
3.776462515816092491e-03
-8.835326880216598511e-02
-1.604931354522705078e-01
-1.381527036428451538e-01
3.703930974006652832e-02
5.492433160543441772e-02
-9.106663614511489868e-02
-4.125282168388366699e-02
-2.433833666145801544e-02
-1.551563739776611328e-01
-1.470769941806793213e-01
6.190529838204383850e-02
5.485476553440093994e-02
3.520555794239044189e-02
2.639909684658050537e-01
1.593751013278961182e-01
2.346495687961578369e-01
2.249648422002792358e-01
-6.398869305849075317e-02
-2.010389976203441620e-02
4.397379234433174133e-02
-8.162247017025947571e-03
-5.536757875233888626e-03
-5.585377663373947144e-02
-2.050950825214385986e-01
-1.673392057418823242e-01
-5.724053457379341125e-02
-6.564965005964040756e-03
1.852307617664337158e-01
-9.747244417667388916e-03
-3.648886829614639282e-02
1.437343284487724304e-02
4.168176651000976562e-02
6.385967135429382324e-02
4.522166028618812561e-02
5.773078277707099915e-02
1.068967506289482117e-01
1.607856601476669312e-01
1.186872422695159912e-01
3.670394793152809143e-02
5.112508311867713928e-02
2.734036184847354889e-03
6.342899054288864136e-02
-6.689719855785369873e-02
-6.044093519449234009e-03
1.336078345775604248e-01
7.496369630098342896e-02
1.138188391923904419e-01
5.573071911931037903e-02
-6.532688438892364502e-02
6.608620285987854004e-02
1.289330571889877319e-01
1.698084473609924316e-01
-6.509739160537719727e-02
5.445450544357299805e-02
2.827097177505493164e-01
1.216272041201591492e-01
2.819525450468063354e-02
8.675432205200195312e-02
8.645018935203552246e-02
2.277458831667900085e-02
7.143597584217786789e-03
-1.508640348911285400e-01
9.583870321512222290e-02
1.894986480474472046e-01
1.312227845191955566e-01
2.032827883958816528e-01
2.635513246059417725e-01
8.158388733863830566e-02
6.221667397767305374e-03
-7.893747836351394653e-02
-3.895682841539382935e-02
-3.207523003220558167e-02
-7.239199429750442505e-02
5.837250873446464539e-02
-1.133289709687232971e-01
-7.898981869220733643e-02
2.677220664918422699e-02
-5.330081656575202942e-02
1.023650467395782471e-01
3.434654325246810913e-02
8.049464225769042969e-02
1.490904539823532104e-01
5.616221460513770580e-05
-6.241659075021743774e-02
4.717905074357986450e-02
-3.838153928518295288e-02
-5.712082609534263611e-02
-4.153932631015777588e-02
2.035731263458728790e-02
-2.041907981038093567e-02
8.712831884622573853e-02
9.087742865085601807e-02
-3.183173388242721558e-02
-4.363309219479560852e-02
-3.330823406577110291e-02
3.130552917718887329e-02
6.269188225269317627e-02
-1.087953150272369385e-02
1.309532225131988525e-01
1.173076704144477844e-01
7.113642245531082153e-02
2.108183875679969788e-02
-3.366200625896453857e-02
-2.338147349655628204e-02
3.636062517762184143e-02
1.737592816352844238e-01
8.794376254081726074e-02
7.724881172180175781e-02
2.455041557550430298e-02
-6.390391383320093155e-03
-1.209559366106987000e-01
-4.627181217074394226e-02
-3.695873916149139404e-02
3.446105122566223145e-02
1.202660575509071350e-01
6.157999113202095032e-02
9.838423132896423340e-02
4.645504429936408997e-02
-4.971488565206527710e-02
-1.177714089863002300e-03
-3.326827287673950195e-02
5.422323197126388550e-02
5.666873976588249207e-02
1.110059618949890137e-01
4.929991811513900757e-02
2.054283581674098969e-02
1.532298885285854340e-02
4.139544442296028137e-02
-3.166982904076576233e-03
-1.813662674976512790e-04
7.954806089401245117e-02
1.130639612674713135e-01
4.827111586928367615e-02
-2.713218517601490021e-02
3.963831067085266113e-02
-3.935658931732177734e-02
-9.172763675451278687e-02
-3.919195011258125305e-02
-7.764133810997009277e-02
-9.414487867616117001e-04
-5.253632087260484695e-03
-6.493571400642395020e-02
8.673289790749549866e-03
4.269447643309831619e-03
-2.355696633458137512e-02
4.611080139875411987e-02
1.763430051505565643e-02
-5.700939893722534180e-02
8.389942348003387451e-03
-6.916856765747070312e-02
-2.302587032318115234e-02
-4.195155203342437744e-02
5.914195999503135681e-02
4.600232932716608047e-03
2.285792119801044464e-02
-2.002555876970291138e-02
3.043720871210098267e-02
9.267166256904602051e-02
1.142971813678741455e-01
9.091579169034957886e-02
-2.581697702407836914e-02
-4.302292317152023315e-02
1.591968350112438202e-02
3.509093448519706726e-02
3.972176089882850647e-02
-4.949254216626286507e-04
9.157683700323104858e-02
2.906913869082927704e-02
-7.347073405981063843e-04
2.703581750392913818e-02
6.519187241792678833e-02
-8.539017289876937866e-03
-5.187257658690214157e-03
-3.026272542774677277e-02
3.777393698692321777e-02
-3.207664564251899719e-02
4.471622779965400696e-02
-1.703082025051116943e-02
-6.799105089157819748e-03
5.093778669834136963e-02
5.957363918423652649e-02
6.756827235221862793e-02
4.869706556200981140e-02
5.003500729799270630e-02
3.610288724303245544e-02
1.669747941195964813e-02
1.773907057940959930e-02
3.150480566546320915e-03
6.127889733761548996e-03
-2.462340518832206726e-02
-3.959252964705228806e-03
2.800937509164214134e-03
-7.676524575799703598e-03
-3.753158822655677795e-02
1.141722500324249268e-02
6.601633876562118530e-02
-3.501990064978599548e-02
-1.356346812099218369e-02
-6.916782353073358536e-03
1.348940003663301468e-02
-2.448173798620700836e-02
1.330527290701866150e-02
-6.557846665382385254e-01
2.013734728097915649e-01
2.248386591672897339e-01
1.842201314866542816e-02
-2.234477400779724121e-01
-1.127861216664314270e-01
-1.041509881615638733e-01
1.884501241147518158e-02
4.033621773123741150e-02
1.122350245714187622e-02
1.028148010373115540e-01
6.891119480133056641e-02
-1.035827249288558960e-01
-1.819275617599487305e-01
-9.287840873003005981e-02
5.070619657635688782e-02
-1.122967377305030823e-01
-5.157028883695602417e-02
-7.320997770875692368e-03
-4.688143730163574219e-02
-5.002824589610099792e-03
2.725580520927906036e-02
-6.455723941326141357e-02
-2.952617034316062927e-02
-7.059472054243087769e-02
-8.006564527750015259e-02
-1.556693166494369507e-01
-8.300279080867767334e-02
-1.651562452316284180e-01
-1.319421082735061646e-01
5.868036299943923950e-02
1.281559281051158905e-02
-1.888592392206192017e-01
-1.580045372247695923e-01
-6.898513436317443848e-02
-1.249148417264223099e-02
-2.697354927659034729e-02
-1.177844628691673279e-01
-2.109702676534652710e-01
-3.935850411653518677e-02
1.960830762982368469e-02
-4.624138399958610535e-02
-8.891294896602630615e-02
4.596401378512382507e-02
-3.858997253701090813e-03
-2.113593369722366333e-02
-1.183879822492599487e-01
-1.074546799063682556e-01
-1.070663779973983765e-01
-1.338298022747039795e-01
-2.336902618408203125e-01
-1.918912529945373535e-01
-1.515408754348754883e-01
-2.513328492641448975e-01
9.252371266484260559e-03
-4.658794403076171875e-02
-1.690544784069061279e-01
-8.267451822757720947e-02
-6.858355551958084106e-02
-1.064061298966407776e-01
-1.881504803895950317e-02
-1.592498458921909332e-02
-3.479385375976562500e-02
-2.082976400852203369e-01
-1.410585492849349976e-01
-1.471942216157913208e-01
-9.422742575407028198e-02
-5.051809549331665039e-02
-3.181383758783340454e-02
2.665031142532825470e-02
-9.834740310907363892e-03
-4.096001386642456055e-02
3.670832142233848572e-02
6.421287357807159424e-02
3.101810626685619354e-02
-3.663960099220275879e-02
-5.415718257427215576e-02
-4.068965837359428406e-02
1.597061380743980408e-02
3.524349629878997803e-02
7.372329384088516235e-02
2.304074913263320923e-02
-6.934998929500579834e-02
-3.778073564171791077e-02
-1.642749011516571045e-01
-1.008511111140251160e-01
-3.782121930271387100e-03
-1.791169308125972748e-02
-2.701399475336074829e-02
-8.204477839171886444e-03
-2.185506224632263184e-01
-1.989396363496780396e-01
3.555015474557876587e-02
-5.234877392649650574e-02
-1.430318504571914673e-01
-7.392206694930791855e-03
-7.372391968965530396e-02
-8.291897177696228027e-02
-7.725629955530166626e-02
-4.558955878019332886e-02
3.727322909981012344e-03
-5.412991344928741455e-02
9.185491502285003662e-02
1.273675411939620972e-01
2.125702053308486938e-02
-1.291945762932300568e-02
2.939349785447120667e-02
7.130594551563262939e-02
-3.320551663637161255e-02
6.105724722146987915e-02
3.523429483175277710e-02
3.313027322292327881e-02
-1.900891587138175964e-02
3.324512764811515808e-02
-2.887209132313728333e-02
-8.294386789202690125e-03
-4.081901907920837402e-02
-7.172764744609594345e-03
-7.056597620248794556e-02
6.027911603450775146e-02
-1.576977409422397614e-02
2.222991548478603363e-02
9.018963575363159180e-02
1.155480816960334778e-01
2.497686631977558136e-02
1.165965273976325989e-01
2.397771459072828293e-03
7.223188132047653198e-02
8.991834521293640137e-02
3.463687142357230186e-03
-7.090759277343750000e-02
5.400569736957550049e-02
-3.395402804017066956e-02
-1.037034317851066589e-01
-5.504631251096725464e-02
-8.799301832914352417e-02
-6.573047488927841187e-02
-9.216669201850891113e-02
-5.581348389387130737e-02
-6.968553364276885986e-02
-8.415986597537994385e-02
1.097575277090072632e-01
7.168631255626678467e-02
-1.223658770322799683e-02
-1.692937454208731651e-03
3.213925659656524658e-02
1.004068776965141296e-01
8.906255662441253662e-02
1.485835760831832886e-02
2.193581871688365936e-02
-2.788189239799976349e-02
1.332854270003736019e-03
-1.373841911554336548e-01
-1.287331525236368179e-02
1.807770878076553345e-02
-5.507133156061172485e-02
-2.083422243595123291e-02
6.688184291124343872e-02
5.956481024622917175e-02
1.187944337725639343e-01
1.158781573176383972e-01
9.273479692637920380e-03
1.265171021223068237e-01
9.358178824186325073e-02
2.323888838291168213e-01
1.103892922401428223e-01
-4.149518162012100220e-02
9.375892579555511475e-02
1.169513538479804993e-01
1.043635513633489609e-02
7.827446609735488892e-02
3.740619495511054993e-02
5.657835304737091064e-02
1.159347295761108398e-01
1.847804188728332520e-01
1.343977600336074829e-01
-1.277166306972503662e-01
-4.147874191403388977e-02
5.383156612515449524e-02
1.428304761648178101e-01
-2.676288038492202759e-02
-1.000979244709014893e-01
-1.505077816545963287e-03
-1.504700481891632080e-01
-7.379148900508880615e-02
1.060303971171379089e-01
2.618637867271900177e-02
2.745199017226696014e-02
-7.348627597093582153e-02
-1.415823847055435181e-01
-1.942341215908527374e-02
1.518223583698272705e-01
3.663756698369979858e-02
1.463944762945175171e-01
2.176529765129089355e-01
1.154998466372489929e-01
-2.008371520787477493e-03
-3.324594721198081970e-02
-1.163723971694707870e-02
-3.032929450273513794e-02
4.799203574657440186e-02
-5.122489295899868011e-03
-8.439101278781890869e-02
-1.113119944930076599e-01
2.396338619291782379e-02
-1.631721504963934422e-03
-4.132153000682592392e-03
-1.153197661042213440e-01
3.702741581946611404e-03
7.290455978363752365e-03
3.833008930087089539e-02
4.450976476073265076e-02
8.654698729515075684e-02
6.704231258481740952e-03
1.417421549558639526e-01
3.048647940158843994e-02
5.358613282442092896e-02
-1.283573508262634277e-01
-4.569940641522407532e-02
3.487718850374221802e-02
-1.467690430581569672e-02
-1.896614767611026764e-02
-4.933328554034233093e-02
9.817063808441162109e-02
7.888755947351455688e-02
-5.834682285785675049e-02
2.651536650955677032e-02
-1.040981784462928772e-01
6.479500979185104370e-02
-1.364534348249435425e-01
1.810645125806331635e-02
5.887128412723541260e-02
1.726005971431732178e-02
-5.398480594158172607e-02
-1.310882568359375000e-01
-1.186424866318702698e-01
-1.324836611747741699e-01
-9.365868568420410156e-02
-1.332547217607498169e-01
-1.400637626647949219e-01
-8.475035429000854492e-02
3.589140251278877258e-02
-1.429818943142890930e-02
-5.682407692074775696e-02
8.468759059906005859e-02
-1.231613848358392715e-02
9.769397974014282227e-02
-4.941027238965034485e-02
-1.198277920484542847e-01
-1.761217117309570312e-01
-2.510718107223510742e-01
-5.869751051068305969e-02
-2.431845478713512421e-02
-9.341798722743988037e-02
2.096224576234817505e-02
-2.668147347867488861e-02
-1.063612941652536392e-02
-8.196572773158550262e-03
-1.047323122620582581e-01
-5.089152604341506958e-02
3.509445860981941223e-02
1.033627912402153015e-01
1.453034020960330963e-02
-2.294871723279356956e-03
7.108297944068908691e-02
7.350900769233703613e-02
-2.315917797386646271e-02
-1.198125071823596954e-02
-1.723165996372699738e-02
-9.743646532297134399e-02
-8.621574938297271729e-02
-1.118267923593521118e-01
-7.134961336851119995e-02
2.674931474030017853e-02
-2.181025296449661255e-01
3.330094739794731140e-02
1.864323019981384277e-01
1.704279705882072449e-02
2.894709073007106781e-02
-5.474117770791053772e-02
-2.292905002832412720e-02
1.847591623663902283e-02
5.942728742957115173e-02
-7.106894254684448242e-02
-1.126132681965827942e-01
-5.800018459558486938e-02
6.544671207666397095e-02
-8.540196716785430908e-02
-4.061268270015716553e-02
-1.701676100492477417e-01
-6.904867291450500488e-02
-9.764493256807327271e-02
-3.927599638700485229e-03
7.799918204545974731e-02
3.068496473133563995e-02
-2.052246965467929840e-02
1.418769266456365585e-02
-2.652912139892578125e-01
-6.735502183437347412e-02
-3.075232170522212982e-02
-1.682444661855697632e-01
-2.711682319641113281e-01
-2.009232938289642334e-01
-1.602865159511566162e-01
-2.853264510631561279e-01
-2.711634933948516846e-01
-6.402858346700668335e-02
-6.762252002954483032e-02
-6.766445189714431763e-02
7.299754023551940918e-02
-1.278638746589422226e-02
2.674095518887042999e-02
2.016746997833251953e-02
-1.899588555097579956e-01
-7.607328146696090698e-02
1.535692662000656128e-01
-6.753778457641601562e-02
-4.303268715739250183e-02
-3.396660089492797852e-02
4.394481703639030457e-02
-4.025122523307800293e-02
-1.221616491675376892e-01
-8.135801181197166443e-03
-9.469168633222579956e-02
-2.075101435184478760e-02
-9.942183271050453186e-03
-1.157379373908042908e-01
9.599514305591583252e-03
-2.877409569919109344e-03
-2.380797639489173889e-02
-1.747781336307525635e-01
-7.813015580177307129e-02
-1.601356267929077148e-01
-1.617915034294128418e-01
-1.390848755836486816e-01
-2.581411004066467285e-01
-2.442259341478347778e-01
-2.399447858333587646e-01
-1.388131380081176758e-01
-1.661627143621444702e-01
-2.605497241020202637e-01
-2.076397240161895752e-01
-1.725420653820037842e-01
-1.165576800704002380e-01
-1.132885068655014038e-01
-1.092938035726547241e-01
-2.073749154806137085e-01
-7.104696333408355713e-02
-1.061948612332344055e-01
-1.596775501966476440e-01
-1.670013964176177979e-01
-1.043727397918701172e-01
5.005927756428718567e-02
-2.962276525795459747e-02
-2.422224581241607666e-01
-2.344855368137359619e-01
-2.795879840850830078e-01
-1.603733599185943604e-01
-1.110253408551216125e-01
6.965689361095428467e-03
-1.365112662315368652e-01
-1.814725399017333984e-01
-1.024054810404777527e-01
-1.594256460666656494e-01
-2.477953732013702393e-01
-7.917993515729904175e-02
-1.707024425268173218e-01
-1.898852288722991943e-01
-3.887222707271575928e-02
-1.065205875784158707e-02
-1.607557684183120728e-01
-5.040645971894264221e-02
-2.254543080925941467e-02
-4.245540127158164978e-02
-4.097037948668003082e-03
-1.491809263825416565e-02
-4.189438745379447937e-02
-9.730502963066101074e-03
6.035189330577850342e-02
2.154021337628364563e-02
-1.262121051549911499e-01
-2.473567724227905273e-01
-1.745479553937911987e-01
-2.248689718544483185e-02
-4.834086075425148010e-02
-5.856784433126449585e-02
-1.011721864342689514e-01
-1.292147934436798096e-01
-7.331951707601547241e-02
-2.558708749711513519e-02
-4.467365518212318420e-02
-1.786141693592071533e-01
-1.161299198865890503e-01
-6.211536377668380737e-02
-1.731598526239395142e-01
-1.232931166887283325e-01
-8.813624083995819092e-02
-1.926231570541858673e-02
-4.794959444552659988e-03
-7.471327483654022217e-02
-3.810052201151847839e-02
-7.390663493424654007e-03
-5.368030443787574768e-02
2.074574120342731476e-02
9.364744648337364197e-03
3.701680107042193413e-04
-1.235059574246406555e-01
1.984106004238128662e-02
1.750585250556468964e-02
-3.084860742092132568e-02
-1.973390579223632812e-02
-4.848784208297729492e-02
4.516586661338806152e-02
5.912466719746589661e-02
8.672068268060684204e-02
1.237756223417818546e-03
-5.494471639394760132e-02
5.235745757818222046e-02
-8.600897341966629028e-02
-4.431103542447090149e-02
-3.805318847298622131e-02
-2.047652192413806915e-02
-1.834599375724792480e-01
-9.668763726949691772e-02
-2.073024362325668335e-01
-1.219160929322242737e-01
-6.596624851226806641e-02
-7.215685397386550903e-02
2.863664412871003151e-03
5.241017416119575500e-02
4.541858658194541931e-02
5.977034196257591248e-02
-1.923940703272819519e-02
-3.511894494295120239e-02
6.810411065816879272e-02
2.293666638433933258e-02
1.629610732197761536e-02
2.717706561088562012e-02
2.999731223098933697e-04
-2.879637666046619415e-02
1.231392147019505501e-03
4.330917727202177048e-03
1.001917384564876556e-02
1.469942834228277206e-02
3.971165791153907776e-02
-4.703802987933158875e-02
4.489121958613395691e-03
-8.665677160024642944e-03
-5.846689641475677490e-02
7.009181659668684006e-03
-5.664496496319770813e-02
4.959501698613166809e-02
3.350552543997764587e-02
2.138430811464786530e-02
3.630723059177398682e-02
-5.886044725775718689e-02
-1.788329705595970154e-02
2.004265598952770233e-02
-3.366769477725028992e-02
-1.615408249199390411e-02
-9.412231855094432831e-03
-7.666093111038208008e-02
-5.867623537778854370e-02
-7.914929091930389404e-02
-1.260930730495601892e-04
-1.021808013319969177e-02
-2.359606511890888214e-02
-4.725357983261346817e-03
-9.758879989385604858e-02
-5.915604531764984131e-02
-7.559945434331893921e-02
-3.540799394249916077e-02
-8.701205253601074219e-02
-9.323733299970626831e-02
-1.082741469144821167e-01
-1.003212332725524902e-01
-1.521059684455394745e-02
-3.501337394118309021e-02
-2.793022803962230682e-02
-5.794361606240272522e-02
-3.275630250573158264e-02
-3.593242913484573364e-02
-4.700426384806632996e-02
-1.785998605191707611e-02
-3.979890048503875732e-02
-8.823522366583347321e-04
-3.067743778228759766e-02
-4.422020167112350464e-02
-6.469132751226425171e-02
2.276386879384517670e-02
-3.372482582926750183e-02
-3.685687482357025146e-02
9.657857008278369904e-03
-5.376422032713890076e-02
1.754780299961566925e-02
-5.490076914429664612e-02
-1.012921407818794250e-01
-3.921587485820055008e-03
-1.083431392908096313e-02
2.837178483605384827e-02
-1.805448532104492188e-02
1.006597466766834259e-02
-7.616552710533142090e-02
-4.886836558580398560e-02
-1.881269738078117371e-02
-8.934027701616287231e-02
-8.034130185842514038e-02
-1.125109614804387093e-03
-5.595842376351356506e-02
-9.125918895006179810e-02
-3.161327168345451355e-02
-3.292524442076683044e-02
6.207391619682312012e-01
-7.534047961235046387e-02
-1.893390268087387085e-01
-6.537304818630218506e-02
-1.017157584428787231e-01
6.590478867292404175e-02
1.465076804161071777e-01
1.553626060485839844e-01
1.444418877363204956e-01
1.966523975133895874e-01
8.994717150926589966e-02
1.135937720537185669e-01
-2.768797613680362701e-02
-2.291033603250980377e-02
9.608659148216247559e-02
7.662027329206466675e-02
-1.151638478040695190e-02
-1.031118482351303101e-01
-8.871512860059738159e-02
-3.050534985959529877e-02
6.940843909978866577e-02
-1.202194020152091980e-01
-6.471434235572814941e-02
-1.721592247486114502e-01
-2.014111578464508057e-01
-1.134118437767028809e-01
9.038917720317840576e-02
7.589012384414672852e-02
-5.267032608389854431e-02
-4.832897335290908813e-02
-4.020609706640243530e-02
9.954225271940231323e-03
-1.030084788799285889e-01
-1.697351932525634766e-01
-2.971406280994415283e-02
-1.108897104859352112e-02
-1.676983833312988281e-01
-2.043891400098800659e-01
-8.135525882244110107e-02
-1.702868044376373291e-01
-2.307426035404205322e-01
-2.752073109149932861e-01
-1.257411837577819824e-01
9.716038405895233154e-02
9.325470775365829468e-02
7.410617917776107788e-02
-1.356042325496673584e-01
-5.238332971930503845e-02
5.414227396249771118e-02
1.270815730094909668e-01
1.462410390377044678e-01
-7.557562738656997681e-02
-1.408818662166595459e-01
1.159348338842391968e-01
-2.495321333408355713e-01
-1.015173718333244324e-01
2.076509222388267517e-02
-6.999360769987106323e-02
7.047490030527114868e-02
2.861915826797485352e-01
1.924167573451995850e-02
-1.500022560358047485e-01
-3.874487429857254028e-02
1.231755241751670837e-01
-4.808503389358520508e-02
1.672657206654548645e-02
1.454246342182159424e-01
5.881169810891151428e-02
2.375531196594238281e-02
-2.995726838707923889e-02
5.929730460047721863e-02
1.992014003917574883e-03
-1.186919659376144409e-01
-5.190481618046760559e-02
7.399122416973114014e-02
1.534887403249740601e-01
1.092103775590658188e-02
-9.132888913154602051e-02
4.461831226944923401e-02
3.780839592218399048e-02
-1.490854322910308838e-01
-2.610222101211547852e-01
-3.517061769962310791e-01
-2.027264088392257690e-01
7.076788693666458130e-03
-3.489119932055473328e-02
-2.095924876630306244e-02
-1.361307650804519653e-01
-8.590011298656463623e-02
-4.695457592606544495e-02
-1.055752411484718323e-01
-9.156934916973114014e-02
-2.202552706003189087e-01
-2.491222918033599854e-01
1.448159664869308472e-01
-2.019824460148811340e-02
1.009492948651313782e-01
7.840593904256820679e-02
2.772407978773117065e-02
6.359776854515075684e-02
1.120056770741939545e-02
1.010777503252029419e-01
6.947802007198333740e-02
-1.056363955140113831e-01
1.897580549120903015e-02
1.242564693093299866e-01
2.044972032308578491e-03
-7.522839307785034180e-02
1.868590340018272400e-02
-8.124121278524398804e-02
1.385415904223918915e-02
3.636211156845092773e-02
-5.690725892782211304e-02
-1.492817997932434082e-01
-1.528754830360412598e-01
-9.322495013475418091e-02
-4.828823357820510864e-02
3.620025143027305603e-02
3.266920149326324463e-02
-1.561974287033081055e-01
-1.117313727736473083e-01
2.024574205279350281e-02
4.721681028604507446e-02
1.235424876213073730e-01
3.614552319049835205e-02
3.101149760186672211e-02
-4.541426151990890503e-02
-1.267118752002716064e-01
6.874672137200832367e-03
-1.710853353142738342e-02
1.233602613210678101e-01
1.195491179823875427e-01
1.893340609967708588e-02
7.653037458658218384e-02
7.449641078710556030e-02
4.326110333204269409e-02
1.250289082527160645e-01
6.954019190743565559e-04
6.741446442902088165e-03
1.977907866239547729e-01
1.858331859111785889e-01
9.786549955606460571e-02
1.631588041782379150e-01
1.003038287162780762e-01
8.124820142984390259e-02
-3.089821897447109222e-02
-9.269516170024871826e-02
7.331136614084243774e-02
-5.914364382624626160e-02
7.587017118930816650e-02
1.568476110696792603e-01
-2.559567056596279144e-02
-8.732128143310546875e-02
-1.107245907187461853e-01
-4.727097600698471069e-02
-1.811528764665126801e-02
5.644761770963668823e-02
2.802832052111625671e-02
-2.268056571483612061e-02
-7.478182762861251831e-02
-1.242064461112022400e-01
-7.844044268131256104e-02
-6.429505348205566406e-02
-3.131710737943649292e-02
-2.911612018942832947e-02
-1.537069082260131836e-01
-1.317829787731170654e-01
-2.207439690828323364e-01
-3.901651501655578613e-02
-1.018834859132766724e-01
-1.119087040424346924e-01
2.087768726050853729e-02
-1.027696281671524048e-01
-7.206016778945922852e-02
-1.310823410749435425e-01
-1.169415861368179321e-01
1.148601621389389038e-01
3.285056352615356445e-02
-5.934982746839523315e-02
5.926443263888359070e-02
3.618682548403739929e-02
-7.194735854864120483e-02
-8.547886461019515991e-02
-5.299256369471549988e-02
-1.403072625398635864e-01
-1.019805446267127991e-01
9.857227094471454620e-03
-8.016461133956909180e-02
1.068333610892295837e-01
-3.101949580013751984e-02
-2.029029652476310730e-02
-9.053693711757659912e-02
-4.510048776865005493e-02
-8.496727794408798218e-02
-8.441770821809768677e-02
1.584869064390659332e-02
-5.180259421467781067e-02
-1.991802155971527100e-01
9.492328017950057983e-02
2.333356253802776337e-02
-2.906168997287750244e-02
-1.349186003208160400e-01
8.324730396270751953e-02
-2.362390607595443726e-02
-2.491076290607452393e-01
-1.754251867532730103e-01
-2.617866918444633484e-02
-1.794134676456451416e-01
-1.147397458553314209e-01
-1.797112263739109039e-02
1.067971251904964447e-02
-8.406103402376174927e-02
1.202704943716526031e-02
8.634445071220397949e-02
2.096026986837387085e-01
6.867579650133848190e-03
-6.580863893032073975e-02
-7.817459106445312500e-02
-1.430656667798757553e-02
-1.111890971660614014e-01
-1.068461984395980835e-01
9.041359648108482361e-03
-3.345344960689544678e-02
1.822576113045215607e-02
-6.297721527516841888e-03
-4.783895239233970642e-02
-1.707609184086322784e-02
-4.465452954173088074e-02
4.231926985085010529e-03
-2.848158590495586395e-02
-2.116480469703674316e-02
-9.444696456193923950e-02
7.741457223892211914e-02
9.123027324676513672e-02
-1.954459697008132935e-01
-6.060083582997322083e-02
-1.379830669611692429e-02
-7.094877213239669800e-02
-1.398445367813110352e-01
-7.735903561115264893e-02
1.497561670839786530e-02
-4.091164842247962952e-02
-5.235926061868667603e-02
-8.903010934591293335e-02
-6.379676610231399536e-02
-6.789521872997283936e-02
1.526305675506591797e-01
3.728361055254936218e-02
6.857441365718841553e-02
2.645505778491497040e-02
-5.286126583814620972e-02
-1.841733455657958984e-01
-8.399465680122375488e-02
-1.098005920648574829e-01
1.433507166802883148e-02
5.900798738002777100e-02
2.200750634074211121e-02
4.360501468181610107e-02
-2.731421217322349548e-02
-8.956272155046463013e-02
-7.300745695829391479e-02
-3.152911784127354622e-03
4.850345477461814880e-02
5.033958330750465393e-02
9.258417785167694092e-02
7.360289990901947021e-02
-1.691519282758235931e-02
2.526734769344329834e-02
-1.589158028364181519e-01
1.084393486380577087e-01
-6.713874638080596924e-02
8.383756875991821289e-02
2.660069167613983154e-01
4.772579669952392578e-02
1.037074923515319824e-01
4.850418120622634888e-02
-6.738226115703582764e-02
5.765452235937118530e-02
2.100132033228874207e-02
1.601432636380195618e-02
-4.053293913602828979e-02
2.497188188135623932e-02
1.022109994664788246e-03
-7.320800423622131348e-02
6.975168734788894653e-02
1.195966172963380814e-02
2.807664871215820312e-02
-4.154722020030021667e-02
7.692509144544601440e-02
6.090668961405754089e-02
1.268087178468704224e-01
6.637031584978103638e-02
4.315087199211120605e-02
-2.967462241649627686e-01
-1.552344262599945068e-01
-9.474926441907882690e-02
-1.640185713768005371e-01
-1.103276759386062622e-02
4.214923456311225891e-02
3.393852338194847107e-02
4.665465652942657471e-02
-7.391569018363952637e-02
6.889697909355163574e-02
2.598105370998382568e-01
2.905534207820892334e-01
1.114572510123252869e-01
2.418967038393020630e-01
1.379720568656921387e-01
2.961312793195247650e-02
2.425595074892044067e-01
9.361042082309722900e-02
2.016536146402359009e-01
2.756920754909515381e-01
1.986234486103057861e-01
1.311899721622467041e-01
3.037444874644279480e-02
-1.002330146729946136e-02
1.925251632928848267e-01
2.961511611938476562e-01
-8.354090899229049683e-02
-1.813507638871669769e-02
-9.229832142591476440e-02
-1.531325727701187134e-01
-2.255199551582336426e-01
-2.711900696158409119e-02
2.970223873853683472e-02
-1.096978038549423218e-01
5.434414744377136230e-02
2.352010458707809448e-02
-1.855348050594329834e-02
-1.251461505889892578e-01
-8.131820708513259888e-02
4.720383882522583008e-02
1.733769774436950684e-01
1.158542260527610779e-01
1.180103197693824768e-01
-1.722294371575117111e-03
4.830408841371536255e-02
8.385222405195236206e-02
5.952241644263267517e-02
1.189536415040493011e-02
-4.420561715960502625e-02
-4.813066869974136353e-02
3.950405865907669067e-02
9.396264702081680298e-02
-1.248487550765275955e-02
1.389384865760803223e-01
7.175745069980621338e-02
-8.659018576145172119e-02
6.788709759712219238e-02
-6.920511275529861450e-02
1.652664393186569214e-01
2.050706148147583008e-01
6.066423654556274414e-02
1.558598130941390991e-02
-5.438172444701194763e-02
9.779064916074275970e-03
2.699623703956604004e-01
5.213450174778699875e-03
-1.202655360102653503e-01
6.374216824769973755e-02
1.852542278356850147e-03
4.921246320009231567e-02
1.258154399693012238e-03
-1.511548459529876709e-01
-1.301683485507965088e-01
3.611835092306137085e-02
7.042222470045089722e-02
-2.309039980173110962e-02
-1.382568734697997570e-03
-4.113286361098289490e-02
9.814865887165069580e-02
-2.916260436177253723e-02
-3.939860314130783081e-02
-5.863915756344795227e-02
1.587153971195220947e-01
1.111401095986366272e-01
1.557956337928771973e-01
4.624500125646591187e-02
2.549348771572113037e-01
1.736204624176025391e-01
-1.470818221569061279e-01
-1.262665688991546631e-01
-4.847623407840728760e-02
-5.551298614591360092e-03
-8.490937948226928711e-02
-7.788787037134170532e-02
-2.097645215690135956e-02
-3.420282900333404541e-02
4.577276110649108887e-02
-1.443519443273544312e-01
-2.444414049386978149e-02
1.141893863677978516e-01
3.440963104367256165e-02
8.018638007342815399e-03
-5.593627318739891052e-02
6.782882660627365112e-02
7.213172316551208496e-02
-2.675101347267627716e-02
4.314056783914566040e-02
7.514057308435440063e-02
1.079174503684043884e-01
4.437415301799774170e-02
6.959995627403259277e-02
5.478824675083160400e-02
6.008768919855356216e-03
8.253560401499271393e-03
2.836641669273376465e-02
-1.947725750505924225e-02
1.631079167127609253e-01
-2.094843424856662750e-02
-7.063359022140502930e-02
3.085011802613735199e-02
4.295766726136207581e-02
1.333956271409988403e-01
1.025787144899368286e-01
6.693250685930252075e-02
1.638975888490676880e-01
1.780393868684768677e-01
4.054943844676017761e-02
-4.768022894859313965e-02
-2.581079117953777313e-02
2.572178281843662262e-02
6.276616454124450684e-02
1.215616334229707718e-02
-6.067962944507598877e-02
-1.112524233758449554e-02
-1.377624366432428360e-02
1.596916280686855316e-02
1.155696436762809753e-02
-1.098931394517421722e-02
-3.292084857821464539e-02
-4.990369826555252075e-02
-1.468255091458559036e-02
-4.297158494591712952e-02
3.131740912795066833e-02
-5.286348611116409302e-02
-1.086265593767166138e-01
-2.901758998632431030e-02
2.970428392291069031e-02
2.285780943930149078e-02
-6.282760947942733765e-02
-9.906858950853347778e-02
-3.712618350982666016e-02
-3.287481144070625305e-02
4.704271908849477768e-03
-1.006069183349609375e-01
-7.622154802083969116e-02
-3.853096812963485718e-02
-1.676571369171142578e-02
-4.036642983555793762e-02
-5.843737721443176270e-02
-4.297272767871618271e-03
-3.236062824726104736e-02
-5.404251813888549805e-02
-4.115636274218559265e-02
-7.313985377550125122e-02
-3.008945845067501068e-02
-4.260318726301193237e-02
-8.535967208445072174e-03
2.993203140795230865e-02
-4.565607383847236633e-02
-6.341428309679031372e-02
-7.174511998891830444e-02
-4.168210178613662720e-02
-6.678695976734161377e-02
-1.084836721420288086e-01
-6.877454370260238647e-02
-3.042597323656082153e-02
-6.186089292168617249e-02
2.256590407341718674e-03
-3.981371596455574036e-02
-9.724307805299758911e-02
-3.605636209249496460e-02
-4.211333766579627991e-02
-3.479106351733207703e-02
-7.839564979076385498e-02
-8.502868562936782837e-02
-3.091366402804851532e-02
-3.366779163479804993e-02
-4.263859614729881287e-02
-7.012490648776292801e-03
1.234065741300582886e-02
-2.733596228063106537e-02
-7.726712524890899658e-02
-1.615433953702449799e-02
-3.835159167647361755e-02
-4.822226986289024353e-02
-5.026182904839515686e-02
-3.864080458879470825e-02
-1.555455196648836136e-02
-1.286293473094701767e-02
-3.252793103456497192e-02
-6.139462813735008240e-02
-8.446530438959598541e-03
-1.854832656681537628e-02
-2.204766497015953064e-02
-6.368090212345123291e-02
-3.853015974164009094e-02
-6.498677283525466919e-02
-2.220725081861019135e-02
-5.899546667933464050e-02
-4.116712138056755066e-02
-1.527375262230634689e-02
-7.685686647891998291e-02
-5.671915784478187561e-02
-2.023858949542045593e-02
-2.885436452925205231e-02
-7.584987208247184753e-03
1.858199946582317352e-02
-5.483989603817462921e-03
6.919392384588718414e-03
-4.333279132843017578e-01
3.775869607925415039e-01
3.557559549808502197e-01
2.678137123584747314e-01
1.109869629144668579e-01
4.464865848422050476e-02
1.025386080145835876e-01
1.282240897417068481e-01
6.461920589208602905e-02
2.435398846864700317e-02
-2.986700087785720825e-02
-4.830275848507881165e-02
-2.601191960275173187e-02
-1.492925286293029785e-01
-1.818650960922241211e-01
-8.444040268659591675e-02
-2.290841750800609589e-02
-1.630241237580776215e-02
-1.014378108084201813e-02
-2.329520136117935181e-02
-7.694571465253829956e-02
1.069766585715115070e-03
-1.600230485200881958e-02
-8.015797287225723267e-02
-8.465630933642387390e-03
-1.074048131704330444e-01
-1.437635719776153564e-01
-1.384803354740142822e-01
-1.091523692011833191e-01
-1.815298199653625488e-01
-3.447865322232246399e-02
1.816640235483646393e-02
-1.658221036195755005e-01
-9.661295264959335327e-02
-1.437525153160095215e-01
-5.715164821594953537e-03
6.187112070620059967e-03
-3.914097324013710022e-02
-7.121417671442031860e-02
2.785739302635192871e-02
-4.980365559458732605e-02
-7.301527261734008789e-02
-1.007965207099914551e-01
2.116088988259434700e-03
-1.346398890018463135e-01
5.093253031373023987e-02
2.549561113119125366e-02
-1.241049356758594513e-02
-2.085494995117187500e-02
-1.134176999330520630e-01
7.557608187198638916e-02
7.009637355804443359e-02
7.210874930024147034e-03
1.897004097700119019e-01
9.493424743413925171e-02
3.376007825136184692e-02
-6.466475874185562134e-02
-7.641776651144027710e-02
-1.351431906223297119e-01
-5.928928032517433167e-02
8.997477591037750244e-02
-3.245737403631210327e-02
-4.114755615592002869e-02
2.800880558788776398e-02
-7.541397935710847378e-04
-1.402224004268646240e-01
-1.210587769746780396e-01
-1.377223879098892212e-01
-1.155680641531944275e-01
-1.622302383184432983e-01
6.557980924844741821e-02
7.496520876884460449e-02
-2.872918732464313507e-02
-3.358469810336828232e-03
7.007002364844083786e-03
6.809903681278228760e-02
9.402113407850265503e-02
-1.266221166588366032e-03
-4.916162416338920593e-02
1.006279215216636658e-01
2.318102717399597168e-01
-3.467355296015739441e-02
-2.562460303306579590e-01
-1.377587020397186279e-01
-5.445912480354309082e-02
-7.929506897926330566e-02
-5.586215853691101074e-02
-1.111800819635391235e-01
-7.324407249689102173e-02
-3.080654703080654144e-02
4.594863206148147583e-02
-1.123294234275817871e-03
-3.073561191558837891e-02
-5.732521042227745056e-02
3.180965408682823181e-02
1.245470121502876282e-01
1.157133728265762329e-01
-7.909479737281799316e-02
-1.598474681377410889e-01
-1.577315330505371094e-01
1.134423688054084778e-01
2.209310233592987061e-02
-4.851840063929557800e-02
-1.636380106210708618e-01
-6.217940524220466614e-02
-1.702269352972507477e-02
-4.192752763628959656e-02
9.382081031799316406e-02
-2.878237888216972351e-02
-1.019807234406471252e-01
-2.083455473184585571e-01
-1.560835838317871094e-01
-8.131548017263412476e-02
5.349530279636383057e-02
1.307542175054550171e-01
-3.009118884801864624e-02
8.925463072955608368e-03
-5.046266317367553711e-02
-2.810919471085071564e-02
2.154313921928405762e-01
2.125856280326843262e-01
7.982007414102554321e-02
-2.941908314824104309e-02
2.783140353858470917e-02
-3.259094804525375366e-02
-4.374434426426887512e-02
1.338311433792114258e-01
1.198144406080245972e-01
5.471161380410194397e-02
-4.710775334388017654e-03
-7.074369490146636963e-02
-9.026401489973068237e-02
-1.082037091255187988e-01
2.305168099701404572e-02
7.189880125224590302e-03
-4.273308813571929932e-02
-6.232702732086181641e-02
-1.034545898437500000e-01
-1.039152145385742188e-01
5.716836452484130859e-02
-9.321174025535583496e-02
5.762906745076179504e-02
1.804108917713165283e-01
9.909339994192123413e-02
-1.338894013315439224e-02
-1.096208766102790833e-02
1.325758546590805054e-02
-1.722428947687149048e-02
-6.242591887712478638e-02
-6.780676543712615967e-02
-4.953625798225402832e-02
1.201053410768508911e-01
5.255211144685745239e-02
-3.022628650069236755e-02
1.203910335898399353e-01
7.979194819927215576e-02
-1.008238047361373901e-01
1.389492005109786987e-01
1.196996793150901794e-01
1.780213266611099243e-01
6.967509537935256958e-02
2.185507118701934814e-02
8.479232341051101685e-02
2.731673605740070343e-02
-4.168285429477691650e-02
-1.061297282576560974e-01
-2.414963766932487488e-02
1.375553756952285767e-01
1.458397209644317627e-01
1.648941636085510254e-01
-5.271174386143684387e-02
-1.466674059629440308e-01
-1.690162271261215210e-01
-1.367259323596954346e-01
-3.713915869593620300e-02
-1.088462024927139282e-01
-1.560886353254318237e-01
-8.880915492773056030e-02
-1.208013519644737244e-01
-1.266890298575162888e-02
-2.857417427003383636e-02
-1.213761568069458008e-01
6.803188472986221313e-02
-1.212434028275310993e-03
-6.763973087072372437e-02
-6.956307590007781982e-02
-2.954559624195098877e-01
-7.132236659526824951e-02
1.201347485184669495e-01
4.389512911438941956e-02
-3.750610724091529846e-02
1.989556942135095596e-03
8.256545662879943848e-02
-1.302098780870437622e-01
-5.888078361749649048e-02
-4.416048154234886169e-02
2.090774103999137878e-02
-5.008450895547866821e-02
-1.939305514097213745e-01
5.712478980422019958e-02
-1.308849304914474487e-01
-1.532544195652008057e-01
-5.646158382296562195e-02
-7.080304436385631561e-03
3.651089593768119812e-02
-5.392319336533546448e-02
6.499291211366653442e-02
-6.498514860868453979e-02
1.216362193226814270e-01
-4.001471027731895447e-02
-6.242483854293823242e-02
-7.739011198282241821e-02
-1.213511638343334198e-02
-1.332483021542429924e-03
-1.465200912207365036e-02
8.476515859365463257e-02
1.867685317993164062e-01
1.452153027057647705e-01
1.399323791265487671e-01
1.103388443589210510e-01
-3.389297425746917725e-02
-2.831582911312580109e-03
2.578702382743358612e-02
1.597785353660583496e-01
8.922280371189117432e-02
1.474010646343231201e-01
1.458965837955474854e-01
8.027242869138717651e-02
5.396628379821777344e-02
-3.441362082958221436e-02
3.467044560238718987e-03
2.415595054626464844e-01
1.388328522443771362e-01
4.096525534987449646e-02
-9.615439176559448242e-02
-2.048013918101787567e-02
1.579412142746150494e-03
1.240633204579353333e-01
1.066372990608215332e-01
1.797963678836822510e-01
-2.400787780061364174e-03
1.428882032632827759e-01
9.997783601284027100e-02
2.437611669301986694e-02
3.816197067499160767e-02
-1.635265797376632690e-01
-5.668912455439567566e-02
-1.034391485154628754e-02
-7.941427826881408691e-02
-7.329235784709453583e-03
-5.649371445178985596e-02
-7.919658906757831573e-03
-1.216085106134414673e-01
-1.012467592954635620e-01
3.479309752583503723e-02
2.798777632415294647e-02
-1.020993590354919434e-01
1.806160993874073029e-02
1.080129295587539673e-01
-6.804616749286651611e-02
1.285893023014068604e-01
3.963219001889228821e-02
-1.048993840813636780e-01
-7.887312769889831543e-02
2.309940196573734283e-02
5.689970776438713074e-02
5.292481929063796997e-02
8.755451440811157227e-02
-2.257701195776462555e-02
5.766892060637474060e-02
4.116836935281753540e-02
-1.238972097635269165e-01
3.841623291373252869e-02
2.177667804062366486e-02
-5.484020709991455078e-02
7.591009605675935745e-03
4.602028802037239075e-02
1.663253828883171082e-02
1.451310049742460251e-02
-5.447545275092124939e-02
-1.212108060717582703e-01
-1.142707094550132751e-02
1.232140138745307922e-01
-1.162578761577606201e-01
2.603866346180438995e-02
1.785336621105670929e-02
1.048076301813125610e-01
1.526165902614593506e-01
1.098142415285110474e-01
-1.423022449016571045e-01
-4.873552918434143066e-02
-1.962880343198776245e-01
6.702190637588500977e-02
-9.788941591978073120e-02
5.519898608326911926e-02
4.846329614520072937e-02
-1.004046499729156494e-01
-1.295062452554702759e-01
-1.161545515060424805e-01
-2.659927681088447571e-02
-1.227685343474149704e-02
6.771652400493621826e-02
9.284390509128570557e-02
1.542171835899353027e-01
7.245722413063049316e-02
8.866850286722183228e-02
1.328574419021606445e-01
1.630400121212005615e-01
1.505232229828834534e-02
2.124690264463424683e-01
-2.728540077805519104e-02
-8.088328689336776733e-02
-7.553348690271377563e-02
-1.737550646066665649e-01
8.540294319391250610e-02
9.792138636112213135e-02
-1.356889158487319946e-01
-7.879438996315002441e-02
1.822121441364288330e-01
2.084157913923263550e-01
1.035571545362472534e-01
1.310120373964309692e-01
3.267103433609008789e-02
-2.265169750899076462e-03
-5.087305232882499695e-02
-9.147639502771198750e-04
-3.308602049946784973e-02
-5.737501755356788635e-02
-6.794088333845138550e-02
-2.915788814425468445e-02
-1.763635277748107910e-01
-1.033506318926811218e-01
-1.928642541170120239e-01
-1.071696877479553223e-01
6.590431183576583862e-02
-1.693445295095443726e-01
-1.447418779134750366e-01
-1.278711389750242233e-02
8.632582612335681915e-03
-2.897829748690128326e-02
-1.515219211578369141e-01
-6.669968366622924805e-02
-9.008564054965972900e-02
4.252006113529205322e-02
1.755760796368122101e-02
-1.080178096890449524e-01
7.237597554922103882e-02
2.825832925736904144e-02
-7.644150406122207642e-02
-8.146917447447776794e-03
-5.354113876819610596e-02
2.078753709793090820e-02
3.832109645009040833e-02
6.823585927486419678e-02
4.391853138804435730e-02
1.522284150123596191e-01
1.251696199178695679e-01
1.344120502471923828e-01
1.354749053716659546e-01
1.055122837424278259e-01
5.452829599380493164e-02
1.131930425763130188e-01
3.818777203559875488e-02
-1.299425214529037476e-01
5.805302411317825317e-02
1.895412951707839966e-01
1.964967399835586548e-01
5.375668033957481384e-02
9.704240597784519196e-03
3.451328724622726440e-02
-9.799569100141525269e-02
-5.029482766985893250e-02
1.504370849579572678e-02
1.178534142673015594e-02
-4.390960186719894409e-02
-3.334679082036018372e-02
-6.369134038686752319e-02
6.367336958646774292e-03
8.941985666751861572e-02
1.460469365119934082e-01
1.521937102079391479e-01
1.430851668119430542e-01
8.115563541650772095e-02
1.052022278308868408e-01
-2.166370674967765808e-02
1.252305880188941956e-02
4.353464394807815552e-02
-1.691539213061332703e-02
-3.885342553257942200e-02
-2.079670578241348267e-01
1.739562116563320160e-02
-1.421308815479278564e-01
-1.908159255981445312e-01
2.654165588319301605e-02
-1.131879612803459167e-01
-6.053904443979263306e-02
4.606323689222335815e-02
6.065234541893005371e-03
6.869122851639986038e-03
3.120180033147335052e-02
-3.489987226203083992e-03
1.493527442216873169e-01
1.216311100870370865e-02
6.780965626239776611e-02
9.592483192682266235e-02
-5.272559449076652527e-02
3.292405977845191956e-02
2.747496031224727631e-02
1.482879519462585449e-01
2.023685909807682037e-02
-8.704811334609985352e-03
-4.272279888391494751e-02
1.422059386968612671e-01
1.036914903670549393e-02
6.425325572490692139e-02
1.665808446705341339e-02
-1.638382822275161743e-01
-5.285705626010894775e-02
-5.756576359272003174e-02
-6.756711006164550781e-02
4.652226716279983521e-02
4.920404776930809021e-02
4.239799082279205322e-02
-9.731194004416465759e-04
-8.457482606172561646e-02
-5.727091804146766663e-02
-4.139684513211250305e-02
2.423528023064136505e-02
4.511186480522155762e-02
6.611804664134979248e-02
3.537009656429290771e-02
2.560433000326156616e-02
-5.326885357499122620e-02
-3.760046884417533875e-02
4.074849933385848999e-02
5.387192126363515854e-03
7.536608725786209106e-02
-8.111748844385147095e-03
-1.336831040680408478e-02
9.199019521474838257e-02
5.813556537032127380e-02
-1.434551738202571869e-02
-9.292171895503997803e-02
2.135463245213031769e-02
-2.070632763206958771e-02
-2.083001844584941864e-02
-2.790175005793571472e-02
1.432534456253051758e-01
7.155597209930419922e-02
-1.441738684661686420e-03
-7.642688602209091187e-02
-1.072168648242950439e-01
-3.748663514852523804e-02
-1.967206224799156189e-02
-1.148340404033660889e-01
-8.180972188711166382e-03
1.265739277005195618e-02
-1.037662327289581299e-01
-4.351050034165382385e-02
-2.866640873253345490e-02
-3.796942532062530518e-02
-8.650192618370056152e-02
-6.443902850151062012e-02
8.355955034494400024e-02
2.309517003595829010e-02
2.510416507720947266e-02
-4.744267463684082031e-02
-1.750423759222030640e-02
3.670107200741767883e-02
-3.710398077964782715e-02
-6.030758842825889587e-02
-9.556950628757476807e-02
-9.320697933435440063e-02
-7.140395790338516235e-02
-5.224161222577095032e-02
-2.069792151451110840e-02
-1.414589234627783298e-03
9.089479222893714905e-03
2.165996236726641655e-03
-5.156418681144714355e-02
2.582886256277561188e-03
-1.264144759625196457e-02
-2.241085050627589226e-03
3.192647919058799744e-02
2.847717516124248505e-02
6.184760015457868576e-03
2.953037060797214508e-02
3.460770472884178162e-03
7.818664424121379852e-03
-9.820502251386642456e-02
-5.733371153473854065e-02
4.181298986077308655e-02
3.360860794782638550e-02
6.262196600437164307e-02
5.479782447218894958e-02
2.481881342828273773e-02
2.746269665658473969e-02
7.998789660632610321e-03
3.218749165534973145e-02
2.639146335422992706e-02
4.623507335782051086e-02
3.851046040654182434e-02
7.496857643127441406e-02
4.623886942863464355e-02
-3.121727518737316132e-02
-4.438627138733863831e-02
-8.681304007768630981e-02
3.066376037895679474e-02
4.302655905485153198e-02
-3.488659113645553589e-02
8.904699236154556274e-03
-1.680998317897319794e-02
-2.822170965373516083e-02
-2.492940276861190796e-01
1.204120740294456482e-01
2.778205573558807373e-01
1.848777979612350464e-01
6.251223385334014893e-02
-7.493409514427185059e-02
-4.940336197614669800e-02
-5.025998130440711975e-02
-1.292007416486740112e-01
-1.729531884193420410e-01
-1.461998969316482544e-01
-1.095506399869918823e-01
-3.616283833980560303e-02
2.151725068688392639e-02
-8.309292048215866089e-02
6.402890384197235107e-02
1.660851836204528809e-01
1.377161741256713867e-01
1.351464837789535522e-01
9.426991455256938934e-03
-6.285153329372406006e-02
-6.398923695087432861e-02
-2.011740952730178833e-02
9.410653263330459595e-02
1.761138737201690674e-01
6.749215722084045410e-02
-1.554004196077585220e-02
7.020949572324752808e-02
-3.586094826459884644e-02
-4.733777046203613281e-02
-1.244687661528587341e-01
9.593474119901657104e-02
2.143494635820388794e-01
1.777898520231246948e-01
2.499994635581970215e-02
-5.303357914090156555e-02
-1.510346960276365280e-02
1.844325214624404907e-01
6.962298601865768433e-02
-1.016208827495574951e-01
5.483575537800788879e-02
9.426362812519073486e-02
6.601504981517791748e-02
1.299071758985519409e-01
9.310576319694519043e-02
1.326950341463088989e-01
1.723779737949371338e-02
1.005332246422767639e-01
1.776502430438995361e-01
6.948406994342803955e-02
1.562731713056564331e-01
2.304277718067169189e-01
2.841244079172611237e-02
1.272078454494476318e-01
1.967304199934005737e-01
-4.600324109196662903e-02
8.783426880836486816e-02
7.627647370100021362e-02
-4.279587790369987488e-02
-3.779910877346992493e-02
1.035019010305404663e-01
3.750444203615188599e-02
-1.417644321918487549e-01
3.835444524884223938e-02
7.932306081056594849e-02
5.121471732854843140e-02
-1.497628241777420044e-01
9.649527259171009064e-03
4.430526494979858398e-02
1.745577454566955566e-01
-7.183542102575302124e-02
3.486311296001076698e-03
-6.088139954954385757e-03
3.835047129541635513e-03
-2.155956774950027466e-01
-1.924572326242923737e-02
9.767483174800872803e-02
1.301791369915008545e-01
-3.183767199516296387e-02
-2.928872220218181610e-02
-8.904490619897842407e-02
-2.491215802729129791e-02
-1.471795886754989624e-01
-2.247593104839324951e-01
-1.640171855688095093e-01
-5.210379511117935181e-02
9.057579934597015381e-02
-4.998295567929744720e-03
2.094039507210254669e-02
8.800178021192550659e-02
1.633160710334777832e-01
8.947041630744934082e-02
1.257555373013019562e-02
3.549569472670555115e-02
-1.265812516212463379e-01
3.098993375897407532e-02
2.545188181102275848e-02
-3.898942843079566956e-02
-6.572605669498443604e-02
-9.540332108736038208e-02
-1.557639837265014648e-01
-4.509599879384040833e-02
1.171317994594573975e-01
1.540314555168151855e-01
4.268370568752288818e-02
-1.036084294319152832e-01
-1.678310632705688477e-01
-1.358585208654403687e-01
-4.646188765764236450e-02
-1.996789425611495972e-01
-1.732931435108184814e-01
-2.488121539354324341e-01
-1.312562972307205200e-01
-8.663009852170944214e-02
5.479289218783378601e-02
2.491163760423660278e-01
-8.339101076126098633e-02
-1.424601078033447266e-01
-1.814406514167785645e-01
-1.754088997840881348e-01
8.804038912057876587e-02
-5.178975686430931091e-02
-4.760766029357910156e-02
-1.846674829721450806e-01
-1.720316708087921143e-01
-1.450785100460052490e-01
-2.514062821865081787e-01
-1.764272004365921021e-01
-1.414710879325866699e-01
-1.155731454491615295e-01
-2.365735545754432678e-02
1.676202006638050079e-02
6.369535811245441437e-03
-1.810919865965843201e-02
7.655690610408782959e-02
-1.008474826812744141e-01
-1.825165003538131714e-01
-1.462450325489044189e-01
-1.711888611316680908e-01
-3.489486500620841980e-02
6.539126858115196228e-03
-1.814843118190765381e-01
-1.993914693593978882e-01
-1.187074705958366394e-01
-9.887200593948364258e-02
-1.718969643115997314e-01
-1.995848715305328369e-01
1.541508082300424576e-02
-6.094042956829071045e-02
-7.206363230943679810e-02
-7.593575865030288696e-02
-1.329075545072555542e-01
4.359866306185722351e-02
7.469526678323745728e-02
3.555431962013244629e-02
-2.528314851224422455e-02
-1.104612946510314941e-01
-2.762737125158309937e-02
-1.065436452627182007e-01
-2.225488573312759399e-01
1.940421946346759796e-02
2.984161488711833954e-02
-1.173237189650535583e-01
-1.731146723031997681e-01
-1.003793999552726746e-01
-7.220831513404846191e-02
-9.093279391527175903e-02
-3.328440487384796143e-01
-7.744633406400680542e-02
2.196699976921081543e-01
1.985192596912384033e-01
1.113627776503562927e-01
-1.485109031200408936e-01
-2.386232465505599976e-01
-5.838319286704063416e-02
-9.291099011898040771e-02
-1.261801719665527344e-01
-3.811680898070335388e-02
-4.035598039627075195e-01
-1.408106982707977295e-01
-1.764603145420551300e-02
-1.026870757341384888e-01
-5.696896463632583618e-02
-1.742068864405155182e-02
-2.778123505413532257e-02
-9.337583929300308228e-02
7.946563512086868286e-02
3.736223280429840088e-02
-1.506448071449995041e-02
-1.291954964399337769e-01
-1.654121465981006622e-02
4.182133078575134277e-02
-1.631765626370906830e-02
1.218075677752494812e-01
-6.262207031250000000e-02
4.400773718953132629e-02
7.048663496971130371e-02
-1.274086385965347290e-01
-5.998439341783523560e-02
-8.177421987056732178e-02
-7.172593474388122559e-02
-1.420468240976333618e-01
-9.622199088335037231e-02
1.101876720786094666e-01
-8.717453479766845703e-02
1.148954480886459351e-01
1.205279827117919922e-01
1.371624693274497986e-02
1.020274981856346130e-01
1.251981556415557861e-01
-1.644017398357391357e-01
-3.268823623657226562e-01
-1.861524581909179688e-01
-1.388519704341888428e-01
-1.661408096551895142e-01
-2.090599685907363892e-01
-1.399099230766296387e-01
-1.150667741894721985e-01
5.924392119050025940e-02
1.298390049487352371e-02
-3.429295867681503296e-02
-5.798700824379920959e-02
-3.163299756124615669e-03
-6.589493155479431152e-02
9.110329672694206238e-03
1.180539056658744812e-01
-3.058559261262416840e-02
4.883613809943199158e-02
1.426753588020801544e-02
1.261146813631057739e-01
1.386574655771255493e-01
2.282399535179138184e-01
2.464956492185592651e-01
4.088230431079864502e-01
2.980954945087432861e-01
6.268887221813201904e-02
2.503102719783782959e-01
2.891625165939331055e-01
3.026910126209259033e-01
1.798169910907745361e-01
1.675182580947875977e-01
2.765979468822479248e-01
2.993016541004180908e-01
2.382656335830688477e-01
1.382597349584102631e-02
-2.282926067709922791e-02
6.411994993686676025e-02
5.815300345420837402e-02
1.132801398634910583e-01
2.339975535869598389e-01
1.712757796049118042e-01
1.176373139023780823e-01
3.031899631023406982e-01
1.701399385929107666e-01
3.145936504006385803e-02
-5.396662163548171520e-04
2.732508815824985504e-02
3.001130558550357819e-02
7.602962851524353027e-02
1.174253895878791809e-01
1.069357395172119141e-01
3.242598846554756165e-02
-3.847685456275939941e-02
1.356653589755296707e-02
-1.419516801834106445e-01
-2.610687911510467529e-01
-5.491037294268608093e-02
6.765256822109222412e-02
1.997111178934574127e-02
-4.845363274216651917e-02
-2.299159318208694458e-01
-1.100466698408126831e-01
-1.475962698459625244e-01
-6.467652320861816406e-02
-1.566342562437057495e-01
-2.730460166931152344e-01
-1.724839508533477783e-01
-1.420486420392990112e-01
1.474200040102005005e-01
1.902212649583816528e-01
-1.652406454086303711e-01
-1.958808749914169312e-01
-1.726482659578323364e-01
-8.549103885889053345e-02
1.356921996921300888e-02
-7.369999773800373077e-03
1.313530951738357544e-01
-3.279678896069526672e-02
3.973335400223731995e-02
-1.550724636763334274e-02
-1.480013281106948853e-01
8.211996406316757202e-02
2.913658320903778076e-01
2.585999071598052979e-01
1.228469610214233398e-01
4.087467789649963379e-01
5.202341452240943909e-02
-3.734571626409888268e-03
-4.984210804104804993e-02
-5.538941547274589539e-02
1.719787865877151489e-01
4.962713271379470825e-02
1.451892852783203125e-01
1.771620213985443115e-01
3.612779080867767334e-01
-2.076897211372852325e-02
-2.128904908895492554e-01
4.980263859033584595e-02
-4.741771891713142395e-02
-8.086758106946945190e-02
-3.236575797200202942e-02
-7.509566098451614380e-02
-2.759382314980030060e-02
1.477716565132141113e-01
4.360576346516609192e-02
2.553155645728111267e-02
1.239253357052803040e-01
1.607712358236312866e-02
-1.177056357264518738e-01
3.278639912605285645e-02
1.167213767766952515e-01
-3.065648861229419708e-02
-8.150500059127807617e-02
1.461388617753982544e-01
-1.091972552239894867e-02
-1.518581435084342957e-02
1.283807009458541870e-01
9.468466159887611866e-04
1.749387383460998535e-01
1.648201197385787964e-01
