1.187320575118064880e-01
-3.799691200256347656e-01
1.722690910100936890e-01
3.328015506267547607e-01
6.420587003231048584e-02
2.908931970596313477e-01
-1.795498579740524292e-01
4.621256142854690552e-02
-1.388330906629562378e-01
-1.255216002464294434e-01
-5.972841382026672363e-02
9.828251600265502930e-02
-2.402589917182922363e-01
2.377091534435749054e-02
-1.215591430664062500e-01
-1.165863405913114548e-02
-3.843816742300987244e-02
-7.020503748208284378e-03
1.870192289352416992e-01
1.019890084862709045e-01
1.824542284011840820e-01
-9.731622040271759033e-02
7.687579840421676636e-02
9.696983546018600464e-02
2.618038952350616455e-01
3.601291030645370483e-02
-2.594537436962127686e-01
9.312342852354049683e-02
-1.163651794195175171e-01
-1.005260795354843140e-01
1.000781804323196411e-01
3.263288438320159912e-01
2.119770497083663940e-01
-1.739397794008255005e-01
-9.514749050140380859e-02
-1.464204047806560993e-03
2.173321992158889771e-01
5.297010764479637146e-02
1.341973543167114258e-01
-5.397738516330718994e-02
-4.935882985591888428e-02
-8.106744289398193359e-02
-5.728374421596527100e-02
2.758566848933696747e-02
-6.803606450557708740e-02
-2.888899296522140503e-02
2.254531383514404297e-01
-2.591969072818756104e-02
-5.891289189457893372e-02
-6.699070334434509277e-02
1.847107522189617157e-02
-4.850189760327339172e-02
2.751697599887847900e-02
-5.538855865597724915e-02
2.702611088752746582e-01
-2.205730788409709930e-02
-2.773495949804782867e-02
-1.875918060541152954e-01
-1.232813522219657898e-01
-1.539464388042688370e-02
8.792552351951599121e-02
-1.821992248296737671e-01
-5.989591032266616821e-02
8.697686344385147095e-02
-6.573430262506008148e-03
1.318214684724807739e-01
-6.202569231390953064e-02
-9.643550217151641846e-02
4.216792061924934387e-02
-7.253789226524531841e-04
1.960564032196998596e-02
-2.779359556734561920e-02
-6.348795257508754730e-03
1.585486382246017456e-01
1.740321144461631775e-02
7.637357711791992188e-02
-2.109328210353851318e-01
3.679462522268295288e-02
1.361052989959716797e-01
2.679183483123779297e-01
1.652638763189315796e-01
-7.888070307672023773e-03
3.838815493509173393e-03
4.801134020090103149e-02
2.421884685754776001e-01
9.569222480058670044e-02
-7.971415668725967407e-02
2.664805762469768524e-02
-6.999077741056680679e-03
-2.274733334779739380e-01
6.248607859015464783e-02
-2.073262780904769897e-01
1.575354337692260742e-01
1.879782974720001221e-01
-2.487150877714157104e-01
1.361399292945861816e-01
-9.345870465040206909e-02
7.678984850645065308e-02
9.403228759765625000e-02
-1.467406302690505981e-01
1.333394944667816162e-01
-9.616521000862121582e-02
-5.712564662098884583e-02
-9.088004380464553833e-02
2.015433311462402344e-01
7.788732647895812988e-02
5.200310051441192627e-02
-2.365596033632755280e-02
-2.100926339626312256e-01
3.118208646774291992e-01
-4.458755627274513245e-02
-2.483292520046234131e-01
5.248382687568664551e-03
-3.724281489849090576e-02
1.385162025690078735e-01
9.729498624801635742e-02
-2.095380611717700958e-02
-1.401921361684799194e-01
6.115988269448280334e-02
1.273650825023651123e-01
-1.734047830104827881e-01
-1.542140692472457886e-01
-7.934487611055374146e-02
-1.351179480552673340e-01
-1.576479710638523102e-02
1.490328907966613770e-01
1.133149266242980957e-01
7.706209272146224976e-02
2.090083956718444824e-01
-3.766647279262542725e-01
1.477483566850423813e-02
2.129380851984024048e-01
-4.174451902508735657e-02
9.423234313726425171e-02
-1.587571501731872559e-01
-8.327053487300872803e-02
5.407645553350448608e-02
3.744946420192718506e-02
5.225559230893850327e-03
1.565655767917633057e-01
-1.643181890249252319e-01
-1.080147027969360352e-01
-9.816075861454010010e-02
1.136376857757568359e-01
1.126880496740341187e-01
-1.030850112438201904e-01
9.135589748620986938e-02
1.637039706110954285e-03
-7.912582904100418091e-02
5.087746307253837585e-02
2.345916330814361572e-01
-1.929123699665069580e-01
1.466848552227020264e-01
-1.528765261173248291e-02
-1.665531247854232788e-01
1.690241843461990356e-01
-3.932171761989593506e-01
5.561838299036026001e-02
1.293997168540954590e-01
-7.137710601091384888e-02
-2.366544157266616821e-01
1.432317644357681274e-01
-1.405831873416900635e-01
4.765383154153823853e-02
-5.048213154077529907e-02
1.698150187730789185e-01
2.045172303915023804e-01
1.062225364148616791e-02
-1.318169385194778442e-01
4.237767308950424194e-02
1.463466882705688477e-02
1.517099142074584961e-01
1.075794622302055359e-01
-1.666560024023056030e-02
3.727886080741882324e-02
-4.268248006701469421e-02
5.201964080333709717e-02
-2.051268517971038818e-01
-7.472468167543411255e-02
3.949116915464401245e-02
-1.232859492301940918e-01
6.032548099756240845e-02
-4.275073297321796417e-03
-9.298866242170333862e-02
-1.104658916592597961e-01
2.645712578669190407e-03
-3.632404655218124390e-02
-1.194426268339157104e-01
8.427291363477706909e-02
-3.725760057568550110e-02
-1.007570847868919373e-01
2.143289521336555481e-02
2.966420054435729980e-01
-1.735563278198242188e-01
7.636232674121856689e-02
-6.639307737350463867e-02
-1.145377382636070251e-01
-4.193415120244026184e-02
-1.640716381371021271e-02
-2.842150330543518066e-01
1.382975876331329346e-01
3.871302679181098938e-02
7.961145043373107910e-02
7.953622937202453613e-02
2.020402848720550537e-01
-9.335580468177795410e-02
-1.439045518636703491e-01
-2.860890924930572510e-01
-4.543656483292579651e-02
-2.359329611063003540e-01
-1.283623278141021729e-01
6.925802677869796753e-02
1.343894749879837036e-01
-1.010250672698020935e-01
-1.441772282123565674e-01
-7.505879551172256470e-02
-6.939802318811416626e-02
-6.954987347126007080e-02
-4.368440434336662292e-02
1.735352724790573120e-01
-4.439064115285873413e-02
-1.001266315579414368e-01
-1.397337168455123901e-01
-8.665400743484497070e-02
1.109752804040908813e-01
8.670051395893096924e-02
2.490739077329635620e-01
-1.226160302758216858e-01
7.910262048244476318e-02
-1.382403448224067688e-02
8.687641471624374390e-02
2.242101877927780151e-01
7.842534780502319336e-02
1.187186166644096375e-01
-1.326829046010971069e-01
9.828169643878936768e-02
-4.294142499566078186e-02
1.184453908354043961e-02
1.690876111388206482e-02
2.292961925268173218e-01
-5.059113353490829468e-02
2.676422595977783203e-01
6.554540991783142090e-02
8.741670101881027222e-02
4.306053742766380310e-02
6.052996963262557983e-02
7.759755104780197144e-02
-3.257448598742485046e-02
-1.755493879318237305e-02
3.147114813327789307e-02
5.924046039581298828e-02
1.339721083641052246e-01
6.176830455660820007e-02
5.475100502371788025e-02
-4.015628620982170105e-02
-1.263154000043869019e-01
-2.751917950809001923e-02
-1.347483694553375244e-02
-1.971773505210876465e-01
2.393748909235000610e-01
-3.119868636131286621e-01
6.453642249107360840e-02
-2.872904576361179352e-02
1.167035475373268127e-01
-2.254848182201385498e-02
-1.520173717290163040e-02
-1.359621528536081314e-02
-1.640518195927143097e-02
-5.236599594354629517e-02
-8.290314674377441406e-02
-9.948010742664337158e-02
1.723894029855728149e-01
-2.300531417131423950e-01
-1.952529400587081909e-01
5.101104825735092163e-02
4.624860361218452454e-02
2.742604725062847137e-02
9.245008230209350586e-02
-1.259981840848922729e-01
-1.621595770120620728e-01
-9.703919291496276855e-02
-2.206720970571041107e-02
2.543366253376007080e-01
5.472495779395103455e-02
3.644952178001403809e-02
-1.345238387584686279e-01
-1.363987624645233154e-01
-7.862976193428039551e-02
-1.555144637823104858e-01
-6.961738318204879761e-02
1.258821487426757812e-01
-2.597071230411529541e-01
1.223461478948593140e-01
-6.873993668705224991e-03
1.261824369430541992e-01
-3.492668271064758301e-02
3.357193991541862488e-02
-7.452188432216644287e-02
-7.061640173196792603e-02
9.889096766710281372e-02
4.520177841186523438e-03
-3.911529108881950378e-02
2.794218957424163818e-01
-1.225928068161010742e-01
3.099848330020904541e-02
-4.794182628393173218e-02
2.347273975610733032e-01
-7.870019227266311646e-02
-1.478263884782791138e-01
1.788976788520812988e-01
1.567306369543075562e-01
1.385461241006851196e-01
-8.160124719142913818e-02
-1.408900320529937744e-01
-1.455147867091000080e-03
6.267090141773223877e-02
-1.546948850154876709e-01
-1.994450092315673828e-01
-3.952063247561454773e-02
-4.025753587484359741e-02
-7.749246060848236084e-02
-1.150592789053916931e-01
-2.371996343135833740e-01
8.378996700048446655e-02
1.210411936044692993e-01
-9.227969497442245483e-02
2.190979719161987305e-01
8.057714253664016724e-02
2.247878164052963257e-01
7.849413901567459106e-03
1.358416080474853516e-01
-1.514030396938323975e-01
4.025262966752052307e-02
-3.642962127923965454e-02
-1.493044346570968628e-01
4.543253406882286072e-02
1.054895147681236267e-01
-1.522170603275299072e-01
8.209662139415740967e-02
2.034751772880554199e-01
3.956973552703857422e-02
6.116325408220291138e-02
-2.017320245504379272e-01
-1.307847797870635986e-01
-7.891164720058441162e-02
1.633209139108657837e-01
-2.404023520648479462e-02
-1.655791252851486206e-01
1.083101481199264526e-01
1.447035372257232666e-01
1.439579483121633530e-02
-9.720214456319808960e-02
-1.838353872299194336e-01
1.182465776801109314e-01
-4.885301738977432251e-02
4.653195664286613464e-02
-1.114927306771278381e-01
-8.214646577835083008e-02
-1.595397144556045532e-01
-7.226151973009109497e-02
-2.390657365322113037e-01
1.532028913497924805e-01
-1.647586971521377563e-01
8.610723912715911865e-02
7.669196277856826782e-02
2.029463797807693481e-01
5.666432902216911316e-02
-7.504113018512725830e-02
-1.496089040301740170e-03
-9.052430838346481323e-02
5.684903636574745178e-02
5.743410810828208923e-02
-6.230969727039337158e-02
1.082470715045928955e-01
3.318282961845397949e-02
1.293393224477767944e-01
2.570988424122333527e-02
2.523548901081085205e-02
1.857229769229888916e-01
1.185960024595260620e-01
-2.174232900142669678e-02
1.896295249462127686e-01
1.413334608078002930e-01
1.766732335090637207e-01
3.111864626407623291e-01
-4.978071525692939758e-02
-3.779448103159666061e-03
-4.409525915980339050e-02
1.731317192316055298e-01
1.382785886526107788e-01
7.752586901187896729e-02
-3.229690343141555786e-02
-8.859699964523315430e-02
1.056394651532173157e-01
1.565923169255256653e-02
5.552036222070455551e-03
-1.707189530134201050e-01
1.736471056938171387e-01
1.715532839298248291e-01
-1.539439894258975983e-02
-3.503788411617279053e-01
1.997458189725875854e-01
-1.793497987091541290e-02
1.059174165129661560e-02
1.080263108015060425e-01
-5.427512526512145996e-02
-1.175417751073837280e-01
-1.223971173167228699e-01
9.493505209684371948e-02
-7.107090204954147339e-02
5.806083604693412781e-02
5.343845859169960022e-02
-1.125086247920989990e-01
-1.660405658185482025e-03
-7.669152319431304932e-02
1.372128631919622421e-02
1.359363459050655365e-02
-1.048324182629585266e-01
-5.766952410340309143e-02
-5.584672838449478149e-02
3.306056931614875793e-02
1.828649081289768219e-02
1.832294315099716187e-01
-1.220888867974281311e-01
-2.618748694658279419e-02
6.677514314651489258e-02
4.436563327908515930e-02
-1.866278499364852905e-01
8.644741028547286987e-02
4.341864213347434998e-02
-2.494109272956848145e-01
-3.480597212910652161e-02
6.238875910639762878e-02
1.287355902604758739e-03
-1.073142886161804199e-01
-1.772796809673309326e-01
2.810315787792205811e-02
-7.419516891241073608e-02
-1.447180956602096558e-01
9.643773734569549561e-02
1.044027283787727356e-01
2.929052338004112244e-03
-1.358231753110885620e-01
1.122741550207138062e-01
8.856021612882614136e-02
-1.820909418165683746e-02
7.475913316011428833e-02
-1.173017174005508423e-01
-1.559999119490385056e-02
1.465418189764022827e-01
-1.263660043478012085e-01
1.159367188811302185e-01
-4.968800768256187439e-02
6.492317467927932739e-02
-6.903523206710815430e-02
-1.426531970500946045e-01
-1.435702890157699585e-01
1.319199502468109131e-01
3.847393020987510681e-02
2.318889647722244263e-01
-1.112437620759010315e-01
-1.481947004795074463e-01
6.560549139976501465e-02
-5.875774845480918884e-02
-5.538825690746307373e-02
1.052755862474441528e-01
9.657786227762699127e-03
-9.032287634909152985e-03
-5.921309441328048706e-02
4.967023804783821106e-02
-9.052000939846038818e-02
9.782897680997848511e-02
1.155686657875776291e-02
-6.256328523159027100e-02
-1.577617949806153774e-03
-9.149217605590820312e-02
-1.737681962549686432e-02
-2.439127117395401001e-01
8.829101175069808960e-02
4.659029468894004822e-02
-5.141319334506988525e-02
8.206348866224288940e-02
-6.439304351806640625e-02
-7.276592403650283813e-02
2.094725333154201508e-02
-2.503856122493743896e-01
-6.354864686727523804e-02
1.511658262461423874e-02
-5.446480214595794678e-02
1.282348111271858215e-02
9.635547176003456116e-03
-1.457890272140502930e-01
1.360242515802383423e-01
3.249084204435348511e-02
9.593785554170608521e-02
-1.590642184019088745e-01
6.740708649158477783e-02
-1.687733530998229980e-01
6.875073164701461792e-02
1.266609178856015205e-03
1.491544693708419800e-01
5.081344023346900940e-02
1.193121671676635742e-01
8.973681926727294922e-02
2.386369183659553528e-02
6.538242101669311523e-02
-1.553883682936429977e-02
-1.261249557137489319e-02
-5.215277895331382751e-02
7.451076805591583252e-02
-1.317727379500865936e-02
1.144102960824966431e-01
1.495505031198263168e-02
-1.586650460958480835e-01
4.373783767223358154e-01
-2.987650968134403229e-02
2.581235021352767944e-03
2.086476236581802368e-01
-4.662691056728363037e-02
1.077194884419441223e-01
-2.080498635768890381e-02
-2.741990797221660614e-02
-1.651223450899124146e-01
-1.761247962713241577e-01
-1.292321234941482544e-01
-1.682671159505844116e-01
-7.152421027421951294e-02
2.511354088783264160e-01
-1.852863132953643799e-01
6.031126156449317932e-02
-5.738959461450576782e-02
5.257505923509597778e-02
-4.016151279211044312e-02
-2.444667667150497437e-01
-2.022304944694042206e-02
-6.992392987012863159e-02
1.988904029130935669e-01
-1.618844419717788696e-01
3.003959357738494873e-02
9.899499267339706421e-02
2.898640185594558716e-02
-1.543286144733428955e-01
5.452723056077957153e-02
-2.685876190662384033e-01
1.994138956069946289e-01
-2.845794856548309326e-01
-9.036044031381607056e-02
-8.460998535156250000e-02
-2.849317714571952820e-02
3.656953200697898865e-02
1.953442543745040894e-01
-6.254386622458696365e-03
-7.885798811912536621e-02
-1.652402430772781372e-01
2.756657302379608154e-01
-1.265171766281127930e-01
6.194949895143508911e-02
1.294553130865097046e-01
1.771514862775802612e-01
-1.290383189916610718e-01
-1.429718136787414551e-01
-4.688534513115882874e-02
-1.891148686408996582e-01
-2.004886418581008911e-01
-1.159006506204605103e-01
-1.964910626411437988e-01
1.956366375088691711e-02
1.534332185983657837e-01
1.430390924215316772e-01
1.737225502729415894e-01
-1.664375662803649902e-01
-1.420642882585525513e-01
2.621943652629852295e-01
4.162214696407318115e-02
1.129813641309738159e-01
9.497572481632232666e-02
2.327395528554916382e-01
-1.186668276786804199e-01
1.111131906509399414e-02
-1.060741543769836426e-01
-6.123573705554008484e-02
-1.142763346433639526e-01
3.850834816694259644e-02
3.909284621477127075e-02
-6.915967911481857300e-02
-6.910099089145660400e-02
2.384968400001525879e-01
3.556657433509826660e-01
-3.238114118576049805e-01
-2.202636748552322388e-01
2.774957120418548584e-01
-1.439617425203323364e-01
-4.906818643212318420e-02
-5.487934686243534088e-03
-4.607135802507400513e-02
-5.294210463762283325e-02
-1.193061694502830505e-01
5.546373128890991211e-02
-8.518516272306442261e-02
-1.133327484130859375e-01
1.241296306252479553e-01
-7.379636913537979126e-02
-2.283379286527633667e-01
-1.597963422536849976e-01
2.225773222744464874e-02
-2.407079488039016724e-01
-8.187162131071090698e-02
8.514472097158432007e-02
8.087479323148727417e-02
1.986498534679412842e-01
-1.008127778768539429e-01
1.402384601533412933e-02
-1.942900381982326508e-02
-6.566512584686279297e-02
-1.251981407403945923e-01
2.981860190629959106e-02
-7.272979617118835449e-02
8.536859601736068726e-02
3.742835298180580139e-02
5.673623085021972656e-02
-9.753252565860748291e-02
1.774767041206359863e-01
2.171811833977699280e-02
-9.840332716703414917e-02
3.847637176513671875e-01
-7.081939280033111572e-02
2.167903035879135132e-01
1.251624077558517456e-01
-3.576710075139999390e-02
-2.763653732836246490e-02
7.387431710958480835e-02
3.106736838817596436e-01
2.030305564403533936e-01
1.406422257423400879e-01
-7.608746737241744995e-02
1.121387258172035217e-02
-3.296006917953491211e-01
2.807122766971588135e-01
1.739962697029113770e-01
2.604996599256992340e-02
3.397747501730918884e-02
5.068830028176307678e-02
4.974238574504852295e-02
5.488279461860656738e-02
-5.475448817014694214e-02
1.534716188907623291e-01
5.666727572679519653e-02
-6.436393596231937408e-03
-4.308783635497093201e-02
-4.674050956964492798e-02
1.184467747807502747e-01
8.961231261491775513e-02
-5.675674602389335632e-02
-1.593231111764907837e-01
-6.206722930073738098e-03
-7.578197121620178223e-02
-3.462573513388633728e-02
1.808794215321540833e-02
-3.158181905746459961e-02
3.706040605902671814e-02
-1.688367426395416260e-01
1.493732333183288574e-01
1.794036328792572021e-01
1.421112567186355591e-02
-2.307627722620964050e-02
-1.960460469126701355e-02
3.407335653901100159e-02
1.504849940538406372e-01
-1.104539260268211365e-02
1.388807147741317749e-01
1.272487193346023560e-01
-1.142147108912467957e-01
1.198369860649108887e-01
1.386942528188228607e-02
-1.262790560722351074e-01
-3.889784961938858032e-02
1.847123540937900543e-02
1.437777727842330933e-01
-1.532019674777984619e-01
6.724148988723754883e-02
-1.295001804828643799e-01
1.795940287411212921e-02
-1.998311877250671387e-01
-8.710300549864768982e-03
-1.733063720166683197e-02
-3.912216797471046448e-02
-1.359181199222803116e-02
2.596514523029327393e-01
2.408939041197299957e-02
-3.994151204824447632e-02
2.424588203430175781e-01
-1.713202595710754395e-01
-1.644887924194335938e-01
8.263143151998519897e-02
7.651173323392868042e-02
4.292187280952930450e-03
-5.556504055857658386e-02
-2.326177209615707397e-01
-2.393090724945068359e-01
-2.221770882606506348e-01
-1.842351406812667847e-01
-3.884623572230339050e-02
1.221896559000015259e-01
4.616718366742134094e-02
-1.838089153170585632e-02
-2.796235494315624237e-02
2.473901212215423584e-02
4.957325384020805359e-02
-2.192493155598640442e-02
-1.325804889202117920e-01
1.028654947876930237e-01
8.642422407865524292e-02
-9.585008025169372559e-03
-1.671971380710601807e-01
-1.599513590335845947e-01
-8.523567020893096924e-02
1.719878986477851868e-02
3.003807552158832550e-02
2.161801457405090332e-01
-4.825799539685249329e-02
-6.019255891442298889e-02
-1.075398623943328857e-01
2.508809566497802734e-01
1.882059499621391296e-02
-9.840541519224643707e-03
-1.792458295822143555e-01
-9.916356205940246582e-02
-1.640567183494567871e-01
-1.278430074453353882e-01
-8.914940804243087769e-02
1.083593964576721191e-01
-8.595132082700729370e-02
-5.465582758188247681e-02
1.557291597127914429e-01
-1.178662702441215515e-01
-1.550402343273162842e-01
-3.214878216385841370e-02
-3.549295365810394287e-01
1.857752650976181030e-01
-1.852730847895145416e-02
1.707435846328735352e-01
1.442545801401138306e-01
1.268056780099868774e-01
-3.439064621925354004e-01
1.464421898126602173e-01
1.293407827615737915e-01
1.014791280031204224e-01
-5.354391038417816162e-02
-1.270245760679244995e-01
-3.455553576350212097e-02
-7.387029379606246948e-02
3.764848038554191589e-02
-9.820633381605148315e-02
-1.844345778226852417e-01
-6.575739383697509766e-02
1.908019036054611206e-01
-8.260903507471084595e-02
1.449448242783546448e-02
1.133167967200279236e-01
-1.814491599798202515e-01
1.551638096570968628e-01
-1.773971766233444214e-01
-9.997607767581939697e-02
3.136721998453140259e-02
1.648047268390655518e-01
1.571509093046188354e-01
8.908359706401824951e-02
3.923934698104858398e-02
-1.987398415803909302e-01
-1.620169281959533691e-01
1.219229325652122498e-01
1.886667311191558838e-01
-2.589203789830207825e-02
1.691651716828346252e-02
-1.128010079264640808e-01
2.117324173450469971e-01
2.716258633881807327e-03
-6.145579740405082703e-02
-1.547220796346664429e-01
8.122863620519638062e-02
-1.482619494199752808e-01
-1.472142636775970459e-01
-8.838315308094024658e-02
5.995529517531394958e-02
-1.483897715806961060e-01
2.693323977291584015e-02
2.370838522911071777e-01
2.156846970319747925e-01
-1.115669459104537964e-01
1.652475818991661072e-02
-9.516041725873947144e-02
-1.804998219013214111e-01
1.528014540672302246e-01
-1.588119380176067352e-02
5.987182259559631348e-03
-1.038593724370002747e-01
-4.722896218299865723e-02
5.702961981296539307e-02
2.280980907380580902e-02
-1.079679280519485474e-01
6.419952493160963058e-03
2.122276835143566132e-02
8.416429907083511353e-02
-7.325077056884765625e-02
1.396050006151199341e-01
2.148289233446121216e-01
7.440078537911176682e-03
1.500577330589294434e-01
6.216309592127799988e-02
-1.413396894931793213e-01
-8.035219460725784302e-02
-7.657746318727731705e-03
9.478359669446945190e-02
4.983437806367874146e-02
2.589603960514068604e-01
5.159618449397385120e-04
1.684424877166748047e-01
-1.599481105804443359e-01
1.799420118331909180e-01
-2.400811165571212769e-01
-1.581734716892242432e-01
-9.768433123826980591e-02
-1.246516965329647064e-02
-2.089805305004119873e-01
-1.823673695325851440e-01
-7.189932465553283691e-02
-1.753993332386016846e-01
1.253991574048995972e-01
-2.656462490558624268e-01
-8.139394968748092651e-02
1.746850162744522095e-01
-6.251602619886398315e-02
1.719238013029098511e-01
-2.834453582763671875e-01
1.894332021474838257e-01
-4.048597440123558044e-02
3.147911652922630310e-02
-1.702736169099807739e-01
1.714808307588100433e-02
-3.471965342760086060e-02
5.763156339526176453e-02
1.306784898042678833e-01
1.671441942453384399e-01
2.123299986124038696e-01
-4.886807128787040710e-02
-5.883625894784927368e-02
-4.589115828275680542e-02
7.812875509262084961e-02
2.667812108993530273e-01
-1.604242920875549316e-01
-4.289072938263416290e-03
1.662790775299072266e-01
1.035112291574478149e-01
-4.468411207199096680e-02
-7.823508977890014648e-02
1.179579794406890869e-01
1.223667804151773453e-02
8.550573885440826416e-02
3.746942058205604553e-02
-2.304683439433574677e-02
1.891597956418991089e-01
-1.203534426167607307e-03
8.045753836631774902e-02
-1.408657524734735489e-02
1.445873454213142395e-02
1.210569143295288086e-01
2.383371293544769287e-01
-7.052973657846450806e-02
9.306911379098892212e-03
-2.365496456623077393e-01
-3.066332451999187469e-02
2.508065104484558105e-01
5.538504570722579956e-02
8.749040216207504272e-02
-1.002187281847000122e-01
3.601532056927680969e-02
7.928985357284545898e-02
1.809007525444030762e-01
3.290812671184539795e-02
-1.119373887777328491e-01
-6.245975941419601440e-02
1.247497648000717163e-01
-5.137100815773010254e-03
-7.707374542951583862e-02
-4.481026157736778259e-02
-2.068564593791961670e-01
3.556228280067443848e-01
7.430765777826309204e-02
-2.678707242012023926e-02
-1.214629411697387695e-02
8.423306792974472046e-02
-3.922487795352935791e-02
1.267441362142562866e-02
9.135621786117553711e-02
-2.459684759378433228e-01
2.709578871726989746e-01
2.424364984035491943e-01
2.469906955957412720e-01
1.421177089214324951e-01
9.196314495056867599e-04
-1.069905981421470642e-02
1.317575275897979736e-01
-1.226571723818778992e-01
1.519688814878463745e-01
1.552909761667251587e-01
1.033798083662986755e-01
-9.815882891416549683e-02
6.132492795586585999e-02
-2.397670745849609375e-01
1.343469321727752686e-01
-3.930366411805152893e-02
2.213126868009567261e-01
-7.061764597892761230e-02
1.176548562943935394e-02
-2.483599483966827393e-01
1.550350040197372437e-01
3.689433261752128601e-02
6.862983573228120804e-03
1.066890358924865723e-01
4.994402825832366943e-02
1.713805794715881348e-01
4.272317886352539062e-02
3.910976648330688477e-02
1.329977363348007202e-01
4.997359355911612511e-04
1.594696193933486938e-01
2.415663152933120728e-01
3.825124725699424744e-02
1.055242586880922318e-02
-2.180404029786586761e-02
-2.807480692863464355e-01
2.346926629543304443e-01
-3.820569813251495361e-02
7.806561887264251709e-02
1.570483595132827759e-01
-1.083471477031707764e-01
-2.536110579967498779e-01
-1.283896118402481079e-01
1.566521823406219482e-01
5.134140700101852417e-02
-1.990217119455337524e-01
6.181782856583595276e-02
-1.465113312005996704e-01
2.254561148583889008e-02
2.341069094836711884e-02
-1.924445331096649170e-01
5.526809766888618469e-02
-1.568361818790435791e-01
-1.175623759627342224e-01
4.272807389497756958e-02
-1.589126288890838623e-01
-3.062932565808296204e-02
-3.983319178223609924e-02
3.426767885684967041e-02
-7.953355461359024048e-02
2.640859782695770264e-01
1.636419259011745453e-02
-4.305325448513031006e-02
-9.006691724061965942e-02
1.588185690343379974e-02
6.737359613180160522e-02
-2.005891948938369751e-01
7.781729102134704590e-02
-1.344572603702545166e-01
-3.472828119993209839e-02
-1.715774685144424438e-01
7.167289406061172485e-02
-5.680424347519874573e-02
6.255792826414108276e-02
-2.204396724700927734e-01
1.473685950040817261e-01
6.105021759867668152e-02
1.924734115600585938e-01
-1.198962628841400146e-01
-1.513157486915588379e-01
-1.605195999145507812e-01
-4.690048098564147949e-02
6.234050914645195007e-02
-7.203256338834762573e-02
-1.142642870545387268e-01
-2.423176914453506470e-01
3.961950913071632385e-02
-1.993383169174194336e-01
-6.572925951331853867e-03
-3.543323650956153870e-02
-9.267731010913848877e-02
8.382242918014526367e-02
-1.261351704597473145e-01
1.277908831834793091e-01
5.527530983090400696e-02
3.021634556353092194e-02
-4.549257457256317139e-02
-5.905846506357192993e-02
5.481132864952087402e-02
2.935937941074371338e-01
-1.425143927335739136e-01
1.185580492019653320e-01
-9.473652392625808716e-02
8.535803295671939850e-03
-4.407216235995292664e-02
-2.131966054439544678e-01
-2.955999784171581268e-02
1.707675755023956299e-01
-1.045499518513679504e-01
-7.831871509552001953e-02
-3.025773726403713226e-02
-4.248500242829322815e-02
2.360835075378417969e-01
1.691382080316543579e-01
3.333106338977813721e-01
-2.876402437686920166e-01
1.283966377377510071e-02
1.976809799671173096e-01
2.137413024902343750e-01
1.091131418943405151e-01
2.815013825893402100e-01
4.583400860428810120e-02
2.317266911268234253e-01
-4.433055967092514038e-02
-1.355489622801542282e-02
1.142257242463529110e-03
-9.173457324504852295e-02
1.085557863116264343e-01
-5.204976722598075867e-02
3.276692330837249756e-02
-7.575662434101104736e-02
1.742496341466903687e-01
2.514745891094207764e-01
7.149856537580490112e-02
3.727828562259674072e-01
-1.438682973384857178e-01
5.698347464203834534e-02
-2.393922358751296997e-01
-1.921586841344833374e-01
-2.541319467127323151e-02
-3.116744197905063629e-02
-1.944290846586227417e-01
-2.023764550685882568e-01
-3.442720323801040649e-02
1.609705388545989990e-01
-2.034968584775924683e-01
8.766953833401203156e-04
2.288985252380371094e-01
-3.867005929350852966e-02
7.239034026861190796e-02
7.302329689264297485e-02
2.768334932625293732e-02
-1.587761752307415009e-02
1.323783546686172485e-01
1.202884241938591003e-01
-4.622334986925125122e-02
4.535069316625595093e-02
-9.500283002853393555e-02
1.206594631075859070e-01
3.922354895621538162e-03
1.645966917276382446e-01
6.930463016033172607e-02
-4.792625457048416138e-02
-1.907939463853836060e-01
2.538441121578216553e-02
-3.005754575133323669e-02
1.390675604343414307e-01
1.165412068367004395e-01
-1.039116457104682922e-01
-1.217084601521492004e-01
-2.217491865158081055e-01
3.345604613423347473e-02
1.071137711405754089e-01
-6.138582155108451843e-02
9.353087097406387329e-02
-1.392351537942886353e-01
-4.366721212863922119e-02
-1.530302762985229492e-01
2.665094658732414246e-02
-1.863783784210681915e-02
-2.099151164293289185e-02
-1.554756760597229004e-01
1.511654555797576904e-01
9.584502130746841431e-02
4.988166689872741699e-02
-1.079766079783439636e-01
-8.641169965267181396e-02
7.560155540704727173e-02
2.076383084058761597e-01
-7.789598405361175537e-02
-1.491025984287261963e-01
-6.056691706180572510e-02
6.306787580251693726e-02
2.761662751436233521e-02
-7.824710756540298462e-02
2.136005610227584839e-01
9.987951815128326416e-02
-2.067084461450576782e-01
-2.724603116512298584e-01
2.316134795546531677e-02
1.104317083954811096e-01
-8.306019008159637451e-02
-1.680538505315780640e-01
-1.331304013729095459e-01
7.741675525903701782e-02
3.737105056643486023e-02
-1.370214521884918213e-01
-6.765868514776229858e-02
-3.539159893989562988e-02
-7.311685383319854736e-02
-7.476823870092630386e-03
1.741608977317810059e-01
-1.810116469860076904e-01
-2.715746164321899414e-01
-1.826467365026473999e-02
-7.768481969833374023e-02
9.085635095834732056e-02
2.133035473525524139e-02
1.453778892755508423e-01
-6.068548653274774551e-03
2.159322351217269897e-01
1.955433189868927002e-01
-1.110594812780618668e-02
-1.592521816492080688e-01
-2.655723877251148224e-02
1.625500023365020752e-01
-8.533649146556854248e-03
7.413090765476226807e-02
-2.247332781553268433e-01
2.500707283616065979e-02
1.901546120643615723e-02
-2.556415796279907227e-01
1.850801855325698853e-01
3.290695324540138245e-02
7.873538881540298462e-02
1.359779983758926392e-01
5.282878130674362183e-02
-2.622335851192474365e-01
-4.812079947441816330e-03
-1.464614272117614746e-01
3.999875113368034363e-02
9.347107843495905399e-04
3.634705021977424622e-02
-2.567155286669731140e-02
3.384343385696411133e-01
1.061111241579055786e-01
8.672048896551132202e-02
-9.310991503298282623e-03
1.316115558147430420e-01
1.357883512973785400e-01
3.673917427659034729e-02
6.042368337512016296e-02
2.205132842063903809e-01
-1.595731079578399658e-01
-6.685413420200347900e-02
2.878132043406367302e-03
-1.297992467880249023e-01
-2.083792537450790405e-02
-4.425414651632308960e-02
1.277672350406646729e-01
1.996792256832122803e-01
-4.448419064283370972e-02
5.072984471917152405e-02
-1.219872161746025085e-01
-3.582387417554855347e-02
4.135996848344802856e-02
-2.465227991342544556e-02
-2.799848020076751709e-01
1.252646893262863159e-01
-2.585322856903076172e-01
1.806346513330936432e-02
-1.623625122010707855e-02
2.307128347456455231e-02
5.787873268127441406e-02
-1.248202696442604065e-01
-2.555083855986595154e-02
2.332629412412643433e-01
-7.809440791606903076e-02
2.358791381120681763e-01
1.145412474870681763e-01
1.090623512864112854e-01
7.512205094099044800e-02
1.343998908996582031e-01
-2.006169110536575317e-01
1.030900627374649048e-01
-1.613175719976425171e-01
5.018259212374687195e-02
-6.165640801191329956e-02
-1.003639474511146545e-01
-6.243924424052238464e-02
6.910402327775955200e-02
-1.595797538757324219e-01
2.207970768213272095e-01
-1.252431869506835938e-01
-1.854694634675979614e-02
-8.962722867727279663e-02
-1.427430510520935059e-01
5.319234356284141541e-02
-1.520950943231582642e-01
3.259159252047538757e-02
6.599180400371551514e-02
-2.069613933563232422e-01
1.873483210802078247e-01
2.484235167503356934e-01
-1.496655633673071861e-03
2.422291040420532227e-01
-4.554192349314689636e-02
4.336684197187423706e-02
8.270027488470077515e-02
1.042441800236701965e-01
3.551335334777832031e-01
-1.320901811122894287e-01
5.973409488797187805e-02
-1.316201835870742798e-01
-6.037528160959482193e-03
1.370422542095184326e-01
1.115313842892646790e-01
7.018893212080001831e-02
3.047525696456432343e-02
5.277283489704132080e-02
-2.917016744613647461e-01
-1.226752251386642456e-01
-1.001023799180984497e-01
-4.021984525024890900e-03
2.504039369523525238e-02
-2.065669000148773193e-01
1.215058788657188416e-01
6.544885039329528809e-02
-2.232107520103454590e-01
6.152609735727310181e-02
-1.355032809078693390e-02
1.518165916204452515e-01
-1.790748089551925659e-01
7.336541265249252319e-02
-1.012240909039974213e-02
1.812825328670442104e-03
-1.022316887974739075e-01
-6.033584475517272949e-03
8.573750406503677368e-02
2.512353062629699707e-01
9.709514677524566650e-02
1.589143574237823486e-01
-2.086415328085422516e-02
5.236008018255233765e-02
-9.606815874576568604e-02
-1.860432177782058716e-01
1.866114139556884766e-02
1.368990689516067505e-01
5.748947616666555405e-03
-5.199712514877319336e-02
8.736038208007812500e-02
-1.726616173982620239e-01
-1.891427785158157349e-01
-2.395327389240264893e-01
-5.223824828863143921e-02
2.271024882793426514e-01
-1.003090739250183105e-01
-7.959419488906860352e-02
-9.216427057981491089e-02
9.020953625440597534e-02
1.355225294828414917e-01
-7.802023738622665405e-02
-6.721015274524688721e-02
7.295488566160202026e-02
-7.645153999328613281e-02
8.552927523851394653e-02
-3.936680499464273453e-03
-1.624796539545059204e-01
-1.897769719362258911e-01
2.390094660222530365e-02
1.002278923988342285e-01
-7.393220812082290649e-02
2.680764794349670410e-01
-2.336358278989791870e-01
-1.214724928140640259e-01
1.258334815502166748e-01
2.406296283006668091e-01
3.518748283386230469e-02
-6.713198870420455933e-02
-4.865959659218788147e-02
-1.566011086106300354e-02
-1.613351702690124512e-02
-5.663713440299034119e-03
-2.389501780271530151e-01
1.414509713649749756e-01
1.275603752583265305e-02
1.027280762791633606e-01
1.948907524347305298e-01
8.853659778833389282e-02
1.922857575118541718e-02
2.006944268941879272e-01
-1.776022017002105713e-01
1.636370867490768433e-01
-4.594194144010543823e-02
-1.151847690343856812e-01
-2.013112604618072510e-01
-3.784210607409477234e-02
-7.048796862363815308e-02
-1.454074084758758545e-01
4.926542285829782486e-03
6.127963960170745850e-02
1.004056036472320557e-01
-1.146053075790405273e-01
-7.999188452959060669e-02
-1.328189074993133545e-01
-3.314644470810890198e-02
1.739881932735443115e-01
1.058038473129272461e-01
9.691960178315639496e-03
-2.314659953117370605e-02
8.327171206474304199e-03
-6.615069508552551270e-02
2.288250625133514404e-02
-4.931166768074035645e-02
-9.251040965318679810e-02
-4.897957295179367065e-02
-5.172831937670707703e-02
6.206643208861351013e-02
9.949620813131332397e-02
-1.491888314485549927e-01
-1.367258727550506592e-01
-7.829336076974868774e-02
2.513351663947105408e-02
2.133473940193653107e-02
9.331157058477401733e-02
-9.640976786613464355e-02
-1.171540170907974243e-01
-3.311525797471404076e-03
-8.424779027700424194e-02
8.242229372262954712e-02
5.559968948364257812e-02
1.045038476586341858e-01
-1.122638732194900513e-01
-9.348531067371368408e-02
1.549710929393768311e-01
2.950872480869293213e-02
-1.164325103163719177e-01
-8.048710972070693970e-02
1.274155511055141687e-04
-7.907963357865810394e-03
4.545877873897552490e-02
-8.082310110330581665e-02
-5.005542933940887451e-02
1.320873200893402100e-01
1.345699727535247803e-01
-1.475321874022483826e-02
-4.650376364588737488e-02
-1.709756255149841309e-02
5.737171694636344910e-02
-8.212793618440628052e-02
1.279233675450086594e-02
2.018946409225463867e-01
-4.171735793352127075e-02
1.778619587421417236e-01
1.292004585266113281e-01
2.348445914685726166e-02
-6.229681428521871567e-03
-1.009220629930496216e-02
1.641270667314529419e-01
1.746357828378677368e-01
1.253979206085205078e-01
2.532775327563285828e-02
-4.526055417954921722e-03
-3.907566517591476440e-02
-6.055167410522699356e-03
-1.093569491058588028e-02
-1.739879846572875977e-01
1.188488975167274475e-01
8.311605453491210938e-02
-7.274989038705825806e-02
-6.140145659446716309e-02
-1.011051163077354431e-01
-5.874811112880706787e-02
1.262264698743820190e-01
-6.494435667991638184e-02
-1.301636248826980591e-01
7.004860788583755493e-02
1.155025511980056763e-01
6.771937757730484009e-02
1.464369297027587891e-01
2.622568048536777496e-02
8.735818415880203247e-02
-1.044442355632781982e-01
4.984581843018531799e-02
1.272684782743453979e-01
7.187092211097478867e-03
1.709679067134857178e-01
-2.734981477260589600e-01
1.434256583452224731e-01
3.592666611075401306e-02
1.190481036901473999e-01
8.342403173446655273e-02
8.710870146751403809e-02
6.464213877916336060e-02
6.246849521994590759e-02
-6.359612941741943359e-02
-9.470148384571075439e-02
8.343876153230667114e-02
9.871088713407516479e-02
1.384678296744823456e-02
2.919185459613800049e-01
3.861849009990692139e-02
1.013503596186637878e-02
2.109588235616683960e-01
2.468522042036056519e-01
1.014816090464591980e-01
-1.322242338210344315e-02
-3.917331993579864502e-02
-2.073340490460395813e-02
-1.362377256155014038e-01
-7.653125375509262085e-02
-6.244046241044998169e-02
-6.727535277605056763e-02
-2.336374856531620026e-02
6.629066914319992065e-02
-2.651439905166625977e-01
2.717181742191314697e-01
-4.198523610830307007e-02
-4.244299139827489853e-03
-5.328791961073875427e-02
2.248681634664535522e-01
1.608764827251434326e-01
-2.392524480819702148e-01
-2.355100214481353760e-02
2.838435210287570953e-02
-2.708511352539062500e-01
-2.723684720695018768e-02
-1.216184794902801514e-01
3.179215267300605774e-02
-1.904765963554382324e-01
-7.349317520856857300e-02
-1.109902262687683105e-01
-2.356874197721481323e-01
7.167320698499679565e-02
1.704136840999126434e-02
-5.773708224296569824e-02
2.160582691431045532e-01
-1.364062875509262085e-01
6.375754252076148987e-03
1.713757365942001343e-01
3.838691115379333496e-02
3.303760290145874023e-02
-8.001624792814254761e-02
9.417983703315258026e-03
1.450632512569427490e-02
6.998985260725021362e-02
-1.887777745723724365e-01
1.449582725763320923e-01
1.358758360147476196e-01
2.244770526885986328e-02
5.141475424170494080e-02
-1.649146825075149536e-01
1.199545711278915405e-01
2.228857874870300293e-01
4.521632939577102661e-02
7.989374548196792603e-02
-3.993904963135719299e-02
-3.687939315568655729e-04
-8.011746406555175781e-02
1.129028871655464172e-01
1.757648438215255737e-01
-1.658428460359573364e-01
-9.795232117176055908e-02
1.027453616261482239e-01
1.183653399348258972e-01
-8.528625220060348511e-02
-1.244411766529083252e-01
4.461585730314254761e-02
8.479583263397216797e-02
-8.930330723524093628e-02
3.889496624469757080e-02
-2.334845960140228271e-01
-6.671748310327529907e-02
-1.373920589685440063e-01
7.973451912403106689e-02
-1.198423504829406738e-01
9.968692809343338013e-02
-1.120396405458450317e-01
-2.146459883078932762e-03
-3.864973038434982300e-02
9.065525233745574951e-02
1.646857708692550659e-02
5.869893357157707214e-03
1.445104777812957764e-01
6.465245038270950317e-02
-2.208439260721206665e-01
7.160023599863052368e-02
-3.929283097386360168e-02
-7.058457285165786743e-02
-3.031561970710754395e-01
-1.383749842643737793e-01
7.982181012630462646e-02
2.335491925477981567e-01
-1.437573134899139404e-01
-2.979955449700355530e-02
1.058629080653190613e-01
1.780795007944107056e-01
2.313910275697708130e-01
5.868939682841300964e-02
8.504753559827804565e-02
-4.933928698301315308e-02
-1.752518117427825928e-02
2.236128449440002441e-01
-5.018969625234603882e-02
-2.502831220626831055e-01
5.076543428003787994e-03
-8.123278617858886719e-02
-1.391046196222305298e-01
2.462081797420978546e-02
3.645933419466018677e-02
-7.750132679939270020e-02
2.852621674537658691e-01
1.677489727735519409e-01
3.527056798338890076e-02
-1.332551147788763046e-02
1.161021441221237183e-01
1.948558390140533447e-01
1.583092212677001953e-01
5.551575869321823120e-02
9.673157334327697754e-02
2.956425249576568604e-01
-3.675222992897033691e-01
1.254851222038269043e-01
-5.480227991938591003e-02
1.139560490846633911e-01
1.353849768638610840e-01
-1.229717209935188293e-02
-1.645742952823638916e-01
2.558258473873138428e-01
-8.204496651887893677e-02
-1.683519482612609863e-01
-1.788880676031112671e-03
1.563205569982528687e-01
3.975792974233627319e-02
-8.718176186084747314e-02
1.953994669020175934e-02
-9.110236912965774536e-02
7.702838163822889328e-03
1.020662859082221985e-01
7.821815460920333862e-02
-5.777612328529357910e-02
-2.027409821748733521e-01
9.558389335870742798e-02
7.783424854278564453e-02
-5.693822354078292847e-02
2.207862213253974915e-02
1.623806357383728027e-02
1.169468387961387634e-01
4.104968160390853882e-02
-1.915058195590972900e-01
9.740417450666427612e-02
2.054189443588256836e-01
-8.528841286897659302e-02
1.764675676822662354e-01
1.404252201318740845e-01
-1.024564877152442932e-01
-9.978860616683959961e-02
-1.463542133569717407e-02
-1.070512756705284119e-01
8.600909262895584106e-02
4.555485770106315613e-02
-1.019619219005107880e-02
-1.108187437057495117e-01
1.530047059059143066e-01
-1.563061922788619995e-01
-1.599933803081512451e-01
1.150425672531127930e-01
-4.935302771627902985e-03
1.358073502779006958e-01
-3.471068292856216431e-02
2.351988554000854492e-01
-8.202792704105377197e-02
6.492998450994491577e-02
3.450033441185951233e-02
1.307367235422134399e-01
-3.165856301784515381e-01
2.632848545908927917e-02
-1.889833062887191772e-01
8.447986096143722534e-02
-2.121205925941467285e-01
5.459623411297798157e-02
-1.986106038093566895e-01
-1.212394759058952332e-01
1.409608274698257446e-01
5.396401137113571167e-02
-2.538127303123474121e-01
1.419990230351686478e-02
3.593034297227859497e-02
4.967155680060386658e-02
-1.307973861694335938e-01
3.145384788513183594e-01
1.483399327844381332e-02
3.071664273738861084e-01
-9.592209011316299438e-03
-1.438250243663787842e-01
-9.288289397954940796e-02
1.040921360254287720e-01
-8.383208513259887695e-02
-8.009257167577743530e-02
-8.012522757053375244e-02
9.854643791913986206e-02
8.064839988946914673e-02
7.580801099538803101e-02
1.678787022829055786e-01
-8.749995380640029907e-02
7.029148191213607788e-02
8.333480358123779297e-02
2.751702964305877686e-01
-2.366188541054725647e-02
-1.385703533887863159e-01
5.934923887252807617e-03
9.972752630710601807e-02
-8.967395871877670288e-02
1.360847800970077515e-01
-2.671746313571929932e-01
5.490634962916374207e-02
-1.261962763965129852e-02
1.897210329771041870e-01
1.485843211412429810e-01
9.682012721896171570e-03
-1.624627858400344849e-01
1.280916780233383179e-01
-9.371751546859741211e-02
6.437347084283828735e-02
-2.209756374359130859e-01
-2.843028306961059570e-01
2.006236314773559570e-01
2.249258803203701973e-03
-2.022182494401931763e-01
-1.929936259984970093e-01
-2.913661003112792969e-01
-8.688428439199924469e-03
2.534423768520355225e-01
-5.722754448652267456e-02
7.402510941028594971e-02
-2.876462936401367188e-01
-7.258953154087066650e-02
6.217068806290626526e-02
1.111268717795610428e-02
-5.748437345027923584e-02
-1.303284894675016403e-02
-1.954096555709838867e-01
1.424204111099243164e-01
2.596563398838043213e-01
-1.064667291939258575e-02
-1.521903555840253830e-02
-2.704893425107002258e-02
8.603922277688980103e-02
-2.078657448291778564e-01
-2.491744458675384521e-01
-3.003982007503509521e-01
-6.595081090927124023e-02
-2.865295857191085815e-02
4.688408970832824707e-02
-1.562395095825195312e-01
8.759513497352600098e-02
-8.233579806983470917e-03
-3.286755383014678955e-01
-4.615192860364913940e-02
-8.756883442401885986e-02
5.174865201115608215e-02
1.431582719087600708e-01
1.626337505877017975e-02
8.642554283142089844e-03
1.314532756805419922e-02
6.167339533567428589e-02
1.352662444114685059e-01
-6.530145648866891861e-03
-1.140074990689754486e-02
-1.240234673023223877e-01
-3.219371428713202477e-03
9.816071391105651855e-02
1.168294027447700500e-01
-1.689528822898864746e-01
5.861487612128257751e-02
4.587025567889213562e-02
8.194684237241744995e-02
1.997318118810653687e-01
2.153406292200088501e-01
3.352414071559906006e-01
2.664696872234344482e-01
-1.241512745618820190e-01
-2.291425764560699463e-01
-1.447117477655410767e-01
1.000154316425323486e-01
-2.244454771280288696e-01
-1.146432384848594666e-01
6.705553084611892700e-02
7.922490686178207397e-02
-2.298228740692138672e-01
1.785421222448348999e-01
1.927496790885925293e-01
4.690769687294960022e-02
-2.823859825730323792e-02
9.818828105926513672e-02
5.818119645118713379e-02
7.114891428500413895e-03
4.048183187842369080e-02
-7.146299351006746292e-03
-1.444346620701253414e-03
-9.367796778678894043e-02
-1.491109877824783325e-01
-1.034680455923080444e-01
1.648602634668350220e-01
-3.638061508536338806e-02
2.055910229682922363e-02
-1.974281519651412964e-01
-8.116873912513256073e-03
1.560283750295639038e-01
-2.624762430787086487e-02
-1.584448218345642090e-01
1.603226177394390106e-02
2.400484383106231689e-01
-1.248494610190391541e-01
-1.876305788755416870e-01
-3.301746770739555359e-02
-8.635555207729339600e-02
-5.991003941744565964e-03
8.764301985502243042e-02
4.878756031394004822e-02
6.332860793918371201e-03
-2.587739750742912292e-02
1.439225673675537109e-01
-6.071047484874725342e-02
7.943851500749588013e-02
-1.442972123622894287e-01
-5.270484834909439087e-02
-6.954269856214523315e-02
-1.476470530033111572e-01
1.819174140691757202e-01
-1.096609979867935181e-01
1.731171011924743652e-01
-1.060510203242301941e-01
-1.206251978874206543e-01
-7.953193038702011108e-02
2.060293108224868774e-01
4.883244633674621582e-03
1.760930195450782776e-02
-1.488156765699386597e-01
1.153429448604583740e-01
1.206891462206840515e-01
1.186605021357536316e-01
-9.863355755805969238e-02
5.469799041748046875e-02
1.255293190479278564e-01
1.729308515787124634e-01
9.917064011096954346e-02
-1.987539082765579224e-01
-3.497494757175445557e-02
-3.166086971759796143e-02
-1.489773541688919067e-01
-1.115357577800750732e-01
1.233985740691423416e-02
-5.799856036901473999e-02
8.437571115791797638e-03
-9.449281543493270874e-02
-1.553199440240859985e-01
-4.437523707747459412e-02
-6.124177202582359314e-02
-7.412020862102508545e-02
-1.561630703508853912e-02
-2.188062816858291626e-01
-7.663752138614654541e-02
-1.039822250604629517e-01
8.988779038190841675e-02
1.856885999441146851e-01
4.111638665199279785e-02
-2.107454091310501099e-02
1.885125190019607544e-01
3.398344293236732483e-02
-9.876766800880432129e-02
3.639247268438339233e-02
-9.737078845500946045e-02
-1.133215427398681641e-01
3.069412894546985626e-02
3.917630761861801147e-02
8.071489632129669189e-02
1.086278781294822693e-01
9.670198895037174225e-03
3.612426668405532837e-02
1.699402928352355957e-01
-1.406615525484085083e-01
1.074862778186798096e-01
1.071075871586799622e-01
1.257856339216232300e-01
7.194262929260730743e-03
5.787942185997962952e-02
1.930949687957763672e-01
2.222877740859985352e-01
-5.926059931516647339e-02
2.135495841503143311e-01
-2.447050809860229492e-01
-1.490258276462554932e-01
-1.051387637853622437e-01
-1.794049739837646484e-01
5.859393626451492310e-02
1.674875169992446899e-01
4.019233584403991699e-02
-6.667590141296386719e-02
1.324348747730255127e-01
2.386537790298461914e-01
-1.025221720337867737e-01
9.482643008232116699e-02
9.441938996315002441e-02
3.607429936528205872e-02
1.380189210176467896e-01
-1.081207916140556335e-01
-1.360844820737838745e-01
-4.689628258347511292e-02
-8.244873583316802979e-02
-1.508586108684539795e-01
4.464782029390335083e-02
4.320388287305831909e-02
5.528799444437026978e-02
-3.217358887195587158e-02
2.716903686523437500e-01
9.860079735517501831e-02
-7.779649645090103149e-02
3.905631229281425476e-02
9.354779869318008423e-02
1.068874448537826538e-01
1.158303096890449524e-01
-5.593103915452957153e-02
-1.684547960758209229e-01
1.221326738595962524e-01
-1.868565380573272705e-01
-6.870732456445693970e-02
-9.521258622407913208e-02
-1.113906577229499817e-01
2.269318699836730957e-01
-4.119385778903961182e-02
-2.101890295743942261e-01
1.041792109608650208e-01
1.121627986431121826e-01
1.280068606138229370e-01
5.400548130273818970e-02
4.699311405420303345e-02
8.595752716064453125e-02
-1.683554425835609436e-02
1.175609976053237915e-01
-2.368265762925148010e-02
5.994998663663864136e-02
1.188628003001213074e-01
9.118340164422988892e-02
3.568288683891296387e-02
-6.403431296348571777e-02
8.396738767623901367e-02
4.557708650827407837e-02
-1.572462469339370728e-01
4.507153853774070740e-02
-1.311730295419692993e-01
-6.049444526433944702e-02
6.041414663195610046e-02
-3.279493004083633423e-02
-7.427648454904556274e-02
2.948117628693580627e-02
1.233281940221786499e-01
5.996208637952804565e-03
-4.231430590152740479e-02
-1.010323911905288696e-01
4.917933419346809387e-02
-3.192100673913955688e-02
-3.306581452488899231e-02
2.859496511518955231e-02
-8.196793496608734131e-02
-3.602647036314010620e-02
-1.413832455873489380e-01
-1.686810143291950226e-02
7.927360385656356812e-02
1.811664104461669922e-01
-2.845202684402465820e-01
4.850063845515251160e-02
3.849496543407440186e-01
8.534896373748779297e-02
-1.129444390535354614e-01
6.000822037458419800e-02
-2.207781374454498291e-02
2.982382429763674736e-03
7.359353452920913696e-02
1.445977538824081421e-01
5.005957186222076416e-02
-2.303624749183654785e-01
-1.413238048553466797e-01
4.899445339106023312e-04
-2.540662698447704315e-02
3.819690346717834473e-01
1.011999920010566711e-01
4.603792354464530945e-02
-4.962564632296562195e-02
2.317475527524948120e-02
9.231182932853698730e-02
1.850715465843677521e-02
-2.161337882280349731e-01
1.404775828123092651e-01
-9.113587439060211182e-02
1.073299795389175415e-01
-1.190260946750640869e-01
-1.599182635545730591e-01
-1.049799546599388123e-01
1.293194741010665894e-01
5.275717377662658691e-02
8.521739393472671509e-02
2.209221012890338898e-02
1.430798619985580444e-01
1.615866571664810181e-01
2.737511135637760162e-02
-3.777220100164413452e-02
3.771345317363739014e-02
-2.675977945327758789e-01
-4.772998020052909851e-02
-5.367377027869224548e-02
3.032241016626358032e-02
9.371191263198852539e-02
1.592136919498443604e-01
-1.585718393325805664e-01
1.357150971889495850e-01
9.042125940322875977e-02
1.775641739368438721e-01
-4.085969924926757812e-02
-9.909337386488914490e-03
-5.626625940203666687e-02
-1.970564872026443481e-01
2.626495957374572754e-01
5.633827298879623413e-03
1.418709456920623779e-01
2.048997879028320312e-01
1.052428632974624634e-01
2.460604757070541382e-01
2.734309732913970947e-01
-4.850789904594421387e-01
1.754490435123443604e-01
2.196442484855651855e-01
-4.462683573365211487e-02
-3.154668509960174561e-01
-2.841461822390556335e-02
4.629561305046081543e-02
2.117744684219360352e-01
-2.510237991809844971e-01
2.829667739570140839e-02
-8.217364549636840820e-02
1.045339331030845642e-01
1.230670809745788574e-01
9.536699205636978149e-02
1.023198142647743225e-01
1.797495782375335693e-02
-2.507875561714172363e-01
-4.228012636303901672e-02
-6.306551396846771240e-02
-2.878332138061523438e-01
1.388614438474178314e-02
1.151446849107742310e-01
-2.939147651195526123e-01
6.235314533114433289e-02
-1.984790861606597900e-01
1.355329155921936035e-01
1.241270899772644043e-01
-7.708456367254257202e-02
4.713656008243560791e-02
-8.705327659845352173e-02
-3.256699740886688232e-01
-1.994163095951080322e-01
3.848558291792869568e-02
7.195185869932174683e-02
-1.172489449381828308e-01
-6.288277916610240936e-03
1.482217460870742798e-01
8.168717473745346069e-02
2.459471486508846283e-02
2.001330107450485229e-01
-1.757181435823440552e-01
4.443922266364097595e-02
5.618193652480840683e-03
-2.731831669807434082e-01
2.005441039800643921e-01
2.425966598093509674e-02
2.040797173976898193e-01
1.532969176769256592e-01
1.739902794361114502e-01
-2.513912320137023926e-02
-1.247243732213973999e-01
8.277662098407745361e-02
-1.909394860267639160e-01
5.023631453514099121e-02
-1.671143174171447754e-01
4.553984999656677246e-01
-4.914611577987670898e-02
-1.438927948474884033e-01
1.586787849664688110e-01
4.756174050271511078e-03
2.955529093742370605e-01
-5.525019764900207520e-02
3.041304945945739746e-01
-3.711028397083282471e-02
-5.454983189702033997e-02
-1.344561725854873657e-01
-8.398617617785930634e-03
-1.049046441912651062e-01
-2.250756137073040009e-02
1.110501065850257874e-01
1.980979889631271362e-01
5.518222227692604065e-02
1.447324156761169434e-01
-1.673336178064346313e-01
-3.209641575813293457e-01
-1.278970688581466675e-01
1.087029203772544861e-01
8.951023966073989868e-02
-8.884897828102111816e-02
3.213563188910484314e-02
-4.817149043083190918e-02
-4.301134124398231506e-02
-1.048749163746833801e-01
1.297748386859893799e-01
4.125010967254638672e-02
-1.940098591148853302e-02
-7.768104318529367447e-03
1.471596807241439819e-01
1.874830424785614014e-01
-1.563119590282440186e-01
4.330591112375259399e-02
-3.490242734551429749e-02
-4.107477888464927673e-02
9.490760415792465210e-02
2.977673709392547607e-01
3.215116262435913086e-02
-7.497697323560714722e-02
-4.364504292607307434e-02
-2.809055149555206299e-02
3.657909035682678223e-01
1.785242408514022827e-01
8.913180232048034668e-02
-1.530371513217687607e-02
2.647749707102775574e-02
-4.121687263250350952e-02
1.500091403722763062e-01
2.247679233551025391e-02
1.521477103233337402e-01
-3.269153833389282227e-01
-3.533879993483424187e-03
2.174259722232818604e-01
2.070383727550506592e-02
-5.578975751996040344e-02
-2.063228515908122063e-03
-3.489105496555566788e-03
1.271125227212905884e-01
-1.300815492868423462e-01
3.766256272792816162e-01
2.002341598272323608e-01
-1.137315779924392700e-01
1.387812346220016479e-01
1.178308483213186264e-02
-1.134144887328147888e-01
2.128532379865646362e-01
1.937361210584640503e-01
-1.166292130947113037e-01
2.383588850498199463e-01
1.110625565052032471e-01
-6.813374906778335571e-02
8.386181294918060303e-02
8.737632632255554199e-02
-5.580664053559303284e-02
3.457986190915107727e-02
-2.058732211589813232e-01
-9.989570826292037964e-02
-2.004586607217788696e-01
-1.255051791667938232e-01
-2.007066011428833008e-01
1.778939664363861084e-01
1.891619116067886353e-01
9.079045057296752930e-02
2.582736313343048096e-01
2.243237346410751343e-01
1.208612471818923950e-01
1.611917763948440552e-01
2.720517292618751526e-02
5.568387359380722046e-02
-1.821213513612747192e-01
1.783426105976104736e-01
-2.912702411413192749e-02
-3.028853610157966614e-02
5.660137161612510681e-02
-8.892934024333953857e-02
1.800796687602996826e-01
9.514608234167098999e-02
-8.625639602541923523e-03
7.634054124355316162e-02
-1.507853567600250244e-01
-2.471526525914669037e-02
-1.182376518845558167e-01
6.903985142707824707e-02
2.205165624618530273e-01
1.982839591801166534e-02
2.482618577778339386e-02
1.842421591281890869e-01
8.338233828544616699e-02
7.149562984704971313e-02
-4.486056417226791382e-02
2.408734261989593506e-01
1.055365353822708130e-01
1.053598374128341675e-01
3.054186527151614428e-04
5.645075067877769470e-02
8.253785967826843262e-02
1.195926517248153687e-01
-2.647373080253601074e-01
4.915045946836471558e-02
-6.563096493482589722e-02
2.265435457229614258e-01
6.506044417619705200e-02
6.624069064855575562e-02
1.453548669815063477e-01
-2.720475494861602783e-01
2.208331078290939331e-01
-1.505048125982284546e-01
-1.534826457500457764e-01
-3.723394498229026794e-02
3.205154836177825928e-01
1.122062653303146362e-01
-1.302939504384994507e-01
-2.340784966945648193e-01
7.174651138484477997e-03
-6.310167163610458374e-02
-3.730967044830322266e-01
2.093296498060226440e-03
2.229857891798019409e-01
-3.355127573013305664e-02
5.170665308833122253e-02
3.128680586814880371e-01
2.151970118284225464e-01
-7.012959569692611694e-02
-2.610418200492858887e-01
1.238353401422500610e-01
-4.079613462090492249e-02
1.562578827142715454e-01
-8.729483187198638916e-02
9.443564713001251221e-02
1.333292126655578613e-01
-1.295346766710281372e-01
2.416068166494369507e-01
-8.904695510864257812e-02
-1.496949605643749237e-02
1.485623717308044434e-01
1.244762986898422241e-01
-2.482293397188186646e-01
-2.036644890904426575e-02
3.703657686710357666e-01
4.307867586612701416e-02
-1.455698460340499878e-01
-1.089788600802421570e-01
1.229607686400413513e-02
1.262882053852081299e-01
-1.052729189395904541e-01
-1.108331307768821716e-01
-2.312957942485809326e-01
-4.337470531463623047e-01
1.223532930016517639e-01
5.265749990940093994e-02
5.355696752667427063e-02
7.235801964998245239e-02
-1.279650479555130005e-01
2.787101864814758301e-01
1.030313409864902496e-02
1.382194757461547852e-01
1.544233709573745728e-01
-6.553816050291061401e-02
-5.240849778056144714e-02
-1.761466711759567261e-01
-2.206176817417144775e-01
-2.520363926887512207e-01
1.949154138565063477e-01
-1.957205235958099365e-01
5.881021916866302490e-02
2.255330979824066162e-01
1.272923201322555542e-01
2.053489685058593750e-01
3.788272663950920105e-02
1.499792188405990601e-01
1.608594805002212524e-01
6.972473114728927612e-02
2.334232628345489502e-02
4.941644668579101562e-01
2.131935656070709229e-01
-3.504836931824684143e-02
1.252286881208419800e-01
8.874704688787460327e-02
1.296335831284523010e-02
2.557762265205383301e-01
-1.928624138236045837e-02
1.370725873857736588e-02
2.407666742801666260e-01
1.444290429353713989e-01
-8.769165724515914917e-02
-9.437140077352523804e-02
-2.174351215362548828e-01
-6.094058230519294739e-02
5.948892235755920410e-02
2.101426869630813599e-01
1.772014982998371124e-02
-1.312845051288604736e-01
-6.099579483270645142e-02
-3.827816806733608246e-03
-9.033764153718948364e-02
-1.068519726395606995e-01
1.304590106010437012e-01
-5.111581832170486450e-02
9.236119687557220459e-02
-5.289772152900695801e-02
2.493401058018207550e-02
-6.559038907289505005e-02
-3.545564413070678711e-01
-8.486136794090270996e-02
1.501798033714294434e-01
-7.746001332998275757e-02
-1.119502037763595581e-01
7.305762264877557755e-03
-7.063967734575271606e-02
-1.407648175954818726e-01
-2.404473274946212769e-01
8.352193236351013184e-02
3.642714023590087891e-01
4.783904924988746643e-02
1.603657379746437073e-02
-5.527492240071296692e-02
-3.710585087537765503e-02
-4.443114623427391052e-02
7.975883781909942627e-03
1.361145228147506714e-01
-1.693964190781116486e-02
-6.798597518354654312e-03
-1.013649702072143555e-01
-1.311218887567520142e-01
-7.533899694681167603e-02
-1.903645247220993042e-01
-4.625274986028671265e-02
-1.602821797132492065e-01
1.308847367763519287e-01
1.256423741579055786e-01
-1.113848686218261719e-01
-3.653275594115257263e-02
3.656048700213432312e-02
-1.454198360443115234e-01
6.867624074220657349e-02
-4.253972787410020828e-03
1.197026297450065613e-02
5.080457776784896851e-02
9.426558762788772583e-02
3.764241700991988182e-03
1.190835982561111450e-01
3.304932266473770142e-02
4.613828659057617188e-02
-8.485413342714309692e-02
1.779576390981674194e-01
-2.328317239880561829e-02
-6.617746502161026001e-02
1.307448446750640869e-01
3.804138302803039551e-02
1.480380296707153320e-01
-5.425568670034408569e-02
-8.714504539966583252e-02
-5.921890214085578918e-02
-3.364582732319831848e-02
-2.992270514369010925e-02
3.671472519636154175e-02
1.744041591882705688e-01
-4.588451702147722244e-03
-2.035420387983322144e-01
5.792396143078804016e-02
-8.798436075448989868e-02
-1.429797559976577759e-01
-1.153965592384338379e-01
7.857897877693176270e-02
-9.601747151464223862e-04
-7.348468154668807983e-02
7.320176064968109131e-02
5.493353679776191711e-02
5.160420760512351990e-02
-1.196567341685295105e-02
2.251984626054763794e-01
3.329263627529144287e-02
2.540164440870285034e-02
-3.701186925172805786e-02
3.469935655593872070e-01
-1.425081193447113037e-01
-1.187500134110450745e-01
1.407013237476348877e-01
9.748457372188568115e-02
5.775561183691024780e-02
-2.471235990524291992e-01
8.622448891401290894e-02
7.932554185390472412e-02
1.600478738546371460e-01
8.480869978666305542e-02
-2.359046190977096558e-01
-1.401067338883876801e-02
2.182559669017791748e-01
-1.920596510171890259e-02
2.348610609769821167e-01
9.226980805397033691e-02
2.268505990505218506e-01
2.761041745543479919e-02
1.075818166136741638e-01
1.092146113514900208e-01
3.403073176741600037e-02
4.555639624595642090e-02
6.384917348623275757e-02
-9.671451896429061890e-02
2.123959362506866455e-02
8.328457176685333252e-02
3.101236373186111450e-02
3.152438998222351074e-02
-9.470668435096740723e-02
1.496861875057220459e-02
-2.411700785160064697e-02
1.642791554331779480e-02
1.096768155694007874e-01
-9.056618809700012207e-02
-3.029030561447143555e-02
-1.117640882730484009e-01
-7.924053072929382324e-02
-2.107703685760498047e-01
1.335924416780471802e-01
-1.841639727354049683e-01
-2.689329087734222412e-01
-1.172950025647878647e-02
3.754049539566040039e-01
-8.332451432943344116e-02
-1.219327971339225769e-01
6.931320577859878540e-02
2.045881561934947968e-02
-1.784109175205230713e-01
-2.433547750115394592e-02
2.899387851357460022e-02
-7.289097458124160767e-02
2.050447613000869751e-01
-2.458939701318740845e-02
-2.062165439128875732e-01
-1.081077679991722107e-01
-2.506977617740631104e-01
-9.435652941465377808e-02
5.605648458003997803e-02
1.507310271263122559e-01
1.961269378662109375e-01
-9.287530928850173950e-02
-1.625365763902664185e-01
-6.102633476257324219e-02
1.430031210184097290e-01
1.937815546989440918e-01
9.775189310312271118e-02
-9.942798316478729248e-02
1.040272787213325500e-01
-1.937860995531082153e-01
5.189706012606620789e-02
1.478658169507980347e-01
4.730462655425071716e-02
-1.525710374116897583e-01
8.340199291706085205e-02
1.175573654472827911e-02
1.612063348293304443e-01
-1.240098923444747925e-01
-1.294581294059753418e-01
-1.988214850425720215e-01
9.672288596630096436e-02
-2.688207477331161499e-02
1.317603290081024170e-01
5.496724322438240051e-02
-1.625539213418960571e-01
-2.067078351974487305e-01
3.560265176929533482e-04
2.200273275375366211e-01
5.776347219944000244e-02
-3.169041574001312256e-01
1.019647791981697083e-01
1.180613562464714050e-01
5.767682567238807678e-03
-1.134984567761421204e-01
8.449061959981918335e-02
-2.693510428071022034e-02
1.070541068911552429e-01
-2.060962282121181488e-02
-6.846082396805286407e-03
1.211454197764396667e-01
8.374439552426338196e-03
-2.388629913330078125e-01
1.240728348493576050e-01
4.944379255175590515e-02
1.553289443254470825e-01
-4.697098210453987122e-02
-1.362634748220443726e-01
-1.620068028569221497e-02
2.508591488003730774e-02
-1.047502607107162476e-01
9.788000024855136871e-03
1.638520509004592896e-01
-1.845562607049942017e-01
3.554628044366836548e-02
-2.907698154449462891e-01
-7.319840043783187866e-02
5.884139239788055420e-02
-3.596467524766921997e-02
-1.841386221349239349e-02
2.995341271162033081e-02
-4.920907318592071533e-02
-9.867659211158752441e-02
-1.934974193572998047e-01
-9.214974194765090942e-02
2.739608846604824066e-02
-1.244051903486251831e-01
2.920671105384826660e-01
-1.472190469503402710e-01
-8.952368795871734619e-02
-5.610258504748344421e-02
2.548905648291110992e-02
-1.020263880491256714e-02
-1.091078966856002808e-01
2.244984498247504234e-03
-1.766059733927249908e-02
-3.481502458453178406e-02
-9.899458289146423340e-02
7.280403375625610352e-02
-7.746292278170585632e-03
-5.617718398571014404e-02
-7.184701412916183472e-02
-2.840387225151062012e-01
2.740243449807167053e-02
2.212235182523727417e-01
2.684680745005607605e-02
-4.246306419372558594e-02
3.920554742217063904e-02
-7.907165586948394775e-02
-1.129364781081676483e-02
6.298117339611053467e-02
-5.496730282902717590e-02
-1.075219735503196716e-01
5.862224102020263672e-02
-6.070265918970108032e-02
-7.409916818141937256e-02
1.265437602996826172e-01
-1.480753868818283081e-01
5.277599021792411804e-02
9.468775987625122070e-02
1.192722171545028687e-01
2.015093527734279633e-02
2.132262140512466431e-01
-2.145467698574066162e-01
-1.315267831087112427e-01
-1.681242883205413818e-02
1.511663943529129028e-01
-1.098726838827133179e-01
1.855641044676303864e-02
-1.547782570123672485e-01
1.827967166900634766e-01
-1.106952577829360962e-01
-9.736668318510055542e-03
1.342689394950866699e-01
-1.675938367843627930e-01
9.810385853052139282e-02
-2.337667718529701233e-02
-7.370028761215507984e-04
-6.667046248912811279e-02
2.252560406923294067e-01
2.359250932931900024e-01
1.358818262815475464e-01
-1.457501947879791260e-01
2.816667854785919189e-01
9.603903442621231079e-02
-9.663213789463043213e-02
-1.549338102340698242e-01
1.419251710176467896e-01
-1.349742412567138672e-01
8.450718224048614502e-02
6.387268751859664917e-02
2.593695372343063354e-02
-1.355894207954406738e-01
-6.273814290761947632e-02
1.442582905292510986e-01
1.451360136270523071e-01
2.181223779916763306e-01
-2.375723868608474731e-01
-1.334110945463180542e-01
-4.317347332835197449e-02
4.563721641898155212e-02
1.833044923841953278e-02
1.814938932657241821e-01
5.876652896404266357e-02
-7.478110492229461670e-02
-2.739148773252964020e-02
3.904019296169281006e-01
1.554305106401443481e-02
3.224734216928482056e-03
-1.637569628655910492e-02
1.086435392498970032e-01
-8.993162959814071655e-02
-4.265448451042175293e-02
-1.657614111900329590e-01
-2.932381629943847656e-01
1.174538806080818176e-01
1.976374685764312744e-01
-1.169283539056777954e-01
1.353123933076858521e-01
-1.325418651103973389e-01
5.205907672643661499e-02
5.084573104977607727e-02
-5.133281648159027100e-02
1.253829896450042725e-01
-5.684540420770645142e-02
-3.844060376286506653e-02
2.412007749080657959e-02
4.115396738052368164e-02
-1.106583997607231140e-01
3.083285093307495117e-01
5.336418002843856812e-02
-6.543702632188796997e-02
-2.070615738630294800e-01
1.040958464145660400e-01
-2.363376915454864502e-01
7.812245935201644897e-02
-3.145800828933715820e-01
4.171263426542282104e-02
-2.135580405592918396e-02
4.193645715713500977e-02
8.968522399663925171e-02
-1.145831719040870667e-01
5.412392783910036087e-03
1.905634067952632904e-02
-6.242165714502334595e-02
-1.059282794594764709e-01
-1.335294991731643677e-01
-1.218590959906578064e-01
-5.939469486474990845e-02
-6.357872486114501953e-02
1.183568127453327179e-02
-1.959670037031173706e-01
-7.858906686305999756e-02
-3.933363407850265503e-02
3.424394503235816956e-02
-1.313138753175735474e-01
-6.844986230134963989e-02
-7.034590840339660645e-02
1.524677425622940063e-01
-4.770699422806501389e-03
2.094402909278869629e-01
-7.488512247800827026e-02
2.237654775381088257e-01
1.129799336194992065e-01
-2.407521678833290935e-04
-4.240919277071952820e-02
1.426694840192794800e-01
1.104023605585098267e-01
1.348473411053419113e-02
2.105719000101089478e-01
-1.332909520715475082e-02
-2.140875905752182007e-01
1.689254939556121826e-01
6.470861285924911499e-02
1.611363142728805542e-01
1.128620058298110962e-01
1.402357816696166992e-01
-1.277190148830413818e-01
-2.070542424917221069e-02
-3.321766108274459839e-02
4.018137231469154358e-02
-2.111335396766662598e-01
8.429805934429168701e-02
-9.902475029230117798e-02
-2.653499543666839600e-01
1.749493777751922607e-01
-1.095215231180191040e-01
4.517201706767082214e-02
1.755545884370803833e-01
-2.505152821540832520e-01
1.493083685636520386e-01
-9.787899255752563477e-02
-9.093330055475234985e-02
-7.579194754362106323e-02
-1.443986129015684128e-02
1.478667408227920532e-01
-2.156542688608169556e-01
-1.172010079026222229e-01
-2.840324938297271729e-01
7.786534726619720459e-02
5.959947779774665833e-02
1.709746718406677246e-01
1.123284921050071716e-01
-2.585493959486484528e-02
2.238491773605346680e-01
-2.367144078016281128e-01
1.311255618929862976e-02
1.994122564792633057e-01
-2.200620621442794800e-01
2.067539542913436890e-01
2.086089402437210083e-01
-4.672914743423461914e-01
-1.455736309289932251e-01
-2.672418951988220215e-01
8.733132481575012207e-02
3.368118405342102051e-01
1.185982525348663330e-01
-1.681632921099662781e-02
9.269541501998901367e-02
-1.207251027226448059e-01
-9.073278307914733887e-02
1.619610786437988281e-01
3.214759230613708496e-01
1.395369470119476318e-01
-1.955489814281463623e-01
1.554048508405685425e-01
-1.140577718615531921e-01
7.080278545618057251e-02
5.603955686092376709e-02
1.460782736539840698e-01
-4.835211485624313354e-02
-1.196930371224880219e-02
2.174153923988342285e-02
4.149353876709938049e-02
-1.729646176099777222e-01
-7.158251851797103882e-02
-1.969116479158401489e-01
5.580595228821039200e-03
-7.633324712514877319e-02
-9.328263811767101288e-03
-4.126522690057754517e-02
-9.487027302384376526e-03
-1.995584666728973389e-01
-1.858988553285598755e-01
-6.896075606346130371e-02
-1.398586481809616089e-01
-1.602927595376968384e-01
-2.123351208865642548e-02
8.323682099580764771e-02
2.635913155972957611e-02
1.036811247467994690e-01
1.324564665555953979e-01
1.775502562522888184e-01
-5.890183523297309875e-02
-1.950792521238327026e-01
3.991398960351943970e-02
-9.947665035724639893e-02
-1.804353743791580200e-01
3.701375797390937805e-02
-7.169604301452636719e-02
2.681905925273895264e-01
-2.079953625798225403e-02
-1.514276266098022461e-01
-2.413821816444396973e-01
-1.612735986709594727e-01
-6.546204909682273865e-03
-1.222084509208798409e-03
2.346496134996414185e-01
-1.597944051027297974e-01
-2.387293130159378052e-01
3.178737685084342957e-02
-1.470899432897567749e-01
4.801514372229576111e-02
2.276362180709838867e-01
6.571387499570846558e-02
4.279194399714469910e-02
-2.478078566491603851e-02
2.188720554113388062e-01
-5.829587951302528381e-02
-1.947409659624099731e-01
-1.274150013923645020e-01
-1.676867902278900146e-02
2.831709338352084160e-03
1.187447085976600647e-01
-1.126946061849594116e-01
-9.556564688682556152e-02
1.888075657188892365e-02
-1.888561099767684937e-01
8.368966728448867798e-02
1.864592432975769043e-01
5.572686716914176941e-02
1.566722393035888672e-01
-2.904681861400604248e-02
-1.946278475224971771e-02
9.242422878742218018e-02
-1.439488083124160767e-01
-1.129746958613395691e-01
-2.045870274305343628e-01
-5.887104570865631104e-02
-2.359584718942642212e-01
2.132475376129150391e-01
9.619050472974777222e-02
3.861435502767562866e-02
8.355668187141418457e-02
-4.680090397596359253e-02
1.808482222259044647e-02
-3.488397970795631409e-02
1.518128719180822372e-02
1.095283403992652893e-01
2.637318801134824753e-03
5.311537161469459534e-02
1.370642185211181641e-01
7.877935469150543213e-02
-9.090139530599117279e-03
-5.526751279830932617e-02
2.466596215963363647e-01
1.447527110576629639e-01
7.159180194139480591e-02
1.153872534632682800e-01
-1.771647632122039795e-01
1.496802419424057007e-01
-1.937485635280609131e-01
-3.654822334647178650e-02
4.232099279761314392e-02
-1.873981654644012451e-01
5.596947856247425079e-03
-1.235730350017547607e-01
-2.133548557758331299e-01
1.843721419572830200e-01
9.116399288177490234e-02
-1.869612187147140503e-02
-1.856558769941329956e-01
9.248355776071548462e-02
-5.602442845702171326e-02
-5.577562376856803894e-02
1.175074875354766846e-01
-1.150535568594932556e-01
-6.395760457962751389e-03
-1.475657820701599121e-01
-6.482318788766860962e-02
-8.076296001672744751e-02
9.231669455766677856e-02
-1.753469705581665039e-01
-5.787412077188491821e-02
7.765799760818481445e-02
-7.772729545831680298e-02
1.612374559044837952e-02
-2.549319565296173096e-01
-3.505935892462730408e-02
9.834214299917221069e-02
2.876977920532226562e-01
2.803566753864288330e-01
-1.757679432630538940e-01
-1.963783800601959229e-02
-2.907530963420867920e-01
1.104004979133605957e-01
-1.496599894016981125e-02
-8.793450891971588135e-02
9.722132980823516846e-02
2.785542011260986328e-01
-2.129139155149459839e-01
-1.850560307502746582e-02
-1.514195352792739868e-01
-3.082367591559886932e-02
-6.266055162996053696e-03
-3.858743235468864441e-02
-1.660242676734924316e-01
6.727542728185653687e-02
-1.998906433582305908e-01
-7.485652714967727661e-02
-1.823189109563827515e-02
-5.758088454604148865e-02
-1.075842976570129395e-01
1.805756390094757080e-01
-1.224396750330924988e-01
-1.777826063334941864e-02
1.478669345378875732e-01
1.138603910803794861e-01
1.753061264753341675e-02
-6.515743676573038101e-03
5.408170819282531738e-02
-7.489251438528299332e-04
7.893652468919754028e-02
-1.461529731750488281e-01
4.443709924817085266e-02
1.022056397050619125e-02
2.278388105332851410e-02
9.807494282722473145e-02
1.521054357290267944e-01
-6.218355894088745117e-02
-7.204871624708175659e-02
2.568060159683227539e-01
-1.810850389301776886e-02
9.333104640245437622e-02
-1.305880993604660034e-01
1.516857147216796875e-01
3.088587708771228790e-02
-5.665793642401695251e-02
-2.475394494831562042e-02
-4.994478821754455566e-02
-1.902596838772296906e-02
3.882367163896560669e-02
-6.061818823218345642e-02
-2.385870367288589478e-01
7.791493088006973267e-02
-3.335027769207954407e-02
2.285098880529403687e-01
-1.359103620052337646e-01
-1.261233538389205933e-01
2.350944578647613525e-01
-2.590056955814361572e-01
1.182092055678367615e-01
-1.963869668543338776e-03
5.717565119266510010e-02
-6.397943943738937378e-02
-1.737170070409774780e-01
9.718821942806243896e-02
-4.860823601484298706e-02
1.541307717561721802e-01
8.204132318496704102e-02
9.797360748052597046e-02
-1.934804953634738922e-02
3.462477326393127441e-01
3.594533726572990417e-02
-9.718450158834457397e-02
-2.066112011671066284e-01
5.352522060275077820e-02
1.593466103076934814e-01
3.647998273372650146e-01
-1.371779441833496094e-01
-2.605720050632953644e-02
1.556216776371002197e-01
9.605406969785690308e-02
-7.781002670526504517e-02
1.351924892514944077e-02
-2.453174442052841187e-02
1.079265326261520386e-01
-6.683020293712615967e-02
-2.814738778397440910e-03
6.109127029776573181e-02
5.360639840364456177e-02
1.138689927756786346e-02
-5.305922031402587891e-02
-9.292156249284744263e-02
1.721433550119400024e-01
-1.030016392469406128e-01
1.826518923044204712e-01
6.708247587084770203e-03
-9.767046570777893066e-02
1.541818827390670776e-01
-3.604143485426902771e-02
1.678163185715675354e-02
-1.895930022001266479e-01
6.668156385421752930e-02
-1.770218610763549805e-01
-2.210007607936859131e-01
3.565641343593597412e-01
7.978304475545883179e-02
1.943053118884563446e-02
2.437580376863479614e-02
-4.430874064564704895e-02
-1.133859977126121521e-01
5.088321864604949951e-02
1.220421344041824341e-01
-1.451421082019805908e-01
1.292696744203567505e-01
2.077494747936725616e-02
9.334761649370193481e-02
-2.292340248823165894e-02
1.097953543066978455e-01
-7.719643414020538330e-02
5.579892173409461975e-02
-9.011900424957275391e-02
1.980337947607040405e-01
6.679697334766387939e-02
-7.788584381341934204e-02
-7.739334553480148315e-02
-3.843134501948952675e-03
7.852017879486083984e-02
-1.016750857234001160e-01
-9.021852165460586548e-02
2.645911276340484619e-02
-1.149726063013076782e-01
3.606839850544929504e-02
1.139457523822784424e-01
-1.145511567592620850e-01
-2.872782200574874878e-02
-4.908822104334831238e-02
-4.762532934546470642e-02
3.256083652377128601e-02
9.231812320649623871e-03
1.785401850938796997e-01
-1.509882062673568726e-01
4.349246621131896973e-02
-2.029526978731155396e-01
1.875587105751037598e-01
2.393439859151840210e-01
-4.573357850313186646e-02
-9.096907824277877808e-02
-9.628325700759887695e-02
9.858269989490509033e-02
1.191897466778755188e-01
-2.402380704879760742e-01
4.269501566886901855e-02
-5.539485067129135132e-02
3.332135081291198730e-02
7.444401085376739502e-02
2.709740698337554932e-01
-3.804419888183474541e-03
-1.000168174505233765e-01
-8.746987581253051758e-02
5.218531936407089233e-02
1.114120259881019592e-01
7.082018256187438965e-02
1.372431404888629913e-02
-4.954869393259286880e-03
1.437649130821228027e-01
1.133883371949195862e-01
-2.945957183837890625e-01
-1.378799229860305786e-01
-2.027290500700473785e-02
-7.393096387386322021e-02
-2.377475500106811523e-01
-5.303623899817466736e-02
7.626978307962417603e-02
7.492566108703613281e-02
1.911502629518508911e-01
-2.828909456729888916e-01
-2.075495868921279907e-01
4.275996237993240356e-02
1.105918437242507935e-01
2.195349633693695068e-01
6.738691031932830811e-02
-9.262142330408096313e-02
-1.735486984252929688e-01
1.644693687558174133e-02
-1.008336022496223450e-01
9.760112315416336060e-02
-8.016432821750640869e-02
5.737414956092834473e-02
-1.281795054674148560e-01
-2.718848176300525665e-02
5.576052144169807434e-02
1.822898387908935547e-01
-1.915567070245742798e-01
3.595317155122756958e-02
2.727123796939849854e-01
-8.989356458187103271e-02
-2.502555027604103088e-02
-1.338840723037719727e-01
2.101021260023117065e-01
-1.230890005826950073e-01
-7.423558831214904785e-02
-3.071655631065368652e-01
-8.942618966102600098e-02
3.511959314346313477e-02
5.851546302437782288e-02
-1.281222850084304810e-01
8.713980764150619507e-02
-5.498196929693222046e-02
-3.121645888313651085e-03
8.810331672430038452e-02
-8.286901563405990601e-02
-7.106957584619522095e-02
2.460615038871765137e-01
-1.152996867895126343e-01
-1.313845962285995483e-01
1.151987314224243164e-01
9.073439240455627441e-02
-3.225699067115783691e-02
-3.345448151230812073e-02
6.189385429024696350e-02
1.615251749753952026e-01
-9.636764973402023315e-02
5.610185116529464722e-02
-6.070771068334579468e-02
1.622383743524551392e-01
-4.777604714035987854e-03
-5.794858932495117188e-02
1.053962297737598419e-02
-2.472046017646789551e-02
1.420980989933013916e-01
-1.767022162675857544e-01
3.397979959845542908e-02
-9.068331122398376465e-02
-8.117581158876419067e-02
7.890435308218002319e-02
-1.113198464736342430e-03
1.776279807090759277e-01
1.028544679284095764e-01
-1.214946210384368896e-01
1.233194172382354736e-01
5.051745101809501648e-02
1.056955605745315552e-01
1.018826663494110107e-01
-2.156226187944412231e-01
-1.559484899044036865e-01
-2.785430848598480225e-01
-1.890911310911178589e-01
4.524029418826103210e-02
2.770519554615020752e-01
-6.058639381080865860e-03
8.028203248977661133e-02
1.004373207688331604e-01
-9.030966460704803467e-02
1.146865859627723694e-01
1.625215262174606323e-01
-2.519993577152490616e-03
-7.640683650970458984e-02
3.151025250554084778e-02
-5.401583388447761536e-03
-1.248684823513031006e-01
-6.834360957145690918e-02
-1.303061544895172119e-01
7.238660473376512527e-03
6.085602939128875732e-02
-1.226494908332824707e-01
-3.355969861149787903e-02
-1.398425400257110596e-01
7.015310227870941162e-02
1.884769946336746216e-01
-2.764091491699218750e-01
1.295237243175506592e-02
2.539162337779998779e-02
-3.329549357295036316e-02
-2.960894955322146416e-03
-1.136436760425567627e-01
1.015066131949424744e-01
-6.849903613328933716e-02
-1.297629326581954956e-01
-1.056074425578117371e-01
-2.634801156818866730e-02
-2.857811450958251953e-01
1.547932028770446777e-01
4.634276777505874634e-02
-5.770097672939300537e-02
9.949703514575958252e-02
2.255629450082778931e-01
4.297205805778503418e-02
1.319479346275329590e-01
3.648178875446319580e-01
6.440463475883007050e-03
-2.431424856185913086e-01
1.729572713375091553e-01
-7.684056460857391357e-02
-5.242850258946418762e-02
-1.460371306166052818e-03
-1.888588815927505493e-02
-6.538856774568557739e-02
-1.555440132506191730e-03
-4.811524599790573120e-02
1.268740445375442505e-01
1.060575172305107117e-01
7.152985781431198120e-02
-2.664392590522766113e-01
-7.461267709732055664e-02
8.570638298988342285e-02
2.875843644142150879e-01
-2.814070880413055420e-02
-8.242055773735046387e-02
1.041098982095718384e-01
-7.985585182905197144e-02
1.601939834654331207e-02
-1.576170474290847778e-01
1.883783787488937378e-01
1.471935063600540161e-01
1.205408275127410889e-01
1.366027891635894775e-01
-1.989289373159408569e-01
2.067990452051162720e-01
1.678400039672851562e-01
-9.534001350402832031e-02
1.115231141448020935e-01
1.631996631622314453e-01
1.693191975355148315e-01
-3.507955372333526611e-02
-3.346183151006698608e-02
-8.731929957866668701e-02
2.770493328571319580e-01
2.092082351446151733e-01
-1.643652282655239105e-02
-8.965630829334259033e-02
1.961863040924072266e-01
-7.531069219112396240e-02
2.085370719432830811e-01
7.346054166555404663e-02
-9.603972733020782471e-02
1.227795258164405823e-01
9.521912783384323120e-02
1.569052413105964661e-02
4.282542318105697632e-02
-1.658218502998352051e-01
-1.119865775108337402e-01
6.423097848892211914e-02
4.764829203486442566e-02
-3.757248073816299438e-02
2.077084928750991821e-01
-1.259192377328872681e-01
1.060533821582794189e-01
1.426513772457838058e-02
-3.552095592021942139e-02
-1.798585504293441772e-01
3.260164856910705566e-01
-2.720375731587409973e-02
6.480109412223100662e-03
-4.173528868705034256e-03
1.189455389976501465e-01
1.477871388196945190e-01
-1.604147255420684814e-01
-2.109389901161193848e-01
-2.199568599462509155e-01
-2.166422605514526367e-01
1.423206180334091187e-01
-1.013066470623016357e-01
2.977925539016723633e-02
-6.839207559823989868e-02
-3.028068691492080688e-02
9.933357685804367065e-02
-5.797911901026964188e-03
-7.820735871791839600e-02
7.130637019872665405e-02
6.220855563879013062e-02
-1.236438155174255371e-01
1.186987981200218201e-01
-1.463462859392166138e-01
-5.424339789897203445e-03
-4.025043174624443054e-02
-9.730412065982818604e-02
3.556977584958076477e-02
4.837639629840850830e-02
-1.627627611160278320e-01
1.651126742362976074e-01
-3.216850161552429199e-01
2.268088161945343018e-01
2.592952549457550049e-01
-8.517414331436157227e-02
-2.495115101337432861e-01
1.991935633122920990e-02
-2.940413169562816620e-02
-2.391532808542251587e-02
2.011975795030593872e-01
-3.963568247854709625e-03
-4.833174124360084534e-02
-9.968807548284530640e-02
-1.640857309103012085e-01
-9.110834449529647827e-02
-1.329025626182556152e-01
2.873930335044860840e-02
1.144111752510070801e-01
2.768556214869022369e-02
-6.193634495139122009e-02
-1.082039102911949158e-01
3.416794538497924805e-02
-5.645769461989402771e-02
-3.240260109305381775e-02
-1.173437386751174927e-01
7.459929585456848145e-02
4.746547341346740723e-02
-1.204647719860076904e-01
-2.993612363934516907e-02
-3.140947595238685608e-02
5.744231492280960083e-02
1.066631078720092773e-01
-1.250763237476348877e-01
1.465483158826828003e-01
3.239075839519500732e-02
1.138047426939010620e-01
9.324562549591064453e-02
1.711865067481994629e-01
2.767819538712501526e-02
-3.794575855135917664e-02
1.274645328521728516e-01
1.708062440156936646e-01
-1.096974387764930725e-01
3.697532042860984802e-02
-8.016148954629898071e-02
3.492802754044532776e-02
1.361506432294845581e-01
-2.101197689771652222e-01
1.192471385002136230e-01
8.931655436754226685e-02
1.384898740798234940e-02
6.675992906093597412e-02
1.070841029286384583e-02
-8.865610510110855103e-02
2.953653596341609955e-02
4.710095468908548355e-03
1.089515909552574158e-01
-8.231751620769500732e-02
-5.151220411062240601e-02
2.914893031120300293e-01
-1.324956715106964111e-01
1.007258519530296326e-01
2.224567234516143799e-01
8.893373608589172363e-02
-1.299148648977279663e-01
-2.642481327056884766e-01
2.582409605383872986e-02
3.275252580642700195e-01
-2.702298387885093689e-02
1.373543590307235718e-01
-8.405073545873165131e-03
4.862124100327491760e-02
6.364655494689941406e-02
1.601898968219757080e-01
-7.586312294006347656e-02
6.133929267525672913e-02
8.305768715217709541e-04
-1.634476929903030396e-01
-2.358804829418659210e-02
-1.161331236362457275e-01
7.101123034954071045e-02
9.532229043543338776e-03
6.127578392624855042e-02
1.177578717470169067e-01
-3.406538162380456924e-04
3.211713731288909912e-01
1.809938400983810425e-01
8.099563419818878174e-02
-4.800779744982719421e-02
2.170208841562271118e-01
-5.117752775549888611e-02
1.218527927994728088e-01
1.632112860679626465e-01
8.769924193620681763e-02
1.060318574309349060e-01
3.464175164699554443e-01
-5.096935853362083435e-02
6.512926518917083740e-02
1.151567697525024414e-01
1.014614775776863098e-01
2.385615855455398560e-01
-1.547242254018783569e-01
8.090265840291976929e-02
-4.860982671380043030e-02
3.093243204057216644e-02
-4.195943102240562439e-02
-1.011494621634483337e-01
3.644169867038726807e-02
1.362405717372894287e-01
4.997450858354568481e-02
-3.077089041471481323e-02
-9.037433564662933350e-02
2.862090058624744415e-02
5.255195125937461853e-02
-3.862148523330688477e-01
-1.476367115974426270e-01
1.589129418134689331e-01
2.080761268734931946e-02
-1.017075730487704277e-03
5.779231339693069458e-02
-4.538096114993095398e-02
1.540889739990234375e-01
-1.176034435629844666e-01
4.226504266262054443e-02
4.003095999360084534e-02
-2.707748115062713623e-01
-3.017542660236358643e-01
-1.398970037698745728e-01
-9.189915657043457031e-02
-3.346526920795440674e-01
5.880596488714218140e-02
-7.888936996459960938e-02
8.911555260419845581e-02
1.540422090329229832e-03
-1.497527509927749634e-01
-1.322395447641611099e-02
-1.576850116252899170e-01
-1.014008671045303345e-01
-1.847801804542541504e-01
1.080573871731758118e-01
-1.195952575653791428e-02
-6.101321056485176086e-02
1.000153571367263794e-01
7.313944865018129349e-03
2.495010010898113251e-02
1.227684766054153442e-01
-3.497110009193420410e-01
-3.922418504953384399e-02
-1.592210531234741211e-01
-1.880064457654953003e-01
5.826004594564437866e-02
1.642189472913742065e-01
-6.097555160522460938e-02
1.098656803369522095e-01
1.184845045208930969e-01
-2.809413708746433258e-02
-4.537931829690933228e-02
4.655230417847633362e-02
2.898929454386234283e-02
-2.826254367828369141e-01
-5.894060805439949036e-02
3.439340367913246155e-02
2.153862565755844116e-01
-1.030343994498252869e-01
8.833116292953491211e-02
-7.345662266016006470e-02
-2.214473336935043335e-01
1.124026775360107422e-01
-9.408042579889297485e-02
4.633068293333053589e-02
1.201959326863288879e-01
-1.186508759856224060e-01
-9.227952361106872559e-02
-5.186391994357109070e-02
-1.203549653291702271e-01
-1.350451558828353882e-01
5.186363682150840759e-02
5.480106174945831299e-02
-1.327904164791107178e-01
-9.071024134755134583e-03
-4.429892078042030334e-02
6.293249875307083130e-02
-2.256098836660385132e-01
1.096860915422439575e-01
-1.421073228120803833e-01
-4.667246341705322266e-02
3.316036192700266838e-03
5.820984020829200745e-02
-1.119529679417610168e-01
-2.563818097114562988e-01
1.072836145758628845e-01
1.579934507608413696e-01
-2.207379639148712158e-01
-1.249199584126472473e-01
-7.253205031156539917e-02
-1.575130969285964966e-01
1.906297057867050171e-01
-1.979824006557464600e-01
7.721754908561706543e-02
2.054394483566284180e-01
1.546575594693422318e-02
5.072333663702011108e-02
-1.008561253547668457e-01
-9.222710132598876953e-02
-3.077862411737442017e-02
-2.336385995149612427e-01
-3.989224508404731750e-02
-1.479075849056243896e-01
1.458541024476289749e-02
-1.488729864358901978e-01
3.024583123624324799e-02
-2.571357600390911102e-02
5.367875844240188599e-02
2.200170606374740601e-01
9.407398849725723267e-02
1.826509684324264526e-01
-1.216748058795928955e-01
-5.949006602168083191e-02
-6.842570006847381592e-02
1.698765307664871216e-01
1.246772035956382751e-01
-3.152380883693695068e-02
4.319860041141510010e-01
1.123510450124740601e-01
2.252052575349807739e-01
-1.081744581460952759e-02
1.389113813638687134e-01
5.894303694367408752e-02
8.679095655679702759e-02
-3.133435919880867004e-02
-9.232840687036514282e-02
-6.353910267353057861e-02
-3.169159293174743652e-01
-1.459793001413345337e-01
-1.229059100151062012e-01
-1.481754481792449951e-01
4.197417199611663818e-02
1.742536425590515137e-01
-1.224073767662048340e-02
-7.733154110610485077e-03
6.521375477313995361e-02
-1.661908626556396484e-01
-1.972632408142089844e-01
-5.342859774827957153e-02
-1.304915249347686768e-01
-4.113373532891273499e-02
-1.779334992170333862e-02
-1.313121765851974487e-01
5.598394200205802917e-02
-2.246280945837497711e-02
9.708677232265472412e-02
-1.222415044903755188e-01
-8.951144665479660034e-02
5.051716044545173645e-02
-2.975922822952270508e-02
-1.938535869121551514e-01
-2.591119147837162018e-02
1.122678816318511963e-01
-1.331000775098800659e-01
-3.840733319520950317e-02
1.450215131044387817e-01
3.340850770473480225e-02
6.642956286668777466e-02
1.440175026655197144e-01
4.727666825056076050e-02
-2.067118287086486816e-01
3.151689469814300537e-01
-2.892900407314300537e-01
1.780264973640441895e-01
-1.172352358698844910e-01
-1.596618257462978363e-02
2.316617406904697418e-02
1.294602639973163605e-02
-1.009594798088073730e-01
-1.953247934579849243e-01
-1.446299850940704346e-01
1.851617395877838135e-01
2.492335438728332520e-01
-3.154362738132476807e-02
1.429991126060485840e-01
-1.818308830261230469e-01
2.453687041997909546e-01
1.837017983198165894e-01
-5.951856076717376709e-02
1.419875770807266235e-02
-2.518921718001365662e-02
1.912766247987747192e-01
6.471063941717147827e-02
1.598200201988220215e-01
1.878708153963088989e-01
6.086936593055725098e-02
-3.571690618991851807e-02
1.807908862829208374e-01
-4.171593859791755676e-02
-4.161518998444080353e-03
2.199063748121261597e-01
6.074478104710578918e-02
-1.117411628365516663e-02
-1.116135418415069580e-01
-3.836214542388916016e-01
1.529702097177505493e-01
-3.079971997067332268e-03
4.326665401458740234e-02
2.107600867748260498e-02
9.789905697107315063e-02
4.680128023028373718e-02
6.422200798988342285e-02
2.970444411039352417e-02
-7.003968209028244019e-02
1.268910020589828491e-01
2.903720736503601074e-01
2.413803152740001678e-02
-1.217384338378906250e-01
5.879093706607818604e-02
1.693059802055358887e-01
-1.606458425521850586e-01
5.314404889941215515e-02
1.990515924990177155e-02
3.267360478639602661e-02
4.463048279285430908e-02
2.632389962673187256e-01
1.702050119638442993e-01
-6.284699589014053345e-02
1.853813081979751587e-01
-2.635715529322624207e-03
2.574022710323333740e-01
1.588257700204849243e-01
1.692553013563156128e-01
-1.073975488543510437e-01
1.785415560007095337e-01
-3.790122643113136292e-02
3.696771338582038879e-02
7.821432501077651978e-02
-1.527853906154632568e-01
-2.569880187511444092e-01
-7.727655768394470215e-02
2.275079041719436646e-01
2.121479064226150513e-01
-3.816378489136695862e-02
-1.185827776789665222e-01
-8.346951653948053718e-05
-1.167674548923969269e-03
2.310365289449691772e-01
9.161757677793502808e-02
3.960979282855987549e-01
-1.688079237937927246e-01
4.658154770731925964e-02
4.842506255954504013e-03
-1.916511505842208862e-01
3.296253737062215805e-03
-1.166051924228668213e-01
-5.028848722577095032e-02
-2.407849207520484924e-02
-2.307050675153732300e-01
1.170530542731285095e-01
8.971863240003585815e-02
-3.531544804573059082e-01
6.583558022975921631e-02
-9.263624437153339386e-03
4.997798800468444824e-02
-6.341778486967086792e-02
1.381249446421861649e-02
8.787259459495544434e-02
-1.020836159586906433e-01
-1.798826903104782104e-01
2.201148122549057007e-01
5.893184244632720947e-02
-6.202928349375724792e-02
-3.778731450438499451e-03
4.409450292587280273e-02
-1.400056332349777222e-01
-3.008150495588779449e-02
-3.356081619858741760e-02
6.125935912132263184e-02
1.649288684129714966e-01
2.821535766124725342e-01
-3.027647733688354492e-01
-1.550108641386032104e-01
-1.414746046066284180e-01
4.303522408008575439e-02
1.183391138911247253e-01
-2.235659770667552948e-02
-9.181369096040725708e-02
-1.826039254665374756e-01
-1.624093800783157349e-01
-3.317001089453697205e-02
-8.135290443897247314e-02
1.351979076862335205e-01
-1.517746597528457642e-01
-1.988017559051513672e-02
5.951631814241409302e-02
-4.960781708359718323e-02
9.439763426780700684e-02
1.149758845567703247e-01
-4.795023053884506226e-02
1.743943542242050171e-01
-1.553235501050949097e-01
-6.050663441419601440e-02
-3.155426979064941406e-01
-6.311552226543426514e-02
-7.481458783149719238e-02
1.321835070848464966e-01
1.523206830024719238e-01
-4.210790246725082397e-02
1.114087626338005066e-01
3.454680144786834717e-01
-9.401000291109085083e-02
-1.976670920848846436e-01
-2.947692573070526123e-01
-2.942599914968013763e-02
1.674915999174118042e-01
-3.110019490122795105e-02
-9.020201116800308228e-02
2.185698151588439941e-01
-5.573868751525878906e-02
6.811992824077606201e-02
-5.137285217642784119e-02
-2.170205563306808472e-01
1.436983793973922729e-02
-1.364336460828781128e-01
2.581739425659179688e-01
2.189803421497344971e-01
2.286935150623321533e-01
-1.055072322487831116e-01
-8.717857301235198975e-02
1.538740545511245728e-01
2.652793563902378082e-02
-8.433486521244049072e-02
-3.040281683206558228e-02
-3.184061869978904724e-02
-1.790346652269363403e-01
-7.689339667558670044e-02
1.068518981337547302e-01
-1.344206482172012329e-01
-1.123639345169067383e-01
-8.531795442104339600e-02
-1.410648524761199951e-01
-1.145376488566398621e-01
2.826419286429882050e-02
-3.979007154703140259e-02
1.830086261034011841e-01
-1.008564513176679611e-02
-6.115196645259857178e-02
7.468632608652114868e-02
-2.019628286361694336e-01
-6.746906787157058716e-02
6.539395544677972794e-03
-1.531371772289276123e-01
-2.336640842258930206e-03
-1.800478845834732056e-01
-9.865016490221023560e-02
1.980865597724914551e-01
-9.504887461662292480e-02
1.343593187630176544e-02
1.398363113403320312e-01
2.285839915275573730e-01
2.964781597256660461e-02
-1.080334633588790894e-01
-1.084393411874771118e-01
1.305750161409378052e-01
-3.318618535995483398e-01
-9.302055090665817261e-02
-1.146657466888427734e-01
6.159634143114089966e-02
-1.975855082273483276e-01
2.491595447063446045e-01
1.787137240171432495e-01
-7.093369960784912109e-02
2.477304078638553619e-02
-1.136906370520591736e-01
1.909764409065246582e-01
1.175489649176597595e-01
3.646909445524215698e-02
3.380690515041351318e-01
1.651500165462493896e-01
1.004088595509529114e-01
2.887350507080554962e-02
2.077185660600662231e-01
7.151294499635696411e-02
4.532948881387710571e-02
6.531073898077011108e-02
9.450879693031311035e-02
8.446500450372695923e-02
2.783321775496006012e-02
-1.600759029388427734e-01
-1.195289418101310730e-01
-1.414660513401031494e-01
-1.380336731672286987e-01
-2.138602286577224731e-01
-3.895529806613922119e-01
-1.764541715383529663e-01
-4.810475558042526245e-02
-1.880037635564804077e-01
1.088983491063117981e-01
-7.434305548667907715e-02
4.478308930993080139e-02
4.151053354144096375e-02
9.627434611320495605e-02
1.203733775764703751e-02
-1.925015300512313843e-01
-1.246634349226951599e-01
-1.794251948595046997e-01
-1.846082881093025208e-02
-2.311301976442337036e-01
1.197574734687805176e-01
-1.095265522599220276e-01
1.050250753760337830e-01
-1.816747710108757019e-02
-8.643468841910362244e-03
1.672747731208801270e-02
3.982332721352577209e-02
-6.028531119227409363e-02
-1.283725798130035400e-01
5.164438486099243164e-02
1.683650314807891846e-01
1.239478960633277893e-01
2.014428824186325073e-01
-6.951256096363067627e-02
-1.109361648559570312e-01
-3.267924487590789795e-01
-8.165025152266025543e-03
-1.482020467519760132e-01
3.197609260678291321e-02
1.340022832155227661e-01
3.045633435249328613e-01
-3.211852163076400757e-02
5.909180734306573868e-03
-1.206734031438827515e-01
-7.198765873908996582e-02
-6.370738893747329712e-02
2.545723915100097656e-01
-6.166552379727363586e-02
-7.559465244412422180e-03
6.040959805250167847e-02
1.088306233286857605e-01
4.092084243893623352e-02
8.428255468606948853e-02
-7.134497910737991333e-02
1.869632899761199951e-01
-1.331668645143508911e-01
7.635416090488433838e-02
-2.141633816063404083e-02
1.796308159828186035e-01
2.520736753940582275e-01
-3.979745507240295410e-02
-6.570999324321746826e-02
-4.985119402408599854e-02
-1.029220595955848694e-01
5.499204620718955994e-02
-7.458581775426864624e-02
2.126281522214412689e-02
7.059171795845031738e-02
-1.443929374217987061e-01
2.448468357324600220e-01
-1.407875269651412964e-01
-1.652447730302810669e-01
6.780104339122772217e-02
2.062087878584861755e-03
1.023146361112594604e-01
-1.587827652692794800e-01
5.838093906641006470e-02
1.252788901329040527e-01
1.616725772619247437e-01
2.234978228807449341e-02
1.729611121118068695e-02
-5.413908883929252625e-02
-2.943692356348037720e-02
1.227215956896543503e-02
-1.636137627065181732e-02
8.269026875495910645e-03
1.132922917604446411e-01
4.949361458420753479e-02
1.400438547134399414e-01
1.585567891597747803e-01
1.953611150383949280e-02
-9.571091085672378540e-02
-9.395612776279449463e-02
2.239126116037368774e-01
-1.712452471256256104e-01
1.127646267414093018e-01
-1.868913769721984863e-01
-4.862010851502418518e-02
-9.008438885211944580e-02
8.417280763387680054e-02
-3.428932279348373413e-02
1.281766742467880249e-01
3.792914375662803650e-02
8.013905584812164307e-02
4.109415784478187561e-02
-1.780034154653549194e-01
-4.690328240394592285e-02
1.672090440988540649e-01
2.687513828277587891e-02
-1.346196141093969345e-02
2.428338304162025452e-02
-4.846006259322166443e-02
-1.893790438771247864e-02
5.914622917771339417e-02
8.379995822906494141e-03
-1.032586172223091125e-01
1.090379580855369568e-01
3.607437759637832642e-02
-1.551656275987625122e-01
1.552857924252748489e-02
4.951458796858787537e-02
-8.988841623067855835e-02
-2.594784200191497803e-01
-1.158865764737129211e-01
6.678171455860137939e-02
1.558632999658584595e-01
-3.053750097751617432e-02
-5.451836064457893372e-02
3.913216292858123779e-02
1.166807487607002258e-01
-5.094362422823905945e-02
1.123792603611946106e-01
-8.209730684757232666e-02
-5.744569748640060425e-02
2.285996451973915100e-02
-2.462860569357872009e-02
2.133205085992813110e-01
-2.146195918321609497e-01
-6.211841851472854614e-02
2.714721485972404480e-03
1.009286846965551376e-02
9.147407114505767822e-02
1.135596707463264465e-01
-3.690992668271064758e-02
1.029864847660064697e-01
9.924417734146118164e-02
2.421591430902481079e-01
-1.685761846601963043e-02
-5.997198447585105896e-02
5.731213837862014771e-02
-2.305561900138854980e-01
-3.098860196769237518e-02
-2.248504199087619781e-03
-7.125357538461685181e-02
1.788563579320907593e-01
-2.699503488838672638e-02
1.038208827376365662e-01
-7.982201874256134033e-02
1.205451563000679016e-01
-8.122820407152175903e-02
3.239113092422485352e-02
1.036885604262351990e-01
4.692040756344795227e-02
7.774063199758529663e-02
-6.110011786222457886e-02
-5.058001261204481125e-03
2.756256163120269775e-01
7.017827033996582031e-02
-1.329357326030731201e-01
1.207460612058639526e-01
-7.127803284674882889e-03
1.538864243775606155e-02
9.145713597536087036e-02
-9.770210087299346924e-02
2.326308377087116241e-02
-1.193746924400329590e-01
1.109389960765838623e-01
-1.134075447916984558e-01
3.609243035316467285e-02
-9.080517292022705078e-02
1.660746634006500244e-01
-5.993967503309249878e-02
-2.336089015007019043e-01
9.747871011495590210e-02
1.853214651346206665e-01
-5.208313465118408203e-02
-8.681134879589080811e-02
-2.877818942070007324e-01
2.213958650827407837e-01
-6.385993957519531250e-02
2.276656925678253174e-01
1.085455878637731075e-03
1.620309501886367798e-01
8.646399714052677155e-03
-6.534732878208160400e-02
4.200965166091918945e-02
4.033261537551879883e-02
-5.231518298387527466e-02
3.364809975028038025e-02
-1.180868148803710938e-01
4.863412678241729736e-02
1.575625967234373093e-03
1.936640888452529907e-01
9.577089548110961914e-02
-2.520262300968170166e-01
-4.895479232072830200e-02
9.457051753997802734e-03
-6.822378933429718018e-02
4.456026107072830200e-02
7.205660641193389893e-02
2.254370301961898804e-01
-1.236273255199193954e-02
6.152867153286933899e-02
-1.285649929195642471e-02
-8.075679093599319458e-02
2.448008209466934204e-02
-1.811061985790729523e-02
2.646508514881134033e-01
1.642817705869674683e-01
1.195501014590263367e-01
8.527304977178573608e-02
1.640243381261825562e-01
1.319147273898124695e-02
1.546352058649063110e-01
2.282556593418121338e-01
2.538371384143829346e-01
9.413035586476325989e-03
-3.663046658039093018e-01
8.414386957883834839e-02
1.394291818141937256e-01
-1.240224838256835938e-01
9.790625423192977905e-02
-1.491843163967132568e-02
-1.052542328834533691e-01
2.344713062047958374e-01
-4.829353839159011841e-02
1.669566333293914795e-02
8.481438457965850830e-02
5.625916644930839539e-02
-1.695977896451950073e-01
-8.638150990009307861e-02
2.439483404159545898e-01
-9.201323986053466797e-02
4.286751151084899902e-02
2.127531915903091431e-03
2.315427921712398529e-02
-2.079741954803466797e-01
8.390533924102783203e-02
7.725603645667433739e-04
-1.217194646596908569e-01
-1.448780894279479980e-01
-1.261435747146606445e-01
6.286570429801940918e-02
8.663803339004516602e-02
-2.513243444263935089e-02
2.036885470151901245e-01
-3.759675472974777222e-02
7.348635792732238770e-02
-3.460881486535072327e-02
-3.409746289253234863e-02
-1.244677323848009109e-02
-1.387580186128616333e-01
-3.788712620735168457e-02
-3.037908859550952911e-02
-7.583377510309219360e-02
6.420651078224182129e-02
-1.483752280473709106e-01
1.206031516194343567e-01
-6.959769874811172485e-02
2.576529979705810547e-01
-1.133507788181304932e-01
-1.379121094942092896e-01
-4.365788772702217102e-03
-2.840625047683715820e-01
1.919394433498382568e-01
3.951994329690933228e-02
-1.599537283182144165e-01
-6.954919546842575073e-02
8.537361398339271545e-03
9.696051478385925293e-02
2.212934792041778564e-01
8.607231080532073975e-02
-1.322319656610488892e-01
-9.140981733798980713e-02
2.433213870972394943e-03
2.072538137435913086e-01
-3.278300911188125610e-02
1.851100176572799683e-01
1.520245373249053955e-01
-1.074387729167938232e-01
1.541488021612167358e-01
3.774424269795417786e-02
3.290212526917457581e-02
-4.317013174295425415e-02
2.224615365266799927e-01
-1.044962033629417419e-01
6.652825977653264999e-03
-4.509415850043296814e-02
7.900919765233993530e-02
1.908867806196212769e-02
-1.086769849061965942e-01
-1.854340881109237671e-01
-4.398048389703035355e-03
-1.579817235469818115e-01
4.395383596420288086e-02
2.054284214973449707e-01
-6.762223690748214722e-02
-5.866589769721031189e-02
-3.312507569789886475e-01
-3.987266868352890015e-02
-1.071383208036422729e-01
-2.822507172822952271e-02
3.888501669280230999e-04
2.057252973318099976e-01
2.109437733888626099e-01
-1.523263156414031982e-01
-7.266984879970550537e-02
1.024776995182037354e-01
-7.660941034555435181e-02
-7.311412692070007324e-02
2.704868912696838379e-01
1.600711941719055176e-01
2.193366736173629761e-02
1.545623838901519775e-01
-8.687063120305538177e-03
1.362478435039520264e-01
1.303986310958862305e-01
1.244039461016654968e-02
1.081653088331222534e-01
5.216920375823974609e-02
-9.683059900999069214e-02
-5.282526370137929916e-03
2.514334619045257568e-01
