2.464830130338668823e-02
-2.492066174745559692e-01
-9.661416709423065186e-02
1.126610711216926575e-01
-5.527898203581571579e-03
-3.305811285972595215e-01
-2.266638167202472687e-02
2.856371700763702393e-01
-1.017917543649673462e-01
3.222117200493812561e-02
1.778996735811233521e-01
1.401455402374267578e-01
-1.862653195858001709e-01
1.397495567798614502e-01
-5.935610830783843994e-02
6.487488001585006714e-02
-2.089686319231987000e-02
-1.426319926977157593e-01
2.888376712799072266e-01
-8.681304752826690674e-02
-6.756164133548736572e-02
4.906176030635833740e-02
4.485687613487243652e-01
-1.010472849011421204e-01
3.153511555865406990e-03
-1.414427459239959717e-01
-1.992348432540893555e-01
-1.894274055957794189e-01
1.227985136210918427e-02
-2.202479392290115356e-01
-8.250443637371063232e-02
2.277200669050216675e-01
-2.312438935041427612e-01
-3.023775853216648102e-02
1.319373548030853271e-01
-2.205864340066909790e-01
-7.898560911417007446e-02
-1.635159403085708618e-01
4.852208867669105530e-02
-1.291777491569519043e-01
9.194009006023406982e-03
-1.805769503116607666e-01
-6.582184135913848877e-02
-1.573898345232009888e-01
2.175989598035812378e-01
2.704867720603942871e-02
-3.433678746223449707e-01
-1.785211712121963501e-01
1.142841875553131104e-01
1.411153282970190048e-02
-1.306504309177398682e-01
-3.104359507560729980e-01
1.438938081264495850e-01
-1.976697295904159546e-01
-1.341493129730224609e-01
3.186818063259124756e-01
-7.946813106536865234e-02
1.272140890359878540e-01
1.927994936704635620e-01
-2.332574725151062012e-01
-2.587011456489562988e-01
-2.981818653643131256e-02
1.758690625429153442e-01
2.853461802005767822e-01
4.081341251730918884e-02
-5.890950560569763184e-03
-1.815864257514476776e-02
5.196059122681617737e-02
3.380651175975799561e-01
-1.420780569314956665e-01
-7.839022576808929443e-02
-1.325267553329467773e-01
-1.900440007448196411e-01
6.991590559482574463e-02
-9.955905377864837646e-02
2.614335529506206512e-02
-6.899029016494750977e-03
-8.599157631397247314e-02
-4.639854654669761658e-02
-3.097129054367542267e-02
-2.489442825317382812e-01
-2.414931952953338623e-01
6.577616930007934570e-02
-3.452789485454559326e-01
-2.183252424001693726e-01
7.077528536319732666e-02
-9.385524690151214600e-02
-9.129383414983749390e-02
3.558155149221420288e-02
-1.149481236934661865e-01
1.045507118105888367e-01
-1.561176925897598267e-01
-9.997363388538360596e-02
6.040461361408233643e-02
-2.336350977420806885e-01
-9.263713657855987549e-02
4.325997084379196167e-02
-2.463042289018630981e-01
1.347100734710693359e-01
-7.123460620641708374e-02
-9.086085110902786255e-02
-3.805874288082122803e-01
-1.597063541412353516e-01
-3.484914451837539673e-02
1.977180363610386848e-03
2.194095700979232788e-01
-1.405452936887741089e-01
1.964565664529800415e-01
1.243709474802017212e-01
-3.254068195819854736e-01
-3.200075030326843262e-02
3.267075866460800171e-02
-1.125566754490137100e-02
-3.555667698383331299e-01
6.115727126598358154e-02
-4.953916650265455246e-03
1.096057817339897156e-01
-2.451605945825576782e-01
3.167000710964202881e-01
4.044409841299057007e-02
-4.945494607090950012e-02
5.495117604732513428e-02
-1.032711640000343323e-01
5.596652030944824219e-01
-1.218642517924308777e-01
1.176005154848098755e-01
6.213102117180824280e-02
2.268036007881164551e-01
-7.251291722059249878e-02
1.259655505418777466e-02
-3.321763575077056885e-01
-3.263796269893646240e-01
-1.212359145283699036e-01
3.406123816967010498e-01
1.182268857955932617e-01
3.257125318050384521e-01
-1.539790481328964233e-01
-9.401559084653854370e-02
1.991750113666057587e-02
4.319355189800262451e-01
-6.454549264162778854e-03
5.724253654479980469e-01
-2.173760682344436646e-01
1.795795410871505737e-01
2.448672801256179810e-01
2.564909681677818298e-02
-2.101583778858184814e-01
2.946423366665840149e-02
2.035018801689147949e-01
2.955389022827148438e-02
-1.901547238230705261e-02
-2.613795995712280273e-01
4.829352349042892456e-02
-2.265435606241226196e-01
2.588111758232116699e-01
-3.676185756921768188e-02
5.057109519839286804e-03
6.036868691444396973e-02
-1.008772756904363632e-02
6.302931904792785645e-02
-1.219452694058418274e-01
2.908915653824806213e-02
1.753156483173370361e-01
-6.710405647754669189e-02
-5.646893754601478577e-02
2.754346840083599091e-02
2.051449567079544067e-01
-1.251779496669769287e-01
-5.300751700997352600e-02
-1.694099903106689453e-01
-1.035288572311401367e-01
3.777613490819931030e-02
-2.171449810266494751e-01
9.024675190448760986e-02
-6.494216322898864746e-01
7.417837530374526978e-02
7.886858284473419189e-02
3.136865198612213135e-01
-7.058279216289520264e-02
1.783519834280014038e-01
5.464207753539085388e-02
-2.121103927493095398e-02
-2.005719095468521118e-01
-9.599713236093521118e-02
-1.526247709989547729e-01
5.850879475474357605e-02
1.609611958265304565e-01
5.706952419131994247e-03
7.172349840402603149e-02
7.378610223531723022e-02
1.825454533100128174e-01
1.820056885480880737e-01
1.910414397716522217e-01
7.471337914466857910e-02
-3.776206821203231812e-02
-2.683525085449218750e-01
-1.862881183624267578e-01
-8.998421952128410339e-03
1.155917719006538391e-01
-1.035653725266456604e-01
-1.542268097400665283e-01
1.954967230558395386e-01
-7.855089753866195679e-02
6.918682903051376343e-02
-4.998958110809326172e-02
-5.781299620866775513e-02
2.303124666213989258e-01
-1.206219494342803955e-01
-2.604616284370422363e-01
-3.633878827095031738e-01
-3.238588869571685791e-01
-1.128302067518234253e-01
-2.299133390188217163e-01
-8.669459074735641479e-02
-3.138456493616104126e-02
1.231090649962425232e-01
3.233727440237998962e-02
-1.028665751218795776e-01
-5.916776135563850403e-02
5.933044478297233582e-02
-2.397193759679794312e-01
-3.075097203254699707e-01
-2.352740913629531860e-01
-5.508030578494071960e-02
-3.534720540046691895e-01
-3.056018948554992676e-01
-1.360325366258621216e-01
2.304981499910354614e-01
1.791081763803958893e-02
-1.002494525164365768e-02
-1.911471039056777954e-01
-4.383370578289031982e-01
8.913189172744750977e-02
1.034390628337860107e-01
-1.910909414291381836e-01
1.373621225357055664e-01
1.764830946922302246e-01
-4.626623392105102539e-01
1.864108741283416748e-01
8.223783224821090698e-02
-5.125472322106361389e-02
-5.626422911882400513e-02
1.268198788166046143e-01
7.359771430492401123e-02
2.787531912326812744e-01
-9.738192893564701080e-03
5.408361181616783142e-02
-6.884098798036575317e-02
1.877511888742446899e-01
1.353657692670822144e-01
4.832230508327484131e-03
1.943828761577606201e-01
-3.279263675212860107e-01
1.812092773616313934e-02
-1.037261709570884705e-01
2.141044139862060547e-01
-6.049686670303344727e-02
-2.344712801277637482e-02
8.276530355215072632e-02
1.692795455455780029e-01
-2.221690863370895386e-01
-1.183289885520935059e-01
1.860719621181488037e-01
-6.157346069812774658e-02
1.924570053815841675e-01
-4.120121300220489502e-01
-3.172892630100250244e-01
-3.357754051685333252e-01
1.956299245357513428e-01
5.298953130841255188e-02
1.629654504358768463e-02
2.963753417134284973e-02
1.365704089403152466e-02
3.750278949737548828e-01
-1.697598546743392944e-01
2.376179993152618408e-01
3.814213275909423828e-01
5.474096536636352539e-02
4.230673611164093018e-01
6.141351908445358276e-02
-9.739856421947479248e-02
1.715734452009201050e-01
4.191932454705238342e-02
-4.186013713479042053e-02
1.367064416408538818e-01
-1.083806231617927551e-01
-1.134664937853813171e-01
1.052038446068763733e-01
5.286110192537307739e-02
-4.234195128083229065e-02
1.982039660215377808e-01
-9.420175105333328247e-02
-7.651390135288238525e-02
2.935203313827514648e-01
1.379643231630325317e-01
5.610878393054008484e-02
5.924749374389648438e-01
6.230178102850914001e-02
4.726214706897735596e-02
-7.128377258777618408e-02
-9.584392607212066650e-02
-7.592479139566421509e-02
-2.514269649982452393e-01
6.583172827959060669e-03
3.427332043647766113e-01
-7.702422793954610825e-03
4.081822633743286133e-01
-1.890847086906433105e-01
1.132458150386810303e-01
-1.803601235151290894e-01
-3.969506919384002686e-02
-4.396459460258483887e-01
-1.467902064323425293e-01
-1.258382946252822876e-01
-2.224642336368560791e-01
-7.749427109956741333e-02
-3.539341986179351807e-01
-4.354217946529388428e-01
3.490788340568542480e-01
1.163466051220893860e-01
1.459266394376754761e-01
1.015155240893363953e-01
5.144622176885604858e-02
1.627977192401885986e-01
-6.689312309026718140e-02
-1.945253312587738037e-01
9.870119392871856689e-02
5.069410055875778198e-02
-9.601464867591857910e-02
2.936253547668457031e-01
-1.434298008680343628e-01
1.687664985656738281e-01
-2.044342458248138428e-02
-4.320193827152252197e-02
4.597725868225097656e-01
-3.727656006813049316e-01
1.434014439582824707e-01
-2.002719976007938385e-02
1.778205484151840210e-01
-1.551546901464462280e-01
6.938707828521728516e-02
4.830530658364295959e-02
-1.540142148733139038e-01
-1.504361443221569061e-02
1.310078520327806473e-02
-2.954302430152893066e-01
-3.188194036483764648e-01
-1.207618862390518188e-01
-2.981812134385108948e-02
2.476972490549087524e-01
2.727333307266235352e-01
-5.926888808608055115e-02
4.812943935394287109e-01
9.023958444595336914e-02
8.029426634311676025e-02
-1.682386845350265503e-01
1.594539731740951538e-01
1.806808114051818848e-01
1.092622652649879456e-01
-1.692518033087253571e-02
2.206226140260696411e-01
3.868930935859680176e-01
3.785951435565948486e-02
1.022297702729701996e-02
3.452475368976593018e-02
3.412773832678794861e-02
9.683689475059509277e-02
5.570820346474647522e-02
-7.903671264648437500e-02
-3.501680493354797363e-01
-1.868930310010910034e-01
-2.011429518461227417e-01
1.411965191364288330e-01
1.080029904842376709e-01
1.369102299213409424e-01
3.546293079853057861e-02
2.423359639942646027e-02
1.025274619460105896e-01
-4.885433986783027649e-02
-1.478294432163238525e-01
-2.408799380064010620e-01
6.060849875211715698e-02
3.019163757562637329e-02
6.033360585570335388e-02
-7.456849515438079834e-02
1.439711749553680420e-01
-3.069753050804138184e-01
1.414259821176528931e-01
6.784407887607812881e-03
1.982613354921340942e-01
-2.464309036731719971e-01
7.229860126972198486e-02
-2.213438786566257477e-02
6.713905930519104004e-02
3.007045090198516846e-01
2.214919775724411011e-01
-2.154476940631866455e-01
1.245752349495887756e-01
-1.025323495268821716e-01
1.176473349332809448e-01
-2.002690583467483521e-01
2.913046777248382568e-01
8.929039537906646729e-02
-4.124835431575775146e-01
-1.678232401609420776e-01
5.144462585449218750e-01
2.463448047637939453e-01
1.362376958131790161e-01
-7.888438552618026733e-02
-9.645044058561325073e-02
1.284647583961486816e-01
-2.869183719158172607e-01
2.673454880714416504e-01
-4.972291365265846252e-02
-7.382446527481079102e-02
1.764911413192749023e-01
1.562664061784744263e-01
2.990234829485416412e-02
2.480787336826324463e-01
1.307870745658874512e-01
-8.809381723403930664e-02
-8.901128917932510376e-02
-6.333158165216445923e-02
-9.518917649984359741e-02
-1.313877850770950317e-01
-1.645243912935256958e-01
-2.172227203845977783e-01
-2.580139935016632080e-01
-1.488013416528701782e-01
-2.324742265045642853e-02
-3.800438344478607178e-02
-2.754884772002696991e-02
-8.326669037342071533e-02
2.704123556613922119e-01
-1.999029070138931274e-01
-3.201632201671600342e-02
5.458391457796096802e-02
-8.731903135776519775e-02
3.315595909953117371e-02
-2.679803371429443359e-01
-8.723887801170349121e-02
-5.764896050095558167e-02
-3.776273727416992188e-01
-2.833062708377838135e-01
-3.621367365121841431e-02
6.902211159467697144e-02
2.662241458892822266e-01
1.315628141164779663e-01
1.224610283970832825e-01
3.093792870640754700e-02
-4.668842628598213196e-02
4.570104181766510010e-02
-7.805020362138748169e-02
-2.540233917534351349e-02
4.070898145437240601e-02
1.501513738185167313e-02
-6.610789895057678223e-02
1.795964539051055908e-01
2.483319025486707687e-03
-8.531931042671203613e-02
-2.846465706825256348e-01
-7.380906492471694946e-02
-5.175604671239852905e-02
3.659210503101348877e-01
-1.708846166729927063e-02
-4.885617271065711975e-02
-1.148177087306976318e-01
1.847251877188682556e-02
3.208492398262023926e-01
-1.322948932647705078e-01
-1.564926207065582275e-01
-2.342082411050796509e-01
2.163937985897064209e-01
2.162204235792160034e-01
6.751812994480133057e-02
-2.641325891017913818e-01
-7.419348508119583130e-02
-5.584494024515151978e-02
-3.427201807498931885e-01
2.037780731916427612e-01
1.823321729898452759e-01
2.160178124904632568e-01
-3.667189180850982666e-02
-2.074492126703262329e-01
-3.754170611500740051e-02
-8.379943668842315674e-02
-4.914126396179199219e-01
-3.594944626092910767e-02
2.207623273134231567e-01
1.227755919098854065e-01
-1.485279202461242676e-01
1.373084485530853271e-01
1.551422625780105591e-01
-1.276924461126327515e-01
-5.091708526015281677e-02
-3.085550069808959961e-01
1.539216339588165283e-01
7.147861272096633911e-02
-3.096295297145843506e-01
-5.564261972904205322e-02
1.410163491964340210e-01
-1.519633680582046509e-01
-9.865999966859817505e-02
1.074612215161323547e-01
-1.677393354475498199e-02
-2.176773697137832642e-01
-2.703540623188018799e-01
-9.388399124145507812e-02
-6.428867578506469727e-02
1.919128447771072388e-01
8.255934715270996094e-02
4.498379528522491455e-01
8.634575642645359039e-03
1.190503612160682678e-01
-1.500127185136079788e-02
-3.262528777122497559e-01
4.828369617462158203e-02
-2.084069997072219849e-01
3.874088171869516373e-03
1.930788308382034302e-01
2.433761805295944214e-01
3.686577780172228813e-03
3.469273746013641357e-01
-2.136278152465820312e-02
2.847040891647338867e-01
8.086479268968105316e-03
-5.763841792941093445e-02
-6.393349170684814453e-01
1.202380433678627014e-01
-2.344691157341003418e-01
1.346021145582199097e-01
-5.762315914034843445e-02
-7.927387207746505737e-02
-2.177908569574356079e-01
2.007664293050765991e-01
1.078435108065605164e-01
-3.092598021030426025e-01
-5.336581170558929443e-02
-1.134502515196800232e-01
-2.788218557834625244e-01
7.248814404010772705e-02
-6.885193288326263428e-02
9.035090915858745575e-03
1.442462205886840820e-01
2.172203501686453819e-03
2.980252247652970254e-05
8.462302386760711670e-02
-1.869863271713256836e-01
-2.047308087348937988e-01
-7.753493636846542358e-02
-1.791250407695770264e-01
1.108123585581779480e-01
-1.030566468834877014e-01
9.270268678665161133e-02
-2.061038911342620850e-01
-1.896890811622142792e-02
-1.282082349061965942e-01
-3.231508657336235046e-03
1.910736225545406342e-02
2.979528307914733887e-01
-4.656723439693450928e-01
5.433881282806396484e-02
-1.764750778675079346e-01
1.232556030154228210e-01
1.392238587141036987e-01
-4.473856091499328613e-02
-1.920291334390640259e-01
-7.448246330022811890e-02
-1.432747691869735718e-01
-2.908213622868061066e-02
-1.731070727109909058e-01
-1.075758133083581924e-02
-4.233939051628112793e-01
-8.997286856174468994e-02
3.114913217723369598e-02
-5.983740463852882385e-02
-7.157067209482192993e-02
-1.863651722669601440e-01
1.635175049304962158e-01
-4.390073567628860474e-02
-2.119194157421588898e-02
1.018616110086441040e-01
-1.550313383340835571e-01
2.103192657232284546e-01
-1.725317835807800293e-01
-4.536476731300354004e-02
3.834433481097221375e-02
-1.532835811376571655e-01
-1.975668817758560181e-01
3.058452010154724121e-01
8.522371947765350342e-02
-2.040325663983821869e-02
1.412690877914428711e-01
-2.388043552637100220e-01
-6.404861807823181152e-02
1.470728684216737747e-02
-5.574336647987365723e-02
-1.011638045310974121e-01
2.914823591709136963e-01
2.413649410009384155e-01
2.152079492807388306e-01
2.655067741870880127e-01
-7.872000336647033691e-02
-1.037642881274223328e-01
2.028122097253799438e-01
1.302457451820373535e-01
-2.164820432662963867e-01
3.183693066239356995e-02
7.709924876689910889e-02
-2.893544435501098633e-01
-1.145262196660041809e-01
-3.356847763061523438e-01
-2.388308793306350708e-01
-1.131860315799713135e-01
2.058429643511772156e-03
-1.801934242248535156e-01
2.110599875450134277e-01
6.116151809692382812e-02
8.010921627283096313e-02
-1.068617403507232666e-01
-4.123470932245254517e-02
-1.195957660675048828e-01
-9.669807553291320801e-02
-7.484048604965209961e-02
5.425209924578666687e-02
1.577366739511489868e-01
2.767304480075836182e-01
-6.481008231639862061e-02
-1.662586331367492676e-01
2.397101074457168579e-01
-2.492084056138992310e-01
2.295757234096527100e-01
3.023182749748229980e-01
1.649995893239974976e-01
-7.203676551580429077e-02
9.153040498495101929e-02
3.105953708291053772e-02
1.561753451824188232e-01
2.609765827655792236e-01
2.976880371570587158e-01
3.604747354984283447e-01
1.297915130853652954e-01
-1.338945776224136353e-01
1.099071279168128967e-01
5.621117353439331055e-02
1.725890636444091797e-01
-4.587968438863754272e-02
1.019776090979576111e-01
-7.977063953876495361e-02
-2.526813149452209473e-01
1.158621087670326233e-01
7.697649300098419189e-02
1.421643793582916260e-01
-1.856417953968048096e-01
-4.092732071876525879e-01
5.151046440005302429e-02
2.593273222446441650e-01
1.800025999546051025e-01
-1.105040386319160461e-01
7.698711007833480835e-02
1.679306626319885254e-01
6.867066770792007446e-02
2.448930218815803528e-02
-2.851591408252716064e-01
-8.736821264028549194e-02
2.732667624950408936e-01
-1.764023602008819580e-01
-9.032295644283294678e-02
1.209305226802825928e-01
-6.277318298816680908e-02
-6.474019587039947510e-02
8.342958986759185791e-02
1.277091801166534424e-01
-1.592499017715454102e-01
-1.235388666391372681e-01
-2.950032055377960205e-01
-3.781244857236742973e-03
6.047610938549041748e-02
1.007186397910118103e-01
2.047537593171000481e-03
4.268992692232131958e-02
-3.591076657176017761e-02
-7.168655842542648315e-02
4.816950112581253052e-02
-3.643871247768402100e-01
-2.914883568882942200e-02
-2.354176044464111328e-01
5.410357564687728882e-02
2.531037926673889160e-01
1.733526289463043213e-01
4.666656553745269775e-01
-2.722929716110229492e-01
-4.205723106861114502e-02
-5.778568387031555176e-01
3.352172374725341797e-01
2.598541416227817535e-02
-1.009017229080200195e-03
7.578366994857788086e-02
-7.716219127178192139e-02
-7.170887291431427002e-02
-2.634151875972747803e-01
2.726089954376220703e-01
-7.402018457651138306e-02
-1.529467850923538208e-01
-3.194282203912734985e-02
-1.432145982980728149e-01
-8.274961728602647781e-04
3.069646358489990234e-01
-1.464982181787490845e-01
-1.230808869004249573e-01
3.213496506214141846e-02
1.117714098654687405e-03
-4.571233093738555908e-01
3.740390762686729431e-02
-2.586964368820190430e-01
-1.298290491104125977e-01
-1.111417710781097412e-01
-4.233332574367523193e-01
8.519081026315689087e-02
-1.017899811267852783e-01
2.154770940542221069e-01
3.165457025170326233e-02
-1.894551329314708710e-02
-4.189130365848541260e-01
8.717740327119827271e-02
9.256670624017715454e-02
2.193565070629119873e-01
-1.319350600242614746e-01
5.731886997818946838e-02
5.777874216437339783e-02
-1.377099901437759399e-01
-4.465750232338905334e-02
1.821199357509613037e-01
4.426543414592742920e-02
1.032862961292266846e-01
2.412127852439880371e-01
1.140291541814804077e-01
2.487149089574813843e-01
1.169009730219841003e-01
1.308357268571853638e-01
-7.744944095611572266e-02
1.624118685722351074e-01
-6.040401756763458252e-02
-1.770073175430297852e-02
2.008741535246372223e-02
1.726131290197372437e-01
-5.973737686872482300e-02
-1.245969459414482117e-01
6.395424902439117432e-02
9.432043880224227905e-02
1.838056445121765137e-01
-1.129068285226821899e-01
-1.798814833164215088e-01
-4.476342722773551941e-02
-6.518897414207458496e-02
1.919851079583168030e-02
-2.884863689541816711e-02
-2.422194331884384155e-01
1.087014451622962952e-01
-2.163078486919403076e-01
1.181463077664375305e-01
1.662526428699493408e-01
-9.600269049406051636e-02
8.701194822788238525e-02
-3.224348127841949463e-01
-1.499752998352050781e-01
-1.590570956468582153e-01
7.091120630502700806e-02
-4.435562714934349060e-02
1.242164894938468933e-01
1.505224704742431641e-01
7.657712697982788086e-02
-1.876645982265472412e-01
-2.022896334528923035e-02
5.592836439609527588e-02
-6.242615357041358948e-02
7.752917706966400146e-03
2.687688767910003662e-01
-3.893233835697174072e-03
-8.351446129381656647e-03
6.850652396678924561e-02
-2.197460830211639404e-01
-5.232736468315124512e-01
-9.555785357952117920e-02
3.244173526763916016e-02
-2.813613228499889374e-02
3.406224846839904785e-01
1.073991134762763977e-01
2.796601736918091774e-03
-3.669531783089041710e-03
3.092702105641365051e-02
9.984292089939117432e-02
-2.694856822490692139e-01
3.621596992015838623e-01
8.627796173095703125e-02
-1.217472702264785767e-01
-5.118346810340881348e-01
3.117000758647918701e-01
2.157218009233474731e-01
-1.163648664951324463e-01
8.500358462333679199e-02
1.379819214344024658e-01
1.644462049007415771e-01
2.339658737182617188e-01
-5.158053711056709290e-03
7.871381193399429321e-02
-5.229000449180603027e-01
2.726237773895263672e-01
-6.030970066785812378e-02
8.574901521205902100e-02
-2.502847015857696533e-01
-5.988698452711105347e-02
-1.271852701902389526e-01
-9.364300221204757690e-02
1.257881820201873779e-01
3.167492151260375977e-01
-2.641382217407226562e-01
1.807287931442260742e-01
3.341318964958190918e-01
2.944803833961486816e-01
1.204388681799173355e-03
-9.908775985240936279e-02
-5.333769693970680237e-02
-5.732583254575729370e-02
-2.301227152347564697e-01
-2.808543741703033447e-01
1.104673072695732117e-01
-1.172722503542900085e-01
-3.084502518177032471e-01
-4.435383528470993042e-02
-7.673934847116470337e-02
-2.086246162652969360e-01
-4.674370214343070984e-02
1.665164232254028320e-01
2.621392607688903809e-01
-1.518477499485015869e-01
1.096910536289215088e-01
-4.139762371778488159e-02
1.144293025135993958e-01
-2.748312614858150482e-02
6.658908724784851074e-02
-3.167618811130523682e-01
-1.554047763347625732e-01
-6.729500740766525269e-02
7.497836649417877197e-02
8.939496427774429321e-02
-2.859932184219360352e-01
4.629426449537277222e-02
7.517904508858919144e-03
7.523354887962341309e-02
-2.453791648149490356e-01
-1.344955526292324066e-02
2.316213101148605347e-01
-5.542962998151779175e-02
4.613656550645828247e-02
-1.642676740884780884e-01
2.436163425445556641e-01
3.808561712503433228e-02
-2.461137808859348297e-02
-4.286459833383560181e-02
-4.679273664951324463e-01
-2.757196724414825439e-01
1.743371970951557159e-02
-2.828756161034107208e-02
3.267263621091842651e-02
-1.335487663745880127e-01
-3.024921193718910217e-02
1.511007249355316162e-01
-2.806590199470520020e-01
1.802467703819274902e-01
-1.519443690776824951e-01
9.134951978921890259e-02
7.367186248302459717e-02
5.029816627502441406e-01
-1.731680035591125488e-01
-4.265775978565216064e-01
1.310631781816482544e-01
-7.079875469207763672e-02
5.685084033757448196e-03
-4.127016663551330566e-01
-2.209231406450271606e-01
2.749383747577667236e-01
1.700228452682495117e-01
1.056393831968307495e-01
-1.140237078070640564e-01
2.890666127204895020e-01
8.255903422832489014e-02
-3.006330318748950958e-02
8.992268145084381104e-02
1.079416424036026001e-01
-8.267463743686676025e-02
-5.395198613405227661e-02
-1.880849897861480713e-01
-3.551154136657714844e-01
-9.405755251646041870e-02
-2.810507779940962791e-03
-1.672358810901641846e-01
-9.840707480907440186e-02
1.947468966245651245e-01
-5.498184636235237122e-02
8.965325355529785156e-02
2.393046021461486816e-01
1.906256377696990967e-02
7.811293937265872955e-03
1.762209534645080566e-01
-1.391837298870086670e-01
7.729449868202209473e-02
-2.551814615726470947e-01
2.074789851903915405e-01
-8.009196817874908447e-02
4.670986533164978027e-02
-8.793950825929641724e-02
8.056192845106124878e-02
4.762475844472646713e-03
1.265451014041900635e-01
-8.856204152107238770e-02
1.694298088550567627e-01
-1.339257806539535522e-01
3.847602754831314087e-02
1.454530060291290283e-01
-6.490702927112579346e-02
-1.481968909502029419e-01
-1.093976423144340515e-01
-2.082185000181198120e-01
4.476704820990562439e-02
1.634053736925125122e-01
-3.127966821193695068e-02
2.310007363557815552e-01
8.388736099004745483e-02
2.490723282098770142e-01
1.148382127285003662e-01
-7.035562396049499512e-02
1.178838014602661133e-01
-2.130181938409805298e-01
6.236464530229568481e-02
-1.329758018255233765e-01
-1.284848004579544067e-01
-4.725808799266815186e-01
-2.752880156040191650e-01
-8.032461255788803101e-02
-1.270737349987030029e-01
3.559868931770324707e-01
3.126750886440277100e-02
2.754115164279937744e-01
-2.324353408766910434e-04
1.661578863859176636e-01
1.765721850097179413e-02
7.399520277976989746e-02
-2.608363144099712372e-02
3.584759533405303955e-01
-3.638142645359039307e-01
-1.333976387977600098e-01
-7.970925420522689819e-02
-1.727098971605300903e-02
-1.504894793033599854e-01
5.024132505059242249e-02
1.077003404498100281e-01
-4.089385271072387695e-02
-1.379304975271224976e-01
1.213150918483734131e-01
-4.730221256613731384e-02
-1.726531982421875000e-01
-2.454399615526199341e-01
-4.091395437717437744e-02
1.688944734632968903e-02
2.022120542824268341e-02
-1.337745189666748047e-01
1.140102967619895935e-01
4.265658929944038391e-02
2.148667275905609131e-01
1.080257892608642578e-01
-1.654043346643447876e-01
-2.412901669740676880e-01
2.360911294817924500e-02
-5.591760575771331787e-02
1.228927001357078552e-01
1.295961290597915649e-01
-1.866722702980041504e-01
7.382932305335998535e-02
2.395455837249755859e-01
8.367069065570831299e-02
3.312582969665527344e-01
8.828961290419101715e-03
5.841470323503017426e-03
-1.370173841714859009e-01
3.072289191186428070e-02
-9.521442651748657227e-02
-9.395959973335266113e-02
8.501050062477588654e-03
1.277354061603546143e-01
1.680649220943450928e-01
1.663259714841842651e-01
1.072699762880802155e-02
-2.523020803928375244e-01
-4.543453082442283630e-02
3.486432880163192749e-02
-4.197635501623153687e-02
-1.621722579002380371e-01
3.901093825697898865e-02
1.014064326882362366e-01
2.142271399497985840e-01
1.197049394249916077e-01
1.802089065313339233e-01
2.356487326323986053e-02
6.240083649754524231e-02
-7.174777984619140625e-02
-2.766955792903900146e-01
-6.973437964916229248e-02
-2.110321074724197388e-01
6.690876930952072144e-02
-5.859575420618057251e-02
-4.474759846925735474e-02
-4.903090372681617737e-02
-1.532281637191772461e-01
-3.026566207408905029e-01
-1.188706159591674805e-01
-1.713652908802032471e-01
6.757928431034088135e-02
-1.303721219301223755e-01
4.242751300334930420e-01
-6.747038103640079498e-03
2.070304155349731445e-01
1.156512126326560974e-01
3.197221457958221436e-01
1.002955213189125061e-01
2.558686435222625732e-01
7.551185041666030884e-02
-2.222540527582168579e-01
6.063286215066909790e-02
1.670320630073547363e-01
1.065565347671508789e-01
2.669234573841094971e-01
8.462195843458175659e-02
6.750182807445526123e-02
-3.594275563955307007e-02
1.608612202107906342e-02
5.138543248176574707e-02
-6.389749050140380859e-02
-6.073834747076034546e-02
-2.649691700935363770e-01
-6.639114022254943848e-02
-1.584723591804504395e-01
-1.549585014581680298e-01
-7.651598751544952393e-02
1.188583895564079285e-01
2.156694084405899048e-01
-1.586512327194213867e-01
3.356591165065765381e-01
5.513885244727134705e-02
-3.599410355091094971e-01
-6.078074872493743896e-02
-1.823248267173767090e-01
1.101339533925056458e-01
2.015589773654937744e-01
-2.141604870557785034e-01
-7.397673279047012329e-02
9.082632511854171753e-02
-3.218057751655578613e-02
2.236639708280563354e-01
-1.241422817111015320e-01
-7.924533635377883911e-02
1.799885183572769165e-01
4.248277842998504639e-02
-1.710602790117263794e-01
-1.398387551307678223e-01
-1.120625212788581848e-01
-3.754702806472778320e-01
1.255778521299362183e-01
-1.679356954991817474e-02
3.395273387432098389e-01
-2.993764579296112061e-01
-2.400370538234710693e-01
-6.874424219131469727e-02
2.722442150115966797e-01
-1.175873354077339172e-01
2.718445286154747009e-02
-8.385895937681198120e-02
1.551652103662490845e-01
-2.717694938182830811e-01
-1.670378595590591431e-01
-3.872818350791931152e-01
-4.796317219734191895e-02
-7.154176384210586548e-02
2.702351510524749756e-01
-6.599321216344833374e-02
-4.332714155316352844e-02
-5.306307673454284668e-01
-7.460534572601318359e-02
-1.165588572621345520e-01
-6.252163648605346680e-02
5.393898487091064453e-02
-5.027015227824449539e-03
6.245643272995948792e-02
6.182981282472610474e-02
2.937029302120208740e-01
1.053000316023826599e-01
-1.997182816267013550e-01
1.685114800930023193e-01
-1.907308213412761688e-02
-1.669854111969470978e-02
-2.100971043109893799e-01
-2.000174485146999359e-02
2.996745705604553223e-01
2.240027301013469696e-02
-3.222374320030212402e-01
-2.125120460987091064e-01
-1.187556833028793335e-01
3.286614641547203064e-02
-1.056142710149288177e-02
1.684447675943374634e-01
1.624885201454162598e-02
5.960257723927497864e-02
2.137429267168045044e-01
4.162193089723587036e-02
7.977600395679473877e-02
-7.110225409269332886e-02
1.338497400283813477e-01
-1.165666431188583374e-01
1.242060363292694092e-01
8.586688898503780365e-03
1.073325052857398987e-01
-3.150953054428100586e-01
-2.443849593400955200e-01
6.435306370258331299e-02
4.624847322702407837e-02
-2.430181950330734253e-01
-1.191642135381698608e-01
-2.545360028743743896e-01
4.050207510590553284e-02
6.846256437711417675e-04
2.464506179094314575e-01
-2.136941403150558472e-01
-1.683558523654937744e-02
-5.435864999890327454e-02
3.325325623154640198e-02
-1.708009392023086548e-01
-1.091432198882102966e-01
3.790801763534545898e-02
-6.811160594224929810e-02
2.656110376119613647e-02
-1.407989710569381714e-01
-2.817943096160888672e-01
-2.483014315366744995e-01
-2.003572136163711548e-01
2.899116277694702148e-01
1.520691961050033569e-01
-2.678506374359130859e-01
6.542731821537017822e-02
5.141368508338928223e-02
2.127079367637634277e-01
5.041076242923736572e-02
1.452728062868118286e-01
-4.055760055780410767e-02
1.530810892581939697e-01
1.772238314151763916e-01
-2.168862707912921906e-02
-1.997865587472915649e-01
2.284452617168426514e-01
-4.328774288296699524e-02
1.276211142539978027e-01
1.165624335408210754e-01
2.604813128709793091e-02
7.021609693765640259e-03
-1.112373322248458862e-01
1.684409193694591522e-02
9.041633456945419312e-02
3.113757073879241943e-01
1.086918935179710388e-01
-1.038915812969207764e-01
-3.588157892227172852e-02
7.556527107954025269e-02
2.114699631929397583e-01
-1.197479665279388428e-01
2.256325446069240570e-02
1.457621008157730103e-01
-2.701266109943389893e-01
-1.385602653026580811e-01
-7.913921959698200226e-03
-1.280691623687744141e-01
-2.752749808132648468e-02
4.735942184925079346e-02
-1.063447259366512299e-02
-2.420869618654251099e-01
-3.273864686489105225e-01
-2.556019648909568787e-02
4.634707421064376831e-02
1.240145191550254822e-01
-9.883471578359603882e-02
-3.744818270206451416e-01
1.987697333097457886e-01
1.429367959499359131e-01
-1.541622877120971680e-01
-9.018365293741226196e-02
-1.178735792636871338e-01
-4.362857714295387268e-02
-1.352651864290237427e-01
-2.071715146303176880e-01
7.523549348115921021e-02
-3.130516409873962402e-01
7.727301120758056641e-02
-3.244560956954956055e-01
8.326949924230575562e-02
7.276925723999738693e-03
6.519421190023422241e-02
-1.439552661031484604e-02
-1.500550359487533569e-01
-1.738845556974411011e-01
1.657044887542724609e-01
-3.316548466682434082e-01
3.361955881118774414e-01
-5.723011866211891174e-02
-3.575603663921356201e-02
-1.586914956569671631e-01
1.071943622082471848e-02
3.964280337095260620e-02
-1.390814334154129028e-01
-1.138378307223320007e-01
-1.897859573364257812e-01
-4.608356654644012451e-01
-1.479896903038024902e-01
2.079768851399421692e-02
8.177516050636768341e-03
-5.935857072472572327e-02
8.927177637815475464e-02
-1.137083992362022400e-01
-2.490774393081665039e-01
1.479949504137039185e-01
2.488650232553482056e-01
-5.209986865520477295e-02
-1.006902828812599182e-01
2.485619038343429565e-01
-9.546993672847747803e-02
-1.906067728996276855e-01
-4.111859574913978577e-02
1.302551478147506714e-03
3.209760189056396484e-01
1.998019069433212280e-01
-5.382328759878873825e-03
-1.580289751291275024e-01
2.658349275588989258e-02
2.190033495426177979e-01
1.238889768719673157e-01
-2.523161172866821289e-01
-2.714819610118865967e-01
-1.955907344818115234e-01
2.272048965096473694e-02
1.254606619477272034e-02
-2.077627032995223999e-01
4.666301608085632324e-01
-2.632045745849609375e-01
9.498120099306106567e-02
-8.915836364030838013e-02
-5.674594081938266754e-03
-2.447401136159896851e-01
-1.307046040892601013e-02
2.740144133567810059e-01
3.411916196346282959e-01
2.119859755039215088e-01
6.019139885902404785e-01
8.819510042667388916e-02
-1.656745374202728271e-01
-1.302188783884048462e-01
-2.211554944515228271e-01
-6.454306095838546753e-02
-1.250798553228378296e-01
2.625805698335170746e-02
-1.824769377708435059e-02
-7.666970044374465942e-02
-1.007395610213279724e-01
1.580319702625274658e-01
3.068628609180450439e-01
-1.355902105569839478e-01
-1.077482849359512329e-01
-1.432654857635498047e-01
-5.868545547127723694e-02
-4.146166890859603882e-02
-3.074215948581695557e-01
-1.722153574228286743e-01
3.566239774227142334e-01
5.185776576399803162e-02
1.518492698669433594e-01
1.842813193798065186e-01
6.859263777732849121e-02
-2.450858801603317261e-01
-6.452861428260803223e-02
-4.087599515914916992e-01
-7.241564244031906128e-02
6.856086105108261108e-02
4.539711177349090576e-01
1.183089539408683777e-01
-4.420036450028419495e-02
-1.358605623245239258e-01
1.827794760465621948e-01
-5.515500530600547791e-02
1.588653773069381714e-01
-6.918131560087203979e-02
-7.957479357719421387e-02
-4.355985522270202637e-01
3.018315434455871582e-01
-2.280030101537704468e-01
2.711778506636619568e-02
-9.031905233860015869e-02
-8.471240103244781494e-02
5.843344703316688538e-02
-4.682642221450805664e-01
-8.998734876513481140e-03
-1.302914172410964966e-01
-3.070433139801025391e-01
5.417557898908853531e-03
-6.606273353099822998e-02
-5.478450283408164978e-02
8.220977336168289185e-02
3.783300891518592834e-02
1.954442709684371948e-01
1.774950474500656128e-01
-4.860243760049343109e-03
-1.544388383626937866e-01
-3.596624732017517090e-01
1.872626543045043945e-01
-3.210451081395149231e-02
-1.328461021184921265e-01
-4.061608612537384033e-01
-3.566230535507202148e-01
1.129518002271652222e-01
1.737984716892242432e-01
-5.257866904139518738e-02
6.520918011665344238e-02
2.489941865205764771e-01
-1.537597626447677612e-01
7.847644388675689697e-03
1.383826602250337601e-02
-9.895652532577514648e-02
1.923774331808090210e-01
-1.718530058860778809e-01
-2.454620599746704102e-02
2.396489977836608887e-01
-5.377225205302238464e-02
-2.331985682249069214e-01
-1.230071261525154114e-01
-8.383273333311080933e-02
-6.976789329200983047e-03
1.167364865541458130e-01
8.965133875608444214e-02
-9.442103654146194458e-02
1.664372384548187256e-01
-3.035497963428497314e-01
-2.208833098411560059e-01
1.553167998790740967e-01
1.556166112422943115e-01
1.931347697973251343e-02
-4.207754433155059814e-01
-8.025532215833663940e-02
-1.785530149936676025e-01
3.574861884117126465e-01
3.785846829414367676e-01
-1.599013358354568481e-01
-4.936736449599266052e-02
1.801724731922149658e-01
1.504703518003225327e-02
-3.443227410316467285e-01
1.222424581646919250e-02
-1.897536031901836395e-02
2.986893951892852783e-01
1.103614941239356995e-01
-1.477373298257589340e-03
-1.798810437321662903e-02
-1.168335005640983582e-01
-5.572782084345817566e-02
-3.486712574958801270e-01
1.456999480724334717e-01
2.992370128631591797e-01
-2.092226445674896240e-01
2.987140789628028870e-02
9.757012873888015747e-02
-8.573731034994125366e-02
3.204754590988159180e-01
2.800733149051666260e-01
7.811363041400909424e-02
2.099467068910598755e-02
2.531429827213287354e-01
8.228979259729385376e-02
-9.599766880273818970e-02
-2.796863913536071777e-01
-1.375307291746139526e-01
3.620634973049163818e-01
-7.341613620519638062e-02
1.242883503437042236e-01
-8.711919933557510376e-02
1.582152247428894043e-01
3.555804491043090820e-02
-2.005576044321060181e-01
-1.348055452108383179e-01
1.908821165561676025e-01
-1.009008511900901794e-01
-1.983520835638046265e-01
-1.028168126940727234e-01
1.206689924001693726e-01
1.811927109956741333e-01
-1.316369324922561646e-01
8.142431825399398804e-02
-3.864291906356811523e-01
3.139929845929145813e-02
-6.794654577970504761e-02
5.268956348299980164e-02
4.111300408840179443e-01
1.048713922500610352e-01
3.286724537611007690e-02
1.892506629228591919e-01
-7.208492606878280640e-02
9.549688547849655151e-02
1.900181174278259277e-01
5.321111530065536499e-02
4.216752648353576660e-01
4.174872487783432007e-02
1.414629966020584106e-01
1.715034991502761841e-01
-1.240978986024856567e-01
1.144759580492973328e-01
5.076153874397277832e-01
1.751336455345153809e-01
1.214765012264251709e-01
-2.090968489646911621e-01
-1.123935133218765259e-01
8.618897944688796997e-02
1.327906101942062378e-01
1.901827305555343628e-01
1.418016999959945679e-01
6.209661066532135010e-02
1.000293046236038208e-01
7.760399580001831055e-02
-1.050273105502128601e-01
-3.788094222545623779e-02
-1.647752225399017334e-01
-1.471062749624252319e-01
6.617112457752227783e-02
3.563362360000610352e-02
6.785589456558227539e-02
9.882594645023345947e-02
2.471019774675369263e-01
-6.690454483032226562e-02
6.414179503917694092e-02
1.879129409790039062e-01
-1.076126247644424438e-01
-2.774315476417541504e-01
-1.996921747922897339e-01
-1.020788475871086121e-01
4.347493872046470642e-02
4.079763963818550110e-02
1.589616686105728149e-01
2.221101969480514526e-01
1.778427958488464355e-01
1.578554138541221619e-02
-8.013813197612762451e-02
2.430952042341232300e-01
-1.262221187353134155e-01
-1.363950371742248535e-01
1.006246581673622131e-01
-2.298972383141517639e-02
-2.193113118410110474e-01
8.081348240375518799e-02
-3.803294152021408081e-02
-1.655336916446685791e-01
-1.262003928422927856e-01
1.199293360114097595e-01
1.150457262992858887e-01
-7.294727116823196411e-02
-1.668128818273544312e-01
-6.471028178930282593e-02
-4.670974984765052795e-02
3.969365060329437256e-01
1.726491600275039673e-01
-1.152260527014732361e-01
-2.171645909547805786e-01
6.180256977677345276e-02
-2.719261683523654938e-02
1.710863113403320312e-01
-2.668052017688751221e-01
3.592019975185394287e-01
-2.228460647165775299e-02
-1.222762092947959900e-01
-2.018796354532241821e-01
-5.920306220650672913e-02
2.131571806967258453e-02
3.372223973274230957e-01
9.202037751674652100e-02
-9.833337366580963135e-02
1.154514327645301819e-01
3.183665126562118530e-02
-1.186154037714004517e-01
1.712923794984817505e-01
-1.234414055943489075e-01
-1.044368520379066467e-01
1.549941748380661011e-01
-4.790949448943138123e-02
1.394715458154678345e-01
-8.511906862258911133e-02
1.577127724885940552e-01
1.803144812583923340e-01
-2.035019397735595703e-01
-9.395904093980789185e-02
3.859154582023620605e-01
-2.187496423721313477e-01
-4.009304568171501160e-02
-1.292078057304024696e-03
-4.594210162758827209e-02
5.507980287075042725e-02
1.548559963703155518e-02
-1.840497404336929321e-01
2.610402703285217285e-01
2.365827113389968872e-01
3.477736562490463257e-02
3.677970170974731445e-01
8.106631785631179810e-02
2.484702318906784058e-01
-2.177529036998748779e-02
-6.879792548716068268e-03
-4.989866167306900024e-02
-7.205686718225479126e-02
-1.626197695732116699e-01
-2.591353058815002441e-01
-2.891094051301479340e-02
1.091118976473808289e-01
-8.429647982120513916e-02
1.153725758194923401e-01
1.202656328678131104e-01
2.387922257184982300e-02
-1.319995429366827011e-02
-1.370449736714363098e-02
-2.125947922468185425e-01
-1.485402584075927734e-01
-1.355004757642745972e-01
-1.819619387388229370e-01
3.226256072521209717e-01
-2.642555534839630127e-01
-4.613372310996055603e-02
-5.067597143352031708e-03
2.679930329322814941e-01
-1.801214963197708130e-01
4.414676874876022339e-02
8.632885664701461792e-02
-1.910400837659835815e-01
7.354872673749923706e-02
3.447369113564491272e-02
1.261245366185903549e-02
-5.277939885854721069e-02
2.605179697275161743e-02
-4.288405552506446838e-02
-1.216893345117568970e-01
-5.365375801920890808e-02
5.235796049237251282e-02
2.627068161964416504e-01
7.692060433328151703e-03
-1.801100224256515503e-01
1.056761015206575394e-02
-1.532255262136459351e-01
-1.986547559499740601e-01
2.214533537626266479e-01
-1.599325388669967651e-01
5.154004320502281189e-02
1.330348253250122070e-01
2.012181580066680908e-01
-1.136431321501731873e-01
2.124100476503372192e-01
1.608236730098724365e-01
1.045499742031097412e-01
-4.305970072746276855e-01
2.349227368831634521e-01
6.395691633224487305e-02
-2.651333622634410858e-02
-6.100117787718772888e-02
4.250329919159412384e-03
-3.589458465576171875e-01
-1.801784634590148926e-01
2.724732272326946259e-02
7.661420106887817383e-02
3.074199892580509186e-02
4.202394559979438782e-02
-2.499020397663116455e-01
2.304508686065673828e-01
-1.009363383054733276e-01
8.320142328739166260e-02
8.861701935529708862e-02
1.335456073284149170e-01
-2.652495540678501129e-02
-7.964671403169631958e-02
7.011159509420394897e-02
4.608343914151191711e-02
4.963605850934982300e-02
1.342623233795166016e-01
3.541683033108711243e-02
-3.631179779767990112e-02
-1.888084262609481812e-01
-4.125549271702766418e-02
2.199090123176574707e-01
-1.407702714204788208e-01
1.813647598028182983e-01
1.291928067803382874e-02
-5.668478086590766907e-02
-1.056932285428047180e-01
-5.490540340542793274e-02
4.900115728378295898e-02
2.038553059101104736e-01
5.662848241627216339e-03
8.177785202860832214e-03
-2.686983942985534668e-01
-2.258290946483612061e-01
7.699496299028396606e-02
1.718602776527404785e-01
-2.049824222922325134e-02
-1.148312166333198547e-01
-1.529719680547714233e-01
-5.835137963294982910e-01
-4.028378054499626160e-02
-8.243978023529052734e-03
4.372019693255424500e-02
5.292904749512672424e-02
2.161505222320556641e-01
-1.335060745477676392e-01
-4.111106321215629578e-02
-9.140766412019729614e-02
-8.177127689123153687e-03
1.302790045738220215e-01
-1.599632352590560913e-01
1.342861205339431763e-01
-7.834918051958084106e-02
-1.475660800933837891e-01
-2.041680365800857544e-02
-2.792363055050373077e-02
1.287812888622283936e-01
6.806713342666625977e-02
-2.458802908658981323e-01
-1.438312828540802002e-01
-9.923036396503448486e-02
1.990455090999603271e-01
2.760961949825286865e-01
2.725738333538174629e-03
1.041674334555864334e-02
-1.873624026775360107e-01
-2.828975394368171692e-02
-2.394262999296188354e-01
2.441547438502311707e-02
-6.931531243026256561e-04
-1.046549230813980103e-01
-2.544377744197845459e-01
3.050219118595123291e-01
-5.317325517535209656e-02
-2.913774549961090088e-01
-2.496060878038406372e-01
2.793622016906738281e-01
6.270493566989898682e-02
9.928929805755615234e-02
-9.578152745962142944e-02
-1.166003122925758362e-01
-1.553373783826828003e-01
6.221194937825202942e-02
3.219385743141174316e-01
-7.013441622257232666e-02
2.928399480879306793e-02
-9.916809201240539551e-02
-1.063343435525894165e-01
-3.897087275981903076e-01
2.319891899824142456e-01
1.875576525926589966e-01
1.548928916454315186e-01
4.178824424743652344e-01
7.230053842067718506e-02
1.862096935510635376e-01
-1.845966726541519165e-01
8.818800747394561768e-02
-4.262013137340545654e-01
1.010761260986328125e-01
1.589440852403640747e-01
5.760055407881736755e-02
4.100257530808448792e-02
-1.711589545011520386e-01
1.898040473461151123e-01
9.184814989566802979e-02
2.628698647022247314e-01
-2.770056426525115967e-01
-1.436385214328765869e-01
4.913319647312164307e-02
-1.321932226419448853e-01
1.261946856975555420e-01
-7.888410240411758423e-02
2.980649173259735107e-01
3.445701301097869873e-01
-1.732559800148010254e-01
2.430360168218612671e-01
3.080137968063354492e-01
3.241938054561614990e-01
-1.996442526578903198e-01
-8.077515661716461182e-02
2.770371502265334129e-03
1.520439684391021729e-01
-1.816393584012985229e-01
-6.729722023010253906e-02
-2.115732878446578979e-01
2.791896462440490723e-02
6.024822965264320374e-02
-1.211575940251350403e-01
-1.544661372900009155e-01
2.405609190464019775e-01
-6.790088117122650146e-02
-6.492702662944793701e-02
7.498193532228469849e-03
2.312360890209674835e-02
-4.898272082209587097e-02
8.452033251523971558e-02
8.669299632310867310e-02
-1.893979497253894806e-02
1.780632883310317993e-01
1.262729018926620483e-01
-6.216413900256156921e-02
1.037869602441787720e-01
-2.876895666122436523e-01
1.226230859756469727e-01
1.783537268638610840e-01
3.659183904528617859e-02
-2.660381197929382324e-01
1.649008627282455564e-04
-4.652985557913780212e-02
-4.024594128131866455e-01
-2.001688480377197266e-01
5.033193901181221008e-02
-2.255429625511169434e-01
2.109349966049194336e-01
1.231558248400688171e-01
-6.690032035112380981e-02
1.386686563491821289e-01
-1.708765178918838501e-01
-6.061661988496780396e-02
-2.953911386430263519e-02
4.782214760780334473e-02
-2.463313788175582886e-01
-1.707423329353332520e-01
4.342733416706323624e-03
2.547897696495056152e-01
-3.250740468502044678e-01
-1.654997915029525757e-01
4.064731672406196594e-02
2.316263914108276367e-01
1.991658806800842285e-01
7.882233709096908569e-02
3.497362881898880005e-02
-1.283269524574279785e-01
-2.623082399368286133e-01
5.661611631512641907e-02
-5.157390609383583069e-02
2.267301976680755615e-01
-1.143253147602081299e-01
-1.167888939380645752e-01
1.565957665443420410e-01
1.232074648141860962e-01
7.344603538513183594e-02
-3.219509720802307129e-01
-3.074973523616790771e-01
-1.209402158856391907e-01
2.583427913486957550e-02
9.488776326179504395e-02
8.561640232801437378e-02
-6.273480504751205444e-02
-2.538942731916904449e-02
2.666594646871089935e-02
1.918752342462539673e-01
-3.487542271614074707e-04
-2.877387963235378265e-02
8.307956159114837646e-02
1.685544289648532867e-02
1.019796580076217651e-01
9.506690502166748047e-02
2.864652313292026520e-02
1.348346173763275146e-01
1.364120244979858398e-01
-1.337241083383560181e-01
-1.470847576856613159e-01
-8.768672496080398560e-02
1.920254528522491455e-02
1.411777436733245850e-01
-2.437774837017059326e-02
1.824298352003097534e-01
-2.039417624473571777e-01
-8.980830013751983643e-02
1.401915401220321655e-01
-7.569372653961181641e-02
2.788780629634857178e-01
-7.534484565258026123e-02
1.816852241754531860e-01
4.098539948463439941e-01
7.431389391422271729e-02
-2.432805597782135010e-01
7.905377447605133057e-02
1.262817233800888062e-01
2.784149646759033203e-01
2.941198945045471191e-01
-1.252717524766921997e-01
-1.348128020763397217e-01
-2.735782973468303680e-02
-1.097708344459533691e-01
4.154415801167488098e-02
2.740838825702667236e-01
7.884229719638824463e-02
5.905563831329345703e-01
1.523340493440628052e-01
2.752189636230468750e-01
-1.456285268068313599e-01
-6.230923533439636230e-02
6.510467082262039185e-02
-4.782080184668302536e-03
-1.562352571636438370e-02
-3.094681203365325928e-01
3.149814605712890625e-01
-1.534997671842575073e-01
1.973255537450313568e-02
-2.996439635753631592e-01
-8.911324292421340942e-02
-2.303604632616043091e-01
-9.926869533956050873e-03
1.551097333431243896e-01
7.637977600097656250e-02
-1.075239554047584534e-01
-5.580688267946243286e-02
-3.867493942379951477e-04
8.541610091924667358e-02
1.016512438654899597e-01
6.837377697229385376e-02
-1.171423345804214478e-01
2.655424177646636963e-01
1.474269628524780273e-01
5.379748716950416565e-02
-1.276483088731765747e-01
8.028164505958557129e-02
3.891667723655700684e-02
-2.471715360879898071e-01
-3.482903540134429932e-01
-2.116932421922683716e-01
1.011518612504005432e-01
-5.401300638914108276e-02
2.076475173234939575e-01
-1.696786656975746155e-02
1.939114779233932495e-01
-3.294816613197326660e-01
2.093513160943984985e-01
-1.351028680801391602e-01
1.036940589547157288e-01
-8.321253955364227295e-02
1.511587295681238174e-02
-2.092137634754180908e-01
1.860005594789981842e-02
-4.553050920367240906e-02
2.304444462060928345e-02
1.491421312093734741e-01
-9.856456518173217773e-02
-1.664842814207077026e-01
7.586669921875000000e-02
1.627451479434967041e-01
-1.330842226743698120e-01
-6.422305852174758911e-02
-1.387206166982650757e-01
-2.421311140060424805e-01
-3.120451569557189941e-01
1.069318652153015137e-01
1.016948446631431580e-01
-6.990971416234970093e-02
1.681283265352249146e-01
1.045556087046861649e-02
2.354566939175128937e-02
2.118070423603057861e-01
2.641521692276000977e-01
-1.434579640626907349e-01
-6.821975857019424438e-02
-4.206373542547225952e-02
-8.209599554538726807e-02
-1.121908649802207947e-01
-9.483776241540908813e-02
-5.604756250977516174e-02
2.504886686801910400e-01
-7.152795046567916870e-02
-1.646807640790939331e-01
6.566800922155380249e-02
1.875440627336502075e-01
1.097534596920013428e-01
6.216072477400302887e-03
3.032268583774566650e-01
4.488774538040161133e-01
-4.881750047206878662e-02
5.929573625326156616e-02
1.090106517076492310e-01
-1.398348361253738403e-01
-2.114729583263397217e-01
4.903031885623931885e-02
1.423673629760742188e-01
1.314894407987594604e-01
-1.112655028700828552e-01
-8.509804308414459229e-02
-3.507912158966064453e-01
2.819321453571319580e-01
8.419188112020492554e-02
-6.665511429309844971e-02
2.610594332218170166e-01
-4.131519049406051636e-02
5.504774861037731171e-03
-6.030226498842239380e-02
-2.645228207111358643e-01
-2.190389484167098999e-02
6.892836838960647583e-02
2.220897190272808075e-02
1.000128313899040222e-01
8.190401643514633179e-02
3.366793692111968994e-01
2.658103406429290771e-01
1.202321872115135193e-01
-2.415512800216674805e-01
-3.686705529689788818e-01
8.919382095336914062e-02
-4.577123373746871948e-02
-1.131131425499916077e-01
-8.236018568277359009e-02
-1.349566876888275146e-01
1.658964306116104126e-01
-1.256890892982482910e-01
-2.203900665044784546e-01
1.602952927350997925e-01
1.035048514604568481e-01
-3.957510367035865784e-02
-1.968866288661956787e-01
6.760092079639434814e-02
-1.162644624710083008e-01
1.936716735363006592e-01
-1.414698064327239990e-01
3.609860688447952271e-02
-4.198480769991874695e-02
-3.276234567165374756e-01
1.378065645694732666e-01
-1.483117230236530304e-02
4.977068305015563965e-01
1.807106137275695801e-01
-6.375867873430252075e-02
-5.457757711410522461e-01
2.624771893024444580e-01
-1.849672645330429077e-01
8.932577818632125854e-02
-3.295861184597015381e-02
-2.140020765364170074e-02
-1.831545084714889526e-01
-3.240672871470451355e-02
-1.692287474870681763e-01
-2.390742450952529907e-01
-3.037169761955738068e-02
-8.506821095943450928e-02
-1.946694403886795044e-01
2.234562337398529053e-01
-1.429491639137268066e-01
-8.390719443559646606e-02
4.851819947361946106e-02
1.089536175131797791e-01
-3.963182121515274048e-02
2.494821995496749878e-01
-1.188109628856182098e-02
-9.372394531965255737e-02
-8.462276309728622437e-05
-1.446871608495712280e-01
-3.231899142265319824e-01
-3.646179661154747009e-02
-1.954206675291061401e-01
1.787135899066925049e-01
-1.781923323869705200e-01
1.495071407407522202e-02
2.749332785606384277e-01
-3.048209547996520996e-01
-9.252212196588516235e-02
-4.527946561574935913e-02
5.456690788269042969e-01
1.094186827540397644e-01
-1.219953149557113647e-01
-6.342779844999313354e-02
-7.860598713159561157e-02
-2.287632077932357788e-01
7.306176424026489258e-02
-8.934409916400909424e-02
1.257200688123703003e-01
-3.168753385543823242e-01
-4.561523441225290298e-03
-6.948187202215194702e-02
1.869911327958106995e-02
-3.277705237269401550e-02
-7.498285919427871704e-02
-2.479657679796218872e-01
-1.282922923564910889e-01
2.274714112281799316e-01
1.854600161314010620e-01
3.715752810239791870e-02
-2.002659291028976440e-01
3.371947407722473145e-01
7.749319821596145630e-02
7.505266368389129639e-02
1.822739094495773315e-01
2.781215906143188477e-01
-2.585167884826660156e-01
3.290538862347602844e-02
2.837033569812774658e-01
-3.671795725822448730e-01
1.000316888093948364e-01
-1.888385415077209473e-02
-3.367164172232151031e-03
9.285245835781097412e-02
-2.458374015986919403e-02
-1.125170756131410599e-02
-9.957803040742874146e-02
-1.846915036439895630e-01
7.387599442154169083e-03
4.797315001487731934e-01
5.422635748982429504e-02
-2.750652134418487549e-01
-1.874114573001861572e-01
4.128908365964889526e-02
3.560170903801918030e-02
1.649172008037567139e-01
-2.328775674104690552e-01
5.585163459181785583e-02
2.258256822824478149e-01
-1.046055182814598083e-01
-6.062638387084007263e-02
-2.111979424953460693e-01
4.370451346039772034e-02
1.947756409645080566e-01
1.097125336527824402e-01
2.955067455768585205e-01
-4.946447536349296570e-02
-1.255859583616256714e-01
-4.270109906792640686e-02
5.409412831068038940e-02
1.018367260694503784e-01
-1.703237742185592651e-01
1.206727251410484314e-01
2.880810014903545380e-02
2.328891456127166748e-01
-2.568117380142211914e-01
1.453121751546859741e-02
-2.218833714723587036e-01
-5.528458580374717712e-02
3.859852254390716553e-02
-1.765751093626022339e-02
2.338241934776306152e-01
9.353748708963394165e-02
-2.174457758665084839e-01
1.506358664482831955e-02
1.916034668684005737e-01
-2.855598032474517822e-01
-1.287681162357330322e-01
1.754004321992397308e-02
-2.253009676933288574e-01
1.258358508348464966e-01
-4.407659173011779785e-01
-1.626898050308227539e-01
1.720564961433410645e-01
-1.195430639199912548e-03
1.597794145345687866e-01
3.956286907196044922e-01
-1.125189960002899170e-01
9.516502916812896729e-02
7.596558332443237305e-02
1.083624064922332764e-01
7.339382916688919067e-02
-2.024263590574264526e-01
-2.073692381381988525e-01
4.146372154355049133e-02
-5.027649458497762680e-03
2.236545532941818237e-01
5.633500590920448303e-02
-7.243568450212478638e-02
2.246902436017990112e-01
1.007052361965179443e-01
-2.231177836656570435e-01
2.410646080970764160e-01
-1.585890352725982666e-02
-1.860091239213943481e-01
1.019152700901031494e-01
2.607377469539642334e-01
-2.900181524455547333e-02
1.701616495847702026e-01
-7.224424928426742554e-02
1.146628409624099731e-01
3.048332631587982178e-01
2.465598732233047485e-01
-7.955518364906311035e-02
1.094216331839561462e-01
1.564480662345886230e-01
1.780693531036376953e-01
-1.542260218411684036e-02
-7.062596827745437622e-02
-4.467551037669181824e-02
-1.993732601404190063e-01
-1.139064133167266846e-01
-2.605977952480316162e-01
-1.629118025302886963e-01
3.020773082971572876e-02
-3.557788133621215820e-01
2.136450633406639099e-02
1.951509416103363037e-01
2.848803102970123291e-01
6.926197558641433716e-02
-1.345738675445318222e-02
7.260839641094207764e-02
2.380725368857383728e-02
-1.486798375844955444e-01
4.682449996471405029e-02
-5.415029078722000122e-02
4.356350004673004150e-02
-2.156840860843658447e-01
-1.149121001362800598e-01
5.025723949074745178e-02
-1.066617444157600403e-01
-4.488848745822906494e-01
-6.937268376350402832e-02
4.313034713268280029e-01
-9.864720515906810760e-03
1.497159451246261597e-01
3.032062947750091553e-01
9.093111753463745117e-02
3.585031628608703613e-01
-2.151934057474136353e-02
-1.793905943632125854e-01
-1.276917159557342529e-01
2.351333349943161011e-01
-8.297955244779586792e-02
4.139875620603561401e-02
9.950153529644012451e-02
-2.889066040515899658e-01
5.320681333541870117e-01
-3.383291140198707581e-02
6.160507723689079285e-02
1.051580160856246948e-01
1.137364059686660767e-01
-1.624962240457534790e-01
-2.925045229494571686e-02
2.117480710148811340e-02
1.672070324420928955e-01
8.319470286369323730e-02
-9.113845229148864746e-02
-1.432499736547470093e-01
-1.967351883649826050e-01
1.731369048357009888e-01
1.229742467403411865e-01
-8.171626180410385132e-02
8.249850571155548096e-02
-1.984175443649291992e-01
4.306384921073913574e-02
-3.615096807479858398e-01
3.260392695665359497e-02
7.970763742923736572e-02
6.317359209060668945e-02
-9.289401024580001831e-02
-1.643691211938858032e-01
1.524932533502578735e-01
-2.264064252376556396e-01
-1.301835291087627411e-02
-8.163993060588836670e-02
-2.026573121547698975e-01
-6.688047200441360474e-02
-1.289663612842559814e-01
2.504768408834934235e-02
1.404115706682205200e-01
-1.350748240947723389e-01
-2.395127713680267334e-01
5.129526555538177490e-02
5.212572589516639709e-02
-4.843239113688468933e-02
-2.109751105308532715e-02
-8.798944950103759766e-02
2.464160621166229248e-01
6.672792881727218628e-02
-7.041945308446884155e-02
1.119001582264900208e-01
4.205977544188499451e-02
6.231676414608955383e-02
-9.446375072002410889e-02
-8.685360103845596313e-02
-9.316590428352355957e-02
1.666687577962875366e-01
-1.593372523784637451e-01
1.707635074853897095e-02
-1.165880411863327026e-01
-2.225233018398284912e-01
-2.044335007667541504e-01
1.962348073720932007e-01
1.630009263753890991e-01
4.431271553039550781e-02
2.426396757364273071e-01
7.393858581781387329e-02
2.737432420253753662e-01
1.571385264396667480e-01
1.470767240971326828e-02
1.417693793773651123e-01
-9.032378345727920532e-02
-8.512106537818908691e-02
9.977561980485916138e-02
-1.084219664335250854e-01
-7.075812667608261108e-02
3.428707271814346313e-02
-2.605596482753753662e-01
1.567829549312591553e-01
-1.163977831602096558e-01
7.897847145795822144e-02
-1.151670143008232117e-02
1.192375347018241882e-01
-2.229962795972824097e-01
-3.328289687633514404e-01
-9.520074725151062012e-02
-3.419803082942962646e-01
2.087564021348953247e-01
3.398935794830322266e-01
-6.753147393465042114e-02
1.226961985230445862e-01
2.315484732389450073e-01
2.133946418762207031e-01
1.506320089101791382e-01
-1.142131537199020386e-01
-2.351051010191440582e-02
-8.619568496942520142e-02
-7.311474531888961792e-02
-3.002794384956359863e-01
-1.020409516058862209e-03
-3.573102355003356934e-01
2.259388417005538940e-01
-1.097379997372627258e-01
1.579935997724533081e-01
-7.690048217773437500e-02
1.635317951440811157e-01
1.868560165166854858e-01
-4.479447007179260254e-01
-9.085746854543685913e-02
-6.813365966081619263e-03
1.549407839775085449e-01
-2.290462702512741089e-01
1.918166279792785645e-01
-1.904065907001495361e-01
-2.672411799430847168e-01
-1.337926983833312988e-01
-2.709673717617988586e-02
2.992208302021026611e-01
4.054584726691246033e-02
-3.852043151855468750e-01
8.954995311796665192e-03
-5.527649074792861938e-03
2.143940776586532593e-01
-1.637493968009948730e-01
-3.930895775556564331e-02
3.127514570951461792e-02
1.510642468929290771e-01
2.398083209991455078e-01
-1.992105394601821899e-01
1.986200958490371704e-01
2.089296281337738037e-01
-5.653740465641021729e-02
2.509594559669494629e-01
-4.555299878120422363e-02
8.497763425111770630e-02
-9.402848035097122192e-02
-5.395024642348289490e-02
1.779268868267536163e-02
1.033404618501663208e-01
-1.791098713874816895e-01
-5.398287624120712280e-02
2.685977518558502197e-01
6.627217680215835571e-02
-2.121020704507827759e-01
-7.515382766723632812e-02
-1.562655419111251831e-01
-1.812116950750350952e-01
-9.012387599796056747e-04
-1.127949655055999756e-01
3.141395747661590576e-01
1.768563836812973022e-01
-2.884833514690399170e-01
2.812242880463600159e-02
2.034235447645187378e-01
3.247561156749725342e-01
-4.095230996608734131e-02
-2.769244611263275146e-01
-1.814562976360321045e-01
1.233121082186698914e-01
-3.268665447831153870e-02
1.566995978355407715e-01
-1.763889640569686890e-01
-1.259806007146835327e-01
-1.349164843559265137e-01
-3.837350383400917053e-02
8.526947349309921265e-02
-4.256663843989372253e-02
2.300567775964736938e-01
2.631790190935134888e-02
-1.679137200117111206e-01
-2.285608556121587753e-03
1.285486072301864624e-01
-5.543566867709159851e-02
-1.303673982620239258e-01
9.333406388759613037e-02
-1.712722480297088623e-01
3.164981007575988770e-01
1.381538063287734985e-01
-2.959887385368347168e-01
1.295806933194398880e-02
-4.236861467361450195e-01
2.079298719763755798e-02
1.205678912810981274e-03
6.400316487997770309e-03
8.280597627162933350e-02
2.756567895412445068e-01
1.907283216714859009e-01
-4.570751637220382690e-02
-6.629963964223861694e-02
-2.964000590145587921e-02
7.333517074584960938e-02
1.457713544368743896e-01
1.949734985828399658e-01
1.586655676364898682e-01
2.601505815982818604e-01
1.678499206900596619e-02
2.054974250495433807e-02
4.103600233793258667e-02
-4.284095484763383865e-03
7.540109008550643921e-02
3.881437703967094421e-02
-1.685588657855987549e-01
-2.574305236339569092e-01
2.368392497301101685e-01
6.446966528892517090e-02
6.006964668631553650e-02
6.304345279932022095e-02
-2.266045808792114258e-01
2.736238762736320496e-02
-2.034230381250381470e-01
1.151469573378562927e-01
-1.249709874391555786e-01
7.405313104391098022e-02
2.704598605632781982e-01
-3.130807578563690186e-01
1.289194375276565552e-01
1.973179280757904053e-01
-2.005349546670913696e-01
-2.319851517677307129e-01
-3.019442036747932434e-02
-3.722676262259483337e-02
-8.804897964000701904e-02
2.018225640058517456e-01
-9.023133665323257446e-02
-7.172679901123046875e-02
1.245739758014678955e-01
7.223217934370040894e-02
-1.312632709741592407e-01
-7.648284435272216797e-01
-3.480310440063476562e-01
1.505971550941467285e-01
8.957227319478988647e-02
-2.002823203802108765e-01
6.725675612688064575e-02
1.038569677621126175e-02
-8.110078424215316772e-02
-1.065471321344375610e-01
-2.496746778488159180e-01
3.666234388947486877e-02
-1.717035025358200073e-01
-8.648423105478286743e-02
-6.785416603088378906e-02
4.831676557660102844e-02
8.542540669441223145e-02
2.387843579053878784e-01
-2.258692830801010132e-01
-1.294724047183990479e-01
-3.302404582500457764e-01
-1.346221268177032471e-01
3.768047094345092773e-01
3.996196016669273376e-02
6.503970175981521606e-02
-9.410779178142547607e-02
-9.966827183961868286e-02
1.458750814199447632e-01
1.266391016542911530e-02
1.032525971531867981e-01
5.318393707275390625e-01
-8.443807065486907959e-02
-2.259983420372009277e-01
1.399423480033874512e-01
-1.925553977489471436e-01
-2.174099981784820557e-01
-1.613668203353881836e-01
3.446072712540626526e-02
-2.384861372411251068e-02
3.144211173057556152e-01
1.297430098056793213e-01
1.653007976710796356e-02
-1.118339151144027710e-01
-8.555454201996326447e-03
-5.651343241333961487e-02
2.096174210309982300e-01
-9.765067696571350098e-02
7.911372184753417969e-02
8.612319827079772949e-02
7.647936791181564331e-02
1.882671117782592773e-01
1.248136311769485474e-01
-3.003779649734497070e-01
7.152476906776428223e-02
1.629587858915328979e-01
9.357534348964691162e-03
6.370565295219421387e-02
-1.207649856805801392e-01
-3.260172205045819283e-03
1.620442569255828857e-01
4.289648234844207764e-01
9.550077468156814575e-02
-1.107872352004051208e-01
1.150743383914232254e-02
-2.827915251255035400e-01
-9.027247130870819092e-02
2.343600615859031677e-02
6.292675621807575226e-03
4.392052441835403442e-02
-5.287455767393112183e-02
2.019325941801071167e-01
9.157986193895339966e-02
-1.017361804842948914e-01
-3.075649403035640717e-02
-6.493250839412212372e-03
-7.639737427234649658e-02
1.017364785075187683e-01
-2.687410116195678711e-01
-8.626573719084262848e-03
1.038558781147003174e-01
-3.212635964155197144e-02
-2.578499913215637207e-01
1.549500674009323120e-01
-3.169084191322326660e-01
3.662382662296295166e-01
1.637599021196365356e-01
2.374176830053329468e-01
-1.828776597976684570e-01
-3.563778102397918701e-02
3.791489899158477783e-01
1.918413490056991577e-01
5.279089510440826416e-02
-8.185239881277084351e-02
-9.152107685804367065e-02
-1.077889800071716309e-01
-6.487003713846206665e-02
1.636100113391876221e-01
1.971059590578079224e-01
-3.025638461112976074e-01
-1.462750881910324097e-01
7.059399783611297607e-02
-2.717621028423309326e-01
-1.181701850146055222e-02
7.736732810735702515e-02
-1.135801244527101517e-02
-1.676360517740249634e-02
1.433532983064651489e-01
3.678558021783828735e-02
-1.776629984378814697e-01
-2.573190815746784210e-02
2.773117087781429291e-02
2.586361393332481384e-02
-1.087347492575645447e-01
-9.172316640615463257e-02
-3.036740422248840332e-01
-2.256315648555755615e-01
1.826361119747161865e-01
-1.541923638433218002e-02
-3.478633165359497070e-01
-2.276120930910110474e-01
-2.515991628170013428e-01
6.213741749525070190e-02
-1.035420596599578857e-01
7.725936919450759888e-02
-1.586726866662502289e-02
-4.767442494630813599e-02
-1.296578645706176758e-01
-9.029465913772583008e-02
-1.762769818305969238e-01
4.683136567473411560e-02
2.257122695446014404e-01
-2.773710191249847412e-01
2.880674302577972412e-01
1.299577653408050537e-01
1.107424125075340271e-01
2.355930954217910767e-01
-3.615522757172584534e-02
-1.613240391016006470e-01
-1.289864182472229004e-01
-3.961177170276641846e-01
-3.044489622116088867e-01
9.797823429107666016e-02
1.684843301773071289e-01
-1.044046208262443542e-01
1.511649638414382935e-01
1.452474202960729599e-02
-3.642258644104003906e-01
-7.485238462686538696e-02
1.553244143724441528e-01
-3.266886249184608459e-02
-3.075061738491058350e-01
-3.146019279956817627e-01
2.130270004272460938e-01
-3.312842175364494324e-02
2.640270888805389404e-01
-1.124211400747299194e-01
-1.646859347820281982e-01
-7.848303020000457764e-02
-1.139012072235345840e-02
-9.830887615680694580e-02
-1.611207127571105957e-01
6.446627527475357056e-02
7.925362139940261841e-02
-3.715908527374267578e-01
-9.131882339715957642e-02
3.961458057165145874e-02
1.613112725317478180e-02
1.741979420185089111e-01
-3.579887747764587402e-01
-1.487676054239273071e-01
-1.441970020532608032e-01
-2.720886766910552979e-01
5.920541286468505859e-02
-1.448188573122024536e-01
-2.610189914703369141e-01
-8.998813480138778687e-02
2.324165590107440948e-02
5.343766510486602783e-02
1.197769939899444580e-01
1.302086859941482544e-01
-1.453789621591567993e-01
4.428068175911903381e-02
-4.664059728384017944e-02
2.031019926071166992e-01
2.260973900556564331e-01
4.322249442338943481e-02
2.823824882507324219e-01
8.011968433856964111e-02
3.142792880535125732e-01
1.142025291919708252e-01
-4.163466021418571472e-02
2.705586254596710205e-01
-4.848211258649826050e-02
-1.696652770042419434e-01
5.109669640660285950e-02
-1.238155439496040344e-01
-7.059043645858764648e-02
2.118084281682968140e-01
-1.473544985055923462e-01
-3.681769222021102905e-02
9.402847290039062500e-02
9.170790016651153564e-02
5.140636488795280457e-02
-1.562128216028213501e-01
-1.252789944410324097e-01
-4.196779057383537292e-02
5.361621826887130737e-02
7.515444420278072357e-03
2.575228214263916016e-01
1.962400041520595551e-02
-1.057019308209419250e-01
-2.488651275634765625e-01
2.375439703464508057e-01
1.105777919292449951e-01
1.784994006156921387e-01
-2.184432297945022583e-01
-1.165850758552551270e-01
1.617294996976852417e-01
7.797954231500625610e-02
3.053376823663711548e-02
-1.489179879426956177e-01
-4.923177510499954224e-02
-8.032754063606262207e-02
-1.037603057920932770e-02
-1.027542352676391602e-01
2.138164341449737549e-01
-3.515479713678359985e-02
-9.239509701728820801e-02
4.724223166704177856e-02
2.317646518349647522e-02
5.906328186392784119e-02
4.201106727123260498e-02
5.240811780095100403e-02
-1.682276874780654907e-01
-2.670465111732482910e-01
-1.613999158143997192e-01
-1.974148303270339966e-01
-2.806168794631958008e-01
-5.705195665359497070e-02
1.408746838569641113e-01
-8.366170525550842285e-02
1.155596151947975159e-01
-3.790961205959320068e-02
-9.169838577508926392e-02
-9.187140315771102905e-02
-1.835982054471969604e-01
-3.171361982822418213e-02
1.276363879442214966e-01
-3.543640077114105225e-01
1.602251231670379639e-01
5.458603799343109131e-02
-3.094031512737274170e-01
1.693190932273864746e-01
-1.208647862076759338e-01
2.172239422798156738e-01
-1.333123296499252319e-01
9.422826766967773438e-02
-1.522402912378311157e-01
-2.291563749313354492e-01
-2.214249819517135620e-01
2.357078641653060913e-01
-3.296458348631858826e-02
2.511312663555145264e-01
-4.224884882569313049e-02
-1.716191619634628296e-01
-1.883810311555862427e-01
1.453150957822799683e-01
-1.184383034706115723e-01
-5.011065676808357239e-02
5.032873153686523438e-02
-9.542789310216903687e-02
-1.269527226686477661e-01
-1.189970746636390686e-01
-2.402793467044830322e-01
-1.711046546697616577e-01
-3.710441663861274719e-02
-4.535138607025146484e-02
1.580390930175781250e-01
1.098683699965476990e-01
-6.244809627532958984e-01
7.681613415479660034e-02
2.779040336608886719e-01
-9.723486006259918213e-02
-3.022406399250030518e-01
4.540044441819190979e-02
-1.658907532691955566e-01
1.018196642398834229e-01
1.327979117631912231e-01
-3.541182577610015869e-01
2.216355353593826294e-01
-1.303188800811767578e-01
3.090436756610870361e-01
-1.645934283733367920e-01
-2.376134693622589111e-01
-3.150153160095214844e-01
-1.855234205722808838e-01
1.254501044750213623e-01
6.365809589624404907e-02
-1.329476982355117798e-01
-2.783776223659515381e-01
3.517977148294448853e-02
2.418752312660217285e-01
2.199070006608963013e-01
-1.191341318190097809e-02
4.556348174810409546e-02
9.408482909202575684e-02
-1.927407383918762207e-01
3.555587828159332275e-01
-7.190568000078201294e-02
-2.984753251075744629e-01
4.417824372649192810e-02
1.396832168102264404e-01
-1.495290398597717285e-01
-2.391347102820873260e-02
6.169176101684570312e-02
2.505331337451934814e-01
-3.305229917168617249e-02
-4.043641965836286545e-03
-2.071112394332885742e-02
-2.430053055286407471e-01
-7.187439501285552979e-02
-6.748835742473602295e-02
2.076493054628372192e-01
1.173427030444145203e-01
-2.763092517852783203e-02
1.486020535230636597e-01
1.655102819204330444e-01
1.290955692529678345e-01
-1.081452369689941406e-01
-2.152957618236541748e-01
-3.324135839939117432e-01
-2.547167837619781494e-01
-3.368222415447235107e-01
4.196872189640998840e-02
-2.128544598817825317e-01
1.211714223027229309e-01
9.380980045534670353e-04
2.267089039087295532e-01
1.209175363183021545e-01
-2.214827341958880424e-03
1.864617317914962769e-01
-1.974160522222518921e-01
-1.353845894336700439e-01
-4.665680825710296631e-01
9.754950553178787231e-02
1.956074498593807220e-02
7.158237695693969727e-02
-6.023979932069778442e-02
1.368775367736816406e-01
1.616851240396499634e-01
1.576848030090332031e-01
1.723960191011428833e-01
1.533538401126861572e-01
-1.202925071120262146e-01
-3.671729266643524170e-01
-3.332792520523071289e-01
-1.481403410434722900e-01
1.388739645481109619e-01
-2.169535495340824127e-02
-1.699986457824707031e-01
1.854740381240844727e-01
-8.375762403011322021e-02
1.175756976008415222e-01
-1.777066141366958618e-01
-1.330501884222030640e-01
-1.132597252726554871e-01
-2.126794159412384033e-01
-6.835637241601943970e-02
-3.831486999988555908e-01
-3.116566687822341919e-02
1.148660928010940552e-01
-5.796265974640846252e-02
5.534113571047782898e-02
4.147656857967376709e-01
2.680150605738162994e-02
-2.995027303695678711e-01
-3.087054491043090820e-01
1.968506723642349243e-01
-1.509299967437982559e-02
-1.483782976865768433e-01
2.101753652095794678e-01
-2.862938344478607178e-01
6.651802361011505127e-02
-1.016892343759536743e-01
-2.006270587444305420e-01
-1.842848658561706543e-01
2.501566708087921143e-01
4.981656745076179504e-02
2.754381895065307617e-01
-4.347040951251983643e-01
1.571188569068908691e-01
3.828566074371337891e-01
-2.189287692308425903e-01
-1.883983016014099121e-01
-1.726535707712173462e-02
-7.453796267509460449e-02
3.023063540458679199e-01
-3.179923398420214653e-03
1.655892701819539070e-03
-2.971701622009277344e-01
2.630517482757568359e-01
-1.718478947877883911e-01
1.384167224168777466e-01
5.321751534938812256e-02
-7.281488180160522461e-02
1.871852427721023560e-01
-9.950102120637893677e-02
8.628379553556442261e-02
2.908127009868621826e-01
-8.710427582263946533e-02
9.319926053285598755e-02
-1.265523135662078857e-01
-1.026941165328025818e-01
1.918234229087829590e-01
-1.436906456947326660e-01
-1.087188647943548858e-04
-8.784731850028038025e-03
2.797725424170494080e-02
-4.644846618175506592e-01
-2.918705902993679047e-02
-1.291182339191436768e-01
-9.801055490970611572e-02
-4.118726551532745361e-01
-2.507826685905456543e-01
1.704412549734115601e-01
8.200678974390029907e-02
-3.168803453445434570e-01
2.234275043010711670e-01
9.511349350214004517e-02
9.947027266025543213e-02
-7.542104274034500122e-02
1.134005095809698105e-02
1.453507393598556519e-01
-3.674419522285461426e-01
-2.243273258209228516e-01
1.705253720283508301e-01
-3.039239943027496338e-01
-1.717853546142578125e-01
-2.099204659461975098e-01
-1.627295762300491333e-01
-2.250394672155380249e-01
-3.067214787006378174e-01
2.472262363880872726e-03
3.546842560172080994e-02
3.502467274665832520e-01
-3.108935244381427765e-02
1.396293751895427704e-02
-9.857643162831664085e-04
-4.396612644195556641e-01
5.356417596340179443e-02
1.805285066366195679e-01
2.040272019803524017e-02
5.110241472721099854e-02
1.271155327558517456e-01
-7.569908350706100464e-02
-3.862493857741355896e-02
-7.112236227840185165e-03
-7.801166176795959473e-02
1.678071916103363037e-02
-2.975043058395385742e-01
-9.883070737123489380e-02
-2.955215573310852051e-01
2.478982955217361450e-01
-4.453761875629425049e-02
4.909567534923553467e-01
1.199076622724533081e-01
2.153933197259902954e-01
1.560383290052413940e-01
2.279266119003295898e-01
2.439063973724842072e-02
2.294211089611053467e-01
-2.978549897670745850e-01
8.387585729360580444e-02
-1.700315922498703003e-01
1.149391233921051025e-01
1.907578669488430023e-02
3.506661579012870789e-02
1.001506522297859192e-01
9.128750860691070557e-02
1.627728529274463654e-02
-4.406332224607467651e-02
-6.140996888279914856e-02
-2.036929130554199219e-02
-4.724992215633392334e-01
2.235434353351593018e-01
6.792008876800537109e-02
-1.845071613788604736e-01
2.498496472835540771e-01
1.603631228208541870e-01
1.198667734861373901e-01
-3.186571970582008362e-02
9.986950084567070007e-03
3.570210337638854980e-01
3.272810578346252441e-02
-3.523346483707427979e-01
1.913296729326248169e-01
-3.082980215549468994e-02
-2.467241436243057251e-01
-1.160855814814567566e-01
1.197230592370033264e-01
-9.282439947128295898e-03
6.614486128091812134e-02
-1.296159774065017700e-01
1.408643424510955811e-01
6.768936663866043091e-02
1.466448698192834854e-02
-5.390520021319389343e-02
1.388824135065078735e-01
-4.815052151679992676e-01
3.319212049245834351e-02
-6.867295503616333008e-02
-3.229552209377288818e-01
-1.016549095511436462e-01
1.066879089921712875e-02
7.300922274589538574e-02
-4.253732413053512573e-02
2.440584897994995117e-01
-1.078091561794281006e-01
-1.611601095646619797e-03
3.776262104511260986e-01
-1.192729696631431580e-01
-2.743628323078155518e-01
-1.730232834815979004e-01
-2.069603204727172852e-01
9.351700544357299805e-02
-3.656956553459167480e-01
-2.130432575941085815e-01
-5.050818324089050293e-01
1.004429534077644348e-01
2.968056201934814453e-01
-1.044110134243965149e-01
3.979015350341796875e-02
9.363497048616409302e-02
9.807070344686508179e-02
1.979413777589797974e-01
1.573534160852432251e-01
1.885586380958557129e-01
-1.240923777222633362e-01
1.623824536800384521e-01
-3.047241270542144775e-01
8.242134004831314087e-02
-2.264836579561233521e-01
-1.463713496923446655e-01
-1.044178605079650879e-01
-1.982088834047317505e-01
4.583619832992553711e-01
-3.240292370319366455e-01
8.389695733785629272e-02
-9.736520051956176758e-02
4.824887216091156006e-02
-4.246136844158172607e-01
5.801295116543769836e-02
-1.440605968236923218e-01
-1.335699111223220825e-01
-2.152477651834487915e-01
1.254837363958358765e-01
1.053569987416267395e-01
-1.991817206144332886e-01
-1.871088743209838867e-01
-1.701743751764297485e-01
-2.746633291244506836e-01
-1.297629773616790771e-01
-5.900591239333152771e-02
1.981972157955169678e-01
8.240554481744766235e-02
1.368724927306175232e-02
-1.614356338977813721e-01
1.069096662104129791e-02
9.152822941541671753e-02
-3.509878739714622498e-02
8.677829056978225708e-02
1.694425642490386963e-01
1.396482437849044800e-01
5.561731383204460144e-02
2.387753129005432129e-02
1.772847175598144531e-01
2.921158261597156525e-02
-8.403910696506500244e-02
-1.447484344244003296e-01
-5.230378732085227966e-02
-7.234042137861251831e-02
-2.507095038890838623e-01
-5.707432329654693604e-02
-2.908455021679401398e-02
-1.060162037611007690e-01
9.571740031242370605e-02
1.544070392847061157e-01
7.719246298074722290e-02
-5.098149552941322327e-02
1.020415052771568298e-01
-1.616627909243106842e-02
1.610081270337104797e-02
-1.780010759830474854e-01
5.858799815177917480e-02
-7.758102566003799438e-02
2.955799102783203125e-01
2.539220750331878662e-01
2.394017279148101807e-01
3.722719103097915649e-02
-1.371327042579650879e-01
-1.794234067201614380e-01
1.784166544675827026e-01
1.836208254098892212e-01
-1.026213467121124268e-01
-1.656862907111644745e-03
2.569923400878906250e-01
-4.432679712772369385e-02
2.119529992341995239e-01
-2.898383885622024536e-03
-5.949692428112030029e-02
1.772320121526718140e-01
9.818704426288604736e-02
-3.520169854164123535e-01
-3.079733066260814667e-02
1.825692504644393921e-01
-2.805804312229156494e-01
-9.901543706655502319e-02
2.527696192264556885e-01
1.576453298330307007e-01
-1.587798595428466797e-01
1.418358981609344482e-01
-7.699707150459289551e-02
-1.720688194036483765e-01
1.356535106897354126e-01
-1.737561374902725220e-01
-1.662484407424926758e-01
7.433923333883285522e-02
-2.104611545801162720e-01
-1.206021904945373535e-01
-2.076943218708038330e-01
7.362487167119979858e-02
2.635671524330973625e-03
-2.957535721361637115e-02
1.844265908002853394e-01
5.512006208300590515e-02
-2.945714592933654785e-01
-1.305474042892456055e-01
-4.430546611547470093e-02
1.964840441942214966e-01
1.667688935995101929e-01
3.639737963676452637e-01
-4.126637578010559082e-01
-2.060139365494251251e-02
9.988317638635635376e-02
1.194445341825485229e-01
-1.092973873019218445e-01
-1.549083590507507324e-01
-9.125664085149765015e-02
-6.145061179995536804e-02
-8.471184223890304565e-02
3.199400380253791809e-02
-4.755612835288047791e-02
3.815685510635375977e-01
8.833277039229869843e-03
-8.758255094289779663e-02
-1.241307109594345093e-01
2.483567409217357635e-02
3.708625435829162598e-01
-2.029955759644508362e-02
-6.853844970464706421e-02
-4.971691370010375977e-01
-1.654208265244960785e-02
7.567654550075531006e-02
-1.789644733071327209e-02
-7.632478326559066772e-02
-2.121296897530555725e-02
3.273497819900512695e-01
-2.960634231567382812e-02
-1.097092255949974060e-01
-5.076152458786964417e-02
1.072936058044433594e-01
-1.511906236410140991e-01
1.388024985790252686e-01
-1.811129041016101837e-02
-2.938692867755889893e-01
1.842098385095596313e-01
-7.692933827638626099e-02
-1.746140569448471069e-01
-2.238850593566894531e-01
-1.123817861080169678e-01
-1.473423540592193604e-01
1.065472885966300964e-01
-1.335599273443222046e-01
-9.292947500944137573e-02
2.301171571016311646e-01
3.867904469370841980e-02
1.955376751720905304e-02
1.365832984447479248e-01
-2.701321430504322052e-02
-1.741109788417816162e-01
1.710612773895263672e-01
1.620332002639770508e-01
-3.981420993804931641e-01
1.599330827593803406e-02
5.870830640196800232e-02
1.108434870839118958e-01
-1.025341078639030457e-01
-1.516120880842208862e-01
-2.506403923034667969e-01
1.308042183518409729e-02
1.518063545227050781e-01
-1.232954636216163635e-01
-7.834143191576004028e-02
-4.779798164963722229e-02
-1.046956926584243774e-01
-7.540737837553024292e-02
1.139661222696304321e-01
4.110382795333862305e-01
-1.946801543235778809e-01
-2.109183967113494873e-01
-1.286167800426483154e-01
-7.928113639354705811e-02
-2.489981204271316528e-01
2.284357994794845581e-01
1.322046816349029541e-01
-5.824070796370506287e-02
1.776252090930938721e-01
-2.958001196384429932e-02
-5.849194899201393127e-02
1.446036715060472488e-02
1.682664602994918823e-01
-1.685682870447635651e-02
1.483635157346725464e-01
-2.901912927627563477e-01
8.419418334960937500e-02
8.912236988544464111e-02
2.548352777957916260e-01
1.617331504821777344e-01
3.178650140762329102e-01
-8.970107883214950562e-02
-1.950404196977615356e-01
-1.233128756284713745e-01
-2.736468911170959473e-01
8.490307256579399109e-03
-2.185164391994476318e-01
8.283614367246627808e-02
-1.018771454691886902e-01
-1.112762391567230225e-01
-1.000100523233413696e-01
-3.027227222919464111e-01
1.936075538396835327e-01
7.087790966033935547e-02
9.172243624925613403e-02
1.441565006971359253e-01
1.307094544172286987e-01
3.006115322932600975e-03
-1.483137719333171844e-02
-6.150197610259056091e-02
-5.186430811882019043e-01
-5.116349086165428162e-03
2.004525959491729736e-01
4.014244079589843750e-01
1.430783271789550781e-01
2.879423797130584717e-01
1.426458079367876053e-02
2.341697067022323608e-01
-1.721347309648990631e-02
2.220115810632705688e-01
-3.291712403297424316e-01
-1.107458397746086121e-01
-3.987842798233032227e-01
-1.137126889079809189e-02
-2.667778134346008301e-01
3.054629862308502197e-01
1.663856953382492065e-02
-2.112798690795898438e-01
-2.500087618827819824e-01
-1.481404900550842285e-01
3.141527771949768066e-01
-1.349610239267349243e-01
2.935854718089103699e-02
1.243535727262496948e-01
3.009755909442901611e-02
8.188692480325698853e-02
4.389274492859840393e-02
-3.833322599530220032e-02
-5.448185279965400696e-02
-2.296317517757415771e-01
-5.432244539260864258e-01
-5.347265601158142090e-01
-5.885401740670204163e-02
-1.798633602447807789e-03
-2.149260230362415314e-02
-1.205928698182106018e-01
3.999362513422966003e-02
-2.170836925506591797e-01
-1.040382385253906250e-01
-1.009249240159988403e-01
2.337870597839355469e-01
8.100925385951995850e-02
2.167254388332366943e-01
-3.387620747089385986e-01
6.813349574804306030e-02
-2.730960547924041748e-01
-5.183398351073265076e-02
-1.339522749185562134e-01
3.177872896194458008e-01
1.422194242477416992e-01
-4.675372540950775146e-01
-5.335869267582893372e-02
-2.888235151767730713e-01
-4.437176510691642761e-02
-1.430608928203582764e-01
1.801409758627414703e-02
7.645043078809976578e-03
1.465412415564060211e-02
-1.848091334104537964e-01
1.133879944682121277e-01
-1.722736358642578125e-01
4.358546435832977295e-02
3.435721853747963905e-03
-1.542990654706954956e-01
1.814085245132446289e-01
5.018763989210128784e-02
-1.933143436908721924e-01
-2.099795192480087280e-01
-2.937372773885726929e-02
-3.887418285012245178e-02
7.057420164346694946e-02
3.660383224487304688e-01
-1.093195378780364990e-01
-1.221398450434207916e-02
4.257592931389808655e-02
-1.631518453359603882e-01
9.478683769702911377e-02
1.169701293110847473e-02
1.065528169274330139e-01
1.803047060966491699e-01
-2.053742706775665283e-01
4.806168377399444580e-03
-2.296771407127380371e-01
3.675021827220916748e-01
7.627297192811965942e-02
-3.498015403747558594e-01
-1.245800554752349854e-01
-1.243735179305076599e-01
6.601565331220626831e-02
-4.870975762605667114e-02
8.784146606922149658e-02
-3.332145512104034424e-02
1.458784043788909912e-01
-5.277852341532707214e-02
-1.371413618326187134e-01
1.670857667922973633e-01
1.991409510374069214e-01
-1.500564217567443848e-01
1.049292609095573425e-01
1.460043154656887054e-02
1.669448763132095337e-01
-2.038019597530364990e-01
1.397371143102645874e-01
4.658672958612442017e-02
1.975425928831100464e-01
1.503596007823944092e-01
-1.582622528076171875e-02
3.307636082172393799e-01
-1.499886959791183472e-01
-1.389454007148742676e-01
8.759158104658126831e-02
3.400063887238502502e-02
1.263019144535064697e-01
1.840460114181041718e-02
-1.959945410490036011e-01
2.143174223601818085e-02
-4.915439710021018982e-02
2.504648640751838684e-03
-3.113117814064025879e-01
1.895857304334640503e-01
1.518297344446182251e-01
2.609468996524810791e-03
-4.129476845264434814e-01
-1.198605373501777649e-01
5.169275682419538498e-03
2.092849314212799072e-01
3.956829607486724854e-01
-1.368870437145233154e-01
-1.753885447978973389e-01
-1.319810748100280762e-01
1.938130520284175873e-02
2.663812339305877686e-01
2.181222885847091675e-01
1.885045170783996582e-01
7.075478136539459229e-02
6.338359415531158447e-02
1.014000028371810913e-01
1.017438769340515137e-01
-4.977533817291259766e-01
-9.400918148458003998e-03
-1.328970491886138916e-01
4.446659982204437256e-02
-3.983797878026962280e-02
-1.133947297930717468e-01
3.076674640178680420e-01
-7.351332157850265503e-02
6.092031672596931458e-02
-8.618424087762832642e-02
-8.300013840198516846e-02
-1.617385149002075195e-01
3.132073283195495605e-01
-1.621706783771514893e-01
2.037876099348068237e-01
-2.464957535266876221e-01
-1.264527738094329834e-01
-6.528067402541637421e-03
-1.479510068893432617e-01
-2.432975023984909058e-01
8.140119723975658417e-03
-1.593090593814849854e-01
-5.017266795039176941e-02
-6.941831111907958984e-02
2.758365869522094727e-01
1.538819912821054459e-02
-4.151137918233871460e-02
-1.613758355379104614e-01
4.945086836814880371e-01
1.843808144330978394e-01
2.639021575450897217e-01
-3.030252456665039062e-01
-2.793470323085784912e-01
-1.739050745964050293e-01
7.785642892122268677e-02
6.486033648252487183e-02
-1.788552105426788330e-01
5.848001316189765930e-02
1.110825538635253906e-01
1.356492340564727783e-01
-1.089060492813587189e-02
-9.779805690050125122e-02
-1.992359943687915802e-02
8.488982170820236206e-02
-1.211782321333885193e-01
9.169033169746398926e-02
-1.401390582323074341e-01
1.190361380577087402e-01
1.739246100187301636e-01
9.881865978240966797e-02
-2.383704036474227905e-01
-6.257057189941406250e-02
-2.703559994697570801e-01
4.346219897270202637e-01
-9.487328678369522095e-02
3.731074184179306030e-02
-2.215963304042816162e-01
2.233699113130569458e-01
-1.664839386940002441e-01
1.064827814698219299e-01
9.383637458086013794e-02
5.166034027934074402e-02
-1.672893464565277100e-01
-2.293333560228347778e-01
1.023729443550109863e-01
-1.858244538307189941e-01
-9.365228936076164246e-03
-3.000420331954956055e-02
1.648934930562973022e-01
3.199856877326965332e-01
5.404869467020034790e-02
3.677920401096343994e-01
-2.746321856975555420e-01
3.656509146094322205e-02
-1.812981665134429932e-01
-3.189089894294738770e-01
1.783368736505508423e-01
4.883999004960060120e-02
2.025937587022781372e-01
-1.648821681737899780e-01
-1.286596208810806274e-01
-3.445037305355072021e-01
1.250509023666381836e-01
-5.382229089736938477e-01
-1.539947092533111572e-01
-2.074412554502487183e-01
-2.473230808973312378e-01
-2.225337922573089600e-01
-9.706395119428634644e-02
3.199470415711402893e-02
1.834885478019714355e-01
1.318288892507553101e-01
1.147909685969352722e-01
1.294023692607879639e-01
-1.492386162281036377e-01
7.197555154561996460e-02
-1.174109205603599548e-01
7.388438284397125244e-02
-1.311908513307571411e-01
-7.475902140140533447e-02
1.092778742313385010e-01
8.703080564737319946e-02
6.942358613014221191e-02
-2.606395781040191650e-01
-8.465620875358581543e-02
1.951794922351837158e-01
-2.652377784252166748e-01
2.069750986993312836e-02
-1.145411804318428040e-01
1.831723749637603760e-01
-7.645211368799209595e-02
6.192222237586975098e-02
-2.305518239736557007e-01
2.302276194095611572e-01
2.184344679117202759e-01
-1.620491743087768555e-01
1.813718527555465698e-01
-1.525451662018895149e-03
2.160999774932861328e-01
1.344556063413619995e-01
1.045633107423782349e-01
6.884007155895233154e-02
-1.238087788224220276e-01
-5.398460850119590759e-02
-2.526087462902069092e-01
-2.134468555450439453e-01
-2.078730054199695587e-02
7.470327615737915039e-02
6.976692378520965576e-02
8.332433179020881653e-03
2.175230234861373901e-01
1.072661876678466797e-01
8.326404541730880737e-02
1.076798141002655029e-01
-3.600934147834777832e-02
-3.957114368677139282e-02
-1.163337100297212601e-02
1.133838817477226257e-01
-7.208769023418426514e-02
-7.821192592382431030e-02
1.990658342838287354e-01
-2.300857454538345337e-01
-8.143535256385803223e-02
1.309095323085784912e-01
1.189203634858131409e-01
1.847489774227142334e-01
-3.362012207508087158e-01
1.569330692291259766e-01
-2.239948362112045288e-01
-2.046813219785690308e-01
8.007261157035827637e-02
1.409732699394226074e-01
-1.941375806927680969e-02
-1.897931098937988281e-01
1.024981141090393066e-01
2.160358130931854248e-01
-1.151804327964782715e-01
-5.277620255947113037e-02
-1.267804950475692749e-01
-7.245060801506042480e-02
-1.092715337872505188e-01
4.922224208712577820e-02
1.287718862295150757e-01
-8.548224717378616333e-02
-3.890977427363395691e-02
-3.116866946220397949e-01
-3.656987249851226807e-01
9.935540705919265747e-02
2.819137871265411377e-01
1.669582724571228027e-01
-3.565919399261474609e-02
1.890174299478530884e-01
6.320645660161972046e-02
9.989621490240097046e-02
9.419363737106323242e-02
1.919076293706893921e-01
-4.953135177493095398e-02
1.427226811647415161e-01
-9.438019990921020508e-02
5.618093535304069519e-02
1.922022849321365356e-01
1.598754227161407471e-01
1.529934853315353394e-01
-6.353206932544708252e-02
-3.527680411934852600e-03
-3.321949020028114319e-02
4.398560523986816406e-01
1.056037284433841705e-02
-9.909098595380783081e-02
1.259525269269943237e-01
-1.929619014263153076e-01
-2.159438580274581909e-01
-2.566500902175903320e-01
7.699690014123916626e-02
-7.372755557298660278e-03
1.380902677774429321e-01
1.088118329644203186e-01
2.662321925163269043e-01
2.244019322097301483e-02
1.785660535097122192e-01
1.746977865695953369e-01
-3.505433723330497742e-02
-1.174614485353231430e-02
-1.410293132066726685e-01
1.943156421184539795e-01
-1.553195118904113770e-01
2.135995477437973022e-01
2.015212923288345337e-01
-1.724265217781066895e-01
-2.614941895008087158e-01
-1.533035747706890106e-02
1.597874052822589874e-02
1.676715463399887085e-01
-2.521847784519195557e-01
-1.681387051939964294e-02
-2.667557820677757263e-02
-1.330692172050476074e-01
1.109022349119186401e-01
2.072554081678390503e-01
4.555021226406097412e-02
-5.297231078147888184e-01
6.529440730810165405e-02
5.170438811182975769e-02
-2.463817596435546875e-01
-2.190149873495101929e-01
-2.454466521739959717e-01
-1.608972847461700439e-01
-1.894787549972534180e-01
6.825605034828186035e-02
-1.516296714544296265e-01
-9.517267346382141113e-02
-1.235695555806159973e-01
1.309338808059692383e-01
2.875246480107307434e-02
2.027721107006072998e-01
-4.364238306879997253e-02
1.456657052040100098e-01
6.285787373781204224e-02
9.490719996392726898e-03
6.023927778005599976e-02
8.086846768856048584e-02
3.269096463918685913e-02
-7.281534373760223389e-02
1.108859553933143616e-01
-2.579374909400939941e-01
-8.208975940942764282e-02
-5.993007495999336243e-02
-1.560793370008468628e-01
-1.384270191192626953e-01
3.936217725276947021e-02
3.459692373871803284e-02
-2.595528960227966309e-01
-2.936939522624015808e-02
-2.381475865840911865e-01
-8.021835237741470337e-02
6.003496050834655762e-02
-6.660615559667348862e-03
7.247432321310043335e-02
4.160655438899993896e-01
2.721938788890838623e-01
9.373250603675842285e-02
2.392726746620610356e-04
-4.559305310249328613e-02
-5.937176942825317383e-02
1.769621041603386402e-03
-7.449250668287277222e-02
2.006078511476516724e-01
-1.886342763900756836e-01
8.150454610586166382e-02
1.352342963218688965e-01
3.198674619197845459e-01
2.779414411634206772e-03
-3.374965116381645203e-02
-6.760072708129882812e-02
-2.803712785243988037e-01
2.707563638687133789e-01
-1.255447566509246826e-01
-9.973113983869552612e-02
-1.510713063180446625e-02
1.201371923089027405e-01
-2.394580543041229248e-01
-3.140628337860107422e-01
1.859721839427947998e-01
2.192097157239913940e-02
1.411777138710021973e-01
2.915169345214962959e-03
-2.199922055006027222e-01
-4.998874664306640625e-02
5.414771661162376404e-02
-2.005195803940296173e-02
-1.419233717024326324e-02
2.580279111862182617e-01
1.294845640659332275e-01
1.195466667413711548e-01
9.637367725372314453e-02
-5.164183378219604492e-01
3.560896962881088257e-02
-1.143096536397933960e-01
-1.824247092008590698e-01
1.056567132472991943e-01
2.120009995996952057e-02
4.803766012191772461e-01
1.718186885118484497e-01
-1.249459907412528992e-01
-2.431964129209518433e-01
-4.709927737712860107e-02
9.863261878490447998e-02
-2.322728335857391357e-01
-7.238457351922988892e-02
-2.680518329143524170e-01
-2.204758673906326294e-01
3.334739245474338531e-03
9.995989501476287842e-02
1.022695526480674744e-01
1.112577021121978760e-01
-6.859771907329559326e-02
1.990159898996353149e-01
1.892240941524505615e-01
7.872364670038223267e-02
-1.071124300360679626e-01
-9.199640899896621704e-02
2.971785366535186768e-01
-9.804767370223999023e-02
-8.667065948247909546e-02
-4.160358011722564697e-02
-2.743252217769622803e-01
-3.964653238654136658e-02
-2.392790466547012329e-02
2.060956507921218872e-01
-2.396279573440551758e-02
6.648551207035779953e-03
3.787313699722290039e-01
1.400881409645080566e-01
6.133832409977912903e-02
-9.579759836196899414e-02
-1.037929505109786987e-01
-1.506644487380981445e-01
3.964282944798469543e-02
-1.595923155546188354e-01
-1.675855070352554321e-01
-1.738041937351226807e-01
-4.021594226360321045e-01
-1.080235093832015991e-02
2.094422280788421631e-02
3.761456906795501709e-02
-6.041392311453819275e-02
2.225939631462097168e-01
9.878588467836380005e-02
-2.454296201467514038e-01
-1.121189147233963013e-01
-4.764801263809204102e-02
9.555294364690780640e-02
2.599899172782897949e-01
-3.273285329341888428e-01
1.253769099712371826e-01
-3.584939986467361450e-02
1.767501682043075562e-01
2.502182722091674805e-01
6.115416809916496277e-02
-2.577373981475830078e-01
4.270021617412567139e-01
-4.544610157608985901e-02
1.195142939686775208e-01
1.344224810600280762e-01
-1.788278073072433472e-01
-4.560496509075164795e-01
3.558652848005294800e-02
2.106411755084991455e-02
-3.089083433151245117e-01
4.744822904467582703e-02
3.689039051532745361e-01
9.424830973148345947e-02
-1.156476885080337524e-01
-9.808995574712753296e-02
-6.792659312486648560e-02
3.147692419588565826e-03
-5.005839094519615173e-02
3.834075331687927246e-01
-2.370362356305122375e-02
-1.597600877285003662e-01
9.360285848379135132e-02
8.406747132539749146e-02
-3.700352460145950317e-02
-2.042148858308792114e-01
-1.273561418056488037e-01
8.040015399456024170e-02
-1.539436448365449905e-02
-1.891739815473556519e-01
-1.410273164510726929e-01
-1.279176771640777588e-01
4.934841021895408630e-02
-1.494816094636917114e-01
-2.911460399627685547e-01
-2.200853675603866577e-01
-2.873943746089935303e-02
5.758985504508018494e-02
1.037054732441902161e-01
-2.862525284290313721e-01
-4.632903635501861572e-02
5.439377203583717346e-02
4.424609839916229248e-01
3.759002089500427246e-01
-3.323761746287345886e-02
-7.636224478483200073e-02
-2.262160927057266235e-01
-1.641774028539657593e-01
1.400748491287231445e-01
-3.960247039794921875e-01
-2.283311188220977783e-01
-1.959096789360046387e-01
1.093378663063049316e-01
9.137360006570816040e-02
1.441327333450317383e-01
-1.167382001876831055e-01
-3.058327138423919678e-01
-2.606772482395172119e-01
1.611085832118988037e-01
-8.244707435369491577e-02
1.024769097566604614e-01
-1.389473825693130493e-01
-2.965556383132934570e-01
-3.825800716876983643e-01
-6.568080931901931763e-02
-7.403822243213653564e-02
-9.155303239822387695e-03
-2.620194554328918457e-01
4.277399927377700806e-02
-1.642284840345382690e-01
-3.814511373639106750e-02
2.955264747142791748e-01
-2.866786718368530273e-01
-1.271747890859842300e-02
-3.345928788185119629e-01
2.040476724505424500e-02
-1.553027778863906860e-01
-1.967738196253776550e-02
-2.300587892532348633e-01
8.227115124464035034e-02
3.499042689800262451e-01
-4.868347942829132080e-02
2.752337157726287842e-01
3.496101498603820801e-02
1.623169779777526855e-01
-2.228323668241500854e-01
-9.914147108793258667e-02
8.114213943481445312e-01
-9.020445495843887329e-02
4.736363887786865234e-02
-1.009709537029266357e-01
-5.682407692074775696e-02
1.507673263549804688e-01
-2.714538201689720154e-02
1.585470587015151978e-01
1.725375950336456299e-01
9.586501121520996094e-02
3.991438746452331543e-01
2.207008004188537598e-01
-3.022299706935882568e-01
-4.248715043067932129e-01
1.942154467105865479e-01
-7.745911926031112671e-02
1.990537941455841064e-01
-6.394173949956893921e-02
3.659993410110473633e-02
1.043953374028205872e-01
-3.649725345894694328e-03
1.639880388975143433e-01
2.424357533454895020e-01
1.654476523399353027e-01
-2.237359136343002319e-01
-1.881417334079742432e-01
1.806127578020095825e-01
3.379651904106140137e-01
4.535290896892547607e-01
1.726598441600799561e-01
-4.479392617940902710e-02
-3.783349320292472839e-02
1.435149647295475006e-02
1.597684919834136963e-01
5.310851708054542542e-02
2.032233476638793945e-01
-2.320577204227447510e-01
5.121865496039390564e-02
2.076186239719390869e-02
2.345206886529922485e-01
2.079953402280807495e-01
1.791289150714874268e-01
1.491571497172117233e-02
-1.335022747516632080e-01
1.931272596120834351e-01
5.558453127741813660e-02
-1.672377884387969971e-01
-7.314517349004745483e-02
1.283737421035766602e-01
-8.046085387468338013e-02
1.846798695623874664e-03
3.363160416483879089e-02
1.224842853844165802e-03
1.589841693639755249e-01
3.760134056210517883e-02
1.335506737232208252e-01
-4.105998203158378601e-02
2.791150510311126709e-01
1.783164590597152710e-01
4.008672386407852173e-02
2.655614316463470459e-01
6.677080690860748291e-02
-2.901833355426788330e-01
-2.755540013313293457e-01
-5.305901914834976196e-02
-1.158386021852493286e-01
2.187459170818328857e-01
2.233027070760726929e-01
-4.942255914211273193e-01
-3.056703321635723114e-02
-6.949458271265029907e-02
-2.509805858135223389e-01
-1.907191574573516846e-01
1.463416069746017456e-01
-3.084072768688201904e-01
3.521124646067619324e-02
-1.887051463127136230e-01
-4.235957562923431396e-02
1.068790033459663391e-01
9.346785396337509155e-02
5.123418569564819336e-02
1.906228065490722656e-01
2.733789384365081787e-02
1.919586211442947388e-01
5.586949735879898071e-02
1.188778057694435120e-01
-1.047999635338783264e-01
1.666410267353057861e-01
-2.705765366554260254e-01
-1.972567439079284668e-01
5.779279768466949463e-02
4.777915775775909424e-02
-1.234274581074714661e-01
4.281181097030639648e-01
9.211006760597229004e-02
-2.526825964450836182e-01
-1.577922105789184570e-01
2.898466587066650391e-01
-8.485657721757888794e-02
-2.627423107624053955e-01
1.372263431549072266e-01
2.373102307319641113e-01
-9.413557499647140503e-02
6.920046359300613403e-02
1.898569166660308838e-01
3.157131373882293701e-02
-2.583641409873962402e-01
-2.131579071283340454e-01
-1.628268659114837646e-01
8.291885256767272949e-02
-3.032285869121551514e-01
-3.582293540239334106e-02
-7.359411567449569702e-02
-5.402131378650665283e-02
1.165296435356140137e-01
-1.655011624097824097e-01
8.301072567701339722e-02
-5.067078471183776855e-01
2.218495756387710571e-01
1.171762943267822266e-01
-5.822653323411941528e-02
1.057683676481246948e-01
-7.915841415524482727e-04
-2.311043888330459595e-01
1.932007372379302979e-01
-1.757864058017730713e-01
-2.615637481212615967e-01
-9.754486382007598877e-02
1.265544891357421875e-01
-3.313412964344024658e-01
-1.518307626247406006e-01
-2.227066870545968413e-04
-2.559218108654022217e-01
1.220330670475959778e-01
-8.059656620025634766e-02
-3.294047713279724121e-02
7.138433284126222134e-04
3.553230687975883484e-02
1.080078110098838806e-01
-8.666787296533584595e-02
2.614539265632629395e-01
-7.369013875722885132e-02
2.524983584880828857e-01
1.189459785819053650e-01
3.992799222469329834e-01
2.344073206186294556e-01
6.326550245285034180e-01
-1.006165742874145508e-01
-5.230940505862236023e-02
-2.303312122821807861e-01
9.534927457571029663e-02
-9.913066029548645020e-02
1.529898494482040405e-01
3.109260499477386475e-01
-1.678677648305892944e-01
5.677556619048118591e-02
-2.133485227823257446e-01
1.747939139604568481e-01
-3.074060976505279541e-01
1.083020865917205811e-01
6.800226867198944092e-02
2.684838324785232544e-02
-1.730828881263732910e-01
-1.529652327299118042e-01
-1.619750559329986572e-01
1.617164909839630127e-01
-8.410234004259109497e-02
1.343773007392883301e-01
1.150148883461952209e-01
1.669721007347106934e-01
-1.054639667272567749e-01
1.484520733356475830e-01
-4.998749867081642151e-02
-1.379158943891525269e-01
-1.094140708446502686e-01
-2.887120656669139862e-02
2.377444207668304443e-01
-8.112673461437225342e-02
-2.823555283248424530e-02
9.635460376739501953e-02
-2.945201694965362549e-01
1.534399241209030151e-01
1.774037331342697144e-01
-2.927941456437110901e-02
-9.823470562696456909e-02
2.235149890184402466e-01
6.804701872169971466e-03
-2.977702319622039795e-01
9.712187200784683228e-02
7.220149040222167969e-02
2.073288857936859131e-01
-8.076242357492446899e-02
8.786886930465698242e-02
1.953327804803848267e-01
5.173241253942251205e-03
-1.470286697149276733e-01
1.620942652225494385e-01
1.005721092224121094e-01
2.239672094583511353e-02
-4.644615948200225830e-02
2.026152014732360840e-01
-2.209632694721221924e-01
-1.879398226737976074e-01
1.248511113226413727e-02
-1.741693727672100067e-02
-1.209289655089378357e-01
-1.227312982082366943e-01
-1.768745779991149902e-01
-1.747295260429382324e-01
1.790419518947601318e-01
1.269726902246475220e-01
1.874983012676239014e-01
-8.516368269920349121e-02
1.577501296997070312e-01
8.703579008579254150e-02
1.223456561565399170e-01
-4.237587749958038330e-02
6.215582787990570068e-02
1.406600177288055420e-01
-1.576629877090454102e-01
-2.472184151411056519e-01
-9.834351390600204468e-02
3.070222139358520508e-01
3.492744266986846924e-02
1.755587756633758545e-01
6.282829493284225464e-02
1.020924299955368042e-01
-2.619966566562652588e-01
5.562793835997581482e-02
-1.163033768534660339e-01
4.652611911296844482e-02
9.593705832958221436e-02
-5.485427565872669220e-03
-2.181648463010787964e-01
-1.724799722433090210e-01
2.543701827526092529e-01
2.561930716037750244e-01
-2.004723250865936279e-01
-1.005327403545379639e-01
