-3.712279498577117920e-01
2.492102533578872681e-01
-4.539992213249206543e-01
-5.946553871035575867e-02
6.700231879949569702e-02
-2.914751768112182617e-01
-3.938266634941101074e-02
-3.752105236053466797e-01
-1.096946224570274353e-01
-5.876049399375915527e-01
-8.917684853076934814e-02
1.821708530187606812e-01
-1.920482069253921509e-01
1.889364719390869141e-01
2.890850901603698730e-01
2.789494395256042480e-01
-2.776398360729217529e-01
9.483083337545394897e-02
-2.117253988981246948e-01
-3.277742490172386169e-02
-1.494185179471969604e-01
1.662599891424179077e-01
-7.968751341104507446e-02
1.504288911819458008e-01
-3.486223518848419189e-02
-1.188268139958381653e-01
1.298755705356597900e-01
1.618065387010574341e-01
2.384958602488040924e-02
1.683002412319183350e-01
-3.966114819049835205e-01
2.358710914850234985e-01
-1.843873411417007446e-01
-3.734693527221679688e-01
1.897336393594741821e-01
3.093370795249938965e-01
5.476073548197746277e-02
2.774032652378082275e-01
-7.430431246757507324e-02
9.250572323799133301e-02
-3.600505366921424866e-02
2.567602992057800293e-01
1.982858180999755859e-01
-7.752365618944168091e-02
1.608182787895202637e-01
-1.016520038247108459e-01
8.192935585975646973e-02
-2.364443540573120117e-01
2.184083312749862671e-01
-2.553907930850982666e-01
1.845452040433883667e-01
1.445267647504806519e-01
3.145463392138481140e-02
9.491471201181411743e-02
-5.858482792973518372e-02
-1.135266795754432678e-01
2.778456807136535645e-01
1.620675474405288696e-01
-1.110384687781333923e-01
1.218315139412879944e-01
2.981434762477874756e-01
6.226862221956253052e-02
-1.859714388847351074e-01
4.245443642139434814e-01
1.625640988349914551e-01
2.892170846462249756e-01
-9.107504040002822876e-02
-2.731873281300067902e-02
1.395663022994995117e-01
1.656253039836883545e-01
-2.049141563475131989e-02
8.302676677703857422e-02
2.023510187864303589e-01
-1.153702437877655029e-01
1.166798099875450134e-01
4.906072746962308884e-03
2.026061713695526123e-02
1.698094904422760010e-01
-1.111145317554473877e-01
-2.495014369487762451e-01
2.943708375096321106e-02
7.776310294866561890e-02
-4.987383782863616943e-01
2.905734181404113770e-01
-2.295805364847183228e-01
5.095210671424865723e-02
-1.611338704824447632e-01
4.171422496438026428e-02
-7.421620935201644897e-02
7.963585853576660156e-02
1.087341830134391785e-01
6.739701330661773682e-02
-4.423725605010986328e-02
-2.004835009574890137e-01
2.675591502338647842e-03
-2.092852443456649780e-01
-6.332922726869583130e-03
2.673912346363067627e-01
-1.773977279663085938e-01
6.443128734827041626e-02
-1.538102626800537109e-01
-6.939250975847244263e-02
-1.638733446598052979e-01
-1.979798227548599243e-01
1.317120492458343506e-01
2.131562381982803345e-01
-6.461751461029052734e-02
3.329981490969657898e-02
-7.708075456321239471e-03
8.380368351936340332e-02
2.826007306575775146e-01
2.187843918800354004e-01
1.379338353872299194e-01
-2.992822527885437012e-01
-2.025835961103439331e-01
-2.609386742115020752e-01
-2.352683246135711670e-02
-1.838401854038238525e-01
8.591259270906448364e-02
4.282477200031280518e-01
4.569028317928314209e-02
-3.596253693103790283e-02
-1.448869705200195312e-01
-3.813741803169250488e-01
-2.122192643582820892e-03
4.497247189283370972e-02
9.807139635086059570e-02
-1.892670691013336182e-01
-2.915046513080596924e-01
-5.990677699446678162e-02
8.340626955032348633e-02
2.006655633449554443e-01
2.750992774963378906e-01
-5.850701406598091125e-02
4.655089974403381348e-02
1.510933339595794678e-01
6.989107001572847366e-03
-3.030642867088317871e-01
-1.704505234956741333e-01
2.773070931434631348e-01
-3.572831675410270691e-02
-1.347965095192193985e-02
2.253949083387851715e-02
-9.438738971948623657e-02
1.007160395383834839e-01
3.759221136569976807e-01
-2.210909575223922729e-01
6.333206295967102051e-01
-1.470996588468551636e-01
7.843145728111267090e-02
3.510131537914276123e-01
-1.639019548892974854e-01
-7.952032983303070068e-02
-6.092289462685585022e-02
-1.874022930860519409e-02
4.202014505863189697e-01
-9.699726849794387817e-02
-2.559559643268585205e-01
1.803901195526123047e-01
1.982873529195785522e-01
-5.064108595252037048e-02
-1.561463773250579834e-01
-9.355121850967407227e-02
4.941237275488674641e-04
-9.929436445236206055e-02
6.860252469778060913e-02
1.993045210838317871e-01
1.510292738676071167e-01
3.168155550956726074e-01
-4.188686609268188477e-01
1.301320493221282959e-01
2.893255054950714111e-01
-1.150872707366943359e-01
-1.296100616455078125e-01
1.140399277210235596e-01
-1.070253551006317139e-02
4.412302747368812561e-02
1.297712475061416626e-01
-1.678347438573837280e-01
-3.661078512668609619e-01
-4.875444620847702026e-02
4.181113466620445251e-02
2.123444229364395142e-01
-1.525075584650039673e-01
-2.709252536296844482e-01
3.927422463893890381e-01
2.390460576862096786e-03
2.235867232084274292e-01
-5.943150818347930908e-02
-5.971950888633728027e-01
-2.171867154538631439e-02
-6.979908049106597900e-02
3.396023064851760864e-02
-8.819440007209777832e-02
-3.438009694218635559e-02
-3.683886677026748657e-02
-3.394306004047393799e-01
8.282112888991832733e-03
-1.730993241071701050e-01
-8.761857450008392334e-02
8.130744844675064087e-02
-6.453762203454971313e-02
1.280229389667510986e-01
-2.484595179557800293e-01
-4.933244083076715469e-03
-2.667734920978546143e-01
5.444316193461418152e-02
-5.859424918889999390e-02
5.127265453338623047e-01
2.362206131219863892e-01
5.923470109701156616e-02
-1.337827146053314209e-01
-1.078940406441688538e-01
-7.940614968538284302e-02
-1.646761037409305573e-02
1.753625273704528809e-01
-1.942624598741531372e-01
-1.853252798318862915e-01
-3.505755662918090820e-01
-1.549687534570693970e-01
4.357808083295822144e-02
1.168859526515007019e-01
-2.280723303556442261e-03
1.712301373481750488e-01
2.349091321229934692e-01
2.315696179866790771e-01
2.188741564750671387e-01
-6.811178475618362427e-02
-7.046402245759963989e-02
1.350902616977691650e-01
1.678476482629776001e-02
5.582696571946144104e-02
2.091609388589859009e-01
4.159375727176666260e-01
3.729372918605804443e-01
2.333592772483825684e-01
3.716044723987579346e-01
5.103140473365783691e-01
1.296583469957113266e-02
9.140449762344360352e-02
1.056250110268592834e-01
-3.914927542209625244e-01
-1.598222702741622925e-01
-4.195928871631622314e-01
-1.571152955293655396e-01
2.266624420881271362e-01
7.017023116350173950e-02
9.137213975191116333e-02
-7.929550856351852417e-02
-3.895871639251708984e-01
1.688105165958404541e-01
-1.946596056222915649e-01
-2.827838063240051270e-01
-2.172004878520965576e-01
-8.008821308612823486e-02
-4.675457775592803955e-01
-2.531466782093048096e-01
-4.236125349998474121e-01
-4.785028696060180664e-01
3.066156208515167236e-01
-3.600595891475677490e-01
1.139168720692396164e-02
-2.957643866539001465e-01
-4.840737208724021912e-03
-7.213724404573440552e-02
4.626192152500152588e-02
3.586123585700988770e-01
5.001497268676757812e-02
-9.865840524435043335e-02
3.733923733234405518e-01
-1.914828419685363770e-01
-4.600244462490081787e-01
-9.140272438526153564e-02
-1.284048110246658325e-01
-2.136995345354080200e-01
-3.267883360385894775e-01
-4.139732196927070618e-02
-1.993000656366348267e-01
-1.725308783352375031e-02
-3.946898877620697021e-02
-5.149488337337970734e-03
-2.465152442455291748e-01
3.625280857086181641e-01
3.481822460889816284e-02
5.653111636638641357e-02
1.201556846499443054e-01
1.890077692223712802e-04
4.681587219238281250e-01
-8.006136864423751831e-02
-9.854244999587535858e-03
5.173251405358314514e-02
-4.292434826493263245e-02
1.847651302814483643e-01
3.428229689598083496e-01
-8.895920217037200928e-02
-1.386438608169555664e-01
-1.653063148260116577e-01
3.800342977046966553e-01
5.481413006782531738e-02
-2.260026335716247559e-01
-1.758648306131362915e-01
1.331238001585006714e-01
-2.082528769969940186e-01
5.038068294525146484e-01
-5.970348119735717773e-01
-1.276554539799690247e-02
3.605319857597351074e-01
2.345727384090423584e-01
-1.286155730485916138e-01
-2.683211490511894226e-02
-4.147189110517501831e-02
5.473277717828750610e-02
2.844446711242198944e-02
-9.223275631666183472e-02
1.273588091135025024e-01
-1.708188354969024658e-01
-2.488051950931549072e-01
-1.834618449211120605e-01
1.176243424415588379e-01
-2.040502429008483887e-01
3.270017728209495544e-02
-3.748444616794586182e-01
8.489933609962463379e-02
8.878631144762039185e-02
2.038050591945648193e-01
4.025126621127128601e-02
1.884391605854034424e-01
1.302361339330673218e-01
-1.481856703758239746e-01
-3.440944552421569824e-01
-1.860961467027664185e-01
1.306726336479187012e-01
5.562106892466545105e-02
6.737598031759262085e-02
1.304095983505249023e-01
6.673111021518707275e-02
-2.408695966005325317e-01
-1.645373702049255371e-01
-9.464040398597717285e-02
-3.350158035755157471e-01
6.618520244956016541e-03
4.783926159143447876e-02
-4.119353368878364563e-02
-7.838557660579681396e-02
-3.966272994875907898e-02
4.015855118632316589e-02
2.584843151271343231e-02
2.381818592548370361e-01
7.445787638425827026e-02
-9.315706044435501099e-02
2.960621118545532227e-01
-1.861449331045150757e-01
-1.181282289326190948e-02
-4.646629393100738525e-01
2.844647765159606934e-01
1.839925944805145264e-01
-2.446630597114562988e-01
-9.461273998022079468e-02
-3.441397547721862793e-01
2.015651911497116089e-01
1.973816566169261932e-02
-2.542909234762191772e-02
1.051642596721649170e-01
1.894207112491130829e-02
-3.506299480795860291e-02
-1.897981911897659302e-01
1.462016254663467407e-01
2.202647626399993896e-01
-4.259814918041229248e-01
3.808959424495697021e-01
2.465827316045761108e-01
4.698898196220397949e-01
1.212263405323028564e-01
4.173168241977691650e-01
6.086155176162719727e-01
-1.253998130559921265e-01
5.857552215456962585e-02
-1.168608888983726501e-01
-1.239189505577087402e-01
1.247469931840896606e-01
-4.507875740528106689e-01
2.406547665596008301e-01
-9.594899415969848633e-02
1.104661598801612854e-01
9.775295853614807129e-02
-4.995544254779815674e-02
-1.324988603591918945e-01
2.657527849078178406e-02
2.505158483982086182e-01
-1.740560084581375122e-01
2.254620753228664398e-02
3.772092461585998535e-01
-1.270465850830078125e-01
-3.581867814064025879e-01
-1.753723062574863434e-02
2.186019206419587135e-03
-1.931576877832412720e-01
2.915903627872467041e-01
1.205669119954109192e-01
-2.141592055559158325e-01
-2.390624433755874634e-01
-7.314167916774749756e-02
-1.023978292942047119e-01
-6.107414886355400085e-02
3.040424175560474396e-02
1.132463961839675903e-01
6.587697565555572510e-02
-2.440207302570343018e-01
3.495988547801971436e-01
-2.487172335386276245e-01
3.172169327735900879e-01
9.709871560335159302e-02
2.186588048934936523e-01
-3.454578341916203499e-03
3.631784021854400635e-02
1.031461581587791443e-01
3.521902263164520264e-01
-3.482185602188110352e-01
-1.145071983337402344e-01
1.125859934836626053e-02
-2.164715975522994995e-01
1.577216386795043945e-01
2.014765739440917969e-01
-6.569307297468185425e-02
-8.931308984756469727e-02
-1.100490838289260864e-01
4.907261580228805542e-02
9.615758061408996582e-02
1.190709024667739868e-01
1.608949303627014160e-01
-2.032130509614944458e-01
-1.697238981723785400e-01
4.028301537036895752e-01
-4.837878048419952393e-02
1.592425107955932617e-01
-2.347635664045810699e-02
-1.615515500307083130e-01
8.871470391750335693e-02
8.502028137445449829e-02
7.090719044208526611e-02
-5.910453572869300842e-02
2.691223621368408203e-01
1.413788832724094391e-02
1.313848346471786499e-01
9.195185452699661255e-02
-3.188638761639595032e-02
-1.236210912466049194e-01
-2.586726471781730652e-02
1.625187695026397705e-01
-2.036712467670440674e-01
3.534509539604187012e-01
-1.536159813404083252e-01
-1.274518072605133057e-01
3.251908123493194580e-01
-3.926492109894752502e-02
-4.933654516935348511e-02
3.257454186677932739e-02
-4.393232613801956177e-02
8.163866400718688965e-02
3.256457298994064331e-02
1.118893623352050781e-01
1.819294691085815430e-02
2.581087350845336914e-01
5.708910822868347168e-01
-2.232881933450698853e-01
-6.244908645749092102e-02
1.727842837572097778e-01
-1.168298050761222839e-01
1.272910158149898052e-04
2.047182172536849976e-01
-1.543104052543640137e-01
-1.691665872931480408e-02
1.583993583917617798e-01
-4.492306709289550781e-02
1.071227267384529114e-01
-2.945080026984214783e-02
8.419129252433776855e-02
1.059474721550941467e-01
-2.126906812191009521e-01
-9.870078414678573608e-02
1.481447368860244751e-01
3.228352963924407959e-02
-9.642779082059860229e-02
6.886328011751174927e-02
4.053326249122619629e-01
-2.928677797317504883e-01
-1.310793161392211914e-01
-4.392031207680702209e-02
-3.325577378273010254e-01
4.376139342784881592e-01
6.494048982858657837e-02
-2.006526887416839600e-01
-1.524224132299423218e-01
5.876722931861877441e-02
3.328512012958526611e-01
-6.840616464614868164e-02
-7.874138653278350830e-03
-9.510777145624160767e-02
-5.036203935742378235e-02
3.434559702873229980e-02
-3.317458927631378174e-01
1.241893768310546875e-01
1.235182657837867737e-01
1.719389259815216064e-01
4.203510470688343048e-03
-7.571738213300704956e-02
1.778006255626678467e-01
-3.418978750705718994e-01
-8.716533333063125610e-02
4.189579933881759644e-02
-7.576262205839157104e-02
1.809774897992610931e-02
-3.195468708872795105e-02
-1.577758640050888062e-01
2.831737399101257324e-01
2.933532595634460449e-01
3.284897506237030029e-01
-1.536473352462053299e-02
4.687732830643653870e-02
-1.838025152683258057e-01
-1.432742550969123840e-02
-3.892560675740242004e-02
5.765465646982192993e-02
-7.091771066188812256e-02
1.475126892328262329e-01
7.525989413261413574e-02
4.862813279032707214e-02
-7.393041253089904785e-02
-8.756797015666961670e-02
4.630002081394195557e-01
-5.010176822543144226e-02
1.820589900016784668e-01
-1.160675361752510071e-01
2.385258376598358154e-01
1.606540381908416748e-01
2.252653613686561584e-02
-1.044829115271568298e-01
-3.671045601367950439e-01
-3.321603313088417053e-02
1.070297602564096451e-02
1.517570912837982178e-01
2.484526038169860840e-01
-8.320053666830062866e-02
1.194235458970069885e-01
1.216439828276634216e-01
1.846694797277450562e-01
-2.890313975512981415e-02
-6.838148087263107300e-02
1.111718416213989258e-01
1.394879221916198730e-01
2.297471165657043457e-01
1.173735857009887695e-01
2.075052708387374878e-01
3.166792157571762800e-04
-3.174563944339752197e-01
-5.831242725253105164e-02
-7.600463926792144775e-02
-7.474393397569656372e-02
-9.917164593935012817e-02
-1.289502978324890137e-01
-3.860164806246757507e-02
1.017065793275833130e-01
-3.584169745445251465e-01
-1.390712242573499680e-02
-6.810322403907775879e-02
3.553247079253196716e-02
-2.941043674945831299e-01
-7.645706832408905029e-02
-1.215365976095199585e-01
-1.987049877643585205e-01
-9.390176832675933838e-02
-2.315025329589843750e-01
6.974782049655914307e-02
1.533098965883255005e-01
1.039785370230674744e-01
3.804818540811538696e-02
-5.407019332051277161e-02
-6.265422701835632324e-02
-2.753083705902099609e-01
1.301550567150115967e-01
-1.722229570150375366e-01
3.702972829341888428e-02
-2.763342559337615967e-01
-1.332600414752960205e-01
-2.772548198699951172e-01
2.578597962856292725e-01
7.232117652893066406e-02
-2.572090923786163330e-01
-2.935662120580673218e-02
9.724275767803192139e-02
-1.083766818046569824e-01
1.728222370147705078e-01
4.921100661158561707e-02
1.640405058860778809e-01
1.992937028408050537e-01
-5.367392301559448242e-02
-1.999244838953018188e-01
2.165644057095050812e-02
-1.012149378657341003e-01
-1.187865063548088074e-01
-3.674598336219787598e-01
1.584431380033493042e-01
7.182233035564422607e-02
-4.629905894398689270e-02
-1.014379188418388367e-01
3.225220143795013428e-01
4.184513818472623825e-03
2.155334921553730965e-03
1.537323445081710815e-01
-7.981374114751815796e-02
7.658606022596359253e-02
-2.227971851825714111e-01
-1.272692531347274780e-01
-2.092964649200439453e-01
8.498810976743698120e-02
3.951787352561950684e-01
2.332270145416259766e-03
4.508378449827432632e-03
2.389929741621017456e-01
-1.405686587095260620e-01
2.752964496612548828e-01
1.273857653141021729e-01
-1.725959032773971558e-02
-4.764838218688964844e-01
1.245976388454437256e-01
-2.208266034722328186e-02
-2.720251120626926422e-02
-1.679316312074661255e-01
1.179310902953147888e-01
1.151723191142082214e-01
1.984535157680511475e-01
-2.159702926874160767e-01
1.964966952800750732e-02
1.602145843207836151e-02
-1.393650472164154053e-01
-1.828951686620712280e-01
1.271445751190185547e-01
2.561925537884235382e-02
6.675554066896438599e-02
-1.123120933771133423e-01
6.032869592308998108e-02
-5.374722648411989212e-03
-1.684070527553558350e-01
9.199429303407669067e-03
-4.289453327655792236e-01
2.517300546169281006e-01
-1.801809296011924744e-02
2.976147234439849854e-01
-4.116292297840118408e-01
4.328508377075195312e-01
1.647290289402008057e-01
-8.727332204580307007e-02
-1.037870794534683228e-01
7.268145680427551270e-02
1.792925000190734863e-01
9.143690019845962524e-02
-2.229964882135391235e-01
-1.704203523695468903e-02
-1.637659035623073578e-02
-2.505170702934265137e-01
-3.309208452701568604e-01
4.937787074595689774e-03
-1.749359071254730225e-01
-4.545088410377502441e-01
-3.439603149890899658e-01
-1.063870266079902649e-01
-2.327307499945163727e-02
-2.113535702228546143e-01
2.483554035425186157e-01
-4.207045212388038635e-02
2.923829853534698486e-01
-5.285938456654548645e-02
-1.064428985118865967e-01
-2.614414095878601074e-01
-2.362397462129592896e-01
-3.330714702606201172e-01
3.897592723369598389e-01
1.032923609018325806e-01
-5.548429861664772034e-02
-1.233056932687759399e-01
5.678973346948623657e-02
2.884013764560222626e-02
-3.509031981229782104e-02
-1.898810267448425293e-01
-1.962784379720687866e-01
1.941350400447845459e-01
-9.099777042865753174e-02
1.610725373029708862e-01
9.590260684490203857e-02
-1.415189802646636963e-01
-1.138180717825889587e-01
1.646721661090850830e-01
-1.829719543457031250e-01
-3.684545159339904785e-01
-7.371642440557479858e-02
-3.194747269153594971e-01
-9.381627291440963745e-02
-1.410883814096450806e-01
1.487235873937606812e-01
-1.960954070091247559e-01
-3.166880905628204346e-01
6.344017386436462402e-02
-6.652296334505081177e-02
-8.852166682481765747e-02
-1.947963051497936249e-02
-2.197253704071044922e-01
3.390125632286071777e-01
2.954149544239044189e-01
7.536705136299133301e-01
-9.545503556728363037e-02
-9.088327735662460327e-02
2.874445170164108276e-03
3.343874216079711914e-02
1.367044597864151001e-01
-1.346853822469711304e-01
2.446062564849853516e-01
-3.505159318447113037e-01
-9.859810769557952881e-02
6.795030087232589722e-02
-1.590622812509536743e-01
-3.730300441384315491e-02
-1.453436315059661865e-01
-7.226345688104629517e-02
-1.692398190498352051e-01
5.303947627544403076e-02
-2.923227250576019287e-01
1.513374298810958862e-01
1.325069218873977661e-01
3.061946928501129150e-01
3.086232841014862061e-01
-8.945175260305404663e-02
7.702249102294445038e-03
1.575183868408203125e-01
9.137011319398880005e-02
-8.871046453714370728e-02
-1.613656729459762573e-01
5.198147892951965332e-01
1.073590219020843506e-01
1.131155341863632202e-01
2.556473016738891602e-01
9.325063973665237427e-02
-1.836242713034152985e-02
1.225846707820892334e-01
2.441452294588088989e-01
-4.488504528999328613e-01
-1.577066490426659584e-03
2.174942195415496826e-01
4.641755521297454834e-01
-3.014884702861309052e-02
1.204437948763370514e-02
1.887408792972564697e-01
7.631761580705642700e-02
-3.246511816978454590e-01
-2.856363356113433838e-01
-2.928365767002105713e-01
3.657031953334808350e-01
4.274287223815917969e-01
7.641610503196716309e-02
1.613706052303314209e-01
1.631918549537658691e-01
1.381899416446685791e-01
4.183097779750823975e-01
-8.502966910600662231e-02
2.665725946426391602e-01
-2.072846889495849609e-01
-3.715736567974090576e-01
-4.051992893218994141e-01
-1.198856979608535767e-01
-3.724779188632965088e-01
-5.099306628108024597e-02
-3.275134265422821045e-01
-1.483960002660751343e-01
-2.493515759706497192e-01
-3.297840356826782227e-01
-1.057029888033866882e-01
8.322441019117832184e-03
1.049513346515595913e-03
-2.269785851240158081e-01
3.273133039474487305e-01
-1.107701808214187622e-01
3.442963212728500366e-02
1.123630441725254059e-02
-1.410865187644958496e-01
-2.396971918642520905e-02
-1.843780482886359096e-04
1.166906282305717468e-01
-2.879282459616661072e-02
5.957716610282659531e-03
6.491686403751373291e-02
-1.751114726066589355e-01
-1.463457792997360229e-01
1.054145917296409607e-01
1.745613217353820801e-01
8.930794894695281982e-02
-1.260214149951934814e-01
-8.588424883782863617e-03
3.233744800090789795e-01
3.906584903597831726e-02
-3.204215466976165771e-01
1.285214275121688843e-01
-3.138998448848724365e-01
1.760367155075073242e-01
1.973047405481338501e-01
-1.276695448905229568e-02
7.705195248126983643e-02
3.789441585540771484e-01
2.675008177757263184e-01
-2.940427958965301514e-01
1.445769816637039185e-01
-3.511624038219451904e-02
-2.645996212959289551e-01
4.256403744220733643e-01
-2.023352980613708496e-01
3.445793092250823975e-01
-3.014608621597290039e-01
-8.635059744119644165e-02
1.869491487741470337e-01
-1.858354359865188599e-01
-2.572614550590515137e-01
5.513261258602142334e-02
3.471602499485015869e-01
4.086115397512912750e-03
-1.145611628890037537e-01
-2.645973488688468933e-02
-6.525842845439910889e-02
9.494463354349136353e-02
3.974564969539642334e-01
-9.303474426269531250e-02
2.041484415531158447e-01
1.098851189017295837e-01
-1.275396049022674561e-01
-1.640701740980148315e-01
2.371422499418258667e-01
-1.635754480957984924e-02
1.630529463291168213e-01
-1.692462265491485596e-01
-1.302527077496051788e-02
2.575180679559707642e-02
1.920656561851501465e-01
3.242186605930328369e-01
-8.433059602975845337e-02
-2.818200886249542236e-01
-2.238424122333526611e-01
2.724691294133663177e-02
-2.424044907093048096e-01
-1.686532199382781982e-01
-1.750615239143371582e-01
-2.291186004877090454e-01
2.309024184942245483e-01
5.223907902836799622e-02
-2.111375629901885986e-01
-4.298919439315795898e-02
1.406404376029968262e-01
4.202796220779418945e-01
-4.400002583861351013e-02
-3.540038168430328369e-01
1.360175907611846924e-01
5.944124609231948853e-02
5.637503415346145630e-02
-4.080496132373809814e-01
2.628074884414672852e-01
-1.166826486587524414e-01
1.042610686272382736e-02
-1.491965949535369873e-01
1.558234393596649170e-01
1.171759366989135742e-01
-3.774424269795417786e-02
3.133618459105491638e-02
1.907120645046234131e-01
-3.999150916934013367e-02
1.934386193752288818e-01
2.981465458869934082e-01
-3.574956208467483521e-02
3.129140287637710571e-02
8.341395854949951172e-02
4.137541651725769043e-01
8.199977874755859375e-02
-8.718612045049667358e-02
1.543712522834539413e-02
-4.577520862221717834e-02
-6.786511093378067017e-02
1.178030297160148621e-01
1.448006033897399902e-01
-6.975247710943222046e-02
8.618551492691040039e-02
-7.750731892883777618e-03
-2.143731266260147095e-01
-7.042193412780761719e-02
4.692206382751464844e-01
-1.292139738798141479e-01
-1.024027839303016663e-01
2.816201746463775635e-01
-1.144172400236129761e-01
1.644975244998931885e-01
-1.377235539257526398e-02
-1.122719049453735352e-01
3.799527287483215332e-01
1.195769533514976501e-01
6.285770982503890991e-02
-7.379997521638870239e-02
1.713007986545562744e-01
5.361554771661758423e-02
-5.612508393824100494e-03
-1.550130248069763184e-01
-5.527579784393310547e-02
-1.511044651269912720e-01
1.087393835186958313e-01
-1.215829253196716309e-01
-1.771095544099807739e-01
1.391723901033401489e-01
-2.509648501873016357e-01
1.251758635044097900e-01
-4.040624201297760010e-01
7.732744514942169189e-02
3.032233417034149170e-01
-1.738056242465972900e-01
-5.925150588154792786e-02
-5.049275606870651245e-02
-2.934135496616363525e-01
-1.210037097334861755e-01
-3.152469098567962646e-01
3.468573987483978271e-01
-1.197120994329452515e-01
-2.630747854709625244e-01
-3.312174081802368164e-01
-3.711698055267333984e-01
2.941380143165588379e-01
2.533497214317321777e-01
-1.340591162443161011e-01
-2.794275879859924316e-01
8.877217024564743042e-02
2.303530424833297729e-01
2.151016443967819214e-01
-1.338989883661270142e-01
-1.999039053916931152e-01
2.004976421594619751e-01
-2.552285492420196533e-01
-1.168549656867980957e-01
-3.021298050880432129e-01
-1.783925592899322510e-01
9.032061696052551270e-02
-2.278294712305068970e-01
2.666009403765201569e-02
7.093337178230285645e-02
5.461331084370613098e-02
2.871054224669933319e-02
1.864550113677978516e-01
-9.267717599868774414e-02
8.375257253646850586e-02
-1.638444811105728149e-01
4.252829030156135559e-02
-8.989012986421585083e-02
3.654598593711853027e-01
-1.196488067507743835e-01
-2.362862676382064819e-01
-2.991946339607238770e-01
3.042962588369846344e-02
-1.545777469873428345e-01
-9.958559647202491760e-03
1.998253017663955688e-01
3.604301512241363525e-01
-1.305979788303375244e-01
-7.775080204010009766e-02
1.688345819711685181e-01
-2.393579483032226562e-01
-1.150467172265052795e-01
-2.263736873865127563e-01
3.358262777328491211e-01
-1.940630935132503510e-02
2.502334713935852051e-01
1.735749393701553345e-01
-6.371289491653442383e-02
-2.239008098840713501e-01
-3.089581057429313660e-02
-5.899769812822341919e-02
-4.853866398334503174e-01
6.963138282299041748e-02
-3.951711654663085938e-01
-7.590711116790771484e-02
-1.436498463153839111e-01
1.418200433254241943e-01
-2.905833423137664795e-01
6.968303769826889038e-02
1.686306297779083252e-01
2.852539122104644775e-01
1.536676734685897827e-01
-3.831830322742462158e-01
1.132940035313367844e-02
2.178038805723190308e-01
6.077454611659049988e-02
9.662814438343048096e-02
-2.204541414976119995e-01
-2.064685337245464325e-03
1.288758814334869385e-01
-6.139542907476425171e-02
1.237778142094612122e-01
1.607231944799423218e-01
-8.743341267108917236e-02
9.852682054042816162e-02
-4.688937589526176453e-02
1.211199983954429626e-01
-4.320028424263000488e-02
-2.199930995702743530e-01
-3.727475106716156006e-01
1.206697598099708557e-01
-2.288944646716117859e-02
-1.190313845872879028e-01
-2.591259777545928955e-01
-1.419380679726600647e-02
7.641385495662689209e-02
-2.222789824008941650e-01
3.122480399906635284e-02
3.135997429490089417e-02
6.351566873490810394e-03
-1.281955093145370483e-02
3.022363781929016113e-01
-1.306086182594299316e-01
2.332800179719924927e-01
-2.085174769163131714e-01
-9.596044570207595825e-02
3.918204829096794128e-02
-5.749942734837532043e-02
-2.284079045057296753e-02
2.906516194343566895e-01
7.441277056932449341e-02
1.484608501195907593e-01
-1.060658022761344910e-01
-1.102179586887359619e-01
-2.475062608718872070e-01
3.413559123873710632e-02
3.921640291810035706e-02
-9.394750744104385376e-02
-4.472056031227111816e-01
6.861378904432058334e-03
1.719946414232254028e-01
-1.403414607048034668e-01
2.615796923637390137e-01
4.721514135599136353e-02
-4.899667575955390930e-02
1.235962100327014923e-02
-5.994569882750511169e-02
1.992792934179306030e-01
-3.951190784573554993e-02
-5.348293855786323547e-02
9.947897493839263916e-02
5.893197655677795410e-02
-8.716162294149398804e-03
3.343423008918762207e-01
-6.696458905935287476e-02
1.098682507872581482e-01
-8.776745200157165527e-02
9.251984208822250366e-02
-7.780777662992477417e-02
-3.977815806865692139e-02
2.725644707679748535e-01
1.220303121954202652e-02
-1.807283014059066772e-01
-1.412435919046401978e-01
-3.591270446777343750e-01
-7.900682836771011353e-02
7.883335649967193604e-02
-6.785849481821060181e-02
-3.199476301670074463e-01
-1.663491725921630859e-01
5.481142178177833557e-02
1.540050357580184937e-01
-8.120558410882949829e-02
6.992397457361221313e-02
-1.721064448356628418e-01
7.629736792296171188e-03
2.119459509849548340e-01
1.074659600853919983e-01
-1.585465967655181885e-01
-1.157161071896553040e-01
2.056653201580047607e-01
2.343488484621047974e-01
5.973713099956512451e-02
-4.485195279121398926e-01
-1.409915536642074585e-01
-1.221542246639728546e-02
-7.392280548810958862e-02
-1.384861469268798828e-01
-1.990402117371559143e-02
2.314103990793228149e-01
-1.462627053260803223e-01
1.682373508810997009e-02
-1.319710910320281982e-01
-3.263458013534545898e-01
3.960845768451690674e-01
-9.356852620840072632e-03
2.318821661174297333e-02
-1.819654852151870728e-01
-1.386122852563858032e-01
1.631503403186798096e-01
5.411093682050704956e-02
-3.336535096168518066e-01
1.391768306493759155e-01
-2.501874268054962158e-01
1.352970749139785767e-01
-4.015585780143737793e-02
-1.257122755050659180e-01
9.995234012603759766e-02
6.156204268336296082e-02
7.663053274154663086e-02
-1.942600905895233154e-01
8.795496076345443726e-02
3.944618161767721176e-03
-1.485630422830581665e-01
-6.528582423925399780e-02
-1.882340759038925171e-01
6.886809319257736206e-02
1.763624250888824463e-01
-1.097815334796905518e-01
-2.094454020261764526e-01
9.740292280912399292e-02
-4.460313171148300171e-02
1.101948618888854980e-01
-4.903775081038475037e-02
-1.134478747844696045e-01
-1.064781397581100464e-01
3.937814757227897644e-02
7.316151261329650879e-02
-4.838914796710014343e-02
-9.065559506416320801e-02
-2.091673165559768677e-01
6.492848973721265793e-03
-1.365823764353990555e-02
1.165765821933746338e-01
7.184756547212600708e-02
4.020209610462188721e-01
1.714136600494384766e-01
1.137525066733360291e-01
1.176483556628227234e-01
2.824835479259490967e-03
2.922401428222656250e-01
5.625605583190917969e-02
-2.124888598918914795e-01
8.583953231573104858e-02
1.344348303973674774e-02
1.211311370134353638e-01
-2.316608279943466187e-01
2.722598314285278320e-01
-1.020083576440811157e-01
-8.382534235715866089e-02
1.312352865934371948e-01
3.815741091966629028e-02
3.381038904190063477e-01
-2.076976746320724487e-01
-1.338618844747543335e-01
1.426495611667633057e-01
1.784610748291015625e-01
-2.004018872976303101e-01
-1.139551997184753418e-01
2.097941786050796509e-01
-8.703124523162841797e-02
-5.177783966064453125e-02
4.534626901149749756e-01
1.537540927529335022e-02
2.421220764517784119e-02
-1.373353004455566406e-01
-2.227702736854553223e-01
2.721553742885589600e-01
1.044616475701332092e-01
4.303519725799560547e-01
1.065271161496639252e-02
-1.919083744287490845e-01
1.891379207372665405e-01
2.860877104103565216e-02
1.278255879878997803e-01
-1.088652983307838440e-01
-1.787266582250595093e-01
4.940834641456604004e-02
7.980097085237503052e-02
3.796410933136940002e-02
-4.544841945171356201e-01
1.272502392530441284e-01
1.942623555660247803e-01
-1.234812512993812561e-01
1.508784443140029907e-01
-9.821441024541854858e-02
-2.148716151714324951e-01
5.619072914123535156e-02
1.112513467669487000e-01
1.217163801193237305e-01
1.158410757780075073e-01
3.084769845008850098e-01
8.726093173027038574e-02
-2.662712931632995605e-01
-1.623226851224899292e-01
-4.197385162115097046e-02
9.221476316452026367e-02
5.165885202586650848e-03
-4.275396764278411865e-01
-1.421601176261901855e-01
-1.862950623035430908e-01
2.334091663360595703e-01
-2.022434622049331665e-01
-1.339091658592224121e-01
-7.464741170406341553e-02
-2.138763964176177979e-01
-7.741549983620643616e-03
-2.145185917615890503e-01
-4.591869190335273743e-02
3.190805763006210327e-02
-4.861772432923316956e-02
1.430570632219314575e-01
1.157171577215194702e-01
8.158005774021148682e-02
-1.008694544434547424e-01
-2.602393329143524170e-01
-5.763859301805496216e-02
2.385813891887664795e-01
1.832627356052398682e-01
3.087982237339019775e-01
1.005516722798347473e-01
-3.323403298854827881e-01
1.665769815444946289e-01
-1.206099055707454681e-02
-1.744109392166137695e-01
-1.177136823534965515e-01
-4.161067903041839600e-01
-2.035971879959106445e-01
-1.024663820862770081e-01
-1.240587830543518066e-01
-6.306523829698562622e-02
-1.013194173574447632e-01
-3.210859000682830811e-01
3.763494193553924561e-01
8.304198831319808960e-02
-1.310590952634811401e-01
-1.064684912562370300e-01
4.375866949558258057e-01
-3.240869343280792236e-01
1.250997930765151978e-01
7.257932424545288086e-02
1.192679107189178467e-01
4.056265354156494141e-01
-1.359872613102197647e-02
1.703134477138519287e-01
1.551122963428497314e-01
-1.343517005443572998e-01
8.525694906711578369e-02
4.243002459406852722e-02
-3.165572285652160645e-01
-1.908550560474395752e-01
-8.499972522258758545e-02
3.766424655914306641e-01
-5.382312834262847900e-02
-2.659617662429809570e-01
1.367932260036468506e-01
6.083434447646141052e-02
-6.582510471343994141e-02
-3.117016553878784180e-01
5.222880747169256210e-03
1.160048767924308777e-01
3.840192034840583801e-02
-1.785376071929931641e-01
4.029607772827148438e-02
-1.936382204294204712e-01
-2.542045414447784424e-01
1.114196553826332092e-01
1.599339395761489868e-01
-1.597616821527481079e-01
-1.744910329580307007e-01
-2.137106060981750488e-01
2.763807028532028198e-02
3.041175007820129395e-02
-1.587240025401115417e-02
7.886917889118194580e-02
-7.541760057210922241e-02
-2.834270596504211426e-01
-2.635289356112480164e-02
1.592296659946441650e-01
-1.948647052049636841e-01
-2.946331202983856201e-01
-6.139368191361427307e-02
-2.185334824025630951e-02
-1.070089265704154968e-01
2.471551746129989624e-01
6.932056695222854614e-02
1.823812872171401978e-01
-2.158273160457611084e-01
-3.834398686885833740e-01
-3.686302602291107178e-01
-6.541036069393157959e-03
-1.590825915336608887e-01
1.605216711759567261e-01
-2.337274327874183655e-02
-1.306623667478561401e-01
-2.630940079689025879e-01
7.432891428470611572e-02
-1.360788345336914062e-01
1.943663321435451508e-02
1.774182319641113281e-01
-4.337879642844200134e-02
2.292000129818916321e-02
2.585687674582004547e-02
-2.864084243774414062e-01
1.286983788013458252e-01
4.165924787521362305e-01
8.745906502008438110e-02
-6.630104035139083862e-02
9.394750744104385376e-02
1.716112643480300903e-01
6.298124790191650391e-02
-4.896663129329681396e-03
-3.537185862660408020e-02
-2.073981016874313354e-01
2.346913069486618042e-01
-5.600250512361526489e-02
-4.717869460582733154e-01
1.224661320447921753e-01
-4.277722239494323730e-01
-7.649406790733337402e-02
3.786331415176391602e-01
-4.104102775454521179e-02
-3.284344375133514404e-01
-7.511873263865709305e-03
-2.003965079784393311e-01
-4.073331947438418865e-04
5.754233524203300476e-02
-9.109343588352203369e-02
-2.483512908220291138e-01
-2.497345507144927979e-01
-1.312974691390991211e-01
-1.809621304273605347e-01
-2.936608493328094482e-01
3.862556815147399902e-01
-9.535402059555053711e-02
-1.412905305624008179e-01
4.271769151091575623e-02
1.159880831837654114e-01
2.634105505421757698e-03
5.490625500679016113e-01
-2.013814747333526611e-01
2.134850919246673584e-01
-2.510901689529418945e-01
-9.390799701213836670e-02
2.082543224096298218e-01
-1.431436538696289062e-01
1.649445504881441593e-03
1.404284238815307617e-01
-1.418861895799636841e-01
2.143194526433944702e-01
3.157168626785278320e-01
9.196927770972251892e-03
-2.776634991168975830e-01
-2.932035028934478760e-01
-5.345468595623970032e-02
1.151324808597564697e-01
-1.032986342906951904e-01
-8.866701275110244751e-02
-3.087165951728820801e-02
1.004356667399406433e-01
5.988346338272094727e-01
-2.209235131740570068e-01
-1.398182809352874756e-01
-1.301408093422651291e-02
-4.190547391772270203e-02
-2.748259007930755615e-01
-3.418637216091156006e-01
-9.222833439707756042e-03
2.029073238372802734e-01
3.187936544418334961e-01
-1.546238083392381668e-02
5.904859900474548340e-01
-2.998395264148712158e-01
-2.195520251989364624e-01
4.159828182309865952e-03
-1.110683381557464600e-02
1.626863628625869751e-01
-2.716547846794128418e-01
7.039355486631393433e-02
1.295187473297119141e-01
-3.516863882541656494e-01
2.854029089212417603e-02
-7.128968834877014160e-02
-1.341391801834106445e-01
1.932302955538034439e-03
1.334952861070632935e-01
-9.313922375440597534e-02
-1.030777581036090851e-02
-8.274547010660171509e-02
3.562734127044677734e-01
3.266601562500000000e-01
-9.840470738708972931e-03
3.295948803424835205e-01
-1.599321514368057251e-01
2.083518356084823608e-01
-9.802593290805816650e-02
-1.986521333456039429e-01
-2.165732830762863159e-01
2.084241807460784912e-01
-7.372418791055679321e-02
-2.030988782644271851e-02
-1.155503764748573303e-01
-6.484483927488327026e-02
8.433141745626926422e-03
-4.422574862837791443e-02
-4.555398598313331604e-02
-1.442493945360183716e-01
-4.585513845086097717e-02
-1.270273793488740921e-02
2.858868539333343506e-01
4.628724232316017151e-02
3.540601134300231934e-01
1.389412581920623779e-01
-1.415270268917083740e-01
1.680056303739547729e-01
2.655303105711936951e-02
6.094946861267089844e-01
1.357755661010742188e-01
-1.767349988222122192e-01
3.213248848915100098e-01
-5.561836436390876770e-02
-1.424835771322250366e-01
2.516842484474182129e-01
5.503625608980655670e-03
2.680407166481018066e-01
2.196479737758636475e-01
-1.627578586339950562e-01
1.419436782598495483e-01
-7.283560931682586670e-03
-3.475708365440368652e-01
-6.449019908905029297e-02
9.013618342578411102e-03
2.329760789871215820e-01
-6.765434890985488892e-02
-1.456851959228515625e-01
1.268564313650131226e-01
-4.995609819889068604e-01
-4.073522388935089111e-01
-7.736711949110031128e-02
-6.474045664072036743e-02
2.333977818489074707e-01
1.263543218374252319e-01
-2.582613825798034668e-01
-9.584291279315948486e-02
1.027664840221405029e-01
2.121439576148986816e-02
-1.391876935958862305e-01
1.115587726235389709e-01
-1.338323950767517090e-01
-7.122267037630081177e-02
3.006684184074401855e-01
5.467073246836662292e-02
-9.022219479084014893e-02
1.872706711292266846e-01
4.447325691580772400e-02
-2.453584074974060059e-01
2.687437832355499268e-01
-2.091477513313293457e-01
-1.691897213459014893e-01
-1.178001146763563156e-02
-2.790907621383666992e-01
-1.957059837877750397e-02
-3.446565866470336914e-01
3.569465130567550659e-02
-1.915483176708221436e-01
1.411301493644714355e-01
8.272976428270339966e-02
-3.226450979709625244e-01
-3.501686500385403633e-03
-3.052847981452941895e-01
5.869633331894874573e-02
4.200653731822967529e-02
-2.243638485670089722e-01
-5.817801952362060547e-01
-1.788610666990280151e-01
5.221933722496032715e-01
2.515244781970977783e-01
9.257972985506057739e-02
1.084332261234521866e-02
-2.788096368312835693e-01
-3.800722360610961914e-01
2.520690560340881348e-01
6.693350523710250854e-02
8.791126310825347900e-02
-1.418899297714233398e-01
-2.183001935482025146e-01
-3.861224949359893799e-01
1.111243814229965210e-01
9.944048523902893066e-02
1.451548784971237183e-01
-3.385418653488159180e-01
1.870878338813781738e-01
-9.034478664398193359e-02
-1.813272386789321899e-01
-5.580540895462036133e-01
-3.989762961864471436e-01
-1.177073940634727478e-01
-2.110189199447631836e-01
5.793737620115280151e-02
-1.645361483097076416e-01
1.810205280780792236e-01
8.881662040948867798e-02
2.712219953536987305e-01
7.415732741355895996e-02
8.834384381771087646e-02
4.679365083575248718e-02
4.856615513563156128e-02
1.928441673517227173e-01
5.226157233119010925e-02
-5.743181705474853516e-02
4.826627969741821289e-01
2.292516827583312988e-02
6.217451766133308411e-02
-3.158080205321311951e-02
1.029114518314599991e-02
-2.540089488029479980e-01
-4.551194608211517334e-01
3.482459783554077148e-01
-1.118764951825141907e-01
-3.178810700774192810e-02
4.211558774113655090e-02
7.793055474758148193e-02
9.366301819682121277e-03
-4.863941967487335205e-01
2.277541905641555786e-03
-1.640826165676116943e-01
-5.486555770039558411e-02
2.033335715532302856e-01
-3.818247914314270020e-01
3.573624789714813232e-01
2.548311948776245117e-01
3.460514247417449951e-01
1.598277091979980469e-01
-1.541289389133453369e-01
-2.856229841709136963e-01
2.045852094888687134e-01
-2.769657969474792480e-01
2.998476102948188782e-02
2.093035280704498291e-01
2.675772085785865784e-02
1.109427586197853088e-01
-2.325297594070434570e-01
3.646787256002426147e-02
2.222849577665328979e-01
-1.188455671072006226e-01
6.404618173837661743e-02
-1.128639951348304749e-01
-2.488872855901718140e-01
-1.554477065801620483e-01
6.599752604961395264e-02
-2.312601655721664429e-01
-4.286217316985130310e-02
1.137247979640960693e-01
-1.250026226043701172e-01
-7.301243394613265991e-02
1.334129273891448975e-02
6.504897028207778931e-02
-3.206930756568908691e-01
-2.736068069934844971e-01
8.391625434160232544e-02
1.184993833303451538e-01
2.047540694475173950e-01
9.051377326250076294e-02
-1.751051098108291626e-02
-1.887733787298202515e-01
-1.141740977764129639e-01
-1.091999039053916931e-01
1.778953969478607178e-01
8.121614903211593628e-02
-1.164777055382728577e-01
-7.431790977716445923e-02
-5.566144362092018127e-02
-6.976583600044250488e-02
-2.840031087398529053e-01
-1.277160197496414185e-01
-4.843610525131225586e-02
-6.581801176071166992e-02
-3.779000043869018555e-01
8.680941909551620483e-02
-7.017806172370910645e-02
-1.317540556192398071e-01
-2.677916884422302246e-01
6.355612725019454956e-02
-1.625732928514480591e-01
-1.331040412187576294e-01
-1.920134872198104858e-01
-6.837605684995651245e-02
4.078351706266403198e-02
2.701161801815032959e-01
1.192363128066062927e-01
2.728118374943733215e-02
1.499785631895065308e-01
1.088096015155315399e-02
-2.101696655154228210e-02
1.819436997175216675e-01
-1.800755858421325684e-01
-3.210910409688949585e-02
-3.143840432167053223e-01
-2.787751890718936920e-02
-4.916179180145263672e-02
-1.597104780375957489e-02
-1.805525571107864380e-01
-2.248071283102035522e-01
-8.876631408929824829e-02
-6.000084057450294495e-02
9.684809297323226929e-02
-1.947806775569915771e-01
-7.805935293436050415e-02
1.076031029224395752e-01
2.178012877702713013e-01
-7.874752581119537354e-02
1.934709846973419189e-01
-1.387440711259841919e-01
3.198692798614501953e-01
-2.539426274597644806e-02
-1.051131933927536011e-01
1.565403640270233154e-01
-2.643933594226837158e-01
-3.892412483692169189e-01
-1.264280080795288086e-01
5.491266772150993347e-02
-4.947658479213714600e-01
2.872466146945953369e-01
-1.655040234327316284e-01
-1.738559156656265259e-01
-9.043030440807342529e-02
-3.021007962524890900e-02
-1.482197344303131104e-01
9.899786859750747681e-02
-3.076199889183044434e-01
2.023851126432418823e-01
1.765907257795333862e-01
-2.147882878780364990e-01
-2.884680032730102539e-01
3.885803818702697754e-01
-4.655459895730018616e-02
-3.494635596871376038e-02
-2.033224105834960938e-01
3.440155386924743652e-01
-6.006214767694473267e-02
1.644753664731979370e-01
-2.657102420926094055e-02
-1.073114052414894104e-01
-9.156969189643859863e-02
1.215417683124542236e-01
-3.637023270130157471e-02
2.043723315000534058e-01
-1.009751483798027039e-01
-6.634742021560668945e-02
-1.844966039061546326e-02
2.103286236524581909e-01
7.978352159261703491e-02
-2.602105773985385895e-02
-2.153174281120300293e-01
-1.464652549475431442e-02
9.304465353488922119e-02
-1.290836334228515625e-01
-1.140761822462081909e-01
6.007612124085426331e-02
5.302405450493097305e-03
2.725565433502197266e-01
1.123618856072425842e-01
9.618775546550750732e-02
3.862894326448440552e-02
1.783815771341323853e-02
-1.623195260763168335e-01
1.815447001717984676e-03
-7.837292551994323730e-02
-1.913704574108123779e-01
-3.838893771171569824e-01
-5.248947441577911377e-02
4.029308911412954330e-03
4.975615441799163818e-02
2.641891837120056152e-01
-2.713110148906707764e-01
-3.420030474662780762e-01
-2.323195189237594604e-01
-5.521579831838607788e-02
-2.620995342731475830e-01
-2.380041033029556274e-01
2.470001131296157837e-01
-4.315457344055175781e-01
6.379787344485521317e-03
1.089082509279251099e-01
-1.412246227264404297e-01
-1.277031302452087402e-01
-1.140734553337097168e-01
9.881534427404403687e-02
-1.004525423049926758e-01
7.125976681709289551e-02
-2.913672327995300293e-01
-7.216656953096389771e-02
1.799973249435424805e-01
-1.011094660498201847e-03
-3.144829571247100830e-01
-3.004694283008575439e-01
-2.216534689068794250e-02
-2.085470557212829590e-01
1.884427666664123535e-01
-2.229101769626140594e-02
-5.117731094360351562e-01
6.354553103446960449e-01
-3.035198450088500977e-01
4.602303355932235718e-02
-1.868718117475509644e-02
-2.907680273056030273e-01
8.043809235095977783e-02
2.590425685048103333e-02
2.189570665359497070e-01
9.166659414768218994e-02
-6.562875211238861084e-02
-1.246443763375282288e-01
5.593926832079887390e-02
-1.773702949285507202e-01
-6.333841383457183838e-02
-1.281333565711975098e-01
-3.046417534351348877e-01
1.359050907194614410e-02
1.145161613821983337e-01
-1.240893229842185974e-01
3.671939373016357422e-01
-1.232737898826599121e-01
1.200519502162933350e-01
-1.699224561452865601e-01
5.440970510244369507e-02
1.582048833370208740e-02
2.614299356937408447e-01
7.903986424207687378e-02
-9.005292505025863647e-02
-3.666927665472030640e-02
-2.797851562500000000e-01
3.238881826400756836e-01
3.289971053600311279e-01
-1.283627301454544067e-01
-2.272812426090240479e-01
-8.356270194053649902e-02
-1.861409544944763184e-01
1.486683357506990433e-02
-2.634614109992980957e-01
-7.420665770769119263e-02
-1.996272504329681396e-01
-1.148933097720146179e-01
9.585754573345184326e-02
-4.112561047077178955e-02
4.212808609008789062e-02
-1.590771973133087158e-01
-1.229642331600189209e-01
-2.661972045898437500e-01
4.617083072662353516e-02
-2.262282371520996094e-01
4.243370890617370605e-01
-2.045084089040756226e-01
-1.923318803310394287e-01
-2.333187125623226166e-02
3.577248752117156982e-02
1.302389502525329590e-01
6.839821487665176392e-02
-2.061931192874908447e-01
-4.149816930294036865e-01
7.815480232238769531e-02
-7.503651082515716553e-02
1.736679673194885254e-01
1.770037598907947540e-02
6.805573403835296631e-02
-8.299881219863891602e-02
1.893807086162269115e-03
1.603035777807235718e-01
-5.985280871391296387e-02
1.528965234756469727e-01
-1.007648780941963196e-01
5.910271033644676208e-02
1.143428608775138855e-01
-8.650010824203491211e-02
7.495766133069992065e-02
1.731341928243637085e-01
2.576985359191894531e-01
-5.646762251853942871e-02
-3.163345530629158020e-02
1.413756012916564941e-01
-9.228041023015975952e-02
7.889634370803833008e-02
1.211835443973541260e-01
2.044156491756439209e-01
-1.366316676139831543e-01
-1.451621204614639282e-02
-6.510594487190246582e-01
-4.909346997737884521e-01
1.360801607370376587e-01
1.803223490715026855e-01
3.622842207551002502e-02
-6.424287706613540649e-02
-6.061168313026428223e-01
-1.200618520379066467e-01
-1.133303120732307434e-01
-9.664279967546463013e-02
-1.269728243350982666e-01
6.652670502662658691e-01
3.467913866043090820e-01
-3.439654782414436340e-02
4.589847847819328308e-02
3.360248506069183350e-01
-1.986953169107437134e-01
1.206327527761459351e-01
-1.977980285882949829e-01
5.109926462173461914e-01
4.750449955463409424e-02
5.526327341794967651e-02
1.358662098646163940e-01
-3.168325126171112061e-02
1.355445198714733124e-02
-4.398542270064353943e-02
-3.699222207069396973e-01
1.681589335203170776e-01
-1.319515556097030640e-01
-1.455187350511550903e-01
-1.128887012600898743e-01
2.767773866653442383e-01
3.423624485731124878e-02
1.856165677309036255e-01
3.539090603590011597e-02
-1.827157288789749146e-01
8.994594216346740723e-02
-7.620343565940856934e-02
-5.355114117264747620e-02
-8.983636647462844849e-02
2.504028975963592529e-01
1.407324615865945816e-02
6.559617072343826294e-02
1.031304243952035904e-02
1.609446108341217041e-01
2.300115227699279785e-01
9.910392016172409058e-02
2.657949626445770264e-01
2.775816023349761963e-01
5.526372417807579041e-02
-2.446087300777435303e-01
3.411874175071716309e-01
1.805921643972396851e-01
2.171813398599624634e-01
-5.225118994712829590e-02
-1.252958178520202637e-01
1.075931712985038757e-01
9.384051710367202759e-02
-1.907314211130142212e-01
3.148202896118164062e-01
-1.510809510946273804e-01
-3.044146299362182617e-02
2.211762070655822754e-01
-5.036895275115966797e-01
5.103173479437828064e-02
-4.156261980533599854e-01
1.141484603285789490e-01
7.146470248699188232e-02
1.461140960454940796e-01
-2.328154630959033966e-02
-1.870652139186859131e-01
-5.330919101834297180e-02
9.047611802816390991e-02
8.053530007600784302e-02
-1.084757968783378601e-01
-1.155609786510467529e-01
-2.122041881084442139e-01
-3.987829387187957764e-01
1.686381250619888306e-01
1.609361544251441956e-02
-1.046770364046096802e-01
2.871360778808593750e-01
2.550697624683380127e-01
-3.974620997905731201e-01
-1.608611643314361572e-02
1.457551270723342896e-01
9.878081828355789185e-02
3.229011893272399902e-01
-2.604645490646362305e-02
2.076881676912307739e-01
-1.016504541039466858e-01
3.458094596862792969e-02
9.845341742038726807e-02
-2.520254552364349365e-01
2.978582084178924561e-01
-3.957599774003028870e-02
2.410535365343093872e-01
-9.692977368831634521e-02
-1.526821106672286987e-01
-1.832376271486282349e-01
-4.565671086311340332e-03
-3.639159351587295532e-02
-3.444330096244812012e-01
-9.343403577804565430e-02
-2.906001210212707520e-01
4.723540320992469788e-02
-3.296447992324829102e-01
-1.160097345709800720e-01
1.343017667531967163e-01
-1.791404187679290771e-01
-1.308274641633033752e-02
4.463270306587219238e-02
-1.987618207931518555e-01
5.451684445142745972e-02
-3.281930834054946899e-02
9.953497350215911865e-02
-5.732258409261703491e-02
2.389017343521118164e-01
-2.046451270580291748e-01
1.353296041488647461e-01
-1.846703886985778809e-01
1.974549517035484314e-02
2.080143541097640991e-01
2.108334330841898918e-03
2.284327347297221422e-04
-2.521457523107528687e-02
1.256783157587051392e-01
1.098173633217811584e-01
-8.134528249502182007e-02
-2.736084461212158203e-01
2.409406937658786774e-02
-2.468981407582759857e-02
-9.128741919994354248e-03
-2.285457104444503784e-01
-1.763610541820526123e-02
-1.958505436778068542e-02
-1.188001632690429688e-01
1.995178759098052979e-01
-1.695894002914428711e-01
-1.907301694154739380e-01
8.524394594132900238e-03
1.597888618707656860e-01
1.005678623914718628e-01
-2.029075473546981812e-02
3.393355873413383961e-04
1.649714410305023193e-01
1.650457382202148438e-01
8.242392539978027344e-02
1.475937366485595703e-01
-1.686987280845642090e-01
-3.057596385478973389e-01
-1.054630354046821594e-01
-2.201205193996429443e-01
-2.174114286899566650e-01
5.535395443439483643e-02
-8.506550639867782593e-02
3.009002804756164551e-01
-8.991092443466186523e-02
4.764581024646759033e-01
-4.068358615040779114e-02
-1.100774556398391724e-01
4.880005121231079102e-01
1.266756355762481689e-01
2.315986305475234985e-01
4.533465951681137085e-02
1.516390889883041382e-01
2.046959549188613892e-01
2.072329819202423096e-01
6.687850225716829300e-03
1.876168400049209595e-01
-1.070301681756973267e-01
-7.956556230783462524e-02
2.589587271213531494e-01
2.261890470981597900e-01
2.481537312269210815e-01
-1.103127934038639069e-02
-6.770823895931243896e-02
-1.043966561555862427e-01
3.899306952953338623e-01
-2.377361208200454712e-01
-1.241857744753360748e-02
1.744898855686187744e-01
1.996211707592010498e-02
-4.146073758602142334e-02
-1.109454855322837830e-01
-2.127235829830169678e-01
1.021889075636863708e-01
1.369156241416931152e-01
1.366420537233352661e-01
2.094291448593139648e-01
6.433792412281036377e-02
-3.811598941683769226e-02
-4.087139666080474854e-01
-1.104085799306631088e-02
-3.603281825780868530e-02
-1.824050396680831909e-01
-2.822429239749908447e-01
3.084004856646060944e-02
-5.222910083830356598e-03
-2.077514678239822388e-01
9.477280080318450928e-02
2.232468277215957642e-01
-3.004896827042102814e-02
9.158253669738769531e-02
-7.625956833362579346e-02
1.105308756232261658e-01
1.194301471114158630e-01
-4.555334150791168213e-02
8.463035523891448975e-02
9.783697128295898438e-02
8.728868514299392700e-02
3.736564815044403076e-01
-4.586603492498397827e-02
-1.976135671138763428e-01
1.306753456592559814e-01
1.343038305640220642e-02
1.927388906478881836e-01
-9.973032772541046143e-02
2.796657979488372803e-01
6.361205875873565674e-02
4.444876015186309814e-01
2.384488433599472046e-01
1.241925582289695740e-01
2.360640838742256165e-02
7.357869297266006470e-02
4.620548486709594727e-01
3.581208884716033936e-01
-1.500834375619888306e-01
-2.439162284135818481e-01
6.675054132938385010e-02
3.021406196057796478e-02
-6.508284211158752441e-01
-1.308572590351104736e-01
1.660924106836318970e-01
-5.395538732409477234e-02
1.024977117776870728e-01
4.353980720043182373e-01
-4.154141992330551147e-02
2.059815526008605957e-01
1.820181757211685181e-01
4.127716720104217529e-01
-1.766861528158187866e-01
3.902516663074493408e-01
1.092597767710685730e-01
-2.586393058300018311e-01
2.299315482378005981e-01
9.227240085601806641e-02
-5.058882385492324829e-02
-4.851939901709556580e-02
6.000083684921264648e-02
2.169658094644546509e-01
-1.966357678174972534e-01
-1.898752450942993164e-01
-1.378990113735198975e-01
-2.795157730579376221e-01
-1.147165149450302124e-02
7.218950241804122925e-02
1.249042823910713196e-01
-5.146626234054565430e-01
-2.172363549470901489e-01
2.726612091064453125e-01
1.338302195072174072e-01
-8.046323060989379883e-02
8.422973006963729858e-02
-3.394434601068496704e-02
-2.106109112501144409e-01
-1.304214745759963989e-01
1.981213688850402832e-01
-3.549140691757202148e-02
-1.820482164621353149e-01
1.707446575164794922e-01
1.167058795690536499e-01
5.353872478008270264e-02
-1.030065938830375671e-01
8.466340601444244385e-02
1.844472885131835938e-01
-2.286236882209777832e-01
1.700459271669387817e-01
-2.549830079078674316e-01
-4.746973514556884766e-02
-1.794769242405891418e-02
-1.200963184237480164e-01
2.149159014225006104e-01
4.359371364116668701e-01
-1.000216528773307800e-01
-1.316222995519638062e-01
-2.090846933424472809e-02
1.925234943628311157e-01
-1.754116415977478027e-01
-1.142084002494812012e-01
-2.796551883220672607e-01
-7.200099527835845947e-02
-4.108918607234954834e-01
-1.948550716042518616e-02
1.955691576004028320e-01
2.490192800760269165e-01
-6.404804438352584839e-02
3.701565563678741455e-01
-2.186418026685714722e-01
-1.261295974254608154e-01
3.819757997989654541e-01
5.176994949579238892e-02
-5.195702239871025085e-02
7.648146897554397583e-02
3.411253392696380615e-01
-2.397828176617622375e-02
-3.379806876182556152e-01
-4.543907195329666138e-02
-1.996929198503494263e-01
-1.168101653456687927e-01
1.126800999045372009e-01
-3.508910834789276123e-01
2.333264797925949097e-01
-1.056237798184156418e-02
-1.102442443370819092e-01
1.382427364587783813e-01
-2.374815940856933594e-02
-3.824661299586296082e-02
1.127674728631973267e-01
-5.564276129007339478e-02
9.347011148929595947e-02
-9.949146956205368042e-02
8.208225667476654053e-02
-3.766367584466934204e-02
-1.086884140968322754e-01
4.252958169672638178e-04
-3.399161141715012491e-05
-1.444615423679351807e-01
-9.071184694766998291e-02
-1.669249683618545532e-01
2.253146469593048096e-02
4.282771050930023193e-02
1.402133852243423462e-01
1.278766095638275146e-01
3.309052065014839172e-02
-1.426418423652648926e-01
3.357884883880615234e-01
2.802428901195526123e-01
-2.025116384029388428e-01
-1.873687505722045898e-01
7.091666758060455322e-02
-7.373328506946563721e-02
3.201346993446350098e-01
8.457535505294799805e-02
-1.333847045898437500e-01
3.770387172698974609e-02
6.391670554876327515e-02
-9.890234470367431641e-02
3.272911310195922852e-01
-1.088537573814392090e-01
2.700988575816154480e-02
1.885456442832946777e-01
-7.954180240631103516e-02
-4.383352026343345642e-02
-1.500693708658218384e-01
2.561319246888160706e-02
1.241177842020988464e-01
6.135550141334533691e-02
2.317981049418449402e-02
1.397791802883148193e-01
-1.514916718006134033e-01
-1.875631362199783325e-01
1.422440856695175171e-01
-1.022676900029182434e-01
-1.866230666637420654e-01
1.944189220666885376e-01
1.144660860300064087e-01
-2.770631909370422363e-01
-2.505766451358795166e-01
2.393142879009246826e-02
1.336863636970520020e-01
-3.064436018466949463e-01
2.679513208568096161e-02
2.462691664695739746e-01
3.969986736774444580e-02
-2.202882021665573120e-01
-3.223078548908233643e-01
1.474731117486953735e-01
-8.567727170884609222e-03
2.164058387279510498e-01
6.461145728826522827e-02
1.367208659648895264e-01
1.887389644980430603e-02
-1.558475196361541748e-01
-1.401143800467252731e-02
-4.207004234194755554e-02
1.078888028860092163e-01
-5.606760457158088684e-02
-1.356286108493804932e-01
-3.618844226002693176e-02
3.033134341239929199e-02
-1.035195663571357727e-01
-2.382447570562362671e-01
-2.734379768371582031e-01
7.111018151044845581e-02
4.980377480387687683e-02
-3.106361031532287598e-01
2.389459013938903809e-01
1.055015996098518372e-01
3.169886171817779541e-01
-3.416263684630393982e-02
3.816476091742515564e-02
3.044642210006713867e-01
-1.671843230724334717e-01
-2.010203450918197632e-01
8.482380211353302002e-02
4.018263220787048340e-01
3.835183680057525635e-01
2.284561395645141602e-01
-3.172081112861633301e-01
7.848645001649856567e-02
1.576213240623474121e-01
3.030579388141632080e-01
-9.832376986742019653e-02
-1.354317218065261841e-01
2.432066202163696289e-01
-3.268221616744995117e-01
-5.935531854629516602e-02
1.945977807044982910e-01
-1.869458407163619995e-01
-2.282356023788452148e-01
2.034589052200317383e-01
-1.080196797847747803e-01
1.394921094179153442e-01
-5.790428072214126587e-02
-2.607928514480590820e-01
-3.846555650234222412e-01
3.928505182266235352e-01
3.265076279640197754e-01
-1.588957458734512329e-01
-3.860817253589630127e-01
3.764700591564178467e-01
2.264350503683090210e-01
2.456210255622863770e-01
-3.361706435680389404e-01
2.705386877059936523e-01
1.557776331901550293e-01
-2.643683254718780518e-01
-1.742176562547683716e-01
7.485195994377136230e-02
-2.880659326910972595e-02
2.088025212287902832e-01
1.563562303781509399e-01
-8.138220012187957764e-02
3.107417933642864227e-02
-8.810102008283138275e-03
7.569693028926849365e-02
-1.305119395256042480e-01
2.258497178554534912e-01
-7.910089939832687378e-02
3.651949018239974976e-02
-7.950149476528167725e-02
4.859590530395507812e-01
4.008259773254394531e-01
9.222143143415451050e-02
-1.040758788585662842e-01
-1.860136091709136963e-01
-2.164684534072875977e-01
4.171662628650665283e-01
8.727326989173889160e-02
5.798848867416381836e-01
-1.410908438265323639e-02
-1.949934512376785278e-01
-5.210813507437705994e-02
2.113085091114044189e-01
6.116387993097305298e-02
1.685367226600646973e-01
9.719418734312057495e-02
1.102742925286293030e-01
-1.265665292739868164e-01
1.395643651485443115e-01
3.785320222377777100e-01
2.488837204873561859e-02
-2.212986797094345093e-01
-1.185192391276359558e-01
-8.094629645347595215e-02
-2.017623037099838257e-01
-3.110020160675048828e-01
-2.082284837961196899e-01
-3.648010194301605225e-01
2.302423566579818726e-01
-4.989629983901977539e-01
8.196586742997169495e-03
-3.844581842422485352e-01
2.986271083354949951e-01
3.597502708435058594e-01
1.735923886299133301e-01
3.631504252552986145e-02
4.797092676162719727e-01
-1.817158460617065430e-01
-1.022201497107744217e-02
-7.903403043746948242e-02
-3.097104430198669434e-01
-3.385208845138549805e-01
-5.144029855728149414e-02
-3.872106075286865234e-01
2.517224550247192383e-01
9.875454939901828766e-03
-2.082284539937973022e-01
-1.666603088378906250e-01
8.778253197669982910e-02
9.667944908142089844e-02
-2.182694151997566223e-02
-2.505786120891571045e-01
2.035951912403106689e-01
2.810527756810188293e-02
-1.879854500293731689e-01
5.249280016869306564e-03
-3.339662030339241028e-02
-7.819618098437786102e-03
3.387719988822937012e-01
5.786019563674926758e-02
3.418923914432525635e-01
4.000503122806549072e-01
-7.264386862516403198e-02
8.640233427286148071e-02
-2.558145225048065186e-01
-5.862597227096557617e-01
1.888520121574401855e-01
-2.871868386864662170e-02
2.752691209316253662e-01
-2.118350714445114136e-01
9.729114174842834473e-02
-2.337107658386230469e-01
2.918913960456848145e-01
2.023231834173202515e-01
-5.445238202810287476e-02
4.019323363900184631e-02
-1.224533692002296448e-01
-1.632440090179443359e-02
-1.699164509773254395e-01
-1.339637935161590576e-01
-1.115983501076698303e-01
2.397155202925205231e-02
2.874608337879180908e-01
2.514233291149139404e-01
-6.871418654918670654e-02
2.985534444451332092e-02
1.395044177770614624e-01
-4.583296924829483032e-02
8.423181623220443726e-02
-1.889758110046386719e-01
1.585796177387237549e-01
5.533084273338317871e-02
-1.050045415759086609e-01
1.368093490600585938e-01
9.300635755062103271e-02
1.476359218358993530e-01
-8.539163507521152496e-03
3.915137052536010742e-02
-1.081040799617767334e-01
-6.875477731227874756e-02
-2.957723848521709442e-02
-2.729332447052001953e-01
-8.213175088167190552e-02
3.410826623439788818e-02
2.770489752292633057e-01
-1.629234999418258667e-01
7.269687205553054810e-02
1.248521953821182251e-01
-4.367859289050102234e-02
2.525576055049896240e-01
-1.830843389034271240e-01
-1.163237914443016052e-01
-5.382275581359863281e-01
1.043724790215492249e-01
-1.190125197172164917e-01
-1.452037096023559570e-01
1.636163592338562012e-01
1.538678407669067383e-01
7.962525822222232819e-03
-1.796042472124099731e-01
-4.463796317577362061e-02
-1.736336052417755127e-01
2.628424391150474548e-02
-2.646680474281311035e-01
1.751903071999549866e-02
-1.611588001251220703e-01
2.323954403400421143e-01
-1.518143713474273682e-01
1.530009806156158447e-01
1.917150318622589111e-01
-1.665842831134796143e-01
-2.774996459484100342e-01
9.036045521497726440e-02
5.736395716667175293e-02
-9.008712321519851685e-02
-2.450742870569229126e-01
5.806848406791687012e-03
5.878543481230735779e-02
7.446641474962234497e-02
4.613037779927253723e-02
-9.149233251810073853e-02
4.247713461518287659e-02
1.288627088069915771e-01
1.726458035409450531e-02
5.904557928442955017e-02
1.467158794403076172e-01
-1.424565315246582031e-01
1.720334738492965698e-01
-2.230237051844596863e-02
-1.792081892490386963e-01
7.910696417093276978e-02
-2.239204347133636475e-01
-1.956335604190826416e-01
-2.075244337320327759e-01
-4.855520650744438171e-02
1.769855171442031860e-01
7.576838880777359009e-02
-4.112153947353363037e-01
2.718731760978698730e-01
-3.260959386825561523e-01
-1.136959157884120941e-02
9.807802736759185791e-02
-3.666469156742095947e-01
-7.030286639928817749e-02
4.529339373111724854e-01
-2.265650033950805664e-01
-2.321121692657470703e-01
-5.326442793011665344e-02
-1.633084118366241455e-01
-8.653745055198669434e-02
-2.972028851509094238e-01
-1.906141825020313263e-02
2.507533431053161621e-01
8.472799509763717651e-02
-1.399985551834106445e-01
6.201671063899993896e-02
1.245631277561187744e-01
8.565078675746917725e-02
-1.754255145788192749e-01
2.660563588142395020e-02
-4.068390931934118271e-03
1.250691860914230347e-01
5.666001141071319580e-02
-1.685819923877716064e-01
-2.472279593348503113e-02
-3.854442238807678223e-01
3.307921588420867920e-01
-5.378198344260454178e-03
2.502638399600982666e-01
3.325626254081726074e-01
1.599962562322616577e-01
-1.128699332475662231e-01
-2.176711112260818481e-01
-1.589011847972869873e-01
3.274624794721603394e-02
-2.146750092506408691e-01
2.430428564548492432e-01
1.228909641504287720e-01
-2.044807374477386475e-01
-3.262484967708587646e-01
-1.313580721616744995e-01
1.862478554248809814e-01
2.701677940785884857e-02
-2.927746176719665527e-01
4.061303287744522095e-02
4.809004068374633789e-01
8.014463633298873901e-02
-1.316636949777603149e-01
-1.816395223140716553e-01
-3.024618327617645264e-01
2.731474637985229492e-01
4.000264778733253479e-02
4.498407542705535889e-01
-1.525584608316421509e-02
-1.024768128991127014e-01
5.353562161326408386e-02
1.605961769819259644e-01
-1.914266496896743774e-01
-8.706919848918914795e-02
-1.474095284938812256e-01
-5.439748987555503845e-02
-1.410880833864212036e-01
3.197390353307127953e-03
-3.311258852481842041e-01
-5.703549087047576904e-02
8.635178208351135254e-02
-4.266202449798583984e-01
1.961252838373184204e-02
-1.649112254381179810e-02
-5.232375115156173706e-02
-2.157684862613677979e-01
5.694228038191795349e-02
-7.458406966179609299e-03
1.155952140688896179e-01
3.161582350730895996e-01
3.006713390350341797e-01
-6.016003489494323730e-01
1.553419381380081177e-01
-1.102673858404159546e-01
1.276180297136306763e-01
-7.015772163867950439e-02
8.480460941791534424e-02
-1.302719861268997192e-01
-2.381878644227981567e-01
9.712706319987773895e-03
-1.997433602809906006e-01
1.382130086421966553e-01
-4.368138611316680908e-01
1.604653447866439819e-01
3.554463014006614685e-02
1.393581032752990723e-01
-1.776896715164184570e-01
2.161149233579635620e-01
2.231186628341674805e-02
9.006912261247634888e-02
-2.196244709193706512e-02
-2.551556527614593506e-01
-1.965570002794265747e-01
1.126585379242897034e-01
-5.923000350594520569e-02
-1.414195001125335693e-01
-2.919024787843227386e-02
1.002865582704544067e-01
-1.083694696426391602e-01
-1.085757166147232056e-01
-1.748709976673126221e-01
-1.439589411020278931e-01
-1.086772382259368896e-01
1.500366479158401489e-01
2.554130554199218750e-01
-7.159471511840820312e-02
2.096121460199356079e-01
2.235801219940185547e-01
-7.040351629257202148e-02
-2.387977577745914459e-02
-5.950261354446411133e-01
1.167456991970539093e-02
1.324522346258163452e-01
-4.058410599827766418e-02
1.271709203720092773e-01
2.074752449989318848e-01
2.818530201911926270e-01
-1.577579528093338013e-01
2.263240516185760498e-01
-4.024701938033103943e-02
-2.850352600216865540e-02
-8.523288369178771973e-02
1.358574181795120239e-01
-3.968211710453033447e-01
1.375475376844406128e-01
1.886751651763916016e-01
-5.775159224867820740e-02
1.867934018373489380e-01
9.611314744688570499e-04
-1.432030498981475830e-01
2.961622774600982666e-01
-2.763266265392303467e-01
2.275373339653015137e-01
-1.290516853332519531e-01
-1.475504636764526367e-01
3.197841048240661621e-01
3.931366279721260071e-02
-2.679018080234527588e-01
-3.348372578620910645e-01
-7.114875316619873047e-02
1.043266281485557556e-01
-1.163793429732322693e-01
4.182585775852203369e-01
2.789885699748992920e-01
-1.419462263584136963e-01
-2.041672468185424805e-01
4.549484699964523315e-02
-8.564954996109008789e-02
-1.531992573291063309e-02
2.729828841984272003e-02
1.062213778495788574e-01
-1.018278077244758606e-01
2.093416154384613037e-01
7.080423086881637573e-02
-4.294735193252563477e-01
-2.389036566019058228e-01
-2.935830354690551758e-01
-4.337633550167083740e-01
-3.505008518695831299e-01
-4.805020987987518311e-02
-2.782646119594573975e-01
-1.020277515053749084e-01
2.796315848827362061e-01
1.179760470986366272e-01
4.371421411633491516e-02
5.267353355884552002e-02
1.739560812711715698e-01
-3.601737618446350098e-01
5.567234382033348083e-02
-1.482203751802444458e-01
1.372381001710891724e-01
-7.478514313697814941e-02
-1.941875368356704712e-01
4.049388170242309570e-01
-5.384452641010284424e-02
1.152315065264701843e-01
-2.877299189567565918e-01
2.355132400989532471e-01
-3.519375249743461609e-02
-2.377737313508987427e-02
-2.234937846660614014e-01
-1.115075275301933289e-01
7.347097247838973999e-02
-5.306284129619598389e-02
-1.857542693614959717e-01
5.115214362740516663e-02
-1.122691631317138672e-01
-1.189716979861259460e-01
2.004486173391342163e-01
3.073950409889221191e-01
3.973308205604553223e-01
-4.888167977333068848e-02
-2.048472017049789429e-01
-9.410457313060760498e-02
-1.391974687576293945e-01
-1.051050126552581787e-01
1.092729344964027405e-01
3.746040761470794678e-01
5.503249913454055786e-02
7.734348624944686890e-02
8.010162413120269775e-02
2.048348337411880493e-01
2.239750623703002930e-01
-1.331418305635452271e-01
-1.850184798240661621e-01
2.149686813354492188e-01
8.820516616106033325e-02
9.366559237241744995e-02
3.753771185874938965e-01
-7.200747728347778320e-02
-2.400138676166534424e-01
-1.588637568056583405e-02
6.365923583507537842e-02
-1.389747411012649536e-01
-1.063291281461715698e-01
1.742806136608123779e-01
-2.040566056966781616e-01
1.298023313283920288e-01
-5.167711898684501648e-02
1.018336042761802673e-02
1.838111900724470615e-03
2.648766338825225830e-01
4.172560572624206543e-02
-1.888417601585388184e-01
3.408424556255340576e-02
5.288065969944000244e-02
3.372204303741455078e-01
7.113360613584518433e-02
-2.346396446228027344e-01
-9.415257722139358521e-02
-3.965895175933837891e-01
-2.235598415136337280e-01
3.597059845924377441e-02
5.148220434784889221e-02
-2.504185438156127930e-01
1.094916090369224548e-01
2.614505887031555176e-01
8.844657987356185913e-02
1.041120290756225586e-01
1.784125417470932007e-01
4.118617624044418335e-02
-4.103026539087295532e-02
-8.223684877157211304e-02
-1.043370179831981659e-02
-7.491634041070938110e-02
-2.180617302656173706e-01
-1.320215612649917603e-01
7.959810644388198853e-02
-2.118091732263565063e-01
6.896680220961570740e-03
-6.544423848390579224e-02
1.070372983813285828e-01
1.704064011573791504e-01
-1.129335537552833557e-01
9.725036472082138062e-02
1.620039343833923340e-01
-1.842075586318969727e-01
-8.537660539150238037e-02
-1.433895900845527649e-03
-1.883258223533630371e-01
4.023649916052818298e-02
6.482540071010589600e-02
-1.720486283302307129e-01
1.018526852130889893e-01
-2.320586144924163818e-02
-1.372774392366409302e-01
6.658982019871473312e-03
3.173257410526275635e-01
-1.038082614541053772e-01
-1.812792122364044189e-01
-3.178514838218688965e-01
9.062200784683227539e-02
6.877256184816360474e-02
-1.587180346250534058e-01
-9.291594475507736206e-02
2.513587474822998047e-01
-5.378466844558715820e-02
5.933462455868721008e-02
-3.878701105713844299e-02
6.571670621633529663e-02
6.421240419149398804e-02
6.023002043366432190e-02
-8.791458606719970703e-02
-3.362374380230903625e-02
-8.848514407873153687e-02
-1.231760010123252869e-01
7.107248157262802124e-02
5.999311432242393494e-02
1.652250587940216064e-01
-1.877853572368621826e-01
5.697097163647413254e-03
1.811028569936752319e-01
8.603355288505554199e-02
1.378326565027236938e-01
8.262223750352859497e-02
1.005241051316261292e-01
-3.082137703895568848e-01
-5.823421757668256760e-03
-2.052144408226013184e-01
8.859308809041976929e-02
1.069451570510864258e-01
2.715370059013366699e-02
4.091985821723937988e-01
1.598395407199859619e-01
-3.502343222498893738e-02
5.287955701351165771e-02
-1.471711695194244385e-01
-2.696311660110950470e-02
-2.347650378942489624e-01
1.976101100444793701e-01
2.520916759967803955e-01
-6.940991431474685669e-02
-2.524525225162506104e-01
2.189347147941589355e-01
6.099615246057510376e-02
-1.983660459518432617e-01
-9.195429086685180664e-02
5.102958902716636658e-02
2.460633665323257446e-01
-2.358317226171493530e-01
1.091979891061782837e-01
2.462637610733509064e-02
-1.082933470606803894e-01
-2.201326191425323486e-01
-8.587235957384109497e-02
1.763216853141784668e-01
1.131587922573089600e-01
-1.854977570474147797e-02
4.148118495941162109e-01
-1.509784013032913208e-01
5.085606127977371216e-03
-4.075644537806510925e-02
1.373553127050399780e-01
-7.032609730958938599e-02
7.152563426643610001e-03
-3.240562975406646729e-02
-1.796070039272308350e-01
4.686354845762252808e-02
-2.289407551288604736e-01
6.831958144903182983e-02
9.470739215612411499e-02
3.602816760540008545e-01
-4.446559399366378784e-02
7.285744696855545044e-02
-2.533708512783050537e-01
-3.939834833145141602e-01
3.951202332973480225e-02
8.483108878135681152e-02
-2.666375599801540375e-02
6.048673763871192932e-02
-3.535584509372711182e-01
-2.974507212638854980e-01
-3.805987238883972168e-01
1.562429964542388916e-01
-1.154087558388710022e-01
3.915863111615180969e-02
-2.056789994239807129e-01
-2.108563780784606934e-01
-1.640891470015048981e-02
2.474796473979949951e-01
-1.344395279884338379e-01
8.665850758552551270e-02
-1.525156199932098389e-01
6.920526921749114990e-02
-3.811183869838714600e-01
2.094257920980453491e-01
3.711567446589469910e-02
-1.639665216207504272e-01
-3.421277701854705811e-01
-5.808416754007339478e-02
-9.232033789157867432e-02
-1.628774106502532959e-01
2.237357646226882935e-01
-1.890401989221572876e-01
-3.134112432599067688e-02
2.330366969108581543e-01
-1.750901192426681519e-01
-3.937253728508949280e-02
1.840900033712387085e-01
1.440461724996566772e-01
-1.293509155511856079e-01
-8.497586101293563843e-02
-2.628214843571186066e-02
1.065763384103775024e-01
7.508808374404907227e-02
-7.988458499312400818e-03
-3.005709648132324219e-01
3.236471414566040039e-01
5.014287680387496948e-02
-1.212035194039344788e-01
-9.050283581018447876e-02
-8.341277390718460083e-02
-9.066786617040634155e-02
-2.927120327949523926e-01
-6.963388877920806408e-04
1.768181473016738892e-01
-1.973158568143844604e-01
-1.080133300274610519e-02
7.849798351526260376e-02
1.277343332767486572e-01
1.460656821727752686e-01
-2.392622530460357666e-01
7.828957587480545044e-02
-2.878219634294509888e-02
9.604316204786300659e-02
2.131566032767295837e-02
-3.957201242446899414e-01
-2.069753408432006836e-02
-1.738827079534530640e-01
-5.058293230831623077e-03
-2.233000099658966064e-01
-2.809341847896575928e-01
-1.551614794880151749e-02
-2.876521348953247070e-01
-5.409001708030700684e-01
-8.180674631148576736e-04
1.973816305398941040e-01
9.663494676351547241e-02
-1.964787840843200684e-01
4.956545233726501465e-01
2.116287201642990112e-01
1.917468458414077759e-01
2.322215288877487183e-01
5.078434199094772339e-02
-1.031043305993080139e-01
-4.925746098160743713e-02
-1.092756260186433792e-02
-3.025690913200378418e-01
-8.731100824661552906e-04
4.228480160236358643e-01
-1.107405498623847961e-01
1.817748248577117920e-01
-1.084825769066810608e-01
-9.283125400543212891e-02
-4.972895607352256775e-03
3.087769262492656708e-02
7.916764914989471436e-02
7.483414560556411743e-02
1.090670973062515259e-01
-9.020280092954635620e-02
-9.369310736656188965e-02
1.858828216791152954e-01
-3.568140864372253418e-01
-3.078399971127510071e-02
-3.666783273220062256e-01
5.060196518898010254e-01
2.558673620223999023e-01
-9.865907579660415649e-02
1.123216673731803894e-01
-1.658154428005218506e-01
3.927751481533050537e-01
-7.511656731367111206e-02
1.453124433755874634e-01
6.930536031723022461e-02
7.809286564588546753e-02
1.261124759912490845e-01
-1.431394647806882858e-02
-2.588528394699096680e-01
-2.815335094928741455e-01
7.434262335300445557e-02
4.348975047469139099e-02
2.974709868431091309e-01
1.012860238552093506e-01
1.686517447233200073e-01
4.488280508667230606e-03
3.325132429599761963e-01
-1.479786783456802368e-01
7.565162610262632370e-03
-8.721973747014999390e-02
-1.031606569886207581e-01
-1.179641261696815491e-01
-1.365624517202377319e-01
8.819911628961563110e-02
-2.793694846332073212e-03
2.300350926816463470e-02
3.210665285587310791e-02
-1.267192810773849487e-01
-1.350745558738708496e-01
1.563619240187108517e-03
-5.483264476060867310e-02
-1.540723145008087158e-01
4.487344622611999512e-01
9.245258755981922150e-03
-1.267783809453248978e-02
1.649016141891479492e-01
8.952996879816055298e-02
-2.001630365848541260e-01
3.960651755332946777e-01
1.293222159147262573e-01
-3.937807306647300720e-02
1.060954853892326355e-01
3.881517648696899414e-01
-2.144113928079605103e-01
-1.849143393337726593e-02
2.446045130491256714e-01
-3.827177733182907104e-02
1.429975181818008423e-01
-4.290724173188209534e-04
-7.379422895610332489e-03
6.611300632357597351e-03
4.891172423958778381e-02
6.121366843581199646e-02
2.257606089115142822e-01
-8.252794295549392700e-02
3.043237328529357910e-01
-4.194905161857604980e-01
5.132135003805160522e-02
1.164218783378601074e-01
4.019694030284881592e-01
1.543346941471099854e-01
-9.264974296092987061e-02
4.020011052489280701e-02
4.694708585739135742e-01
3.408159315586090088e-02
-2.879611253738403320e-01
-7.212389726191759109e-03
1.121521741151809692e-01
1.864047944545745850e-01
1.448971778154373169e-01
-1.108914613723754883e-01
-1.847817450761795044e-01
2.315805107355117798e-01
1.232524439692497253e-01
4.617240279912948608e-02
4.081161320209503174e-02
1.476580798625946045e-01
1.216306909918785095e-02
-2.872917354106903076e-01
2.851859331130981445e-01
6.864147633314132690e-02
1.415463835000991821e-01
-2.887771129608154297e-01
1.557123661041259766e-02
2.473254501819610596e-01
-1.139520406723022461e-01
-1.908185780048370361e-01
-2.188390940427780151e-01
3.913195803761482239e-02
1.510331965982913971e-02
1.344905793666839600e-01
-1.933279782533645630e-01
-3.014293685555458069e-02
1.062699109315872192e-01
-8.822894841432571411e-02
-1.901091933250427246e-01
-3.098849207162857056e-02
4.400886222720146179e-02
-1.178751885890960693e-01
-8.726193755865097046e-02
-1.915880739688873291e-01
6.040526553988456726e-02
1.629479229450225830e-01
3.075585663318634033e-01
8.247328549623489380e-02
-9.613000601530075073e-02
2.831929363310337067e-02
-2.305866926908493042e-01
-5.813884735107421875e-02
-4.474813640117645264e-01
-2.610962688922882080e-01
-1.074635237455368042e-01
-1.197013929486274719e-01
1.912590861320495605e-01
-4.274973645806312561e-02
-3.220539689064025879e-01
1.827271878719329834e-01
-2.723351418972015381e-01
1.305981427431106567e-01
1.517264991998672485e-01
-2.096742577850818634e-02
-2.745393514633178711e-01
1.396007090806961060e-01
5.250035971403121948e-02
-1.709466874599456787e-01
2.343602925539016724e-01
2.024757415056228638e-01
1.508102193474769592e-02
-1.685181558132171631e-01
1.618524342775344849e-01
-1.114677637815475464e-01
-6.216436251997947693e-02
3.329382538795471191e-01
-2.482893317937850952e-01
-3.220348358154296875e-01
2.826552093029022217e-01
4.387253820896148682e-01
-3.345818072557449341e-02
-2.241566777229309082e-01
-3.699659407138824463e-01
-3.695643842220306396e-01
4.874657839536666870e-03
-2.022703737020492554e-01
1.058757230639457703e-01
6.759949773550033569e-02
2.732509374618530273e-01
-6.948775053024291992e-02
3.004070743918418884e-02
-1.279627829790115356e-01
-2.516332641243934631e-02
-1.463515684008598328e-02
-2.162500917911529541e-01
-1.667231023311614990e-01
1.634717136621475220e-01
-1.265485882759094238e-01
1.209424957633018494e-01
1.749570108950138092e-02
2.533186078071594238e-01
1.203634366393089294e-01
-2.410919666290283203e-01
-1.010787039995193481e-01
3.102517127990722656e-02
9.860238060355186462e-03
-6.229174323379993439e-03
-5.282047390937805176e-02
-3.235960006713867188e-02
-7.160922139883041382e-02
-3.413552343845367432e-01
-2.419475764036178589e-01
4.704698547720909119e-02
1.968654394149780273e-01
1.196775808930397034e-01
2.906539738178253174e-01
-2.350637614727020264e-01
-3.591831922531127930e-01
2.197003811597824097e-01
-1.299732625484466553e-01
2.262210100889205933e-01
1.303835511207580566e-01
1.727537959814071655e-01
1.079665273427963257e-01
-7.371293008327484131e-02
-4.073881506919860840e-01
1.529973000288009644e-01
-3.896653950214385986e-01
1.959246098995208740e-01
-9.322730451822280884e-02
-9.906309098005294800e-02
-6.145679950714111328e-02
1.622999757528305054e-01
-2.222399115562438965e-01
4.764529317617416382e-02
2.253923416137695312e-01
2.646605372428894043e-01
1.472418010234832764e-01
-1.000176444649696350e-01
2.146508246660232544e-01
2.074375003576278687e-01
2.202314883470535278e-01
-4.588873684406280518e-02
-3.904404118657112122e-02
-1.285842508077621460e-01
-2.782738506793975830e-01
-1.502605229616165161e-01
-3.731438219547271729e-01
8.982398360967636108e-02
6.993018835783004761e-02
2.506660521030426025e-01
-2.237916737794876099e-02
9.917158633470535278e-03
6.136285513639450073e-02
-4.071968793869018555e-01
7.300914078950881958e-02
-1.485541164875030518e-01
-2.546282298862934113e-02
3.099632263183593750e-01
-9.490930475294589996e-03
2.402566075325012207e-01
-6.454920023679733276e-02
6.765344738960266113e-02
-1.568637937307357788e-01
1.782219111919403076e-01
1.476666182279586792e-01
-1.681334525346755981e-01
-3.356672450900077820e-02
1.358199957758188248e-02
2.925508320331573486e-01
1.728634238243103027e-01
-1.671914160251617432e-01
1.540198624134063721e-01
2.369504123926162720e-01
2.352706044912338257e-01
1.108001396059989929e-01
4.238722100853919983e-02
1.623841971158981323e-01
-1.710020937025547028e-02
2.507668435573577881e-01
-4.367920756340026855e-02
-3.683088347315788269e-02
-3.155476152896881104e-01
2.018102854490280151e-01
-5.908914655447006226e-02
-2.994920313358306885e-01
-2.459656596183776855e-01
1.302763074636459351e-01
-2.976563572883605957e-01
6.737364828586578369e-02
-8.671948313713073730e-02
5.198457464575767517e-02
4.081727862358093262e-01
8.157467842102050781e-02
3.408831655979156494e-01
-9.332667291164398193e-02
1.008168086409568787e-01
-7.908457517623901367e-02
-1.053478866815567017e-01
-2.256483286619186401e-01
2.098103016614913940e-01
4.776265844702720642e-02
2.245458960533142090e-02
2.026302963495254517e-01
-9.674695320427417755e-04
-1.143686175346374512e-01
2.257735431194305420e-01
2.100238651037216187e-01
-1.039135456085205078e-01
-2.226676940917968750e-01
2.083971500396728516e-01
-1.861219704151153564e-01
2.509554922580718994e-01
-1.129141822457313538e-01
-1.760969460010528564e-01
-9.703757613897323608e-02
2.709509059786796570e-02
3.388266637921333313e-02
-8.025626093149185181e-02
2.405094504356384277e-01
-1.121584996581077576e-01
4.891971498727798462e-02
8.279167115688323975e-03
3.145061433315277100e-02
-1.272758990526199341e-01
-1.752331405878067017e-01
-1.836623996496200562e-01
4.208596423268318176e-02
2.639472186565399170e-01
9.654097259044647217e-02
-6.255853176116943359e-02
9.416607767343521118e-02
1.602686196565628052e-02
-1.147353351116180420e-01
-9.175553172826766968e-02
-1.369542479515075684e-01
2.283613532781600952e-01
-6.195754185318946838e-02
-1.010065227746963501e-01
-7.599085569381713867e-02
-3.304709866642951965e-02
-1.856071874499320984e-02
-1.096859723329544067e-01
-3.361546620726585388e-02
-2.120400518178939819e-01
1.880082339048385620e-01
-6.196999177336692810e-02
-9.246813505887985229e-02
-1.413294374942779541e-01
2.035025358200073242e-01
-2.500009834766387939e-01
8.409739285707473755e-02
-3.382616490125656128e-02
-2.221806496381759644e-01
-7.048789877444505692e-03
4.699879512190818787e-02
8.681507408618927002e-02
-9.447623044252395630e-02
1.210388913750648499e-01
1.541545391082763672e-01
-1.757200360298156738e-01
6.096767634153366089e-02
1.911465674638748169e-01
-3.214648365974426270e-02
-3.980986773967742920e-03
-4.759762808680534363e-02
1.372025012969970703e-01
6.675691902637481689e-02
1.423507649451494217e-02
4.487980902194976807e-02
-5.034745931625366211e-01
-2.372484421357512474e-03
-1.319638788700103760e-01
1.148139536380767822e-01
4.924046993255615234e-02
2.845722436904907227e-01
4.638946652412414551e-01
-1.136562302708625793e-01
-1.055305749177932739e-01
-7.344818115234375000e-02
2.696619927883148193e-02
-7.574011385440826416e-02
7.492863386869430542e-02
1.777431368827819824e-01
2.017754912376403809e-01
4.100419282913208008e-01
-1.232058508321642876e-03
-1.001810282468795776e-01
1.147614046931266785e-01
-2.886035144329071045e-01
9.303113445639610291e-03
3.371001407504081726e-02
8.101166784763336182e-02
-3.091679699718952179e-02
-8.527659624814987183e-02
1.943067312240600586e-01
-1.886080019176006317e-03
-9.159735590219497681e-02
1.291571706533432007e-01
-1.607905924320220947e-01
4.046367406845092773e-01
-6.145246699452400208e-02
2.508127689361572266e-01
-3.965227305889129639e-01
1.746080443263053894e-02
7.817312330007553101e-02
2.372518777847290039e-01
-2.870326638221740723e-01
1.652536913752555847e-02
-1.854552477598190308e-01
1.656625792384147644e-02
-1.261089891195297241e-01
1.907156407833099365e-02
5.210678279399871826e-02
-2.400831729173660278e-01
2.110218554735183716e-01
-2.499179542064666748e-01
9.646104276180267334e-02
2.486579120159149170e-01
2.328387051820755005e-01
-3.664284646511077881e-01
1.652061045169830322e-01
-3.023941768333315849e-03
-3.742691501975059509e-02
3.018997795879840851e-02
5.740314126014709473e-01
1.212636753916740417e-02
7.652557641267776489e-02
-7.866060733795166016e-02
2.170464396476745605e-01
1.794657409191131592e-01
1.087086945772171021e-01
5.548445880413055420e-02
-1.157364472746849060e-01
-3.901377618312835693e-01
-6.536082923412322998e-02
1.999143064022064209e-01
-1.274075917899608612e-02
1.526451110839843750e-01
1.529029905796051025e-01
1.920992285013198853e-01
-4.539135843515396118e-02
2.261105328798294067e-01
3.051827549934387207e-01
1.152103301137685776e-02
-3.667171299457550049e-01
2.239983528852462769e-01
-4.572685062885284424e-01
-3.685940206050872803e-01
-3.757327497005462646e-01
-1.038747802376747131e-01
2.941194772720336914e-01
-2.508273124694824219e-01
8.003919571638107300e-02
1.035969033837318420e-01
8.050499111413955688e-02
-7.006373256444931030e-03
1.765910536050796509e-01
5.866477265954017639e-02
9.287764877080917358e-02
-7.020781934261322021e-02
3.570774104446172714e-03
1.242564469575881958e-01
7.555582374334335327e-02
-5.251321196556091309e-02
-2.382046133279800415e-01
-4.482749700546264648e-01
-2.897821962833404541e-01
-3.438978791236877441e-01
2.305949777364730835e-01
-4.239463433623313904e-02
1.248194277286529541e-01
1.096858531236648560e-01
-2.027820050716400146e-01
-1.912832111120223999e-01
-1.402192264795303345e-01
-2.801085636019706726e-02
-2.223300039768218994e-01
3.407776588574051857e-03
1.988836675882339478e-01
7.600937038660049438e-02
1.018301546573638916e-01
2.304978966712951660e-01
-4.229959845542907715e-02
-1.822368949651718140e-01
-4.489147365093231201e-01
-3.511165082454681396e-01
-8.812481164932250977e-02
2.706302404403686523e-01
-1.711440980434417725e-01
3.303591012954711914e-01
1.593977399170398712e-02
-5.735784396529197693e-02
2.210604995489120483e-01
-2.096383422613143921e-01
1.042229011654853821e-01
-2.286561429500579834e-01
2.844098024070262909e-03
4.936523437500000000e-01
-1.447845436632633209e-02
2.081316709518432617e-01
-2.502573132514953613e-01
1.628068387508392334e-01
-1.711457152850925922e-03
-2.401615828275680542e-01
1.948223449289798737e-02
-9.155652672052383423e-02
2.857371270656585693e-01
-2.705672979354858398e-01
2.677691169083118439e-02
-7.378434389829635620e-02
-1.212037652730941772e-01
-1.411295235157012939e-01
-2.653987146914005280e-02
3.310746550559997559e-01
-2.473229765892028809e-01
-1.739221811294555664e-01
2.359822094440460205e-01
-3.207119107246398926e-01
-1.031844243407249451e-01
-1.837609857320785522e-01
-6.322059035301208496e-02
-1.095275655388832092e-01
-2.580619156360626221e-01
-1.063862629234790802e-02
-3.016550242900848389e-01
1.081005334854125977e-01
1.711183786392211914e-01
-1.058265753090381622e-02
-2.652164697647094727e-01
-3.182578980922698975e-01
-1.613427102565765381e-01
3.894582390785217285e-01
6.487700343132019043e-02
7.905978709459304810e-02
1.370583176612854004e-01
-6.418922543525695801e-02
-2.764313220977783203e-01
-6.785105168819427490e-02
6.209693476557731628e-02
-3.033510148525238037e-01
-2.869993746280670166e-01
1.465891450643539429e-01
-4.911955818533897400e-02
-9.117700159549713135e-03
3.024420700967311859e-03
-2.749070525169372559e-01
-6.395211070775985718e-02
-1.734317094087600708e-01
-2.746518850326538086e-01
-2.850101329386234283e-02
2.515992820262908936e-01
4.808704927563667297e-02
1.718829572200775146e-01
-1.052362024784088135e-01
-3.999385237693786621e-02
3.691534698009490967e-02
1.477270573377609253e-01
3.207292854785919189e-01
1.184531077742576599e-01
1.292781531810760498e-01
-1.547704339027404785e-01
-2.153187990188598633e-01
1.333086341619491577e-01
1.843356937170028687e-01
1.617919653654098511e-01
6.424225866794586182e-02
9.116146713495254517e-02
1.330722570419311523e-01
-7.256449759006500244e-02
-3.132808208465576172e-01
-2.834372688084840775e-03
-3.784774243831634521e-02
2.709699422121047974e-02
-1.504493504762649536e-01
1.588722318410873413e-02
4.350481554865837097e-03
-1.464565247297286987e-01
9.515664540231227875e-03
-3.772655129432678223e-02
3.826289623975753784e-02
-2.285994887351989746e-01
1.858126837760210037e-03
1.732718795537948608e-01
3.690783306956291199e-02
8.628194034099578857e-02
-2.024038285017013550e-01
-7.290557771921157837e-02
-1.926001310348510742e-01
-2.780564427375793457e-01
-8.690179139375686646e-02
-8.458530902862548828e-02
-1.579701155424118042e-01
8.685002475976943970e-02
6.056644488126039505e-03
-1.951884329319000244e-01
1.616208106279373169e-01
3.090958297252655029e-01
-1.507194191217422485e-01
5.905496701598167419e-02
3.275469541549682617e-01
2.186575382947921753e-01
-1.256078034639358521e-01
3.563263639807701111e-02
2.122393101453781128e-01
1.531239300966262817e-01
-1.132868006825447083e-01
-4.060074314475059509e-02
1.664147377014160156e-01
-2.327922880649566650e-01
7.815179228782653809e-02
2.952441386878490448e-02
-1.923570036888122559e-01
-4.778579808771610260e-03
2.064301222562789917e-01
9.708390384912490845e-02
-1.881429851055145264e-01
4.490889608860015869e-02
1.837369501590728760e-01
4.232183471322059631e-02
1.221503391861915588e-01
-2.667576307430863380e-03
-9.141638875007629395e-02
-1.354313939809799194e-01
-9.940561652183532715e-02
-1.258511990308761597e-01
3.297168612480163574e-01
-5.653211846947669983e-02
-2.632897719740867615e-02
1.631926894187927246e-01
1.543940752744674683e-01
-9.057874232530593872e-02
2.116088271141052246e-01
5.525329709053039551e-02
-1.442601084709167480e-01
1.400010138750076294e-01
1.085524410009384155e-01
-1.767708659172058105e-01
3.004075400531291962e-02
1.990810036659240723e-01
2.730147540569305420e-01
8.661548793315887451e-02
-1.906573772430419922e-01
-7.544219028204679489e-03
-1.765398383140563965e-01
-2.107457071542739868e-01
-9.377688169479370117e-02
9.377694875001907349e-02
7.205834239721298218e-02
-4.329450055956840515e-02
-2.181258797645568848e-01
3.758672252297401428e-02
-3.567258715629577637e-01
-1.394250392913818359e-01
-2.040539383888244629e-01
4.159382283687591553e-01
-2.410630136728286743e-02
1.779400408267974854e-01
3.761407136917114258e-01
-2.318192720413208008e-01
5.568032339215278625e-02
-2.175479680299758911e-01
-4.515866190195083618e-02
-3.831559717655181885e-01
-3.309620916843414307e-01
-2.696383595466613770e-01
1.939405500888824463e-01
-2.112853825092315674e-01
2.512013912200927734e-02
3.825240433216094971e-01
4.353429079055786133e-01
2.733213603496551514e-01
-2.414954304695129395e-01
3.812638819217681885e-01
1.661919653415679932e-01
-2.077008932828903198e-01
2.823511697351932526e-02
-2.709289491176605225e-01
-1.589928567409515381e-02
-1.488980501890182495e-01
-1.146779805421829224e-01
6.692539453506469727e-01
1.968639343976974487e-01
-8.551514893770217896e-02
-2.395010292530059814e-01
1.770943552255630493e-01
-6.015074905008077621e-03
2.387933582067489624e-01
3.498296067118644714e-02
-2.257052063941955566e-01
-4.391244351863861084e-01
1.675367653369903564e-01
5.557924136519432068e-02
1.269317567348480225e-01
4.280536174774169922e-01
1.366433650255203247e-01
-1.152328103780746460e-01
1.228284314274787903e-01
-2.082093805074691772e-01
-8.712331205606460571e-02
-2.681861398741602898e-03
-2.945033013820648193e-01
3.965272009372711182e-01
-1.220090910792350769e-01
8.963010460138320923e-02
-3.481172025203704834e-01
3.073135763406753540e-02
4.411736428737640381e-01
-6.568790972232818604e-02
-2.337843924760818481e-01
-7.035984098911285400e-02
2.308280616998672485e-01
3.763822317123413086e-01
1.739971637725830078e-01
2.488149553537368774e-01
-2.941229343414306641e-01
-1.274895966053009033e-01
6.950778514146804810e-02
-8.160436898469924927e-02
4.717346131801605225e-01
1.371410302817821503e-02
-2.730470895767211914e-01
-3.993003070354461670e-01
6.300217006355524063e-03
-1.510904431343078613e-01
2.775113284587860107e-01
4.221526384353637695e-01
2.537874691188335419e-02
-2.148975878953933716e-01
-8.830177783966064453e-02
3.128597140312194824e-01
-3.405226022005081177e-02
-1.516922116279602051e-01
-1.197509281337261200e-02
3.047346174716949463e-01
5.229465961456298828e-01
-1.562730967998504639e-01
3.067478835582733154e-01
1.151703223586082458e-01
1.101787202060222626e-02
-9.979394078254699707e-02
1.166502386331558228e-01
-2.000891417264938354e-01
-5.343717336654663086e-02
1.291112601757049561e-01
-1.716746687889099121e-01
-1.739822179079055786e-01
1.861590333282947540e-02
3.109238743782043457e-01
3.841577470302581787e-01
-4.145919680595397949e-01
1.770841926336288452e-01
-2.757438719272613525e-01
1.328769512474536896e-02
3.104532659053802490e-01
2.058374136686325073e-01
3.382011353969573975e-01
1.175421327352523804e-01
6.680382043123245239e-02
-3.152329921722412109e-01
-3.960475325584411621e-01
-9.371596574783325195e-02
5.073799751698970795e-03
2.602803409099578857e-01
-2.631961107254028320e-01
1.780774891376495361e-01
9.546772390604019165e-02
-4.741645455360412598e-01
-5.545117706060409546e-02
-3.359926044940948486e-01
-1.309637725353240967e-01
-1.034847870469093323e-01
-1.834391206502914429e-01
1.084633171558380127e-01
2.933846116065979004e-01
-6.363605707883834839e-02
-1.507632900029420853e-02
-3.622854053974151611e-01
8.050539530813694000e-03
-4.002215340733528137e-02
1.913861930370330811e-01
-2.931425869464874268e-01
-6.822337955236434937e-02
-5.566373467445373535e-01
-3.497250676155090332e-01
-4.922502674162387848e-03
-3.780908286571502686e-01
1.898301541805267334e-01
2.984546422958374023e-01
1.304602324962615967e-01
5.265887454152107239e-02
1.793910115957260132e-01
-6.478373706340789795e-02
9.913329780101776123e-02
-1.161018945276737213e-02
3.653550148010253906e-02
2.700823247432708740e-01
-2.074605226516723633e-01
-1.629370301961898804e-01
-1.653104126453399658e-01
-1.231665387749671936e-01
-1.294421404600143433e-01
-1.140534207224845886e-01
-4.093227088451385498e-01
6.621165666729211807e-03
-4.538018628954887390e-02
-3.807899355888366699e-01
1.772198975086212158e-01
5.564776659011840820e-01
-4.345742762088775635e-01
-1.416678726673126221e-01
3.838886320590972900e-02
-1.098488867282867432e-01
2.995648682117462158e-01
2.973711192607879639e-01
-2.937678098678588867e-01
-4.781196713447570801e-01
2.313027530908584595e-01
1.393805593252182007e-01
-4.984187185764312744e-01
-4.204450249671936035e-01
5.863507464528083801e-02
-1.056573726236820221e-02
-3.314119204878807068e-02
5.378262996673583984e-01
5.967433098703622818e-03
-1.597859114408493042e-01
-2.391134053468704224e-01
5.437508597970008850e-02
3.023958504199981689e-01
9.038807451725006104e-02
-3.177039623260498047e-01
3.235228359699249268e-01
-2.524088695645332336e-02
-2.406176924705505371e-01
-8.880411088466644287e-02
5.287787318229675293e-01
6.177689135074615479e-02
1.276854127645492554e-01
3.638782203197479248e-01
1.668314188718795776e-01
-8.368583768606185913e-02
-7.959235459566116333e-02
-2.243986129760742188e-01
1.365551054477691650e-01
4.363880679011344910e-02
9.956701844930648804e-02
-5.000688433647155762e-01
9.769748896360397339e-02
-2.398142963647842407e-02
2.200355231761932373e-01
-1.766094565391540527e-01
1.943541923537850380e-03
-3.807411491870880127e-01
2.623652480542659760e-02
6.510669738054275513e-02
1.927921622991561890e-01
-7.489494979381561279e-02
-8.107840269804000854e-02
-2.671408951282501221e-01
-5.638201162219047546e-02
-4.943628907203674316e-01
3.024152852594852448e-02
3.634569048881530762e-01
1.105416566133499146e-01
-2.254666835069656372e-01
1.550783514976501465e-01
2.718420885503292084e-02
-3.641111031174659729e-02
5.077302083373069763e-02
1.996936798095703125e-01
-1.194930002093315125e-01
-2.399116009473800659e-02
1.728057116270065308e-01
1.342887133359909058e-01
8.061114698648452759e-02
-4.330524709075689316e-03
-1.183602362871170044e-01
4.073396623134613037e-01
4.708685874938964844e-01
4.171405732631683350e-01
2.908717095851898193e-01
-1.056572273373603821e-01
5.796646326780319214e-02
-5.572962015867233276e-02
-3.566473489627242088e-03
-2.838021330535411835e-02
5.002959966659545898e-01
-2.610208392143249512e-01
-1.154286563396453857e-01
2.139267027378082275e-01
9.652100503444671631e-02
3.299925625324249268e-01
-7.298640161752700806e-02
9.347581304609775543e-03
-3.808439671993255615e-01
6.378316134214401245e-02
1.319157332181930542e-01
-1.122618019580841064e-01
4.477053508162498474e-02
3.410357534885406494e-01
2.109198868274688721e-01
-1.169882118701934814e-01
3.776747882366180420e-01
2.119989544153213501e-01
-7.608414441347122192e-02
-6.633453965187072754e-01
-1.951889693737030029e-01
-2.887391746044158936e-01
4.584325104951858521e-02
1.729748696088790894e-01
2.595841884613037109e-01
-2.552965581417083740e-01
6.398656964302062988e-02
1.909734904766082764e-01
-2.510194480419158936e-01
-1.499684154987335205e-01
-2.014537602663040161e-01
-1.379383355379104614e-01
4.009190797805786133e-01
-2.258456051349639893e-01
1.406804323196411133e-01
-1.605552136898040771e-01
2.549167275428771973e-01
1.938957273960113525e-01
-5.810445547103881836e-02
-1.259198337793350220e-01
-1.256991326808929443e-01
7.561897486448287964e-02
2.113822549581527710e-01
1.975404322147369385e-01
-3.839172050356864929e-02
-3.990530371665954590e-01
-7.821436226367950439e-02
1.463202685117721558e-01
-1.087989881634712219e-01
1.398384124040603638e-01
-3.094657696783542633e-02
-2.065353654325008392e-02
-1.277358829975128174e-01
-2.964062690734863281e-01
4.720051959156990051e-02
1.049638260155916214e-02
2.571235783398151398e-02
2.093265205621719360e-01
-2.721118927001953125e-01
5.382020473480224609e-01
-1.343315541744232178e-01
3.586203157901763916e-01
1.276355832815170288e-01
1.424469333142042160e-02
-6.553081423044204712e-02
-5.521904677152633667e-02
-2.876512147486209869e-02
7.846959680318832397e-02
-1.528262495994567871e-01
-1.061315909028053284e-01
1.364437192678451538e-01
-3.791314084082841873e-03
-6.571236997842788696e-02
-2.095040120184421539e-02
2.496010437607765198e-02
4.903700053691864014e-01
5.101679265499114990e-02
-4.237530007958412170e-02
1.795838922262191772e-01
-3.324782848358154297e-02
2.985423505306243896e-01
-1.283314824104309082e-01
4.489604383707046509e-02
-1.460279151797294617e-02
-3.187153488397598267e-02
1.730101555585861206e-01
1.141143664717674255e-01
-4.749748855829238892e-03
-5.541652813553810120e-02
-1.875145733356475830e-01
-2.775488654151558876e-03
1.956989765167236328e-01
-1.759300678968429565e-01
-1.222380846738815308e-01
2.591387927532196045e-01
2.626519501209259033e-01
-1.528941690921783447e-01
1.257986426353454590e-01
3.189027607440948486e-01
4.987154901027679443e-02
-1.459398865699768066e-01
1.208209618926048279e-01
1.579860448837280273e-01
-7.452587783336639404e-02
-6.451763212680816650e-02
6.754658371210098267e-02
-9.336372837424278259e-03
-7.448502629995346069e-02
1.925840675830841064e-01
-2.889363765716552734e-01
-3.193782866001129150e-01
-1.703960448503494263e-01
3.467589318752288818e-01
-2.183529436588287354e-01
1.834049373865127563e-01
-2.680694758892059326e-01
2.404092699289321899e-01
-2.107033506035804749e-02
-1.277186423540115356e-01
2.580373361706733704e-02
8.626773953437805176e-02
-7.956250756978988647e-02
1.476529389619827271e-01
1.677094697952270508e-01
-2.622083760797977448e-02
-9.683113545179367065e-03
3.127051889896392822e-01
1.657003313302993774e-01
1.573389917612075806e-01
-1.858241558074951172e-01
6.681338697671890259e-02
1.041448637843132019e-01
-2.363013774156570435e-01
-2.265733480453491211e-01
1.606414653360843658e-02
-2.911419868469238281e-01
-1.862464994192123413e-01
-1.718062311410903931e-01
-5.616754293441772461e-01
1.892740428447723389e-01
-8.041057735681533813e-02
-8.771254867315292358e-02
5.861703306436538696e-02
-5.267994403839111328e-01
-3.835391700267791748e-01
-2.504995465278625488e-01
-3.406883403658866882e-02
-4.906473681330680847e-02
-3.491109907627105713e-01
2.808600068092346191e-01
1.186993196606636047e-01
3.879101574420928955e-02
-2.621776163578033447e-01
-2.151215523481369019e-01
-4.394071921706199646e-02
-9.925193339586257935e-02
5.298088118433952332e-02
1.913391947746276855e-01
8.260603994131088257e-02
-3.577445149421691895e-01
1.656235009431838989e-01
1.199928149580955505e-01
-1.021291390061378479e-01
-1.210314407944679260e-02
-4.570923745632171631e-02
1.512400656938552856e-01
2.630221657454967499e-02
-5.666461214423179626e-02
7.766050845384597778e-02
-6.525698304176330566e-02
-3.057321310043334961e-01
-1.943885982036590576e-01
8.326045423746109009e-02
-1.751345694065093994e-01
-1.365147531032562256e-01
8.976690471172332764e-02
1.118548288941383362e-01
1.312502473592758179e-01
-1.478431671857833862e-01
-2.797103524208068848e-01
-1.403450616635382175e-03
7.524973899126052856e-02
-5.149659514427185059e-02
1.958011239767074585e-01
-4.556384868919849396e-03
-1.601711958646774292e-01
-5.669194832444190979e-02
6.830458343029022217e-02
-2.234815657138824463e-01
-3.357330560684204102e-01
8.437339961528778076e-02
2.925308644771575928e-01
1.893210038542747498e-02
1.411269307136535645e-01
3.352642953395843506e-01
1.248452514410018921e-01
-4.192591458559036255e-02
3.477735221385955811e-01
3.466570749878883362e-02
2.056439779698848724e-02
1.134233698248863220e-01
-1.181773543357849121e-01
1.988212764263153076e-01
-7.342337630689144135e-03
2.907921075820922852e-01
-1.901186108589172363e-01
-3.324135392904281616e-02
-1.021974682807922363e-01
1.098737269639968872e-01
9.471113234758377075e-02
-4.264398291707038879e-02
1.363501697778701782e-01
-1.551191508769989014e-02
-8.577433414757251740e-03
-5.550740286707878113e-02
2.247293442487716675e-01
-1.669803857803344727e-01
-4.653304070234298706e-02
4.083375912159681320e-03
1.201088950037956238e-01
-1.957327127456665039e-01
8.336615562438964844e-02
-9.176635742187500000e-02
5.689662694931030273e-02
2.566806040704250336e-02
1.073002070188522339e-01
7.606460899114608765e-02
-7.544130831956863403e-02
-1.186556275933980942e-02
8.671188354492187500e-02
