-2.395375072956085205e-02
3.282003104686737061e-02
-9.428938478231430054e-02
-3.738650307059288025e-02
9.003205597400665283e-02
7.245316356420516968e-02
3.871095925569534302e-02
9.024415165185928345e-02
-3.218269050121307373e-01
-2.074659615755081177e-02
3.549690842628479004e-01
9.869826585054397583e-02
-1.658028960227966309e-01
-1.852403879165649414e-01
5.567971989512443542e-02
-1.037359684705734253e-01
2.127626538276672363e-01
6.685999687761068344e-03
-4.157467186450958252e-02
-9.552492946386337280e-02
-2.020285725593566895e-01
-2.122288644313812256e-01
-1.442998368293046951e-02
1.565339565277099609e-01
1.101047322154045105e-01
1.760077625513076782e-01
-2.901767790317535400e-01
3.008978962898254395e-01
1.537028551101684570e-01
-1.241884231567382812e-01
-7.998204231262207031e-02
2.321795672178268433e-01
1.248073205351829529e-01
-1.821449846029281616e-01
-3.068200312554836273e-02
-1.024188771843910217e-01
7.237274199724197388e-02
8.675519376993179321e-02
-1.995813101530075073e-01
5.350590497255325317e-02
2.850262681022286415e-03
-1.098227202892303467e-01
-1.262755990028381348e-01
-8.079786598682403564e-02
-1.033585444092750549e-01
-1.557058691978454590e-01
3.720930218696594238e-02
1.199045330286026001e-01
-2.320195734500885010e-02
-1.633180975914001465e-01
-2.246962249046191573e-04
2.294859290122985840e-01
-3.265035748481750488e-01
-1.558784842491149902e-01
-4.078369215130805969e-02
1.770422160625457764e-01
-1.409972459077835083e-01
-5.646760016679763794e-02
1.286649107933044434e-01
-1.340073347091674805e-01
-5.324726551771163940e-02
2.749538980424404144e-02
8.135250210762023926e-02
1.842141747474670410e-01
-7.661962509155273438e-02
-1.941936463117599487e-01
1.022651121020317078e-01
8.892305195331573486e-02
-9.630325436592102051e-02
-3.650039434432983398e-01
-1.301211863756179810e-01
-2.131516635417938232e-01
6.743306666612625122e-02
2.520726323127746582e-01
7.175054401159286499e-02
6.866722833365201950e-03
1.372092813253402710e-01
-9.349376708269119263e-02
-2.032237946987152100e-01
1.840866655111312866e-01
-2.900335006415843964e-02
2.078556641936302185e-02
7.761730812489986420e-03
-6.692890077829360962e-02
-1.333237439393997192e-02
2.625143714249134064e-02
7.758785504847764969e-03
-1.128114610910415649e-01
4.162561614066362381e-03
1.090726777911186218e-01
6.188183091580867767e-03
-1.722023487091064453e-01
1.413040012121200562e-01
-7.303653657436370850e-02
-1.151491105556488037e-01
-4.716896638274192810e-02
2.030491083860397339e-02
9.242797642946243286e-02
-1.329254955053329468e-01
1.180046349763870239e-01
-2.036656951531767845e-03
-1.772174984216690063e-02
1.818521320819854736e-01
-1.641415804624557495e-02
-2.396895736455917358e-01
-7.128380239009857178e-02
6.281080096960067749e-02
4.133599251508712769e-02
3.503347933292388916e-02
-9.432499855756759644e-02
4.332158342003822327e-02
1.418634131550788879e-02
1.506700813770294189e-01
-1.862108409404754639e-01
-3.548834845423698425e-02
-1.046909168362617493e-01
2.755177319049835205e-01
-2.688474953174591064e-03
3.948597982525825500e-02
1.023991182446479797e-01
-6.639063823968172073e-03
1.394051611423492432e-01
1.055549979209899902e-01
-3.305309414863586426e-01
2.928972057998180389e-02
-5.542901530861854553e-02
8.419092744588851929e-02
2.763237357139587402e-01
-1.707664430141448975e-01
1.077699959278106689e-01
-1.017259210348129272e-01
4.247835278511047363e-02
5.901209264993667603e-02
2.526812255382537842e-01
3.529221750795841217e-03
4.008247703313827515e-02
-4.466201663017272949e-01
-4.183184355497360229e-02
-7.595733553171157837e-02
-3.291047737002372742e-02
-3.833714872598648071e-02
-1.973792165517807007e-01
9.353914111852645874e-02
-1.439548134803771973e-01
5.686536058783531189e-02
7.778948545455932617e-02
-4.312754794955253601e-02
-1.826910115778446198e-02
-3.648120909929275513e-02
-1.110417172312736511e-01
-1.155739948153495789e-01
2.041320502758026123e-02
-1.396455466747283936e-01
1.421663761138916016e-01
-3.718668222427368164e-01
3.121477365493774414e-01
2.152020782232284546e-01
9.393350034952163696e-02
1.957950890064239502e-01
-2.178615517914295197e-02
3.169079497456550598e-02
-1.652616113424301147e-01
3.145709261298179626e-02
-1.576457172632217407e-01
7.417010515928268433e-02
1.753069162368774414e-01
-1.970921009778976440e-01
1.059543117880821228e-01
2.766315080225467682e-02
3.510848805308341980e-02
-1.580630242824554443e-01
-1.194880679249763489e-01
-1.005318090319633484e-01
1.190857216715812683e-01
-1.026265174150466919e-01
-1.263869404792785645e-01
-1.418983489274978638e-01
2.584813348948955536e-02
6.805548444390296936e-03
8.735696901567280293e-04
-3.543917834758758545e-02
2.620694935321807861e-01
-1.307954192161560059e-01
-7.913779467344284058e-02
-4.752207174897193909e-02
-2.149638235569000244e-01
2.194046527147293091e-01
-9.857714921236038208e-02
-4.033743590116500854e-02
5.856931209564208984e-02
-3.305372595787048340e-02
-2.203648835420608521e-01
1.448146346956491470e-02
-4.827154055237770081e-02
-7.475396245718002319e-02
3.498759865760803223e-02
3.722344934940338135e-01
-8.906954526901245117e-02
6.912934035062789917e-02
4.869927465915679932e-02
-7.811515033245086670e-02
3.340637683868408203e-02
9.416132420301437378e-02
-4.901172965764999390e-02
7.067731767892837524e-02
4.474956542253494263e-02
-1.588995940983295441e-02
-5.949784442782402039e-02
2.487114071846008301e-01
-9.741216897964477539e-02
-2.853514440357685089e-02
-3.221327811479568481e-02
9.118283540010452271e-02
-5.702738463878631592e-02
8.780173957347869873e-02
-4.537180811166763306e-02
1.321524828672409058e-01
2.422275990247726440e-01
-1.583548784255981445e-01
-1.808018796145915985e-02
-1.572541296482086182e-01
2.322115749120712280e-02
-2.228686958551406860e-01
-2.192615903913974762e-02
-1.257226569578051567e-03
-1.058486327528953552e-01
-1.115290224552154541e-01
-3.922390565276145935e-02
6.480498239398002625e-03
1.109676212072372437e-01
-4.152018576860427856e-02
3.132472559809684753e-02
-2.153166681528091431e-01
-2.964319661259651184e-02
1.664082519710063934e-02
-9.180767834186553955e-02
3.918762803077697754e-01
7.164727896451950073e-03
9.737122058868408203e-02
-1.619796268641948700e-02
-8.687605708837509155e-02
-2.172532379627227783e-01
2.599269710481166840e-02
-8.151473104953765869e-02
2.347396165132522583e-01
-1.314159333705902100e-01
-6.494402140378952026e-02
-2.082627713680267334e-01
1.686466298997402191e-02
-5.557453725486993790e-03
1.077853292226791382e-01
8.163698017597198486e-02
3.307107463479042053e-02
1.168698370456695557e-01
2.598937973380088806e-02
1.772686690092086792e-01
1.077675223350524902e-01
-1.414175778627395630e-01
-1.573226042091846466e-02
-6.365980952978134155e-02
9.067159146070480347e-02
-1.183471381664276123e-01
-8.149103075265884399e-02
-1.686260104179382324e-02
2.927332818508148193e-01
2.009196877479553223e-01
1.665203571319580078e-01
-8.858845382928848267e-02
-1.512588113546371460e-01
6.157195940613746643e-02
1.353636234998703003e-01
-1.115470305085182190e-01
-8.861836977303028107e-03
4.540778324007987976e-02
5.904915928840637207e-02
-2.242105305194854736e-01
-1.335968971252441406e-01
-1.735594309866428375e-02
9.718277305364608765e-02
3.764920681715011597e-02
5.459122359752655029e-03
7.762294262647628784e-02
-5.359066277742385864e-02
-1.275184154510498047e-01
2.301965057849884033e-01
-2.704660296440124512e-01
1.192353516817092896e-01
-2.600616402924060822e-02
-9.783920645713806152e-02
4.455812275409698486e-02
-7.048133760690689087e-02
-8.765035122632980347e-02
-1.051809564232826233e-01
-1.142259389162063599e-01
-7.473752647638320923e-02
-2.290965914726257324e-01
3.573580831289291382e-02
-1.795486956834793091e-01
-1.093996912240982056e-01
-1.547894924879074097e-01
2.454137802124023438e-01
1.794821172952651978e-01
1.417568624019622803e-01
-7.226249575614929199e-02
1.269505731761455536e-02
9.328503161668777466e-02
-6.891261041164398193e-02
1.555027067661285400e-01
3.379426489118486643e-04
-7.085239142179489136e-02
-6.442696601152420044e-02
-4.570699483156204224e-02
-9.013271774165332317e-04
6.562121212482452393e-02
-1.553851552307605743e-02
-1.403990946710109711e-02
6.969332695007324219e-02
-2.240752428770065308e-02
-7.696719467639923096e-02
8.003985881805419922e-02
-1.210452541708946228e-01
2.512784302234649658e-01
-7.304923236370086670e-02
-6.411422789096832275e-02
-1.796791516244411469e-02
-2.272336035966873169e-01
1.738346414640545845e-03
-3.416632488369941711e-02
1.064735725522041321e-01
-1.012032553553581238e-01
1.002786830067634583e-01
1.995020359754562378e-01
2.893077768385410309e-02
-3.394177556037902832e-01
1.762629449367523193e-01
-1.711434125900268555e-01
-6.270702928304672241e-02
7.802449166774749756e-02
-3.480420261621475220e-02
-1.001878082752227783e-02
1.452039480209350586e-01
4.672611504793167114e-02
9.306075423955917358e-02
2.541171945631504059e-02
8.996295183897018433e-02
1.177549585700035095e-01
3.405151143670082092e-02
1.900769397616386414e-02
-2.268757075071334839e-01
8.752892166376113892e-02
7.642000168561935425e-02
1.456497013568878174e-01
2.731086686253547668e-02
-2.101659961044788361e-02
-1.252486109733581543e-01
1.217687204480171204e-01
-1.009551994502544403e-02
1.989636421203613281e-01
-1.324149221181869507e-01
2.097761817276477814e-02
8.094712160527706146e-03
1.816200613975524902e-01
-7.442177738994359970e-03
-5.014406144618988037e-02
-1.352069526910781860e-01
-7.501053065061569214e-02
1.221665292978286743e-01
9.361208230257034302e-02
-1.101119145750999451e-01
-2.934325635433197021e-01
2.229839563369750977e-01
1.741411983966827393e-01
-9.013116359710693359e-02
1.049394756555557251e-01
8.359123766422271729e-02
-2.528718411922454834e-01
-2.817426249384880066e-02
-6.849466264247894287e-02
-5.245731398463249207e-02
-1.722591668367385864e-01
1.023160740733146667e-01
-1.901418715715408325e-01
-1.616737842559814453e-01
-1.436085850000381470e-01
5.245152115821838379e-02
-2.758618211373686790e-03
-5.530823022127151489e-02
2.459570467472076416e-01
-1.437318138778209686e-02
-1.824772208929061890e-01
-5.490204691886901855e-02
4.037328436970710754e-02
8.234108239412307739e-02
-2.094688564538955688e-01
-1.464495658874511719e-01
5.341586470603942871e-02
3.064560703933238983e-02
-9.171572327613830566e-02
-8.594382554292678833e-02
1.578557789325714111e-01
-1.006695553660392761e-01
1.883507668972015381e-01
6.485792994499206543e-02
9.189905971288681030e-02
2.363034784793853760e-01
8.124839514493942261e-02
6.608024239540100098e-02
-1.408476978540420532e-01
2.569593191146850586e-01
-1.619179844856262207e-01
-4.679623246192932129e-02
-2.845257334411144257e-02
-2.310743778944015503e-01
-2.222444415092468262e-01
-8.516620099544525146e-02
-1.537689119577407837e-01
5.727575346827507019e-02
9.598234295845031738e-02
3.400536626577377319e-02
-3.833888471126556396e-02
-2.525257132947444916e-02
1.259011030197143555e-01
-7.124906778335571289e-02
1.004056707024574280e-01
1.093014627695083618e-01
9.145773202180862427e-02
-7.106267660856246948e-02
-2.047264762222766876e-02
8.229347877204418182e-03
1.121746897697448730e-01
-6.151371169835329056e-03
3.157979622483253479e-02
-1.081634536385536194e-01
1.070736572146415710e-01
1.375832557678222656e-01
-2.216026633977890015e-01
-5.833048745989799500e-02
6.059519946575164795e-02
-5.714788287878036499e-02
3.549858182668685913e-02
1.177972629666328430e-01
8.668171614408493042e-02
-1.921864598989486694e-01
-1.828453391790390015e-01
-8.137946575880050659e-02
2.471572346985340118e-02
3.719658777117729187e-02
-1.848683804273605347e-01
-9.477312117815017700e-02
6.430082768201828003e-02
-2.061138451099395752e-01
2.020070552825927734e-01
2.116680890321731567e-01
2.815113961696624756e-01
1.406507343053817749e-01
1.729595810174942017e-01
1.913534551858901978e-01
4.570951312780380249e-02
-3.606060519814491272e-02
-3.878327831625938416e-02
-2.212713845074176788e-02
7.567362487316131592e-02
-1.179204806685447693e-01
1.866204589605331421e-01
2.557382732629776001e-02
-2.241945713758468628e-01
3.021991848945617676e-01
3.258197754621505737e-02
2.428171783685684204e-01
4.641125909984111786e-03
-9.235534816980361938e-02
8.287289738655090332e-02
-1.533659398555755615e-01
-2.179123908281326294e-01
-4.013127088546752930e-02
-7.451911456882953644e-03
3.961935266852378845e-02
-1.197328642010688782e-01
-1.723125725984573364e-01
9.533438086509704590e-02
-4.505948629230260849e-03
9.641000628471374512e-02
2.720453217625617981e-02
-3.051866292953491211e-01
2.940960973501205444e-02
-7.682244479656219482e-02
-4.264507889747619629e-01
6.807728111743927002e-02
1.810224503278732300e-01
1.309177577495574951e-01
-9.233538992702960968e-03
-1.592598110437393188e-01
-2.863236665725708008e-01
7.333882153034210205e-02
2.278186753392219543e-02
1.397204548120498657e-01
7.160169631242752075e-02
1.475910544395446777e-01
-2.463486045598983765e-03
7.866499572992324829e-02
-1.454705465584993362e-02
3.956600651144981384e-02
7.891763001680374146e-02
2.328254133462905884e-01
-2.265123724937438965e-01
3.768109902739524841e-02
5.221769958734512329e-02
7.686756551265716553e-02
-1.095992177724838257e-01
-1.681447327136993408e-01
-1.437247246503829956e-01
-3.257918655872344971e-01
-1.479639708995819092e-01
2.272232919931411743e-01
-3.584812283515930176e-01
-8.071295917034149170e-02
-2.579301893711090088e-01
2.163811586797237396e-03
-2.267918586730957031e-01
-2.075984776020050049e-01
6.562727689743041992e-02
2.449063658714294434e-01
-6.699471920728683472e-02
1.283227652311325073e-02
-1.321403682231903076e-01
-2.882705256342887878e-02
-1.918742060661315918e-02
4.222022835165262222e-03
-2.112030386924743652e-01
4.299398958683013916e-01
-3.276085108518600464e-02
9.000401198863983154e-02
-2.905774116516113281e-01
-5.004395544528961182e-02
7.105677574872970581e-02
-1.145484745502471924e-01
2.758326381444931030e-02
-1.671787053346633911e-01
-6.416809745132923126e-03
1.981735229492187500e-01
-2.277258634567260742e-01
1.455278992652893066e-01
3.602438792586326599e-02
1.658890545368194580e-01
-1.292450726032257080e-01
7.907488942146301270e-02
-9.024455398321151733e-02
2.021318674087524414e-01
-1.824592500925064087e-01
-2.760739326477050781e-01
1.558523625135421753e-01
1.145781576633453369e-02
1.399692296981811523e-01
-7.624227553606033325e-02
6.016861647367477417e-02
1.361921727657318115e-01
-8.716467022895812988e-02
2.801845073699951172e-01
-1.282339096069335938e-01
-2.207824029028415680e-02
-1.651355922222137451e-01
-9.004819393157958984e-02
-6.545322388410568237e-02
1.171552948653697968e-02
1.178426966071128845e-01
5.971536785364151001e-02
1.596285402774810791e-01
2.135259658098220825e-01
2.310705631971359253e-01
1.426675766706466675e-01
4.322348162531852722e-02
-4.565740749239921570e-02
-3.215202987194061279e-01
-1.670875847339630127e-01
-2.609173655509948730e-01
1.787894666194915771e-01
5.749013274908065796e-02
-1.062960773706436157e-01
-2.494599856436252594e-02
3.460891246795654297e-01
1.946198195219039917e-01
1.258027274161577225e-02
1.087038367986679077e-01
5.840335041284561157e-02
1.571991443634033203e-01
-7.057168334722518921e-02
-1.987735480070114136e-01
-2.661341130733489990e-01
1.383111923933029175e-01
-4.819561913609504700e-02
-7.221265137195587158e-02
2.152647636830806732e-02
-2.509166598320007324e-01
5.204172804951667786e-02
2.543362677097320557e-01
2.771663367748260498e-01
-4.427591711282730103e-02
2.638184130191802979e-01
-2.510491013526916504e-01
1.353092491626739502e-01
-1.575166583061218262e-01
-6.643458269536495209e-03
-2.805036008358001709e-01
7.839276641607284546e-02
-1.045191958546638489e-01
1.080107986927032471e-01
5.875508859753608704e-02
5.714263767004013062e-02
-4.624509438872337341e-02
2.477672100067138672e-01
1.257707774639129639e-01
-1.276330649852752686e-01
-2.910242788493633270e-02
9.282196313142776489e-02
-3.433845341205596924e-01
2.412372529506683350e-01
2.005637157708406448e-03
-4.415397997945547104e-03
-2.391207814216613770e-01
1.852263063192367554e-01
-7.166239619255065918e-02
-5.228268355131149292e-02
-1.468894332647323608e-01
1.325238943099975586e-01
-7.512935250997543335e-02
2.071575373411178589e-01
4.252774640917778015e-02
1.004675850272178650e-01
3.081958554685115814e-02
-6.770968437194824219e-02
-3.425056813284754753e-03
-4.563242197036743164e-02
-4.686145111918449402e-02
1.144923493266105652e-01
2.066535502672195435e-01
4.838405176997184753e-02
-1.863090246915817261e-01
9.449572116136550903e-02
-7.255414966493844986e-03
-6.831935048103332520e-02
-7.009416073560714722e-02
-2.961721271276473999e-02
8.292503654956817627e-02
9.885276108980178833e-02
-1.392216086387634277e-01
5.590895190834999084e-02
-4.685261845588684082e-02
-2.455118577927350998e-03
1.693828999996185303e-01
-1.811707168817520142e-01
-1.024892404675483704e-01
1.247649118304252625e-01
-4.981734603643417358e-02
-1.924847215414047241e-01
-1.185100525617599487e-01
1.571508496999740601e-01
-5.667462572455406189e-02
-1.260161548852920532e-01
4.518260806798934937e-02
-2.003345824778079987e-02
3.317609429359436035e-02
2.243799120187759399e-01
-1.243885979056358337e-01
-1.700063794851303101e-01
2.592872679233551025e-01
-8.489421755075454712e-02
-1.300705522298812866e-01
-1.432867348194122314e-02
8.644682168960571289e-02
6.148686632513999939e-02
3.753985837101936340e-02
6.135933473706245422e-02
-1.088965460658073425e-01
2.919813990592956543e-02
-1.847542263567447662e-02
3.218503296375274658e-02
-1.062216013669967651e-01
3.057467378675937653e-02
-6.084507703781127930e-02
4.740180820226669312e-02
-2.084976732730865479e-01
-5.862147361040115356e-02
-1.061926558613777161e-01
4.950919747352600098e-02
3.698781132698059082e-02
2.127252519130706787e-01
-4.345768317580223083e-02
3.640810027718544006e-02
-3.989525604993104935e-03
5.610737949609756470e-02
2.459453977644443512e-02
8.603435941040515900e-03
2.592039108276367188e-02
-1.737969964742660522e-01
9.327536821365356445e-02
-1.381822489202022552e-02
-8.740326017141342163e-02
1.243868321180343628e-01
8.555433899164199829e-02
3.915041685104370117e-02
1.934606581926345825e-01
2.984692342579364777e-02
2.253146376460790634e-03
5.458641797304153442e-02
-2.215909585356712341e-02
-6.328296661376953125e-02
-5.993417277932167053e-02
8.071048557758331299e-02
-7.232946157455444336e-02
-7.649715244770050049e-02
2.800461463630199432e-02
-1.589699089527130127e-02
1.749254763126373291e-02
5.500968173146247864e-02
-2.967446856200695038e-02
-9.131657332181930542e-02
-1.264545321464538574e-01
2.823536284267902374e-02
7.282937318086624146e-02
-1.464951783418655396e-01
-8.855242282152175903e-02
-4.195469617843627930e-02
7.911740988492965698e-02
-1.317677050828933716e-01
6.371772289276123047e-02
-7.576529681682586670e-02
-9.590880572795867920e-02
-1.212817803025245667e-01
6.964934617280960083e-02
-5.660872906446456909e-02
-5.561449378728866577e-02
3.635575994849205017e-02
6.030946224927902222e-02
-2.351789325475692749e-01
1.617801636457443237e-01
1.328372061252593994e-01
-3.145255148410797119e-02
-2.679091691970825195e-02
-1.526711788028478622e-02
-4.554878920316696167e-02
8.257848024368286133e-02
-5.366070941090583801e-02
-2.585009634494781494e-01
-1.925484649837017059e-02
5.831655114889144897e-02
1.381268948316574097e-01
-8.786499500274658203e-03
7.542260736227035522e-02
-4.621267691254615784e-02
1.702938228845596313e-02
-7.167518883943557739e-02
8.821282535791397095e-02
-2.499156445264816284e-02
8.841831982135772705e-02
8.339352160692214966e-02
2.867607027292251587e-02
-3.220235183835029602e-02
1.053131818771362305e-01
2.795545756816864014e-02
-1.529919654130935669e-01
-1.558215767145156860e-01
6.168613582849502563e-02
8.348252624273300171e-02
-8.950167894363403320e-02
5.298172682523727417e-02
5.371048301458358765e-02
-1.167171746492385864e-01
-1.308465749025344849e-01
-2.004205584526062012e-01
-2.267716638743877411e-02
-7.897173613309860229e-02
-1.609881967306137085e-01
1.066260933876037598e-01
-1.076766755431890488e-02
-9.096518158912658691e-03
-9.295710921287536621e-02
3.432790562510490417e-02
-2.959342487156391144e-02
7.068709284067153931e-02
1.698999553918838501e-01
-2.316719889640808105e-01
1.522684097290039062e-01
-4.989921301603317261e-02
-2.782554924488067627e-01
-2.977659925818443298e-02
2.566631697118282318e-02
-3.694558739662170410e-01
2.789494693279266357e-01
9.996584802865982056e-02
-2.110960930585861206e-01
-1.209503188729286194e-01
7.774201035499572754e-02
-2.321626543998718262e-01
2.556698024272918701e-01
1.330275386571884155e-01
7.627557218074798584e-02
-1.630201935768127441e-01
1.608379483222961426e-01
-3.371329903602600098e-01
9.847736509982496500e-05
-7.876811921596527100e-02
-7.349769026041030884e-02
2.364504784345626831e-01
-1.318597793579101562e-01
-1.574671454727649689e-02
-9.612014144659042358e-02
3.105843961238861084e-01
-2.225493490695953369e-01
-2.739110961556434631e-02
8.836182765662670135e-03
7.040311396121978760e-02
3.121497668325901031e-02
-1.034954041242599487e-01
3.612966090440750122e-02
1.990301012992858887e-01
-3.377068042755126953e-02
1.211994811892509460e-01
-3.960740938782691956e-02
-1.258875876665115356e-01
-1.729079335927963257e-01
3.858577013015747070e-01
2.672498673200607300e-02
-6.607524305582046509e-02
-3.715721368789672852e-01
1.300304383039474487e-01
4.003747366368770599e-03
-5.459236726164817810e-02
1.849120557308197021e-01
1.093669459223747253e-01
1.080671697854995728e-01
2.220244519412517548e-02
1.796949207782745361e-01
-3.218585997819900513e-02
-4.869094491004943848e-02
2.450391948223114014e-01
-9.674744307994842529e-02
5.638165399432182312e-02
2.565687000751495361e-01
-7.628517597913742065e-02
2.859982252120971680e-01
-8.579747378826141357e-02
-1.941266655921936035e-01
-8.274167031049728394e-02
-5.867589637637138367e-02
8.596197515726089478e-02
-2.082694023847579956e-01
1.723147332668304443e-01
1.569243073463439941e-01
-5.239142104983329773e-02
2.981067299842834473e-01
-2.253166139125823975e-01
1.086299791932106018e-01
-2.067395299673080444e-02
-1.529314666986465454e-01
-1.654417663812637329e-01
5.697661042213439941e-01
2.355981916189193726e-01
1.372264772653579712e-01
3.983335942029953003e-02
8.381294459104537964e-02
-1.209701411426067352e-02
-6.356023997068405151e-02
-1.260648518800735474e-01
-3.227191269397735596e-01
-6.586220115423202515e-02
4.671226814389228821e-02
-1.597146131098270416e-02
2.846613228321075439e-01
6.973525136709213257e-02
1.166227310895919800e-01
-1.208904236555099487e-01
8.495478332042694092e-02
1.508027501404285431e-02
-1.886306256055831909e-01
2.040550559759140015e-01
-1.693505048751831055e-01
1.724882721900939941e-01
-1.014809906482696533e-01
1.553108990192413330e-01
2.421061135828495026e-02
-2.334246635437011719e-01
1.402494013309478760e-01
-8.047117292881011963e-02
6.810679286718368530e-02
-1.003495976328849792e-01
1.188576370477676392e-01
1.553223468363285065e-02
-9.918034821748733521e-02
-8.133792132139205933e-02
2.977098524570465088e-02
-1.431760340929031372e-01
2.529639601707458496e-01
2.217523902654647827e-01
5.060810223221778870e-02
1.563924551010131836e-02
7.106323540210723877e-02
1.135835498571395874e-01
4.159291461110115051e-02
-1.177580375224351883e-02
5.564084649085998535e-02
1.789037585258483887e-01
-2.661676844581961632e-03
1.024285107851028442e-01
-1.252612471580505371e-01
1.060328930616378784e-01
6.413441151380538940e-02
3.337902948260307312e-02
-9.884778410196304321e-02
1.083815693855285645e-01
-4.998002201318740845e-02
-4.309055581688880920e-02
3.539288416504859924e-02
1.593373417854309082e-01
-3.203514218330383301e-01
-1.753364950418472290e-01
-5.965935811400413513e-02
-1.119640320539474487e-01
1.084988191723823547e-01
-8.639963716268539429e-02
1.065062209963798523e-01
1.470623165369033813e-01
1.204012334346771240e-01
-6.666469573974609375e-02
-1.122987791895866394e-01
1.088578067719936371e-02
5.136574059724807739e-02
-2.373139411211013794e-01
5.305615812540054321e-02
1.122607737779617310e-01
2.440441101789474487e-01
4.491992294788360596e-02
1.920547485351562500e-01
-2.111528664827346802e-01
-1.898707076907157898e-02
3.649280592799186707e-02
1.137442979961633682e-02
2.445909380912780762e-01
2.327810227870941162e-01
2.362941950559616089e-02
-9.837890416383743286e-02
-3.605047464370727539e-01
-2.116750478744506836e-01
3.408966958522796631e-02
-1.243452355265617371e-01
8.032561838626861572e-02
4.232369735836982727e-02
1.094472333788871765e-01
-9.163320809602737427e-02
-1.222952082753181458e-01
8.418634533882141113e-02
9.953656047582626343e-02
6.381172686815261841e-02
-1.173995956778526306e-01
2.070037722587585449e-01
1.188014075160026550e-01
1.068548560142517090e-01
9.000281244516372681e-02
-1.270371973514556885e-01
1.923106163740158081e-01
9.531555324792861938e-02
-3.548378869891166687e-02
-1.520950496196746826e-01
-1.809145882725715637e-02
4.494227468967437744e-02
1.223260760307312012e-01
-1.923522502183914185e-01
1.233904715627431870e-02
-4.867159761488437653e-03
3.121006302535533905e-04
8.342140913009643555e-02
1.075916066765785217e-01
1.635538935661315918e-01
7.149305939674377441e-02
4.166162386536598206e-02
-3.628843724727630615e-01
1.006511598825454712e-02
1.208555605262517929e-02
4.589929431676864624e-02
3.243039175868034363e-02
-6.434077024459838867e-02
-9.974817931652069092e-02
-5.975845456123352051e-02
1.577241122722625732e-01
-4.163710027933120728e-02
-1.948980689048767090e-01
-9.337362647056579590e-02
8.539833873510360718e-02
-1.577742695808410645e-01
1.015272140502929688e-01
-3.153318911790847778e-02
-1.107416227459907532e-01
3.600618615746498108e-02
1.019476875662803650e-01
9.214021265506744385e-02
-2.857523784041404724e-02
-4.846928268671035767e-02
-1.931151896715164185e-01
-8.388187736272811890e-02
3.255895376205444336e-01
1.378042101860046387e-01
1.219806820154190063e-01
1.584492065012454987e-02
8.478946983814239502e-02
2.018491327762603760e-01
-2.300592213869094849e-01
1.013518944382667542e-01
-1.748846769332885742e-01
-1.050599515438079834e-01
6.596143543720245361e-02
5.911638960242271423e-02
-2.289345115423202515e-02
-1.023813113570213318e-01
2.026101201772689819e-02
-2.143350988626480103e-02
-3.320655226707458496e-02
1.149301901459693909e-01
1.247235238552093506e-01
-2.236584015190601349e-02
-1.146910432726144791e-02
-1.712779551744461060e-01
5.888017639517784119e-02
-1.677539944648742676e-01
-8.700355142354965210e-02
3.121551685035228729e-02
5.898202955722808838e-02
-8.161893486976623535e-02
1.462036307202652097e-04
5.128438398241996765e-02
-2.935681045055389404e-01
1.254690438508987427e-01
6.598088145256042480e-02
-1.207332685589790344e-01
-2.005674093961715698e-01
2.686767093837261200e-02
-5.804841592907905579e-02
-1.118707507848739624e-01
-1.352787911891937256e-01
-1.949789226055145264e-01
3.017624020576477051e-01
-4.308163747191429138e-02
-9.428574889898300171e-02
-2.711325883865356445e-02
2.330852895975112915e-01
1.080939844250679016e-01
9.986449033021926880e-02
1.180303189903497696e-02
-1.158457323908805847e-01
-1.342753767967224121e-01
2.373275905847549438e-01
2.268459349870681763e-01
-2.936847209930419922e-01
6.112767010927200317e-02
4.922323301434516907e-02
5.640809889882802963e-03
2.434908002614974976e-01
2.351922988891601562e-01
-5.449900776147842407e-02
-1.676598936319351196e-02
-1.295839343219995499e-02
-2.909611910581588745e-02
-5.859727039933204651e-02
-2.891229838132858276e-02
1.155806928873062134e-01
1.797501891851425171e-01
-1.386540010571479797e-02
-5.662719011306762695e-01
2.913990058004856110e-02
3.210100531578063965e-01
2.976734042167663574e-01
-4.555169865489006042e-02
-1.637284755706787109e-01
1.478059962391853333e-02
1.203181073069572449e-01
-2.945264279842376709e-01
-1.177418306469917297e-01
6.620252132415771484e-02
7.364290207624435425e-02
9.762693196535110474e-03
-2.419083267450332642e-01
1.207097247242927551e-01
1.324646919965744019e-01
-3.011853806674480438e-02
-3.030525753274559975e-03
3.725589811801910400e-02
5.027293041348457336e-02
1.951734423637390137e-01
-1.321455985307693481e-01
4.010127857327461243e-02
2.423617802560329437e-02
-1.231520771980285645e-01
-3.815441578626632690e-02
-2.456602752208709717e-01
-1.311816126108169556e-01
-1.238726824522018433e-01
1.616762019693851471e-02
1.401998251676559448e-01
6.336713582277297974e-02
-1.036980524659156799e-01
-8.533426374197006226e-02
-1.678333431482315063e-01
-1.248877272009849548e-01
-3.322391072288155556e-03
-2.254634536802768707e-02
1.624293327331542969e-01
-1.236090436577796936e-02
-2.567930221557617188e-01
4.403586313128471375e-02
-5.590787529945373535e-02
-1.906964555382728577e-02
2.052711695432662964e-01
2.999257110059261322e-02
-5.907008796930313110e-02
1.465950310230255127e-01
7.858784869313240051e-03
-3.651762381196022034e-02
1.736546456813812256e-01
3.936205059289932251e-02
1.859279721975326538e-02
8.450343459844589233e-02
-1.265493780374526978e-01
-6.601636856794357300e-02
-6.588019430637359619e-02
1.789297610521316528e-01
-8.732040971517562866e-02
4.652764499187469482e-01
9.171234071254730225e-02
-6.891963630914688110e-02
-4.691860638558864594e-03
-1.865808218717575073e-01
-2.175368182361125946e-02
5.386816337704658508e-02
1.795793417841196060e-03
1.669139266014099121e-01
-9.033363312482833862e-03
-6.431339681148529053e-02
2.495257705450057983e-01
-1.202064845710992813e-02
9.789817780256271362e-02
1.757138371467590332e-01
1.440522372722625732e-01
-4.826350882649421692e-02
-3.339187502861022949e-01
-2.684414684772491455e-01
-3.873147070407867432e-02
-5.448571592569351196e-02
7.463982701301574707e-02
1.425009369850158691e-01
-3.563662469387054443e-01
1.839116364717483521e-01
1.472596973180770874e-01
-5.963151901960372925e-02
9.266675263643264771e-02
-1.420737057924270630e-02
8.124071359634399414e-02
-8.584672957658767700e-02
9.255030751228332520e-02
-1.660811454057693481e-01
1.438529789447784424e-01
-8.327049016952514648e-02
-3.017163462936878204e-02
-4.479250404983758926e-03
-8.808449655771255493e-02
1.201882585883140564e-02
-9.391636401414871216e-02
5.753985419869422913e-02
-9.910569339990615845e-02
6.665230542421340942e-02
-1.043093279004096985e-01
5.573735386133193970e-02
-2.185613848268985748e-02
1.047467812895774841e-01
1.237119883298873901e-01
-7.046828418970108032e-02
1.909050345420837402e-01
2.850767783820629120e-02
-3.835285082459449768e-02
6.266599148511886597e-02
6.800221308367326856e-05
9.609029442071914673e-02
-9.631681442260742188e-02
1.575696654617786407e-02
3.281832858920097351e-02
-4.537700116634368896e-02
4.621725901961326599e-02
-5.448558554053306580e-02
-5.221443623304367065e-02
1.617934554815292358e-02
-3.109671361744403839e-02
-2.111995033919811249e-02
-2.324616536498069763e-02
-5.071488022804260254e-02
4.541278816759586334e-03
-1.636720299720764160e-01
-5.244362726807594299e-02
-6.377808749675750732e-02
7.302644848823547363e-02
3.170134127140045166e-02
-8.232375979423522949e-02
-5.934345349669456482e-02
8.987592533230781555e-03
8.501926064491271973e-02
-3.738998621702194214e-02
-6.488137692213058472e-02
4.956711083650588989e-02
-7.112830132246017456e-02
-1.366441249847412109e-01
-1.430082172155380249e-01
1.741748675704002380e-02
1.582845598459243774e-01
1.355443522334098816e-02
6.669361889362335205e-02
-4.863431304693222046e-02
-1.133287996053695679e-01
-5.455520004034042358e-02
4.477610811591148376e-03
5.353205651044845581e-02
2.889384701848030090e-02
-1.284910738468170166e-01
3.421733900904655457e-02
-1.482274383306503296e-01
-6.855723261833190918e-02
1.092120558023452759e-01
-1.740332692861557007e-02
-4.654591903090476990e-02
9.282492846250534058e-02
-7.545496523380279541e-02
-3.979728743433952332e-02
-9.501890093088150024e-02
3.125590458512306213e-02
3.781662555411458015e-03
-1.352616995573043823e-01
9.062182158231735229e-02
4.317070171236991882e-02
-6.632220745086669922e-02
7.625846564769744873e-02
-1.557610481977462769e-01
-5.420577526092529297e-02
3.170276060700416565e-02
-1.294289436191320419e-02
-3.021574765443801880e-02
4.527941718697547913e-02
-1.353300362825393677e-01
1.850473321974277496e-02
6.636287271976470947e-02
2.989752963185310364e-02
-6.598222255706787109e-02
7.085280120372772217e-02
9.851011633872985840e-02
-1.155968159437179565e-01
-2.404853701591491699e-02
5.969195067882537842e-02
2.021871320903301239e-02
4.284865036606788635e-02
2.740745805203914642e-02
3.136524185538291931e-02
-6.778635829687118530e-02
-6.282061338424682617e-02
-8.034969866275787354e-02
-4.369328543543815613e-02
-2.095007337629795074e-02
6.801274418830871582e-02
1.110811010003089905e-01
8.648297190666198730e-02
-9.473823755979537964e-02
5.679473653435707092e-02
1.055224761366844177e-01
6.450721528381109238e-03
1.697894185781478882e-01
3.753270953893661499e-03
-2.929580397903919220e-02
-4.007346555590629578e-02
4.102333262562751770e-02
-1.003590077161788940e-01
-1.865638792514801025e-02
5.143322795629501343e-02
-9.841963648796081543e-02
-3.526672348380088806e-02
8.596416562795639038e-02
-6.872859597206115723e-02
-2.284298464655876160e-02
2.150620222091674805e-01
4.984252154827117920e-02
-1.182290092110633850e-01
3.796885535120964050e-02
2.208311557769775391e-01
2.293891645967960358e-02
1.886731758713722229e-02
1.874153385870158672e-03
1.592177152633666992e-01
9.617453813552856445e-02
-1.029839143157005310e-01
2.682499960064888000e-02
5.636835843324661255e-02
-1.093223318457603455e-01
-1.960422843694686890e-01
1.863355785608291626e-01
1.326424628496170044e-01
-1.956865489482879639e-01
-2.131101861596107483e-02
-3.896096050739288330e-01
-6.262795068323612213e-03
1.356230974197387695e-01
1.400751769542694092e-01
-3.796241944655776024e-03
5.748524889349937439e-02
-1.479499693959951401e-02
-1.572777181863784790e-01
-9.161977469921112061e-02
2.835031449794769287e-01
1.447632014751434326e-01
-7.405933737754821777e-02
2.685616910457611084e-02
2.116445153951644897e-01
1.012312248349189758e-01
-1.208037063479423523e-01
2.255278378725051880e-01
8.548194915056228638e-02
7.426104694604873657e-02
1.700624525547027588e-01
-3.069505989551544189e-01
1.985024213790893555e-01
1.346601247787475586e-01
6.796845793724060059e-02
-2.241844385862350464e-01
-9.985730797052383423e-02
-1.368097215890884399e-01
-2.277526557445526123e-01
-9.552940726280212402e-02
1.923994859680533409e-03
3.901359736919403076e-01
6.751762330532073975e-02
-8.681779354810714722e-02
-2.136837840080261230e-01
1.128904223442077637e-01
4.760844260454177856e-02
2.764059901237487793e-01
-9.530463814735412598e-02
1.025329828262329102e-01
1.945334374904632568e-01
-6.579497456550598145e-02
-5.407093092799186707e-02
-3.872607350349426270e-01
2.031480371952056885e-01
-1.046586409211158752e-01
-7.079727202653884888e-02
-3.735976666212081909e-02
-4.696347936987876892e-02
-7.636402547359466553e-02
1.743497848510742188e-01
-1.665459275245666504e-01
-6.684657931327819824e-02
-1.067081242799758911e-01
1.629360318183898926e-01
-2.332393527030944824e-01
2.114632278680801392e-01
9.220194071531295776e-02
1.096799299120903015e-01
-8.768477290868759155e-02
-2.994172275066375732e-01
1.020551398396492004e-01
2.199502289295196533e-02
-1.621778309345245361e-01
8.539494127035140991e-02
-3.395715355873107910e-02
1.533614099025726318e-02
2.839705049991607666e-01
-7.500009983777999878e-02
-1.014529913663864136e-01
-1.805831491947174072e-01
-1.254996210336685181e-01
-6.852941587567329407e-03
-1.908921599388122559e-01
-7.159472256898880005e-02
1.136585921049118042e-01
2.261827141046524048e-02
1.181776523590087891e-01
7.642559707164764404e-02
-1.103364676237106323e-01
-9.945508092641830444e-03
1.894838511943817139e-01
-1.660160869359970093e-01
-7.423844188451766968e-02
3.215611577033996582e-01
-1.999851129949092865e-02
9.992107748985290527e-02
2.628380656242370605e-01
-7.089994847774505615e-02
-3.925041854381561279e-02
-1.929454058408737183e-01
1.470370311290025711e-02
-2.108900249004364014e-01
7.231023907661437988e-02
3.552971780300140381e-02
-1.804186850786209106e-01
-8.485711365938186646e-02
-2.270822674036026001e-01
1.307852417230606079e-01
1.737427562475204468e-01
1.049211099743843079e-01
-1.178306117653846741e-01
2.957928776741027832e-01
-1.933983266353607178e-01
-3.713763356208801270e-01
-6.506950408220291138e-02
-3.589733242988586426e-01
-2.353697828948497772e-02
6.790092587471008301e-02
-1.395523846149444580e-01
1.164685636758804321e-01
6.860664486885070801e-02
-2.053453326225280762e-01
3.183078393340110779e-02
-3.121894598007202148e-01
4.049187526106834412e-03
8.222866803407669067e-03
-1.327185034751892090e-01
-3.065457046031951904e-01
-1.412416249513626099e-01
1.761555485427379608e-02
5.638571456074714661e-02
2.720014750957489014e-02
-1.338482648134231567e-01
-6.053801625967025757e-02
1.150042712688446045e-01
-6.989359110593795776e-02
8.089707046747207642e-02
-9.254948049783706665e-02
-5.455456301569938660e-02
-2.222767472267150879e-02
-1.363111883401870728e-01
-1.465618610382080078e-01
-3.471713960170745850e-01
-3.914520516991615295e-02
2.243284881114959717e-01
-8.776604384183883667e-02
1.764143705368041992e-01
-1.160197481513023376e-01
2.323005348443984985e-01
1.024997443892061710e-03
2.814704477787017822e-01
-8.564322441816329956e-02
-9.031103551387786865e-02
-3.640771284699440002e-02
-9.688016958534717560e-03
4.710419103503227234e-02
1.354612708091735840e-01
1.665733009576797485e-01
3.864364326000213623e-02
-7.831704616546630859e-02
-1.134763881564140320e-01
1.033910885453224182e-01
6.042728945612907410e-02
3.843927383422851562e-02
3.128574788570404053e-02
-1.006967797875404358e-01
-7.829842157661914825e-03
3.146640211343765259e-02
-1.477204710245132446e-01
-1.493991613388061523e-01
-1.051017940044403076e-01
-3.612938523292541504e-02
1.213173568248748779e-01
-1.329064071178436279e-01
1.415377557277679443e-01
2.697259187698364258e-02
2.597571909427642822e-02
1.839951425790786743e-01
-1.006031855940818787e-01
6.237335130572319031e-02
-1.763714291155338287e-02
-6.660179793834686279e-02
-4.175619781017303467e-02
-1.616023108363151550e-02
-5.330304801464080811e-02
-2.042691260576248169e-01
2.466943860054016113e-01
1.044088006019592285e-01
-3.301842883229255676e-02
1.095497161149978638e-01
9.559124708175659180e-02
-8.709941804409027100e-02
-7.765589654445648193e-02
-5.417131632566452026e-02
-2.286439239978790283e-01
3.684788197278976440e-02
2.138068079948425293e-01
-1.258636265993118286e-01
-1.538640707731246948e-01
2.772868573665618896e-01
-1.651070117950439453e-01
3.926344588398933411e-02
-6.677690893411636353e-02
-4.517647996544837952e-02
1.596836000680923462e-01
4.552633315324783325e-02
-2.276711761951446533e-01
-9.024346619844436646e-02
7.626931369304656982e-02
-1.815216690301895142e-01
1.828170008957386017e-02
-5.630563199520111084e-02
-4.925868660211563110e-02
-1.070579960942268372e-01
3.010825514793395996e-01
-7.123136520385742188e-02
2.889502346515655518e-01
1.854233294725418091e-01
-5.452671088278293610e-03
6.797414273023605347e-02
2.255002260208129883e-01
-1.591982692480087280e-01
3.087892942130565643e-02
-1.087374836206436157e-01
-1.735764555633068085e-03
7.705665193498134613e-03
1.339114606380462646e-01
2.185645699501037598e-01
1.007728800177574158e-01
-1.191719621419906616e-01
-1.193490251898765564e-02
-1.690454930067062378e-01
-1.286462843418121338e-01
3.275749683380126953e-01
2.060604542493820190e-01
1.682268641889095306e-02
-7.341699302196502686e-02
-2.350546121597290039e-01
-1.514543443918228149e-01
-1.883833855390548706e-01
-6.020243465900421143e-02
1.077256128191947937e-01
-4.808786883950233459e-02
8.102344721555709839e-02
8.415304124355316162e-02
-1.119177192449569702e-01
-1.329728811979293823e-01
2.233556285500526428e-02
1.478034853935241699e-01
-1.134309992194175720e-01
1.235112175345420837e-02
1.327609177678823471e-02
-2.029434442520141602e-01
-1.231999918818473816e-01
-1.415985673666000366e-01
9.883070737123489380e-02
-9.559119492769241333e-02
1.386158615350723267e-01
-3.717930614948272705e-02
-4.507370293140411377e-02
2.181885577738285065e-02
6.473954021930694580e-02
-1.014793738722801208e-01
8.996259421110153198e-02
-2.395551055669784546e-01
-3.549237735569477081e-03
-1.916647255420684814e-01
-8.415850251913070679e-02
-1.721006482839584351e-01
-8.482354879379272461e-02
6.824124604463577271e-02
1.012934669852256775e-01
3.845521807670593262e-02
3.165744543075561523e-01
-7.550290971994400024e-02
-5.855005234479904175e-02
-1.516393274068832397e-01
6.760286539793014526e-02
-2.293629199266433716e-01
-3.167978301644325256e-02
3.602139651775360107e-01
1.055092513561248779e-01
4.457661509513854980e-02
-1.096890270709991455e-01
3.546425700187683105e-02
-8.193137496709823608e-02
1.371808443218469620e-02
2.023723572492599487e-01
5.588945746421813965e-02
-3.214855864644050598e-02
3.685786947607994080e-02
6.377628445625305176e-02
5.538184568285942078e-02
-1.920100860297679901e-02
-1.447558496147394180e-02
4.169219359755516052e-02
-7.347279787063598633e-02
1.344384532421827316e-02
-1.735851466655731201e-01
-2.716851234436035156e-01
1.945123076438903809e-01
1.865394413471221924e-01
4.919558763504028320e-02
-2.553654462099075317e-02
1.063296273350715637e-01
1.562872081995010376e-01
1.386495679616928101e-02
-2.144839242100715637e-02
-7.446062564849853516e-02
6.138977035880088806e-02
-1.248031407594680786e-01
-1.106219645589590073e-02
1.523430794477462769e-01
-2.960869669914245605e-02
5.574097111821174622e-02
1.950484663248062134e-01
-8.584269136190414429e-02
3.224052861332893372e-02
7.749167084693908691e-02
1.661897748708724976e-01
-2.942727319896221161e-02
6.579329818487167358e-02
9.174625575542449951e-02
-5.194901302456855774e-02
7.817295938730239868e-02
-4.119041562080383301e-01
-2.257363349199295044e-01
2.383862435817718506e-01
6.706298142671585083e-02
3.649597987532615662e-02
-3.823717683553695679e-02
1.377149075269699097e-01
-1.633675396442413330e-01
6.569179892539978027e-02
-1.653471589088439941e-01
-1.171908080577850342e-01
1.642999053001403809e-01
-1.397980283945798874e-02
-2.518295049667358398e-01
-7.443382591009140015e-02
-1.414701789617538452e-01
-8.320623636245727539e-02
1.481940001249313354e-01
6.548327859491109848e-03
1.242286935448646545e-01
-1.511255502700805664e-01
1.847497075796127319e-01
-2.383961230516433716e-01
7.158259861171245575e-03
1.714570224285125732e-01
3.516946686431765556e-03
1.105692610144615173e-01
7.619556039571762085e-03
1.166563183069229126e-01
-1.001074560917913914e-03
-1.203082054853439331e-01
4.702981412410736084e-01
3.343082591891288757e-02
-1.031765863299369812e-01
-1.097058411687612534e-02
-1.456403881311416626e-01
-5.153524130582809448e-02
-1.736829727888107300e-01
-8.367111533880233765e-02
1.555004529654979706e-02
9.751818329095840454e-02
-3.554055467247962952e-02
-1.359017342329025269e-01
-8.613048493862152100e-02
6.273357570171356201e-02
8.156003803014755249e-02
1.331320405006408691e-01
-1.173205226659774780e-01
-2.425296790897846222e-02
-1.307034939527511597e-01
-7.235588133335113525e-02
-1.898750215768814087e-01
7.408021390438079834e-02
-5.932267755270004272e-02
-1.368222944438457489e-02
-2.077753245830535889e-01
-2.992234528064727783e-01
2.533898921683430672e-03
1.941204629838466644e-02
1.072551161050796509e-01
2.679561972618103027e-01
7.973105460405349731e-02
2.047695918008685112e-03
4.424550756812095642e-02
2.776915132999420166e-01
1.672479957342147827e-01
-2.039854824542999268e-01
1.102823391556739807e-01
1.550593525171279907e-01
1.585313528776168823e-01
-2.362564802169799805e-01
-2.200544998049736023e-02
-9.541188925504684448e-02
1.232216209173202515e-01
4.320024512708187103e-03
-1.440131515264511108e-01
4.513080418109893799e-02
-9.614675492048263550e-02
-7.075449824333190918e-02
-3.974180519580841064e-01
-6.709689646959304810e-02
1.482078805565834045e-02
2.410518936812877655e-02
-4.565896838903427124e-02
1.038435697555541992e-01
-8.080139011144638062e-02
-1.368863135576248169e-01
-8.742761611938476562e-02
1.003458909690380096e-02
-1.048920955508947372e-02
2.434761673212051392e-01
-2.534198164939880371e-01
-1.014846190810203552e-01
1.158382371068000793e-01
-4.572840780019760132e-02
1.037577092647552490e-01
-4.822224006056785583e-02
-6.246905773878097534e-02
-8.375504054129123688e-03
5.047664791345596313e-02
1.364067941904067993e-01
1.059341803193092346e-01
2.277008024975657463e-04
-6.934726983308792114e-02
-8.536090143024921417e-03
-5.635815858840942383e-02
-7.868814468383789062e-02
-3.067912459373474121e-01
2.675513327121734619e-01
5.563956126570701599e-02
-8.059842139482498169e-02
5.767066404223442078e-02
9.047441929578781128e-02
2.409481108188629150e-01
9.262397140264511108e-02
1.733160167932510376e-01
-9.720292687416076660e-02
-3.877462446689605713e-02
-2.095422446727752686e-01
-9.285219758749008179e-02
-7.617146521806716919e-02
-3.509813547134399414e-02
-1.574770547449588776e-02
-4.935809224843978882e-02
-7.292284071445465088e-02
1.406602710485458374e-01
-9.838777780532836914e-02
-1.704137921333312988e-01
1.823423653841018677e-01
-1.747920960187911987e-01
-4.981295019388198853e-02
2.533973939716815948e-02
-2.919780090451240540e-02
2.699252367019653320e-01
-4.701763018965721130e-02
2.378350496292114258e-02
-1.225079298019409180e-01
2.857497602235525846e-04
-1.455984637141227722e-02
-1.013261005282402039e-01
1.088359653949737549e-01
-9.437106549739837646e-03
-5.378762260079383850e-03
-1.442411094903945923e-01
1.560537219047546387e-01
-1.790261715650558472e-01
2.994312159717082977e-02
-4.076014459133148193e-02
-1.755055040121078491e-02
7.074066437780857086e-03
6.373341381549835205e-02
9.986449731513857841e-05
1.410056799650192261e-01
-5.464542657136917114e-02
2.215098142623901367e-01
-2.299270220100879669e-02
1.409877371042966843e-02
-6.039550527930259705e-02
-2.092383503913879395e-01
-7.792493700981140137e-02
1.749806851148605347e-01
-9.504222124814987183e-02
1.082734242081642151e-01
-1.802882994525134563e-03
-8.079464168986305594e-05
4.908411204814910889e-02
-1.174951195716857910e-01
-1.500854492187500000e-01
1.508690863847732544e-01
-1.418924480676651001e-01
7.116161286830902100e-02
2.695775777101516724e-02
1.021777391433715820e-01
1.245580427348613739e-02
1.247294340282678604e-02
-2.974858582019805908e-01
-3.237689658999443054e-02
-5.691700428724288940e-02
3.742473945021629333e-02
2.998429834842681885e-01
-1.190602108836174011e-01
9.360642731189727783e-02
-7.951235026121139526e-02
7.829658687114715576e-02
1.001605242490768433e-01
2.360291779041290283e-01
-1.121250241994857788e-01
2.543554827570915222e-02
-3.987874835729598999e-02
-1.173339262604713440e-01
-5.804522708058357239e-02
-1.005261540412902832e-01
1.516060829162597656e-01
9.881558269262313843e-02
2.564863301813602448e-02
1.431225091218948364e-01
-6.627219915390014648e-02
4.622216895222663879e-02
-2.054699957370758057e-01
1.032791659235954285e-01
-3.593983054161071777e-01
-1.493278890848159790e-01
8.556257188320159912e-02
4.373619705438613892e-02
-2.076822817325592041e-01
1.401413884013891220e-02
1.013033837080001831e-01
3.825138136744499207e-02
-2.462682276964187622e-01
1.007370576262474060e-01
4.274410195648670197e-03
-6.343088299036026001e-02
-2.258660085499286652e-02
2.208069199696183205e-03
-1.842023991048336029e-02
6.526823341846466064e-02
-2.152666747570037842e-01
-1.221881061792373657e-02
-6.834791507571935654e-03
3.559390306472778320e-01
-4.985651001334190369e-02
1.742404550313949585e-01
-1.393659561872482300e-01
-2.986851632595062256e-01
-8.325698785483837128e-03
-1.043742895126342773e-02
-2.092833258211612701e-02
-7.062932103872299194e-02
-8.852114528417587280e-02
-6.078198924660682678e-02
-1.119158789515495300e-01
-1.233126074075698853e-01
-2.644859850406646729e-01
7.932829670608043671e-03
-7.394534349441528320e-02
-1.346730738878250122e-01
1.193228140473365784e-01
-7.946954667568206787e-02
-9.271675348281860352e-02
3.784698247909545898e-02
6.522292643785476685e-02
-1.686401516199111938e-01
1.770842969417572021e-01
-7.673364132642745972e-02
2.957307919859886169e-02
1.109262332320213318e-01
-5.691578611731529236e-02
-5.307661741971969604e-02
6.477047502994537354e-02
-2.971651852130889893e-01
-2.067488282918930054e-01
8.732046186923980713e-02
1.317775100469589233e-01
1.044395752251148224e-02
-7.925177365541458130e-02
-5.591758340597152710e-02
4.242805764079093933e-02
1.753711104393005371e-01
5.347256548702716827e-03
-9.379604458808898926e-02
3.316552564501762390e-02
-8.381178975105285645e-02
-2.161207497119903564e-01
-1.463003177195787430e-02
2.193838655948638916e-01
-2.759895101189613342e-02
2.522906064987182617e-01
-1.505210157483816147e-02
1.986751146614551544e-02
2.077818363904953003e-01
1.494113206863403320e-01
-1.541770100593566895e-01
-1.223844010382890701e-02
-3.844946995377540588e-02
1.626004576683044434e-01
1.285710781812667847e-01
1.049795746803283691e-01
-1.801682859659194946e-01
3.840461745858192444e-02
-1.115399524569511414e-01
-1.168194785714149475e-01
-8.077453821897506714e-02
1.529065985232591629e-02
1.048191040754318237e-01
-6.753582507371902466e-02
2.307038754224777222e-01
6.581673026084899902e-02
-1.794405132532119751e-01
-3.441468775272369385e-01
-1.230503842234611511e-01
2.560397088527679443e-01
-3.222142159938812256e-01
2.009853422641754150e-01
4.993068426847457886e-02
1.674839407205581665e-01
1.276269406080245972e-01
-1.862106919288635254e-01
-1.895526051521301270e-01
-2.272639051079750061e-02
-1.487303674221038818e-01
-5.525362119078636169e-02
1.823299564421176910e-02
2.372618764638900757e-01
-7.513014972209930420e-02
7.254986464977264404e-02
2.105451375246047974e-01
6.117610633373260498e-02
6.347239762544631958e-02
-8.761443942785263062e-02
-1.272448003292083740e-01
-1.191171817481517792e-02
-1.717306673526763916e-01
-3.600991517305374146e-02
-5.864463374018669128e-02
4.169861674308776855e-01
2.821714580059051514e-01
-8.375560492277145386e-02
-1.035170108079910278e-01
-1.645482331514358521e-01
2.680737972259521484e-01
2.445793896913528442e-02
-2.141227275133132935e-01
-2.724458463490009308e-02
1.214612200856208801e-01
-2.180135697126388550e-01
-8.785855025053024292e-02
-2.081949710845947266e-01
1.180435530841350555e-02
-1.281645596027374268e-01
-4.928284510970115662e-02
-1.035364344716072083e-02
-8.018194884061813354e-02
1.076323539018630981e-01
2.569970674812793732e-02
-6.632537394762039185e-02
-3.838646039366722107e-02
8.870729804039001465e-02
1.487554460763931274e-01
-2.503686249256134033e-01
5.883924663066864014e-02
-1.348360478878021240e-01
3.641473948955535889e-01
-1.530538648366928101e-01
-7.537178229540586472e-03
7.280038297176361084e-02
-1.896302253007888794e-01
-3.802597057074308395e-03
-2.561172470450401306e-02
-1.058218851685523987e-01
-1.244904473423957825e-02
-4.224537685513496399e-02
9.526252746582031250e-02
5.676048249006271362e-02
-3.614130988717079163e-02
7.927904278039932251e-02
2.924338541924953461e-02
-2.400006353855133057e-01
2.386077074334025383e-03
3.375843465328216553e-01
-4.105636477470397949e-02
1.275035738945007324e-01
7.185494154691696167e-02
2.828354835510253906e-01
1.262382417917251587e-01
-8.043815195560455322e-02
1.947978734970092773e-01
-1.142710894346237183e-01
9.392413496971130371e-02
-1.780559271574020386e-01
1.591373682022094727e-01
4.561689123511314392e-02
1.332612633705139160e-01
-1.782139949500560760e-02
-2.029750347137451172e-01
-3.475531190633773804e-02
-8.888699114322662354e-02
2.272448502480983734e-02
-1.041767597198486328e-01
9.040442854166030884e-02
-2.480897009372711182e-01
-1.869150102138519287e-01
-7.912278175354003906e-02
1.136707663536071777e-01
-1.283987611532211304e-01
1.858653575181961060e-01
3.408326581120491028e-02
-2.370447367429733276e-01
1.150320321321487427e-01
4.456853121519088745e-02
6.036749482154846191e-02
1.247120723128318787e-01
-2.683262340724468231e-02
-3.091781735420227051e-01
3.464576900005340576e-01
1.945113688707351685e-01
7.617771625518798828e-02
9.457845985889434814e-02
1.798954010009765625e-01
4.699881654232740402e-03
-1.253054141998291016e-01
6.608405709266662598e-02
-1.280694752931594849e-01
-1.421664375811815262e-02
-2.110996544361114502e-01
6.939347088336944580e-02
5.851897224783897400e-02
3.054218739271163940e-02
-3.526049852371215820e-02
4.600910469889640808e-02
2.396579086780548096e-02
-3.018344193696975708e-02
1.648142784833908081e-01
1.596153378486633301e-01
1.805756539106369019e-01
-6.094205006957054138e-02
-2.624008655548095703e-01
-1.974918693304061890e-01
-1.006179675459861755e-01
1.684372872114181519e-02
1.559180915355682373e-01
1.376722753047943115e-01
5.493821576237678528e-02
1.975225657224655151e-01
5.776096135377883911e-02
2.736183442175388336e-02
-6.097645685076713562e-02
1.197780966758728027e-01
-9.698705375194549561e-02
1.886167377233505249e-01
1.497240662574768066e-01
1.196995452046394348e-01
-1.753166019916534424e-01
-2.083449065685272217e-01
2.406341582536697388e-02
1.548758521676063538e-02
4.578335955739021301e-02
-1.003118231892585754e-01
3.566211163997650146e-01
-1.360496878623962402e-01
-1.852126866579055786e-01
-1.498687863349914551e-01
-1.032898649573326111e-01
-9.020530432462692261e-02
-2.162725478410720825e-01
6.349691748619079590e-01
3.267134726047515869e-01
-6.221134960651397705e-02
-1.106385886669158936e-01
-1.644759625196456909e-02
1.741755753755569458e-01
-8.055736869573593140e-02
-2.021875381469726562e-01
-4.338583722710609436e-02
1.340604871511459351e-01
1.606082320213317871e-01
-3.732977062463760376e-02
4.648381099104881287e-02
-2.007161965593695641e-04
-3.886780142784118652e-02
3.275691866874694824e-01
8.302100002765655518e-02
6.619999557733535767e-02
-1.076818928122520447e-01
3.851885721087455750e-02
-4.803479090332984924e-02
6.516884267330169678e-02
-1.277575492858886719e-01
1.450872868299484253e-01
-8.535262942314147949e-02
-7.918804138898849487e-02
-1.061170175671577454e-02
-3.348927199840545654e-02
1.735314428806304932e-01
1.339757740497589111e-01
9.832395613193511963e-02
-9.542261064052581787e-02
2.925277352333068848e-01
-1.242467910051345825e-01
-1.055698841810226440e-01
-1.446157693862915039e-03
-7.662749290466308594e-02
1.080914884805679321e-01
7.395614683628082275e-02
-2.758741080760955811e-01
-1.376763433218002319e-01
-4.206176102161407471e-01
4.069261252880096436e-02
-1.986221969127655029e-02
-1.259260475635528564e-01
-6.005430221557617188e-02
-5.208450183272361755e-02
5.228620395064353943e-02
1.316986046731472015e-02
-1.437680721282958984e-01
7.644079625606536865e-02
9.337297827005386353e-02
4.217939451336860657e-03
1.135845258831977844e-01
-1.544392704963684082e-01
4.544695839285850525e-02
-2.075479328632354736e-01
6.935794651508331299e-02
-5.124264955520629883e-02
8.433697372674942017e-02
-2.612128667533397675e-02
2.192075103521347046e-01
1.760829985141754150e-02
5.599053949117660522e-02
2.943504415452480316e-02
-1.458103507757186890e-01
-3.864059746265411377e-01
9.689990431070327759e-02
-4.276810884475708008e-01
2.199402302503585815e-01
1.402163803577423096e-01
-2.956712245941162109e-02
1.526209712028503418e-01
3.712185844779014587e-02
1.968168616294860840e-01
3.273793309926986694e-02
-3.898549824953079224e-02
1.049335524439811707e-01
-3.601278662681579590e-01
6.704932451248168945e-02
-1.751193106174468994e-01
-2.277136594057083130e-02
1.742939800024032593e-01
-2.362562268972396851e-01
2.955388836562633514e-02
4.140684008598327637e-02
1.665678247809410095e-02
5.435618013143539429e-02
-8.255983702838420868e-03
-4.426113516092300415e-02
1.110550612211227417e-01
3.375149667263031006e-01
-7.903751730918884277e-02
3.323509991168975830e-01
1.904280781745910645e-01
-4.868430644273757935e-02
-1.836422681808471680e-01
-1.421204209327697754e-01
1.310069113969802856e-01
1.599076837301254272e-01
-5.245812982320785522e-02
9.143586456775665283e-02
-2.159001082181930542e-01
-4.682553187012672424e-02
-1.246732622385025024e-01
-1.198256909847259521e-01
-1.712187528610229492e-01
6.464804057031869888e-03
-6.326085329055786133e-02
1.585409343242645264e-01
1.637957431375980377e-02
9.228364378213882446e-02
-1.268923282623291016e-01
-2.646294794976711273e-02
1.513398736715316772e-01
-1.735946834087371826e-01
-2.277483232319355011e-02
-3.532803803682327271e-02
7.709104567766189575e-02
2.701857984066009521e-01
-1.571736037731170654e-01
4.057188704609870911e-02
-2.157767266035079956e-01
1.007190421223640442e-01
1.517383754253387451e-01
1.032047644257545471e-01
-1.477187424898147583e-01
-7.691907882690429688e-02
2.029177248477935791e-01
-1.347832530736923218e-01
-8.360781520605087280e-02
-8.124844729900360107e-02
6.875857710838317871e-02
-1.245667412877082825e-01
1.371945440769195557e-01
3.715975955128669739e-02
8.190333843231201172e-02
3.156720101833343506e-01
-1.098387092351913452e-01
-4.190864413976669312e-02
-2.087721042335033417e-02
-3.785903751850128174e-01
7.003007829189300537e-02
5.895922705531120300e-02
-8.592194318771362305e-02
-2.731953933835029602e-02
2.433612383902072906e-02
-4.034978803247213364e-03
-1.013718321919441223e-01
2.614588737487792969e-01
-2.355206161737442017e-01
-8.107157796621322632e-02
5.686659133061766624e-04
-7.830193638801574707e-02
-8.438420295715332031e-02
-6.335749477148056030e-02
1.119027808308601379e-01
-7.470932602882385254e-02
-3.113755881786346436e-01
2.699551358819007874e-02
9.588789194822311401e-02
-2.811573445796966553e-03
-2.236449122428894043e-01
-1.678510457277297974e-01
1.477557271718978882e-01
3.377454727888107300e-02
-2.414589524269104004e-01
-4.168639332056045532e-02
-2.775981426239013672e-01
-1.383177042007446289e-01
-6.949769705533981323e-02
-2.184541821479797363e-01
-1.479294151067733765e-01
7.521110028028488159e-02
1.655423343181610107e-01
6.139094009995460510e-02
-1.435342878103256226e-01
9.641002118587493896e-02
-1.074032559990882874e-01
8.179976046085357666e-02
-1.597301363945007324e-01
3.162878453731536865e-01
3.331330418586730957e-02
-8.742693811655044556e-02
-9.963904321193695068e-02
1.420824043452739716e-02
-4.063557386398315430e-01
3.359423577785491943e-02
7.945152372121810913e-02
-8.728120476007461548e-02
-1.429132092744112015e-02
1.770193427801132202e-01
2.948125824332237244e-02
-1.278918832540512085e-01
3.591305390000343323e-02
-9.046521037817001343e-02
-8.015431463718414307e-02
1.293533444404602051e-01
-6.501536816358566284e-02
3.335492312908172607e-02
7.235535979270935059e-02
-1.147096082568168640e-01
-9.111077338457107544e-02
5.259085819125175476e-02
8.150339126586914062e-02
-2.443755604326725006e-02
-2.646372914314270020e-01
5.019470304250717163e-02
-8.134905248880386353e-03
1.365935355424880981e-01
2.026378363370895386e-02
1.262919306755065918e-01
4.760150983929634094e-02
-2.597931027412414551e-02
-5.195887759327888489e-02
4.876770079135894775e-02
1.713154166936874390e-01
5.833587795495986938e-02
-3.889163490384817123e-03
-2.518186904489994049e-02
-5.101114511489868164e-02
2.204414829611778259e-02
2.409564107656478882e-01
-8.679328486323356628e-03
-9.896646440029144287e-02
2.182617932558059692e-01
3.220442309975624084e-02
3.471105173230171204e-02
-3.298214375972747803e-01
-1.329661607742309570e-01
-1.451381947845220566e-02
7.457725703716278076e-02
-1.241787821054458618e-01
2.920880797319114208e-04
1.331861130893230438e-02
4.330120235681533813e-02
-2.631666660308837891e-01
9.736653417348861694e-02
-1.428536772727966309e-01
-8.487246930599212646e-02
1.552630215883255005e-01
-1.465015262365341187e-01
-1.955252327024936676e-02
2.067872583866119385e-01
1.113150715827941895e-01
-5.562737584114074707e-03
-7.125461846590042114e-02
1.915503442287445068e-01
-5.039764940738677979e-02
5.163341015577316284e-02
-1.107274219393730164e-01
6.202319636940956116e-02
3.850088641047477722e-02
-2.334086894989013672e-01
-1.394999623298645020e-01
-5.291453748941421509e-02
-1.380707025527954102e-01
7.213523238897323608e-02
-1.712261736392974854e-01
7.734259963035583496e-02
-7.641774415969848633e-02
1.356348097324371338e-01
1.735682636499404907e-01
5.162128061056137085e-02
-2.167286165058612823e-02
1.014101803302764893e-01
1.334177795797586441e-02
5.598037317395210266e-02
-9.426374733448028564e-02
-6.190202012658119202e-02
-1.164825931191444397e-01
2.249736934900283813e-01
2.295106053352355957e-01
2.966821379959583282e-02
4.706325381994247437e-02
3.150623440742492676e-01
-4.546313360333442688e-02
2.249487489461898804e-01
-1.747915446758270264e-01
-2.157324254512786865e-01
-2.504792809486389160e-01
-4.129270464181900024e-02
-8.872430026531219482e-02
-5.054853856563568115e-02
8.800884336233139038e-02
4.001715779304504395e-02
4.391701146960258484e-02
1.951807588338851929e-01
-1.790953129529953003e-01
1.394718140363693237e-01
6.237736716866493225e-02
-1.311293393373489380e-01
-1.163741797208786011e-01
9.278905391693115234e-02
-3.577527031302452087e-02
-2.795729599893093109e-02
-1.429992616176605225e-01
-3.155670464038848877e-01
1.837786845862865448e-02
-1.017926037311553955e-01
-7.654813118278980255e-03
1.266500502824783325e-01
8.425535261631011963e-02
1.053012385964393616e-01
-1.787040382623672485e-02
6.033610552549362183e-03
3.152549639344215393e-02
1.108060628175735474e-01
7.271876931190490723e-02
-1.703188009560108185e-02
1.256627291440963745e-01
-1.780090034008026123e-01
-7.458040863275527954e-02
1.910975426435470581e-01
1.032976955175399780e-01
1.556274853646755219e-02
-1.091159135103225708e-01
2.807114645838737488e-02
2.490418702363967896e-01
-8.873927593231201172e-02
-1.125041842460632324e-01
-1.303210854530334473e-01
1.194817423820495605e-01
1.459441334009170532e-01
-1.526094526052474976e-01
-6.491675227880477905e-02
6.446912419050931931e-03
4.020218178629875183e-02
7.640315592288970947e-02
-2.554220855236053467e-01
-3.665976226329803467e-02
-1.304460614919662476e-01
-4.774283152073621750e-03
3.579350933432579041e-02
8.027938753366470337e-02
6.590271741151809692e-02
-1.791114360094070435e-01
2.865681611001491547e-02
1.155564785003662109e-01
-6.194865331053733826e-02
-3.940788805484771729e-01
-5.419247969985008240e-02
-3.096349909901618958e-02
-1.863367110490798950e-02
7.247180491685867310e-02
-5.805660039186477661e-02
6.535864621400833130e-02
-6.563506275415420532e-02
-1.643480658531188965e-01
6.926157325506210327e-02
-3.854509210214018822e-03
5.494230240583419800e-02
-1.383072733879089355e-01
-3.207878023386001587e-02
1.961208879947662354e-01
1.402373760938644409e-01
-8.487227559089660645e-02
1.268845051527023315e-01
1.011667307466268539e-02
-8.367544412612915039e-02
-2.270480431616306305e-02
-1.095993146300315857e-01
-2.986068092286586761e-02
2.686833404004573822e-02
-8.044232428073883057e-02
9.064842015504837036e-02
-1.740132868289947510e-01
-9.706109017133712769e-02
1.474774032831192017e-01
1.751343160867691040e-01
1.315533518791198730e-01
1.554371118545532227e-01
-3.266239464282989502e-01
-6.738287955522537231e-02
-2.367122471332550049e-02
-5.458784475922584534e-02
-2.030336558818817139e-01
1.366774272173643112e-02
-1.217353790998458862e-01
-1.554129570722579956e-01
-2.381808459758758545e-01
-2.083528041839599609e-01
2.755785919725894928e-02
2.764100953936576843e-02
-9.528332948684692383e-02
-6.761061400175094604e-02
-8.086632937192916870e-02
-6.436701118946075439e-02
1.427917331457138062e-01
-3.356563672423362732e-02
-1.079401075839996338e-01
1.112447492778301239e-02
-1.338936686515808105e-01
1.704737544059753418e-01
5.730192363262176514e-02
6.283527612686157227e-02
7.708676904439926147e-02
-5.674511194229125977e-03
-8.298968523740768433e-02
-2.195446044206619263e-01
1.452965140342712402e-01
5.696946289390325546e-03
-6.940503418445587158e-02
-2.918215095996856689e-01
8.191499859094619751e-02
4.172629117965698242e-02
-2.510710805654525757e-02
1.680147200822830200e-01
1.666439920663833618e-01
1.731561720371246338e-01
-2.858541309833526611e-01
-2.059020251035690308e-01
1.169947832822799683e-01
7.785081118345260620e-02
2.098641358315944672e-02
-4.430354386568069458e-02
-5.853306129574775696e-02
-1.479403581470251083e-03
2.327564544975757599e-02
-2.003268897533416748e-01
2.273839525878429413e-02
-3.949259221553802490e-02
-9.099411778151988983e-03
-2.584601938724517822e-02
2.331559173762798309e-02
-9.547011554241180420e-02
-7.869647443294525146e-02
1.488422602415084839e-01
4.171159565448760986e-01
2.929088100790977478e-02
1.396096348762512207e-01
1.065574437379837036e-01
1.976490467786788940e-01
1.340839862823486328e-01
-2.293795347213745117e-01
-3.658375516533851624e-02
-1.192294806241989136e-01
5.269324779510498047e-02
1.029308587312698364e-01
1.745196431875228882e-01
-7.701242715120315552e-02
-1.559133380651473999e-01
8.712199330329895020e-02
-4.625481367111206055e-02
-1.139534916728734970e-02
1.326649487018585205e-01
1.288420408964157104e-01
-7.547107338905334473e-02
-9.049888700246810913e-02
1.483672950416803360e-02
-5.172284319996833801e-03
5.384187772870063782e-02
-1.356730610132217407e-01
-5.331351608037948608e-02
-8.203363418579101562e-02
-1.375796049833297729e-01
4.793592542409896851e-02
-1.663220301270484924e-02
1.765543073415756226e-01
1.380502879619598389e-01
-1.020599156618118286e-01
9.269356727600097656e-02
-2.038609236478805542e-01
-2.257649898529052734e-01
-1.123684272170066833e-01
5.012826621532440186e-02
-3.351727873086929321e-02
-1.026111915707588196e-01
-1.033753231167793274e-01
-3.627251461148262024e-02
1.032459586858749390e-01
1.179143860936164856e-01
5.274119600653648376e-02
3.405389562249183655e-02
7.030833512544631958e-02
-2.903513610363006592e-02
1.461103111505508423e-01
1.207036823034286499e-01
1.356976628303527832e-01
4.211088642477989197e-02
1.017428413033485413e-01
-1.113989427685737610e-01
-2.721046209335327148e-01
2.071658074855804443e-01
-1.119034066796302795e-01
-1.851876378059387207e-01
1.096580699086189270e-01
3.180715441703796387e-01
-1.569655388593673706e-01
-3.315060585737228394e-02
-1.171800196170806885e-01
2.691854722797870636e-02
6.135323643684387207e-02
1.897211372852325439e-01
-6.307715922594070435e-02
1.024991720914840698e-01
1.094456240534782410e-01
6.062940135598182678e-02
-6.990812718868255615e-02
-4.356764629483222961e-02
-1.622180640697479248e-02
-1.326654255390167236e-01
-1.139971148222684860e-02
-3.103636950254440308e-02
1.290029883384704590e-01
-9.768831729888916016e-02
2.902052700519561768e-01
-1.322535276412963867e-01
1.109545305371284485e-01
1.306054741144180298e-01
2.091089785099029541e-01
2.394319623708724976e-01
3.218911960721015930e-02
-5.914320424199104309e-02
-9.270234405994415283e-02
-1.518629789352416992e-01
4.951827228069305420e-02
-1.740429177880287170e-02
6.152508407831192017e-02
-1.284318268299102783e-01
-1.502998322248458862e-01
-1.412230432033538818e-01
1.813997477293014526e-01
5.023100227117538452e-02
-5.351576581597328186e-02
3.574430942535400391e-01
-3.051140904426574707e-01
-2.287857532501220703e-01
6.768061965703964233e-02
-1.680972129106521606e-01
5.911454930901527405e-02
-5.886961147189140320e-02
1.351028494536876678e-02
6.623580306768417358e-02
1.513579785823822021e-01
1.635345965623855591e-01
4.448918625712394714e-02
-3.639903292059898376e-02
-1.707229912281036377e-01
1.950181461870670319e-02
-1.319777071475982666e-01
-2.107258886098861694e-01
9.296603500843048096e-02
2.011433243751525879e-01
1.373879611492156982e-01
-1.670164465904235840e-01
1.045738346874713898e-02
-1.352474391460418701e-01
4.788869246840476990e-02
-2.328835800290107727e-02
2.571077942848205566e-01
2.997170686721801758e-01
1.376487016677856445e-01
1.513645052909851074e-01
-1.889286041259765625e-01
-4.816855117678642273e-02
4.911345615983009338e-02
-2.282779067754745483e-01
-6.862962990999221802e-02
1.475114375352859497e-01
-1.496143490076065063e-01
-1.314340829849243164e-01
-1.110917478799819946e-01
5.732747539877891541e-02
-3.833615919575095177e-03
-5.291319638490676880e-02
-8.743470907211303711e-02
-2.732526278123259544e-03
2.512492537498474121e-01
-1.148918271064758301e-01
-1.429905295372009277e-01
-2.331199944019317627e-01
-9.531874954700469971e-02
-3.022393025457859039e-02
8.055093884468078613e-02
2.009381353855133057e-01
1.853672415018081665e-01
2.732912003993988037e-01
1.863872110843658447e-01
4.083984345197677612e-02
2.664044797420501709e-01
6.049950793385505676e-02
9.700645506381988525e-02
1.903956234455108643e-01
-8.573187887668609619e-02
-7.303238660097122192e-02
7.607738673686981201e-02
-3.845009207725524902e-01
7.745180744677782059e-03
-4.439237713813781738e-02
-3.096350096166133881e-02
-1.087764129042625427e-01
-4.882727935910224915e-02
-2.475567013025283813e-01
2.554349899291992188e-01
-1.143457740545272827e-02
-1.255243271589279175e-01
1.630865633487701416e-01
-1.491871476173400879e-01
-6.655368953943252563e-02
-2.317847907543182373e-01
-9.429940581321716309e-02
-1.653754524886608124e-02
-2.371969223022460938e-01
-3.621371462941169739e-03
-1.180432438850402832e-01
1.284480988979339600e-01
-2.861036658287048340e-01
-1.727814674377441406e-01
-1.621507108211517334e-01
-1.092582270503044128e-01
3.174220025539398193e-02
-4.442792385816574097e-02
-7.173317484557628632e-03
1.416003704071044922e-01
1.525493431836366653e-02
-1.468980908393859863e-01
-3.262951374053955078e-01
5.255000293254852295e-02
2.120280116796493530e-01
1.111268252134323120e-01
6.557361781597137451e-02
4.456606507301330566e-02
-5.726003646850585938e-02
-1.733296513557434082e-01
1.318872421979904175e-01
-3.003060519695281982e-01
1.466389466077089310e-02
2.242945879697799683e-02
3.019920364022254944e-02
1.716726422309875488e-01
1.102954298257827759e-01
-2.149023562669754028e-01
-1.062002480030059814e-01
4.424470290541648865e-02
4.604428634047508240e-02
7.461990416049957275e-02
3.910496085882186890e-02
-2.435943633317947388e-01
2.203895151615142822e-02
3.013594746589660645e-01
-6.855247914791107178e-02
-1.114371046423912048e-01
-4.627652931958436966e-03
-3.339301794767379761e-02
7.381191104650497437e-02
1.674995571374893188e-01
1.337556242942810059e-01
-1.964682042598724365e-01
1.382026523351669312e-01
-9.048303216695785522e-02
-1.891734451055526733e-01
-2.139873616397380829e-02
-1.075271982699632645e-02
1.373136043548583984e-02
2.546516358852386475e-01
1.680977791547775269e-01
-1.992906630039215088e-02
-1.208821535110473633e-01
2.104558646678924561e-01
-5.550092086195945740e-02
1.682433038949966431e-01
-6.205504760146141052e-02
-3.730862960219383240e-02
8.921239525079727173e-02
-1.663271337747573853e-02
-1.524496227502822876e-01
2.411002293229103088e-02
8.048202097415924072e-02
1.244627684354782104e-01
1.448222994804382324e-01
1.135358810424804688e-01
-7.299719750881195068e-02
4.628050699830055237e-02
-5.001157149672508240e-02
-1.058429330587387085e-01
-8.801127783954143524e-03
-7.150262594223022461e-03
-7.196170091629028320e-02
-2.177877128124237061e-01
2.112126909196376801e-02
-1.918244659900665283e-01
1.266979575157165527e-01
-4.949708934873342514e-03
-3.193378448486328125e-01
1.236847043037414551e-01
2.061560377478599548e-02
-6.878070533275604248e-02
-4.399870336055755615e-02
1.209784448146820068e-01
1.366313695907592773e-01
-1.959952563047409058e-01
1.391195803880691528e-01
5.859903991222381592e-02
1.001100987195968628e-01
-1.587097905576229095e-02
5.028954148292541504e-02
2.801837623119354248e-01
2.034434676170349121e-01
-2.902961336076259613e-02
2.716993540525436401e-02
-1.118636578321456909e-01
-1.984908878803253174e-01
-4.226046055555343628e-02
-4.314920306205749512e-02
-2.107893489301204681e-02
1.181212835945188999e-03
5.074453074485063553e-03
-1.364624351263046265e-01
-6.801573559641838074e-03
1.553930044174194336e-01
6.337393820285797119e-02
1.894604787230491638e-02
-2.497521787881851196e-01
-3.198841512203216553e-01
1.207181438803672791e-01
1.983227878808975220e-01
-2.220805734395980835e-01
1.795172393321990967e-01
1.373948305845260620e-01
-3.558884859085083008e-01
-1.416774094104766846e-01
-3.720933804288506508e-03
9.956274181604385376e-02
-1.494352966547012329e-01
1.331213712692260742e-01
2.147268652915954590e-01
1.797189116477966309e-01
1.308654844760894775e-01
9.882045537233352661e-02
-2.951940894126892090e-02
4.483056068420410156e-02
-1.038181502372026443e-02
-1.940297707915306091e-02
3.898480534553527832e-02
5.154446884989738464e-02
-2.721056342124938965e-02
1.407427787780761719e-01
2.319115400314331055e-01
-7.486299425363540649e-02
-9.833735413849353790e-03
-7.811269164085388184e-02
1.636114865541458130e-01
-2.095820009708404541e-01
1.927750408649444580e-01
8.027622103691101074e-02
8.114732801914215088e-02
-8.192583918571472168e-02
-9.992130100727081299e-02
-9.969567507505416870e-02
-2.902725152671337128e-02
-2.657700479030609131e-01
9.740846231579780579e-03
2.113127522170543671e-02
9.557381272315979004e-03
2.113044112920761108e-01
7.020386308431625366e-02
-1.136285532265901566e-02
4.595042392611503601e-02
9.543744847178459167e-03
-9.555736184120178223e-02
-1.093898341059684753e-01
-3.622962534427642822e-02
3.250360488891601562e-01
7.957949489355087280e-02
-1.450206935405731201e-01
2.384541034698486328e-01
-1.799697987735271454e-02
3.697534650564193726e-02
-2.514548897743225098e-01
3.111704066395759583e-02
-8.385617402382194996e-04
-3.689680993556976318e-01
-1.070906221866607666e-01
1.973447203636169434e-01
2.027363032102584839e-01
-3.343350887298583984e-01
-2.690767943859100342e-01
5.845428630709648132e-02
-2.280026301741600037e-02
-4.603072255849838257e-02
7.206792384386062622e-02
9.493512101471424103e-03
-4.758818820118904114e-02
-9.665302932262420654e-02
-3.851001337170600891e-02
1.896064169704914093e-02
1.138056740164756775e-01
1.150229647755622864e-01
-2.469195127487182617e-01
9.647554159164428711e-02
1.827202737331390381e-01
-2.569912075996398926e-01
1.003891006112098694e-01
-2.804095149040222168e-01
5.198330283164978027e-01
-1.808894723653793335e-01
-3.809247165918350220e-02
-1.213636025786399841e-01
-1.338879317045211792e-01
-1.824355125427246094e-01
-4.758827388286590576e-02
8.436611294746398926e-02
2.335274033248424530e-02
-2.675843797624111176e-02
1.893132808618247509e-03
1.699916422367095947e-01
1.580332368612289429e-01
4.143120348453521729e-02
-1.016294136643409729e-01
-2.395322173833847046e-01
2.203135043382644653e-01
-2.451629936695098877e-02
1.838495135307312012e-01
-8.278772979974746704e-02
1.523187756538391113e-01
-2.102091163396835327e-01
-3.629556298255920410e-01
3.640355542302131653e-02
1.039249151945114136e-01
1.394075900316238403e-01
-6.083682179450988770e-02
1.616415083408355713e-01
-5.237143039703369141e-01
-8.147319406270980835e-02
-1.875990182161331177e-01
3.532472252845764160e-01
1.626291871070861816e-01
8.373750746250152588e-02
-3.105378709733486176e-02
7.519612461328506470e-02
-1.892202645540237427e-01
-3.171429410576820374e-02
4.013028368353843689e-02
4.636150002479553223e-01
5.305448174476623535e-02
5.608240514993667603e-02
-2.165216505527496338e-01
4.639751091599464417e-02
2.346791326999664307e-01
2.365499287843704224e-01
-9.667596966028213501e-02
2.544713616371154785e-01
-1.866608671844005585e-02
-1.427495777606964111e-01
-1.177949979901313782e-01
-2.434462904930114746e-01
1.114762872457504272e-01
5.980579927563667297e-02
-1.932010948657989502e-01
-5.615770816802978516e-02
1.174208670854568481e-01
-2.186302691698074341e-01
-1.742543727159500122e-01
2.806950509548187256e-01
-2.269796431064605713e-01
-1.186887826770544052e-02
-4.487969726324081421e-02
-1.321773626841604710e-03
-7.306808978319168091e-02
1.370138525962829590e-01
3.887265175580978394e-02
-2.663469873368740082e-02
3.094231523573398590e-02
-5.185617133975028992e-02
-1.833682656288146973e-01
8.807982504367828369e-02
-1.548930257558822632e-01
-1.826265901327133179e-01
-2.006432041525840759e-02
-9.041545540094375610e-02
-1.131101548671722412e-01
1.774387657642364502e-01
-9.026662446558475494e-04
1.223916858434677124e-01
6.114104390144348145e-02
-2.623505145311355591e-02
-1.138787567615509033e-01
5.586957558989524841e-02
-1.186111643910408020e-01
-1.471046209335327148e-01
-1.053451839834451675e-02
5.000485852360725403e-02
-9.206942468881607056e-02
-9.854454547166824341e-02
-2.688549272716045380e-02
-1.551743894815444946e-01
3.179609775543212891e-02
5.322683602571487427e-02
5.956308171153068542e-02
-1.797609925270080566e-01
-1.538225263357162476e-01
-1.416507214307785034e-01
-4.363907966762781143e-03
-3.922664001584053040e-02
-1.950781941413879395e-01
-2.715564966201782227e-01
-2.392464876174926758e-01
-5.717557668685913086e-02
-1.682013720273971558e-01
-1.069924086332321167e-01
-5.640360526740550995e-03
-7.440540939569473267e-02
-2.132060471922159195e-03
2.367431819438934326e-01
1.555783450603485107e-01
-1.847623735666275024e-01
-7.795681059360504150e-02
-1.742469519376754761e-01
2.066050842404365540e-02
1.146804317831993103e-01
-4.797936603426933289e-02
-3.917498514056205750e-02
1.090944558382034302e-01
2.587257623672485352e-01
6.184935569763183594e-02
4.376296699047088623e-02
-1.290387567132711411e-02
-7.322077453136444092e-02
-5.081123486161231995e-02
-8.720915764570236206e-02
-4.993062093853950500e-02
-1.896606683731079102e-01
-2.442161589860916138e-01
1.111513748764991760e-01
4.251304566860198975e-01
4.779076576232910156e-02
-7.382646203041076660e-03
4.281114379409700632e-04
3.266171514987945557e-01
9.071423113346099854e-02
-3.490873277187347412e-01
-2.533394098281860352e-02
3.743322193622589111e-01
3.732832148671150208e-02
7.042771577835083008e-02
8.787638694047927856e-02
-2.095251679420471191e-01
-2.359206080436706543e-01
-6.811291724443435669e-02
1.490142047405242920e-01
-5.070198327302932739e-02
1.157082095742225647e-01
2.998438430950045586e-03
1.767965853214263916e-01
8.370643854141235352e-02
2.327987104654312134e-01
3.906514644622802734e-01
1.661992520093917847e-01
8.222335577011108398e-02
-7.885842025279998779e-02
-2.871665731072425842e-02
-1.533558070659637451e-01
3.944096341729164124e-02
6.587900966405868530e-02
7.234679907560348511e-02
-1.256229132413864136e-01
2.054027169942855835e-01
-6.067601218819618225e-02
1.970749907195568085e-02
-4.321619570255279541e-01
-1.781453788280487061e-01
-8.522411435842514038e-02
2.273919433355331421e-01
3.719176724553108215e-02
-1.070548668503761292e-01
2.487260252237319946e-01
-1.796247251331806183e-02
5.688422918319702148e-02
-4.726270213723182678e-03
-2.461636066436767578e-02
4.009407013654708862e-02
1.010835468769073486e-01
-5.556657537817955017e-02
-3.146609365940093994e-01
7.353949360549449921e-03
2.450233511626720428e-02
1.534831523895263672e-02
1.647118777036666870e-01
2.960735745728015900e-02
-2.411430627107620239e-01
-9.810108691453933716e-02
1.434944919310510159e-03
-2.281007766723632812e-01
9.928454644978046417e-03
-6.238919124007225037e-02
2.839360535144805908e-01
6.211528927087783813e-02
-7.076047360897064209e-02
2.571107149124145508e-01
-1.362022608518600464e-01
-2.939185127615928650e-02
-1.454998552799224854e-01
-4.845707863569259644e-02
-7.458395510911941528e-02
2.681069672107696533e-01
-1.570109724998474121e-01
9.267410635948181152e-02
-6.052623689174652100e-02
2.452137917280197144e-01
-7.743776589632034302e-02
2.415921073406934738e-03
-3.501657247543334961e-01
-3.117204457521438599e-02
3.198499605059623718e-02
-2.415866404771804810e-02
-1.561003644019365311e-02
1.225999891757965088e-01
1.139011085033416748e-01
3.921875357627868652e-02
5.771296471357345581e-02
-1.308976560831069946e-01
-1.830091625452041626e-01
-8.174442499876022339e-02
6.279090791940689087e-02
9.440620988607406616e-02
-1.729851216077804565e-01
1.914304494857788086e-01
-3.188308328390121460e-02
-1.488028019666671753e-01
8.280134201049804688e-02
7.180259376764297485e-02
-1.730011850595474243e-01
2.507039904594421387e-01
-2.131838202476501465e-01
-4.012804478406906128e-03
1.496678125113248825e-02
2.349017746746540070e-02
1.640722304582595825e-01
-3.183931410312652588e-01
5.512989312410354614e-02
1.863281875848770142e-01
-4.208038374781608582e-02
-1.571294218301773071e-01
2.899819910526275635e-01
1.900268048048019409e-01
2.069215178489685059e-01
8.033709973096847534e-02
-1.140667125582695007e-02
2.826792895793914795e-01
-1.353890299797058105e-01
1.313674300909042358e-01
-3.900246694684028625e-03
-3.108163923025131226e-02
3.749638199806213379e-01
-2.166579514741897583e-01
1.320045255124568939e-02
9.605801105499267578e-02
-4.019448999315500259e-03
-1.441077291965484619e-01
-9.604951739311218262e-02
-8.937008678913116455e-02
-1.463188529014587402e-01
2.969542443752288818e-01
1.513327509164810181e-01
2.397970668971538544e-02
4.928760603070259094e-02
-1.663601547479629517e-01
4.018093943595886230e-01
1.947542876005172729e-01
4.406470805406570435e-02
2.895066738128662109e-01
-3.711863756179809570e-01
-4.098358005285263062e-02
4.953009262681007385e-02
-6.066744402050971985e-02
-1.875662654638290405e-01
1.982411146163940430e-01
-1.692866533994674683e-02
4.064385592937469482e-02
-5.956111848354339600e-02
-2.172942832112312317e-02
6.120050698518753052e-02
-1.275426298379898071e-01
3.137211874127388000e-02
1.042619347572326660e-01
-8.215925097465515137e-02
-8.354197256267070770e-03
-3.292244076728820801e-01
1.765994578599929810e-01
-1.330361515283584595e-01
-5.569973960518836975e-02
3.050530850887298584e-01
-3.311507031321525574e-02
6.829155236482620239e-02
2.845523059368133545e-01
3.161705732345581055e-01
-1.229207217693328857e-02
5.727639049291610718e-02
-6.448293477296829224e-02
1.337534338235855103e-01
1.518656015396118164e-01
-9.469181299209594727e-02
1.407910585403442383e-01
3.932410851120948792e-02
-4.639703035354614258e-01
1.868868172168731689e-01
6.744031794369220734e-03
2.658516466617584229e-01
-2.012363672256469727e-01
-9.401019662618637085e-02
2.243969738483428955e-01
2.872373461723327637e-01
-1.075369790196418762e-01
7.844699546694755554e-03
-1.757408492267131805e-02
-3.087270259857177734e-01
-1.028304249048233032e-01
-3.256898820400238037e-01
-2.628176659345626831e-02
4.739350080490112305e-02
1.960190981626510620e-01
3.594950586557388306e-02
-4.665778204798698425e-02
6.404781248420476913e-03
4.477680474519729614e-02
-3.713975474238395691e-02
-5.751859024167060852e-02
-3.031945414841175079e-02
1.002329066395759583e-01
8.334610611200332642e-02
1.054412499070167542e-01
-3.937587141990661621e-02
1.796693205833435059e-01
6.840272247791290283e-02
-1.557088084518909454e-02
1.911051869392395020e-01
-2.098209857940673828e-01
-1.788429915904998779e-02
-2.593279182910919189e-01
2.623783349990844727e-01
-2.761439979076385498e-02
-1.047561969608068466e-02
1.046550273895263672e-01
7.212998811155557632e-03
-1.723506674170494080e-02
3.130048811435699463e-01
1.243681088089942932e-02
9.965588152408599854e-02
-3.986374288797378540e-02
-4.775391891598701477e-02
3.816390037536621094e-02
7.194122765213251114e-03
-1.326766908168792725e-01
1.947595179080963135e-01
-1.656954586505889893e-01
3.280670568346977234e-02
-1.687445044517517090e-01
-2.471546977758407593e-01
-5.934699252247810364e-02
8.894722163677215576e-02
1.658365428447723389e-01
1.369391102343797684e-02
-6.570563185960054398e-03
-1.218590661883354187e-01
1.661184430122375488e-01
1.266141980886459351e-01
-4.466718807816505432e-02
-2.044930355623364449e-03
1.230899542570114136e-01
3.170924959704279900e-03
1.949046552181243896e-01
4.846351221203804016e-03
1.840307004749774933e-02
-1.132613345980644226e-01
1.505298763513565063e-01
7.678327528992667794e-05
-9.857838973402976990e-03
1.378882229328155518e-01
1.235078796744346619e-01
1.965849101543426514e-01
3.807133808732032776e-02
-1.617164015769958496e-01
3.967254757881164551e-01
-3.652564063668251038e-02
-1.108125150203704834e-01
2.972463071346282959e-01
1.180842295289039612e-01
-6.173506006598472595e-02
-3.113372921943664551e-01
2.058414816856384277e-01
-1.270222365856170654e-01
1.487085223197937012e-01
8.416982740163803101e-02
-1.571064442396163940e-01
7.326666265726089478e-02
6.812303513288497925e-02
-1.811851710081100464e-01
1.313998103141784668e-01
-4.247197508811950684e-02
1.571222394704818726e-02
3.589705377817153931e-02
1.829782426357269287e-01
3.354393839836120605e-01
1.132068708539009094e-01
-1.861015558242797852e-01
1.516024172306060791e-01
-6.964974850416183472e-02
-3.943005576729774475e-02
7.139352709054946899e-02
2.994511425495147705e-01
2.964311838150024414e-01
8.384156227111816406e-02
5.213857814669609070e-02
-2.510682344436645508e-01
1.235198751091957092e-01
5.046454723924398422e-03
4.974665585905313492e-03
2.654775977134704590e-01
1.377930790185928345e-01
-2.603653967380523682e-01
-1.461510360240936279e-01
7.440964877605438232e-02
-1.648709475994110107e-01
-4.104098677635192871e-02
-2.683163620531558990e-02
-4.287364333868026733e-02
9.619163721799850464e-02
1.024410501122474670e-02
-5.611395835876464844e-02
1.269730627536773682e-01
-1.923043280839920044e-02
1.847920753061771393e-02
2.432882487773895264e-01
-2.625397741794586182e-01
-8.864857256412506104e-02
-3.778905868530273438e-01
-1.284493692219257355e-02
4.096847400069236755e-02
1.903817206621170044e-01
-1.577467471361160278e-02
-7.049785926938056946e-03
2.525376081466674805e-01
-3.529257327318191528e-02
8.192943036556243896e-02
-1.652816832065582275e-01
1.677871048450469971e-01
-1.256043016910552979e-01
-8.003526367247104645e-03
2.259525954723358154e-01
8.778788894414901733e-02
1.702750176191329956e-01
8.971828967332839966e-02
-2.359939068555831909e-01
-6.977773457765579224e-02
-1.433285176753997803e-01
7.835958898067474365e-02
4.193610325455665588e-02
7.864702492952346802e-02
3.737192228436470032e-02
1.008205637335777283e-01
2.719973400235176086e-02
-3.848707675933837891e-02
-1.106930226087570190e-01
6.360495835542678833e-02
2.186681032180786133e-01
-9.904084727168083191e-03
3.247829973697662354e-01
-2.401056885719299316e-01
1.047487091273069382e-02
2.573584765195846558e-02
-7.014284282922744751e-02
9.574811160564422607e-02
2.167376428842544556e-01
-1.655595004558563232e-02
1.124354377388954163e-01
1.061231568455696106e-01
-1.743552275002002716e-02
-5.976364761590957642e-02
-1.336432099342346191e-01
8.917114138603210449e-02
-1.642386764287948608e-01
-9.193537384271621704e-02
-7.741772104054689407e-03
3.428116142749786377e-01
1.540918052196502686e-01
1.714694201946258545e-01
-1.451679319143295288e-01
-1.159923374652862549e-01
-1.003899946808815002e-01
-2.864263355731964111e-01
-3.232202529907226562e-01
-1.164247840642929077e-01
8.294975757598876953e-02
4.750386252999305725e-02
-1.916749775409698486e-01
1.700640767812728882e-01
-4.470631107687950134e-02
1.248101517558097839e-01
-1.814152859151363373e-02
4.998096078634262085e-02
7.370012253522872925e-02
3.889404609799385071e-02
4.642638191580772400e-02
1.410308014601469040e-02
1.353130936622619629e-01
-5.384498462080955505e-02
1.360671874135732651e-02
1.688140183687210083e-01
-2.335540950298309326e-01
2.199297249317169189e-01
-8.797948807477951050e-02
3.063566982746124268e-02
7.548113167285919189e-02
-1.540825236588716507e-02
3.820185363292694092e-02
7.035077363252639771e-02
6.175542250275611877e-02
-1.769036054611206055e-01
9.053715318441390991e-02
1.975415796041488647e-01
-3.458684310317039490e-02
1.004229485988616943e-01
-4.811782017350196838e-02
2.898558974266052246e-01
-2.418955229222774506e-02
-1.775507628917694092e-01
-4.828904196619987488e-02
5.748257786035537720e-02
1.442273259162902832e-01
3.495240211486816406e-02
1.849546581506729126e-01
-1.764038652181625366e-01
1.568216234445571899e-01
-2.161304801702499390e-01
1.958008557558059692e-01
1.009756028652191162e-01
1.346047874540090561e-02
3.724788129329681396e-02
1.658140122890472412e-01
-5.054201558232307434e-02
-4.770969226956367493e-02
2.197100669145584106e-01
-1.838795691728591919e-01
1.057196408510208130e-01
-9.529902786016464233e-02
-9.095617383718490601e-02
-1.894058436155319214e-01
7.030382752418518066e-02
-7.621455937623977661e-02
9.129256755113601685e-02
-1.955102384090423584e-02
6.592021137475967407e-02
-8.956921845674514771e-02
1.496180333197116852e-02
8.976145833730697632e-02
2.290862351655960083e-01
-2.102624028921127319e-01
-8.063004165887832642e-02
8.632735908031463623e-02
1.200069636106491089e-01
-1.800118982791900635e-01
6.665683537721633911e-02
-1.007726266980171204e-01
2.446140162646770477e-02
9.370660036802291870e-02
1.602653563022613525e-01
2.964764274656772614e-02
1.349544376134872437e-01
-3.131812438368797302e-02
9.446715563535690308e-02
-9.747016429901123047e-02
3.671392798423767090e-02
4.662348702549934387e-02
-1.976174861192703247e-01
-9.822472184896469116e-02
-6.216996908187866211e-02
9.175931662321090698e-02
-5.838773399591445923e-02
2.597688883543014526e-02
-5.026001483201980591e-02
1.143106073141098022e-02
5.624688044190406799e-02
2.680635079741477966e-02
-5.774080380797386169e-02
-2.310605719685554504e-02
-2.045870572328567505e-02
-1.352959871292114258e-01
3.880840493366122246e-03
-1.205820590257644653e-02
-3.008428961038589478e-03
-7.885216176509857178e-02
2.247792482376098633e-01
-2.811175584793090820e-01
-1.701993942260742188e-01
1.345918886363506317e-02
2.353847473859786987e-01
-1.119848564267158508e-01
-1.322829425334930420e-01
-4.797568172216415405e-02
1.655186414718627930e-01
-2.749119699001312256e-01
2.328677773475646973e-01
-1.532976627349853516e-01
-1.542001068592071533e-01
4.334927722811698914e-02
2.033848129212856293e-02
-6.068672239780426025e-02
-3.932568803429603577e-02
-2.734021246433258057e-01
-5.818894132971763611e-02
-1.659332215785980225e-01
1.581041216850280762e-01
-1.252333968877792358e-01
-7.018199563026428223e-02
1.631692200899124146e-01
-2.696302905678749084e-02
-1.804790459573268890e-02
6.663360632956027985e-03
2.031725496053695679e-01
-7.975507527589797974e-02
3.635044395923614502e-02
-4.085481911897659302e-02
1.134333107620477676e-02
-5.961478129029273987e-02
3.657096996903419495e-02
3.425140306353569031e-02
9.195936471223831177e-02
-4.915436357259750366e-02
-3.851483389735221863e-02
2.602702081203460693e-01
4.770587682723999023e-01
-4.254789650440216064e-02
-1.591880768537521362e-01
-1.787659674882888794e-01
1.429151296615600586e-01
-1.401503384113311768e-01
-1.720490455627441406e-01
-1.049030646681785583e-01
-2.031788825988769531e-01
1.272429525852203369e-01
5.129620432853698730e-02
1.790734007954597473e-02
-7.522496581077575684e-02
5.900301504880189896e-03
-3.235687687993049622e-02
8.646482974290847778e-02
1.572596579790115356e-01
3.413007259368896484e-01
1.036641299724578857e-01
6.586404144763946533e-02
4.898775368928909302e-02
-7.281059026718139648e-02
-6.137225776910781860e-02
1.194139495491981506e-01
1.167970709502696991e-02
-2.473408915102481842e-02
8.590435981750488281e-02
1.023067682981491089e-01
-5.737596750259399414e-02
-9.537938982248306274e-03
-1.087282225489616394e-01
-7.739116251468658447e-02
-5.624946579337120056e-02
5.181370303034782410e-02
-4.744301550090312958e-03
1.465229243040084839e-01
1.472224760800600052e-02
1.406359374523162842e-01
2.978268824517726898e-02
-4.622841998934745789e-02
3.114223666489124298e-02
3.838752955198287964e-02
8.191081881523132324e-02
1.425888109952211380e-02
1.887066848576068878e-02
-1.639002189040184021e-02
4.984707571566104889e-03
-1.085610911250114441e-01
9.211396798491477966e-03
-5.010491609573364258e-02
-1.539290230721235275e-02
-9.732611477375030518e-02
1.037816330790519714e-01
3.414905816316604614e-02
-1.579400449991226196e-01
2.826176583766937256e-01
1.032194197177886963e-01
-1.034163013100624084e-01
2.157729715108871460e-01
-1.970518976449966431e-01
1.014466434717178345e-01
-1.334024667739868164e-01
-1.034355983138084412e-01
1.061980947852134705e-01
3.586740419268608093e-02
-7.019284367561340332e-02
1.103101484477519989e-02
-9.736595302820205688e-02
-2.353061437606811523e-01
-1.502000987529754639e-01
1.101757213473320007e-01
-1.901831775903701782e-01
-4.595066234469413757e-02
5.354607477784156799e-02
-7.785115391016006470e-02
-4.557267948985099792e-02
1.723781228065490723e-01
-8.270031539723277092e-04
-1.419014632701873779e-01
-5.239683017134666443e-02
1.984308511018753052e-01
-1.227283943444490433e-02
-7.578243315219879150e-02
5.291387811303138733e-02
-1.658437550067901611e-01
-1.021595224738121033e-01
-8.489573746919631958e-02
2.014835476875305176e-01
4.164128750562667847e-02
5.788638815283775330e-02
6.664846092462539673e-02
6.220835819840431213e-02
-1.357804052531719208e-02
-2.978722378611564636e-02
4.882804676890373230e-02
2.198992222547531128e-01
-3.708912432193756104e-02
-3.971343860030174255e-03
4.620798677206039429e-02
-9.135643392801284790e-02
2.401490323245525360e-02
1.765326857566833496e-01
-1.245929002761840820e-01
1.213087234646081924e-02
-9.262458980083465576e-02
-4.247134551405906677e-02
-1.925183236598968506e-01
2.577013373374938965e-01
-2.281239181756973267e-01
6.176397576928138733e-02
6.148231029510498047e-02
-8.430906385183334351e-02
7.916166633367538452e-02
6.312232464551925659e-02
3.949775546789169312e-02
-1.908627748489379883e-01
-2.553283274173736572e-01
-1.862715482711791992e-01
7.389803230762481689e-02
9.710805118083953857e-02
-1.743503659963607788e-01
-6.475010886788368225e-03
4.171182811260223389e-01
-9.709301404654979706e-03
1.452394574880599976e-01
-2.439786493778228760e-01
-2.110726237297058105e-01
-6.573386490345001221e-02
1.463563293218612671e-01
-1.548118144273757935e-01
6.981376558542251587e-02
3.775077164173126221e-01
5.697938427329063416e-02
4.352024197578430176e-02
1.602843590080738068e-02
5.624699965119361877e-02
3.330118060111999512e-01
6.551387906074523926e-02
-7.248332351446151733e-02
1.796635240316390991e-01
7.482431828975677490e-02
-5.422201380133628845e-02
-1.748906522989273071e-01
5.705206468701362610e-02
7.602570950984954834e-02
2.416597306728363037e-01
-7.771800458431243896e-02
-1.565232314169406891e-02
-1.030430048704147339e-01
1.225684583187103271e-01
-1.347648054361343384e-01
-9.254487603902816772e-02
1.264552921056747437e-01
4.922876879572868347e-02
1.215275526046752930e-01
7.194127887487411499e-02
3.358408284839242697e-04
1.413470506668090820e-01
1.790886744856834412e-02
1.514460742473602295e-01
-2.377533167600631714e-01
-7.637756317853927612e-02
1.412104442715644836e-02
-6.137371063232421875e-02
6.155437603592872620e-02
-7.320959866046905518e-02
-7.175798714160919189e-02
9.840857237577438354e-02
1.938501596450805664e-01
1.160825863480567932e-01
-1.445865184068679810e-01
-7.521150261163711548e-02
1.872289776802062988e-01
1.104055494070053101e-01
-2.407265901565551758e-01
-4.265611991286277771e-02
-1.061013787984848022e-01
-9.611615911126136780e-03
1.234227195382118225e-01
-2.138729989528656006e-01
9.805290400981903076e-02
-1.810495555400848389e-02
-4.956422839313745499e-03
1.061006188392639160e-01
7.850825041532516479e-02
1.088706180453300476e-01
3.621869087219238281e-01
-5.595752224326133728e-02
-8.896278589963912964e-02
-1.191399022936820984e-01
-1.364965438842773438e-01
-4.749025404453277588e-02
-1.947700232267379761e-01
-3.074778988957405090e-02
1.514724828302860260e-02
-2.161706238985061646e-02
-7.458893954753875732e-02
7.483401894569396973e-02
-1.663803756237030029e-01
-2.267238050699234009e-01
-1.101397275924682617e-01
-2.833453193306922913e-02
1.771033927798271179e-02
-4.833991173654794693e-03
1.592609733343124390e-01
1.753446012735366821e-01
-1.425700932741165161e-01
-1.267898231744766235e-01
2.148203104734420776e-01
-4.120219126343727112e-02
8.988694753497838974e-04
-3.754590079188346863e-02
-2.062155157327651978e-01
-5.617995187640190125e-02
5.345435068011283875e-02
1.890713572502136230e-01
-9.650228917598724365e-02
-5.092936381697654724e-02
-3.535361215472221375e-02
-1.654610484838485718e-01
3.246031701564788818e-02
-4.008453339338302612e-02
-1.047816574573516846e-01
2.286473363637924194e-01
2.258155122399330139e-02
2.049497514963150024e-01
1.765230149030685425e-01
3.729477524757385254e-03
5.277167260646820068e-02
-4.944413900375366211e-02
-1.112203821539878845e-01
-8.914541453123092651e-02
-2.443962991237640381e-01
-2.281657308340072632e-01
-9.024463593959808350e-02
3.346456913277506828e-03
9.872353076934814453e-02
-8.105200529098510742e-02
1.297582592815160751e-02
-1.791520118713378906e-01
1.023159828037023544e-02
1.162930112332105637e-02
-6.894811987876892090e-02
-5.244329199194908142e-02
-3.152634948492050171e-02
-6.073276326060295105e-02
-3.460366278886795044e-02
1.693632639944553375e-02
-4.408684559166431427e-03
1.236901059746742249e-01
-2.004241794347763062e-01
-1.223651319742202759e-01
1.046108733862638474e-02
-4.864721745252609253e-02
1.193100512027740479e-01
1.061465293169021606e-01
2.817830070853233337e-02
1.756150275468826294e-01
-9.135597199201583862e-02
1.113707274198532104e-01
8.170187473297119141e-02
4.388310015201568604e-02
-3.289351165294647217e-01
-1.374193374067544937e-02
-2.920061945915222168e-01
2.513326331973075867e-02
2.983065135776996613e-02
-5.812694784253835678e-03
-2.880037128925323486e-01
-2.138488553464412689e-02
-1.619777828454971313e-01
-5.155140534043312073e-02
8.406429737806320190e-02
1.302144955843687057e-02
-4.633709415793418884e-02
-7.075522840023040771e-02
-2.298153378069400787e-02
-1.312359515577554703e-02
-7.911117374897003174e-02
-5.726310610771179199e-02
6.774737685918807983e-02
3.791441023349761963e-02
6.052610650658607483e-02
1.033341586589813232e-01
6.871513905934989452e-04
-1.570525020360946655e-01
-2.436938695609569550e-02
3.562218844890594482e-01
5.156937986612319946e-02
7.661266624927520752e-02
-3.268494829535484314e-02
4.805895313620567322e-02
6.992675364017486572e-02
-1.120517328381538391e-01
9.075845032930374146e-02
1.065709441900253296e-01
5.008552107028663158e-04
6.793753802776336670e-02
-1.810916699469089508e-02
2.786767296493053436e-02
-3.782327845692634583e-02
1.331555247306823730e-01
5.675378441810607910e-02
-8.081009238958358765e-02
9.974098205566406250e-02
1.567276418209075928e-01
6.884373724460601807e-02
-1.031357422471046448e-01
3.999599441885948181e-02
-7.474783807992935181e-02
3.922841697931289673e-02
-3.949276208877563477e-01
2.211348563432693481e-01
-2.697512507438659668e-01
2.626016037538647652e-03
1.236750632524490356e-01
-5.413781851530075073e-02
1.722880825400352478e-02
-1.491634696722030640e-01
4.388201981782913208e-02
2.175102233886718750e-01
-1.096669286489486694e-01
-2.834738790988922119e-01
6.715214252471923828e-02
6.995519250631332397e-02
7.621252536773681641e-02
-7.005050033330917358e-02
-1.277971714735031128e-01
-4.429723694920539856e-02
6.395237147808074951e-02
2.243646681308746338e-01
8.880661427974700928e-02
-3.576009720563888550e-02
9.812607616186141968e-02
8.273835480213165283e-02
-2.243316918611526489e-01
7.516568154096603394e-02
-6.005092337727546692e-02
4.155562445521354675e-02
-1.925266534090042114e-01
-1.720154844224452972e-02
-7.541020959615707397e-02
2.604115307331085205e-01
1.869413703680038452e-01
2.168934606015682220e-02
1.399712562561035156e-01
3.607308566570281982e-01
-2.284444719552993774e-01
-1.011641025543212891e-01
-1.030353009700775146e-01
1.704111509025096893e-02
7.010283321142196655e-02
9.400814771652221680e-02
-3.763262182474136353e-02
2.242356538772583008e-02
9.022038429975509644e-02
4.656383395195007324e-02
1.752664595842361450e-01
-6.655698269605636597e-02
-1.406580060720443726e-01
-8.453369885683059692e-02
6.325770914554595947e-02
5.048433691263198853e-02
-6.683189421892166138e-02
1.106095127761363983e-02
-5.228498205542564392e-02
1.308483257889747620e-02
1.793776080012321472e-02
-7.412240840494632721e-03
6.828588992357254028e-02
-7.821524888277053833e-02
-1.964186877012252808e-02
-3.263398632407188416e-02
-1.093229185789823532e-02
-7.603358477354049683e-03
6.178769469261169434e-02
-4.442660883069038391e-02
5.193645879626274109e-02
8.735315501689910889e-02
-1.711092703044414520e-02
-1.184227969497442245e-02
-7.593856751918792725e-02
-6.942799687385559082e-02
-9.603238105773925781e-02
-1.368998587131500244e-01
4.386036191135644913e-03
-7.193722575902938843e-02
-4.430732131004333496e-02
-6.236340105533599854e-02
-1.160974893718957901e-02
5.388441309332847595e-02
2.214875444769859314e-02
5.012711510062217712e-02
-9.611761569976806641e-02
5.014720559120178223e-02
-1.458381563425064087e-01
1.193701624870300293e-01
2.957874163985252380e-02
-5.073906481266021729e-02
-6.700135767459869385e-02
-1.682220026850700378e-02
-8.573415875434875488e-02
1.183680910617113113e-02
4.019753262400627136e-02
5.032355710864067078e-02
-6.703684478998184204e-02
4.023431986570358276e-02
8.968891575932502747e-03
-2.488943748176097870e-02
3.825552761554718018e-02
2.670067921280860901e-02
-3.592198342084884644e-02
-1.268552243709564209e-01
-2.172098122537136078e-02
-7.906415313482284546e-02
-2.994187921285629272e-02
1.497797220945358276e-01
9.949052706360816956e-03
6.847178936004638672e-02
-9.584806859493255615e-03
-1.293173711746931076e-02
-5.157265067100524902e-02
2.707994170486927032e-02
-5.761564895510673523e-02
-1.065548323094844818e-02
-1.397425075992941856e-03
8.431152999401092529e-02
-5.722742527723312378e-03
2.703848294913768768e-02
-1.096830591559410095e-01
9.218429215252399445e-03
3.095178678631782532e-02
8.493480272591114044e-03
6.955619156360626221e-02
3.706984594464302063e-02
4.608596488833427429e-02
-1.364858001470565796e-01
7.911366969347000122e-02
-2.984528988599777222e-02
2.850973233580589294e-02
-9.559687227010726929e-02
